<?xml version="1.0"?>
<opencv_storage>
<cascade>
  <stageType>BOOST</stageType>
  <featureType>LBP</featureType>
  <height>24</height>
  <width>24</width>
  <stageParams>
    <boostType>GAB</boostType>
    <minHitRate>9.9500000476837158e-01</minHitRate>
    <maxFalseAlarm>5.0000000000000000e-01</maxFalseAlarm>
    <weightTrimRate>9.4999999999999996e-01</weightTrimRate>
    <maxDepth>1</maxDepth>
    <maxWeakCount>100</maxWeakCount></stageParams>
  <featureParams>
    <maxCatCount>256</maxCatCount>
    <featSize>1</featSize></featureParams>
  <stageNum>20</stageNum>
  <stages>
    <!-- stage 0 -->
    <_>
      <maxWeakCount>5</maxWeakCount>
      <stageThreshold>-1.3072801828384399e+00</stageThreshold>
      <weakClassifiers>
        <_>
          <internalNodes>
            0 -1 7 2147241940 2147282400 -114756 -235870336 2105335806
            -1864564908 -51323700 -2143232950</internalNodes>
          <leafValues>
            -6.1054766178131104e-01 7.9543197154998779e-01</leafValues></_>
        <_>
          <internalNodes>
            0 -1 67 2079324920 439168686 -1350688589 833301027 95819177
            33390580 805247999 51054011</internalNodes>
          <leafValues>
            -4.6328291296958923e-01 7.2765606641769409e-01</leafValues></_>
        <_>
          <internalNodes>
            0 -1 57 -64978256 -655861804 2004631548 367886316 -11212305
            -804242178 -730536209 -526142869</internalNodes>
          <leafValues>
            -4.2131781578063965e-01 7.6604300737380981e-01</leafValues></_>
        <_>
          <internalNodes>
            0 -1 147 -1140039508 -2070936831 -2147450740 -1174269543
            687874165 1889552546 -360665418 -1296957424</internalNodes>
          <leafValues>
            -5.2803212404251099e-01 5.6341522932052612e-01</leafValues></_>
        <_>
          <internalNodes>
            0 -1 86 568667061 331296751 -1157681155 288045887 511640828
            2138570743 -134274115 -1340401925</internalNodes>
          <leafValues>
            -4.7146052122116089e-01 6.5900021791458130e-01</leafValues></_></weakClassifiers></_>
    <!-- stage 1 -->
    <_>
      <maxWeakCount>5</maxWeakCount>
      <stageThreshold>-3.0146962404251099e-01</stageThreshold>
      <weakClassifiers>
        <_>
          <internalNodes>
            0 -1 135 -2064896752 139996964 -67305616 -1162330776
            912817716 921993085 771014580 -1300217772</internalNodes>
          <leafValues>
            -5.2041882276535034e-01 7.3202931880950928e-01</leafValues></_>
        <_>
          <internalNodes>
            0 -1 54 1973485432 -571453716 -285278212 -207520020
            -370871347 -253169282 -462097204 -1067191093</internalNodes>
          <leafValues>
            -5.0344645977020264e-01 7.1048378944396973e-01</leafValues></_>
        <_>
          <internalNodes>
            0 -1 31 472518816 -1104265289 -491533 -46580111 -1090823682
            -1074053251 -805752906 -1144309513</internalNodes>
          <leafValues>
            -4.7983089089393616e-01 7.0853614807128906e-01</leafValues></_>
        <_>
          <internalNodes>
            0 -1 162 -2002112812 -1363526145 -1090584593 -1716896522
            -1375911954 -1138933763 -1107349773 -1428542212</internalNodes>
          <leafValues>
            -5.2664107084274292e-01 6.0168951749801636e-01</leafValues></_>
        <_>
          <internalNodes>
            0 -1 103 1470946800 -538202392 2130476808 -773488660
            1752481711 73301236 1911872698 -508773305</internalNodes>
          <leafValues>
            -5.0503301620483398e-01 6.0053712129592896e-01</leafValues></_></weakClassifiers></_>
    <!-- stage 2 -->
    <_>
      <maxWeakCount>6</maxWeakCount>
      <stageThreshold>-7.8013306856155396e-01</stageThreshold>
      <weakClassifiers>
        <_>
          <internalNodes>
            0 -1 64 -1372656096 -1937228182 -1124176142 -660572560
            -1108054716 1145331148 -1619235312 -1609546752</internalNodes>
          <leafValues>
            -5.3217822313308716e-01 6.5237224102020264e-01</leafValues></_>
        <_>
          <internalNodes>
            0 -1 172 -1892021072 -1397211524 -1627422732 -10928260
            -1359005259 -1107460097 1064667134 -1074068050</internalNodes>
          <leafValues>
            -4.5869365334510803e-01 7.0582318305969238e-01</leafValues></_>
        <_>
          <internalNodes>
            0 -1 153 -2107465328 8658944 106705 -1874460672 -2147450880
            318767236 -2088075136 -1231155040</internalNodes>
          <leafValues>
            -5.3159695863723755e-01 5.4131752252578735e-01</leafValues></_>
        <_>
          <internalNodes>
            0 -1 147 -390271796 -319263448 -1096040532 -106414084
            -1879247364 1727365101 -1649344530 -1415707408</internalNodes>
          <leafValues>
            -4.5734009146690369e-01 6.0741841793060303e-01</leafValues></_>
        <_>
          <internalNodes>
            0 -1 98 -1483068024 1526086775 2146861030 -1074970883
            -1216397323 -40961 -1107462145 -1162147917</internalNodes>
          <leafValues>
            -4.5675340294837952e-01 6.5281975269317627e-01</leafValues></_>
        <_>
          <internalNodes>
            0 -1 9 -34840584 -1107525652 1794703336 -450757675
            -1191945361 1375006588 -285483812 -920554981</internalNodes>
          <leafValues>
            -4.6020439267158508e-01 5.8351475000381470e-01</leafValues></_></weakClassifiers></_>
    <!-- stage 3 -->
    <_>
      <maxWeakCount>8</maxWeakCount>
      <stageThreshold>-9.3008244037628174e-01</stageThreshold>
      <weakClassifiers>
        <_>
          <internalNodes>
            0 -1 109 948613052 62661818 -1493302637 226175716 637431283
            734805749 83833087 145031355</internalNodes>
          <leafValues>
            -4.4142010807991028e-01 6.3712298870086670e-01</leafValues></_>
        <_>
          <internalNodes>
            0 -1 14 -602881844 -184512060 285284689 2140373040
            -1073698630 -1332215640 -1970960130 555779210</internalNodes>
          <leafValues>
            -5.3175699710845947e-01 4.4363075494766235e-01</leafValues></_>
        <_>
          <internalNodes>
            0 -1 175 -1338505968 -1315045375 -721219431 -1249356783
            -1307958400 -1744830400 1943667625 -1490157559</internalNodes>
          <leafValues>
            -5.1454257965087891e-01 4.3236789107322693e-01</leafValues></_>
        <_>
          <internalNodes>
            0 -1 111 -1641511808 816590828 -151110605 -1524027480
            -716044361 91559931 -85635905 -613449793</internalNodes>
          <leafValues>
            -4.0989121794700623e-01 5.3149503469467163e-01</leafValues></_>
        <_>
          <internalNodes>
            0 -1 99 -1167184708 -1691603556 -8425487 901725949
            -2021825298 -1343062050 -1753891331 -1145365255</internalNodes>
          <leafValues>
            -3.8241836428642273e-01 5.4143905639648438e-01</leafValues></_>
        <_>
          <internalNodes>
            0 -1 177 429522944 538083328 1073811849 -737148907 830505668
            -532674432 -1149166967 -1465509376</internalNodes>
          <leafValues>
            -4.7633740305900574e-01 4.3649828433990479e-01</leafValues></_>
        <_>
          <internalNodes>
            0 -1 105 -742327088 -33390584 4260761 -701362064 -2121729879
            -2147433981 -1207940930 1485914255</internalNodes>
          <leafValues>
            -4.8029807209968567e-01 4.4032770395278931e-01</leafValues></_>
        <_>
          <internalNodes>
            0 -1 95 -524228608 -518520823 -2130587584 -193888120
            -267513807 -1188560894 -2104765824 -1362231292</internalNodes>
          <leafValues>
            -5.0234019756317139e-01 4.4847005605697632e-01</leafValues></_></weakClassifiers></_>
    <!-- stage 4 -->
    <_>
      <maxWeakCount>8</maxWeakCount>
      <stageThreshold>-6.9669371843338013e-01</stageThreshold>
      <weakClassifiers>
        <_>
          <internalNodes>
            0 -1 80 -568007939 -1230586216 -1124156696 -5543238
            -1376267058 2129950716 20842987 199835898</internalNodes>
          <leafValues>
            -1.9967266917228699e-01 6.9966256618499756e-01</leafValues></_>
        <_>
          <internalNodes>
            0 -1 154 -1650970948 -1091002384 -1090633731 -1082542082
            -268451876 -1094762595 -1073889294 -1430573843</internalNodes>
          <leafValues>
            -3.5471397638320923e-01 6.0315787792205811e-01</leafValues></_>
        <_>
          <internalNodes>
            0 -1 6 1358975432 -249920080 36892 1560282337 -2002210129
            -1576304472 1502119965 1166264527</internalNodes>
          <leafValues>
            -4.9492338299751282e-01 4.8409968614578247e-01</leafValues></_>
        <_>
          <internalNodes>
            0 -1 33 -1313661519 -638632675 2130169655 -575324613
            335422852 1081900927 -1367427398 -1074614787</internalNodes>
          <leafValues>
            -3.5304191708564758e-01 6.0051614046096802e-01</leafValues></_>
        <_>
          <internalNodes>
            0 -1 144 -1844928304 1116082304 -1874848702 -187005436
            269131776 8947714 -1559068544 -2087059343</internalNodes>
          <leafValues>
            -5.0672209262847900e-01 4.1696834564208984e-01</leafValues></_>
        <_>
          <internalNodes>
            0 -1 174 -1476128512 -1593311232 -2130673068 -1710178159
            -1876950655 1610678274 -2096987741 -1702747904</internalNodes>
          <leafValues>
            -5.1006102561950684e-01 4.0478172898292542e-01</leafValues></_>
        <_>
          <internalNodes>
            0 -1 132 -1878933024 341082176 -2130669371 -1688252408
            -1459056149 -1316451328 136863917 245465261</internalNodes>
          <leafValues>
            -4.9861079454421997e-01 4.0712440013885498e-01</leafValues></_>
        <_>
          <internalNodes>
            0 -1 126 -1597837296 -1060974456 17042 -1744764911 8389152
            805306368 -2104459072 -2131615744</internalNodes>
          <leafValues>
            -5.4999905824661255e-01 3.8251894712448120e-01</leafValues></_></weakClassifiers></_>
    <!-- stage 5 -->
    <_>
      <maxWeakCount>9</maxWeakCount>
      <stageThreshold>-1.0884535312652588e+00</stageThreshold>
      <weakClassifiers>
        <_>
          <internalNodes>
            0 -1 79 -822156654 -1213563342 972876344 -1095296392
            -1913257986 2104980959 -1350821666 984285354</internalNodes>
          <leafValues>
            -2.6958289742469788e-01 6.2716907262802124e-01</leafValues></_>
        <_>
          <internalNodes>
            0 -1 179 -1708518372 -2140772417 -1073971274 -1086325001
            -1096919561 -1610645633 -1128285442 -1547731521</internalNodes>
          <leafValues>
            -3.2223743200302124e-01 5.3049117326736450e-01</leafValues></_>
        <_>
          <internalNodes>
            0 -1 112 -1664233776 347078307 -155239504 398310313
            1171714038 1907777534 -1992883541 -342935569</internalNodes>
          <leafValues>
            -3.4857809543609619e-01 5.3695142269134521e-01</leafValues></_>
        <_>
          <internalNodes>
            0 -1 107 -752987743 -1287520246 67305941 -446869349
            -631209880 -268400474 -1396045781 -1065029566</internalNodes>
          <leafValues>
            -4.6336817741394043e-01 4.1876184940338135e-01</leafValues></_>
        <_>
          <internalNodes>
            0 -1 124 -493346724 -1432879096 -2125346735 2031230992
            -2146909000 1654145227 1787332792 -1159055216</internalNodes>
          <leafValues>
            -4.5297712087631226e-01 3.9270722866058350e-01</leafValues></_>
        <_>
          <internalNodes>
            0 -1 152 -1258760316 1794960634 1055174312 -1098911775
            -1116976011 -1211662337 1040127893 -1178919742</internalNodes>
          <leafValues>
            -3.5914391279220581e-01 4.8828697204589844e-01</leafValues></_>
        <_>
          <internalNodes>
            0 -1 52 638585336 1118208 -1996224163 286326801 402735283
            1536688280 -2105538424 688062850</internalNodes>
          <leafValues>
            -5.3784948587417603e-01 3.3659499883651733e-01</leafValues></_>
        <_>
          <internalNodes>
            0 -1 134 -329719416 -518422448 2884 -243203808 17301677
            1342308768 -385808214 1955924111</internalNodes>
          <leafValues>
            -4.8456373810768127e-01 4.0260162949562073e-01</leafValues></_>
        <_>
          <internalNodes>
            0 -1 76 -1943388064 -1073708928 8437840 -733036144
            -2146793472 -1307443184 -1600986414 -1428012895</internalNodes>
          <leafValues>
            -4.7975435853004456e-01 3.8531872630119324e-01</leafValues></_></weakClassifiers></_>
    <!-- stage 6 -->
    <_>
      <maxWeakCount>10</maxWeakCount>
      <stageThreshold>-1.1310498714447021e+00</stageThreshold>
      <weakClassifiers>
        <_>
          <internalNodes>
            0 -1 30 2013065940 918302253 -1484905537 1865508403
            381586872 1023376358 1291289599 1000148130</internalNodes>
          <leafValues>
            -1.9650654494762421e-01 6.6037738323211670e-01</leafValues></_>
        <_>
          <internalNodes>
            0 -1 85 -1914039908 -1096000002 2147401719 1065189374
            528229624 -536903811 -1610989861 -1204154886</internalNodes>
          <leafValues>
            -3.8403335213661194e-01 5.0519311428070068e-01</leafValues></_>
        <_>
          <internalNodes>
            0 -1 106 -9474217 -31395985 -8391057 -1650100623 -8915493
            -88183688 -554673125 -1464260470</internalNodes>
          <leafValues>
            -3.1774979829788208e-01 6.1479991674423218e-01</leafValues></_>
        <_>
          <internalNodes>
            0 -1 121 -56434600 -1078391188 -1124188293 -206819413
            -1298862083 1439498111 489971133 -896582389</internalNodes>
          <leafValues>
            -3.5448294878005981e-01 5.0942736864089966e-01</leafValues></_>
        <_>
          <internalNodes>
            0 -1 169 -2045240572 -1173880695 -1862237840 -69726064
            805830819 -1308098432 -1601566290 -1114767334</internalNodes>
          <leafValues>
            -4.5989492535591125e-01 3.9177426695823669e-01</leafValues></_>
        <_>
          <internalNodes>
            0 -1 73 -117257834 -620695532 -805170919 -1224638437
            1518871218 -251621376 -2004063652 21315650</internalNodes>
          <leafValues>
            -4.8336526751518250e-01 3.8489341735839844e-01</leafValues></_>
        <_>
          <internalNodes>
            0 -1 137 -1048514108 -1853849468 -2147483631 -242564736
            -1878867830 -2004746240 -931061086 -1154874708</internalNodes>
          <leafValues>
            -4.0617501735687256e-01 4.6297851204872131e-01</leafValues></_>
        <_>
          <internalNodes>
            0 -1 61 -21184892 -763363605 -1082196047 -1209548997
            -1393791798 -268861602 -555288852 -1912384461</internalNodes>
          <leafValues>
            -3.6885607242584229e-01 5.2032554149627686e-01</leafValues></_>
        <_>
          <internalNodes>
            0 -1 35 103816119 1055948798 1072676215 -152191114
            1064681469 -1610612739 -1619140613 -1227078048</internalNodes>
          <leafValues>
            -3.9419317245483398e-01 4.5503759384155273e-01</leafValues></_>
        <_>
          <internalNodes>
            0 -1 149 -1199042850 -1090584840 989839355 -672137604
            -570470913 -1213399042 -1376320009 -1191502398</internalNodes>
          <leafValues>
            -3.7936243414878845e-01 4.7676700353622437e-01</leafValues></_></weakClassifiers></_>
    <!-- stage 7 -->
    <_>
      <maxWeakCount>7</maxWeakCount>
      <stageThreshold>-1.1227670907974243e+00</stageThreshold>
      <weakClassifiers>
        <_>
          <internalNodes>
            0 -1 132 749385684 981450431 805281767 -1083183455
            -805457937 525135093 98509483 197067425</internalNodes>
          <leafValues>
            -2.7513226866722107e-01 7.0310825109481812e-01</leafValues></_>
        <_>
          <internalNodes>
            0 -1 42 -1062951372 -1385427274 -822165891 -552489099
            -1351510032 401651573 -824721923 -374227329</internalNodes>
          <leafValues>
            -3.5636106133460999e-01 5.6475961208343506e-01</leafValues></_>
        <_>
          <internalNodes>
            0 -1 15 -799542540 -1861101356 16799749 1360298588
            -1073479268 -804749308 -889058664 1447421156</internalNodes>
          <leafValues>
            -5.4228073358535767e-01 4.0856799483299255e-01</leafValues></_>
        <_>
          <internalNodes>
            0 -1 88 1342878160 -1332183037 1627472924 454426624
            805374142 -1962934271 1212221631 992684098</internalNodes>
          <leafValues>
            -4.7598508000373840e-01 4.1372466087341309e-01</leafValues></_>
        <_>
          <internalNodes>
            0 -1 155 599834717 268501248 18939997 -665288700 -1609964951
            268476546 -1073119058 -1428225935</internalNodes>
          <leafValues>
            -4.5620167255401611e-01 4.0032321214675903e-01</leafValues></_>
        <_>
          <internalNodes>
            0 -1 116 -1005133102 -1124072187 1359282268 479461394
            -805283836 -1988100084 -922744824 1055850634</internalNodes>
          <leafValues>
            -4.7121185064315796e-01 4.1157630085945129e-01</leafValues></_>
        <_>
          <internalNodes>
            0 -1 58 -791893072 -234651376 268444432 893685765 956600992
            285380776 -1953922837 -717019765</internalNodes>
          <leafValues>
            -4.0662312507629395e-01 4.8308449983596802e-01</leafValues></_></weakClassifiers></_>
    <!-- stage 8 -->
    <_>
      <maxWeakCount>10</maxWeakCount>
      <stageThreshold>-4.4688397645950317e-01</stageThreshold>
      <weakClassifiers>
        <_>
          <internalNodes>
            0 -1 10 -553663253 -557908034 2139029240 516748918 -17967212
            -32178345 -1245234 1879111286</internalNodes>
          <leafValues>
            -3.0063965916633606e-01 6.2172645330429077e-01</leafValues></_>
        <_>
          <internalNodes>
            0 -1 120 707794109 1073032127 939468526 -1318109249
            517279741 -16941313 -704687893 863643610</internalNodes>
          <leafValues>
            -3.9899438619613647e-01 5.0087469816207886e-01</leafValues></_>
        <_>
          <internalNodes>
            0 -1 128 1509528056 -576013377 -1145045139 464289571
            -269091919 149753343 -578896742 -1020674353</internalNodes>
          <leafValues>
            -3.5941031575202942e-01 4.9634814262390137e-01</leafValues></_>
        <_>
          <internalNodes>
            0 -1 77 1364171578 -259779773 -1862160238 1560608850
            -1069428383 -1065319678 1787152432 1275426954</internalNodes>
          <leafValues>
            -4.6205794811248779e-01 3.7786430120468140e-01</leafValues></_>
        <_>
          <internalNodes>
            0 -1 51 533730224 286523420 1359675656 429064323 721494408
            -852492152 671263407 967508492</internalNodes>
          <leafValues>
            -5.0540894269943237e-01 3.5565647482872009e-01</leafValues></_>
        <_>
          <internalNodes>
            0 -1 118 -144374284 -3899826 792637430 2095611213
            -1378034220 -1657514124 -17451668 -44456054</internalNodes>
          <leafValues>
            -3.0377921462059021e-01 5.4944992065429688e-01</leafValues></_>
        <_>
          <internalNodes>
            0 -1 0 -82117 -1090651397 2146992060 -568197317 -1644380185
            -546242563 -1515751 -1854835445</internalNodes>
          <leafValues>
            -3.5360920429229736e-01 4.9573457241058350e-01</leafValues></_>
        <_>
          <internalNodes>
            0 -1 104 1434719124 2090631266 -2063597420 2105675778
            671123637 1895891080 1073828481 144300346</internalNodes>
          <leafValues>
            -5.0388687849044800e-01 3.6494585871696472e-01</leafValues></_>
        <_>
          <internalNodes>
            0 -1 75 -291438996 -8654872 -65990 402652783 1988034532
            -1137180801 -134965318 -1242213334</internalNodes>
          <leafValues>
            -3.2333797216415405e-01 5.3862333297729492e-01</leafValues></_>
        <_>
          <internalNodes>
            0 -1 90 2121714750 2128521215 -17567881 1039216369
            -1091130258 -680067201 -286337927 -1405680905</internalNodes>
          <leafValues>
            -3.4237471222877502e-01 5.0749444961547852e-01</leafValues></_></weakClassifiers></_>
    <!-- stage 9 -->
    <_>
      <maxWeakCount>11</maxWeakCount>
      <stageThreshold>-1.0884341001510620e+00</stageThreshold>
      <weakClassifiers>
        <_>
          <internalNodes>
            0 -1 119 1894432500 -1125060740 1878781434 -842864986
            -822804739 -1663764780 -310518008 12910672</internalNodes>
          <leafValues>
            -2.8310501575469971e-01 5.8757060766220093e-01</leafValues></_>
        <_>
          <internalNodes>
            0 -1 11 -1245598789 -68423881 -16777218 1865084482 81723359
            1870002289 2119925085 -1503559656</internalNodes>
          <leafValues>
            -3.7229123711585999e-01 4.6068394184112549e-01</leafValues></_>
        <_>
          <internalNodes>
            0 -1 56 2028271729 -1867075665 180004531 -1380991315
            1954004963 1148714943 484276734 106911739</internalNodes>
          <leafValues>
            -3.7076175212860107e-01 4.4993069767951965e-01</leafValues></_>
        <_>
          <internalNodes>
            0 -1 165 -2000641513 296353936 1359020061 356745792
            536948468 -1299677184 1107384392 963970350</internalNodes>
          <leafValues>
            -4.8932200670242310e-01 3.0833637714385986e-01</leafValues></_>
        <_>
          <internalNodes>
            0 -1 173 713344 879574923 195956970 -1246011867 691915950
            1326685502 1367230669 -1095805553</internalNodes>
          <leafValues>
            -3.4915521740913391e-01 4.5389959216117859e-01</leafValues></_>
        <_>
          <internalNodes>
            0 -1 28 1793343154 -251985995 -1358958984 2008280623
            1433761709 -2139195427 -1208018984 -4901263</internalNodes>
          <leafValues>
            -3.2912361621856689e-01 4.9917316436767578e-01</leafValues></_>
        <_>
          <internalNodes>
            0 -1 19 1280872222 -1884761278 5265546 -1518295256 47016329
            187695234 -937121508 1654916096</internalNodes>
          <leafValues>
            -6.3262325525283813e-01 2.4127674102783203e-01</leafValues></_>
        <_>
          <internalNodes>
            0 -1 127 -1322732548 -1653855050 1824521916 -1275220236
            1742067338 -269009059 -1267487586 -1730736146</internalNodes>
          <leafValues>
            -3.0855977535247803e-01 5.2392977476119995e-01</leafValues></_>
        <_>
          <internalNodes>
            0 -1 20 196587986 -117510169 -16994388 1844179941 -730466416
            -822804484 930998090 -1004207494</internalNodes>
          <leafValues>
            -3.6196184158325195e-01 4.3094652891159058e-01</leafValues></_>
        <_>
          <internalNodes>
            0 -1 101 948544288 -1183653301 -1994862584 -1635483063
            -1215776250 295731242 1243620044 1107607818</internalNodes>
          <leafValues>
            -5.9368693828582764e-01 2.5485557317733765e-01</leafValues></_>
        <_>
          <internalNodes>
            0 -1 97 -1924352044 868253760 268501389 499589386
            -1073691223 -1199013887 -2004263940 -1141239374</internalNodes>
          <leafValues>
            -3.8575071096420288e-01 4.2728891968727112e-01</leafValues></_></weakClassifiers></_>
    <!-- stage 10 -->
    <_>
      <maxWeakCount>10</maxWeakCount>
      <stageThreshold>-6.6704165935516357e-01</stageThreshold>
      <weakClassifiers>
        <_>
          <internalNodes>
            0 -1 40 1291823854 -1610695052 -17367234 1065131376
            -587400120 -33753252 -556982972 -797575868</internalNodes>
          <leafValues>
            -2.5512528419494629e-01 5.7681435346603394e-01</leafValues></_>
        <_>
          <internalNodes>
            0 -1 4 -714817836 1354559343 700100255 -1951678535
            -696795481 1450704695 -537551153 1590681599</internalNodes>
          <leafValues>
            -2.8261786699295044e-01 5.2235108613967896e-01</leafValues></_>
        <_>
          <internalNodes>
            0 -1 34 1553076597 453513488 -805296676 119013650 131314
            1523058721 12713 193921210</internalNodes>
          <leafValues>
            -4.2369222640991211e-01 3.4892883896827698e-01</leafValues></_>
        <_>
          <internalNodes>
            0 -1 131 -122508104 -2031337553 -1627597068 -1334039204
            -176259810 -1814046339 -2072924014 -1308672257</internalNodes>
          <leafValues>
            -3.0587190389633179e-01 4.7358602285385132e-01</leafValues></_>
        <_>
          <internalNodes>
            0 -1 81 -465530002 1547749764 -1325343658 -587134701
            1612005561 -1710223359 -930893814 1853960779</internalNodes>
          <leafValues>
            -3.9084485173225403e-01 3.5139802098274231e-01</leafValues></_>
        <_>
          <internalNodes>
            0 -1 113 1242862839 -1765330426 1879050544 -800784370
            -262503767 813803650 1755381800 1678707402</internalNodes>
          <leafValues>
            -4.1782298684120178e-01 3.6246535181999207e-01</leafValues></_>
        <_>
          <internalNodes>
            0 -1 23 1464600528 1364255248 -1073643108 1494339668
            1124352424 -771227648 67729801 2086769174</internalNodes>
          <leafValues>
            -4.4128280878067017e-01 3.3100834488868713e-01</leafValues></_>
        <_>
          <internalNodes>
            0 -1 55 528499358 -863976702 -2130671802 -394951930
            1778575548 -1844690759 -1977464308 1111163151</internalNodes>
          <leafValues>
            -4.6775373816490173e-01 3.2886672019958496e-01</leafValues></_>
        <_>
          <internalNodes>
            0 -1 143 -8519766 -1142633483 -269586457 1772113469
            -687939765 1862172668 -369754882 -1067230201</internalNodes>
          <leafValues>
            -3.4114116430282593e-01 4.1813409328460693e-01</leafValues></_>
        <_>
          <internalNodes>
            0 -1 163 -1255398728 -1806401386 -2147415911 -585170544
            1883381882 461375496 696261131 51382475</internalNodes>
          <leafValues>
            -4.2466443777084351e-01 3.4639972448348999e-01</leafValues></_></weakClassifiers></_>
    <!-- stage 11 -->
    <_>
      <maxWeakCount>12</maxWeakCount>
      <stageThreshold>-9.0775406360626221e-01</stageThreshold>
      <weakClassifiers>
        <_>
          <internalNodes>
            0 -1 22 -268449135 -85787950 -1191777540 -29992134
            -1342852617 -193626467 -1451320263 131924201</internalNodes>
          <leafValues>
            -1.7221134901046753e-01 5.9453994035720825e-01</leafValues></_>
        <_>
          <internalNodes>
            0 -1 18 -487020032 -146886674 -2013532304 -10387850
            -465179264 -1092616227 -453706294 -521191541</internalNodes>
          <leafValues>
            -2.6612046360969543e-01 5.1640629768371582e-01</leafValues></_>
        <_>
          <internalNodes>
            0 -1 157 -206901664 -26214486 -1090683009 -147329219
            -1393516727 -1075019907 -17817938 -1162468268</internalNodes>
          <leafValues>
            -3.2026967406272888e-01 4.3541672825813293e-01</leafValues></_>
        <_>
          <internalNodes>
            0 -1 158 -247409504 749404086 788299385 -1235057534
            -1108002939 805273461 -1761636431 -1280858557</internalNodes>
          <leafValues>
            -3.1048724055290222e-01 4.3784549832344055e-01</leafValues></_>
        <_>
          <internalNodes>
            0 -1 125 -494091958 -255688445 268517396 -741277416
            -225779166 2055275017 1623328904 -1081472876</internalNodes>
          <leafValues>
            -3.6280643939971924e-01 3.7694385647773743e-01</leafValues></_>
        <_>
          <internalNodes>
            0 -1 25 2096627193 -133681289 -16797892 -114198735
            1600513247 -1162412420 -592089943 -112075154</internalNodes>
          <leafValues>
            -2.4978353083133698e-01 5.4229736328125000e-01</leafValues></_>
        <_>
          <internalNodes>
            0 -1 146 705956768 -1715458046 -2147450413 -1324285950
            285229723 -935329791 -2146893377 423043224</internalNodes>
          <leafValues>
            -4.4371071457862854e-01 3.2483345270156860e-01</leafValues></_>
        <_>
          <internalNodes>
            0 -1 8 1117381414 -1811841008 1224876404 -1650913276
            -662601289 -1073725440 -922647669 24350858</internalNodes>
          <leafValues>
            -3.9891380071640015e-01 3.6442956328392029e-01</leafValues></_>
        <_>
          <internalNodes>
            0 -1 53 1916903984 839156736 1107331089 307249282 4456764
            1887436980 1715503626 -527482629</internalNodes>
          <leafValues>
            -3.8071936368942261e-01 3.7056130170822144e-01</leafValues></_>
        <_>
          <internalNodes>
            0 -1 78 272879886 1275069187 285299840 -451473340 1778426636
            -248467328 -1999925022 -310639990</internalNodes>
          <leafValues>
            -3.8466739654541016e-01 3.7155154347419739e-01</leafValues></_>
        <_>
          <internalNodes>
            0 -1 178 250400416 1571225108 1064664701 1068744445
            -2072154161 2147450751 905769419 -1162125003</internalNodes>
          <leafValues>
            -3.5064476728439331e-01 4.0392115712165833e-01</leafValues></_>
        <_>
          <internalNodes>
            0 -1 151 -898048290 1144500146 -246094 -134418501 -818006415
            -1879294092 1459391732 -1095006688</internalNodes>
          <leafValues>
            -3.1021445989608765e-01 4.5963305234909058e-01</leafValues></_></weakClassifiers></_>
    <!-- stage 12 -->
    <_>
      <maxWeakCount>11</maxWeakCount>
      <stageThreshold>-9.0781027078628540e-01</stageThreshold>
      <weakClassifiers>
        <_>
          <internalNodes>
            0 -1 59 -33566990 1340993278 -65551 -471552770 -536873030
            1324548084 -68747396 1095024792</internalNodes>
          <leafValues>
            -4.2058822512626648e-01 5.5431032180786133e-01</leafValues></_>
        <_>
          <internalNodes>
            0 -1 70 -68288778 -660181073 -340018550 196029992
            -1485308161 644317141 -1092649233 -825753878</internalNodes>
          <leafValues>
            -2.7506187558174133e-01 5.8534395694732666e-01</leafValues></_>
        <_>
          <internalNodes>
            0 -1 82 -455031658 1982999335 -1333883260 -108164172
            -1630157761 -596643977 -1006638854 -20977801</internalNodes>
          <leafValues>
            -2.4705886840820312e-01 5.7786369323730469e-01</leafValues></_>
        <_>
          <internalNodes>
            0 -1 168 -398098217 -1207663990 1351155800 -1068068730
            -2004877160 -1845460982 -536739623 1154976403</internalNodes>
          <leafValues>
            -3.8008990883827209e-01 3.9036628603935242e-01</leafValues></_>
        <_>
          <internalNodes>
            0 -1 140 -963909738 1610039287 -16826817 934821673
            1768341473 516816382 -453231431 -891298005</internalNodes>
          <leafValues>
            -2.9001525044441223e-01 5.0920271873474121e-01</leafValues></_>
        <_>
          <internalNodes>
            0 -1 27 1807460153 -830554247 -1459671298 -1615464641
            1459472264 -575195788 -1074453361 456343099</internalNodes>
          <leafValues>
            -3.5301241278648376e-01 4.2293620109558105e-01</leafValues></_>
        <_>
          <internalNodes>
            0 -1 13 1342591418 -1153167222 -2146956020 -492531704
            -503172663 60293161 -2054532515 81039906</internalNodes>
          <leafValues>
            -7.1079427003860474e-01 2.2821719944477081e-01</leafValues></_>
        <_>
          <internalNodes>
            0 -1 84 -390146512 820963178 -1074108507 -1726286815
            1736428568 -336200329 -293840904 -864150042</internalNodes>
          <leafValues>
            -3.4418407082557678e-01 4.8579579591751099e-01</leafValues></_>
        <_>
          <internalNodes>
            0 -1 65 1972098967 -1722859256 -2130638826 -1935736760
            1358963372 -981368700 -1862191540 226968194</internalNodes>
          <leafValues>
            -4.4960004091262817e-01 3.5968264937400818e-01</leafValues></_>
        <_>
          <internalNodes>
            0 -1 150 -469049141 -2007646206 276859157 439640208
            1140973738 545423488 -1879045456 8765442</internalNodes>
          <leafValues>
            -4.4323843717575073e-01 3.5965779423713684e-01</leafValues></_>
        <_>
          <internalNodes>
            0 -1 45 -796430190 1665212732 -2147384055 226508945 29372475
            -1995014015 41880 1724111846</internalNodes>
          <leafValues>
            -4.1470259428024292e-01 3.9153981208801270e-01</leafValues></_></weakClassifiers></_>
    <!-- stage 13 -->
    <_>
      <maxWeakCount>9</maxWeakCount>
      <stageThreshold>-9.0631210803985596e-01</stageThreshold>
      <weakClassifiers>
        <_>
          <internalNodes>
            0 -1 92 -288361948 840544178 -1296373718 -1264174200
            880267079 91619327 125302473 265797387</internalNodes>
          <leafValues>
            -2.1372032165527344e-01 6.6720342636108398e-01</leafValues></_>
        <_>
          <internalNodes>
            0 -1 26 1360187410 -436043648 1409318937 -732033022
            -1031765882 8421504 8568865 1155582343</internalNodes>
          <leafValues>
            -5.2752375602722168e-01 4.3130159378051758e-01</leafValues></_>
        <_>
          <internalNodes>
            0 -1 3 1081010978 892125114 -245771 -720343370 610543301
            2088695663 635309563 -114561061</internalNodes>
          <leafValues>
            -3.8833442330360413e-01 5.5325865745544434e-01</leafValues></_>
        <_>
          <internalNodes>
            0 -1 47 -1870429696 1396998297 25231744 335573004 268959748
            436305920 8685784 1145557043</internalNodes>
          <leafValues>
            -5.0416022539138794e-01 4.1958129405975342e-01</leafValues></_>
        <_>
          <internalNodes>
            0 -1 48 -1157648553 -1481986068 -285294799 -538302467
            -1208615065 -463638540 -185270539 1590162295</internalNodes>
          <leafValues>
            -3.7693661451339722e-01 5.9286707639694214e-01</leafValues></_>
        <_>
          <internalNodes>
            0 -1 24 1476657686 -2146435066 16793747 218431520 4224
            1358987392 -2138527138 1883687080</internalNodes>
          <leafValues>
            -5.3362816572189331e-01 4.3135264515876770e-01</leafValues></_>
        <_>
          <internalNodes>
            0 -1 122 -234519734 -1744728058 294984 -1870594030 176218114
            -2146957296 134316160 142671887</internalNodes>
          <leafValues>
            -4.7464984655380249e-01 4.8056539893150330e-01</leafValues></_>
        <_>
          <internalNodes>
            0 -1 160 -1861688568 1493176344 -1073741804 -619708407
            -1870479360 -2013233150 18560 -1433728831</internalNodes>
          <leafValues>
            -3.8523647189140320e-01 5.7129657268524170e-01</leafValues></_>
        <_>
          <internalNodes>
            0 -1 123 -1200296037 1768144893 -285610248 58502897
            780007320 213450105 1827943539 -844111293</internalNodes>
          <leafValues>
            -3.2267215847969055e-01 6.8584358692169189e-01</leafValues></_></weakClassifiers></_>
    <!-- stage 14 -->
    <_>
      <maxWeakCount>11</maxWeakCount>
      <stageThreshold>-6.5703862905502319e-01</stageThreshold>
      <weakClassifiers>
        <_>
          <internalNodes>
            0 -1 72 1711243023 800980979 -131 -1678311521 1333640201
            -9117839 -1896924120 -1601126636</internalNodes>
          <leafValues>
            -2.6909518241882324e-01 5.7189393043518066e-01</leafValues></_>
        <_>
          <internalNodes>
            0 -1 161 -1538227495 -2129524558 -1005502441 1439121427
            -2062966614 -1874575325 68331 456329274</internalNodes>
          <leafValues>
            -4.1452682018280029e-01 3.7574088573455811e-01</leafValues></_>
        <_>
          <internalNodes>
            0 -1 96 2146085758 -692178969 -268648725 2028732391 -26886
            -1401653675 2130572538 -70032341</internalNodes>
          <leafValues>
            -2.7606230974197388e-01 5.7288765907287598e-01</leafValues></_>
        <_>
          <internalNodes>
            0 -1 87 1754904598 155254927 -1862238202 494928023 826868137
            -765984758 192987528 1250566795</internalNodes>
          <leafValues>
            -3.8327354192733765e-01 3.7938845157623291e-01</leafValues></_>
        <_>
          <internalNodes>
            0 -1 68 1225797906 1954619522 89129247 521143249 176757416
            -2113257344 -2111292790 1046157459</internalNodes>
          <leafValues>
            -4.1153216361999512e-01 3.4389787912368774e-01</leafValues></_>
        <_>
          <internalNodes>
            0 -1 16 -419431167 2063300407 -352321803 -1250066438
            -498213656 -1082687650 1827597564 -465437514</internalNodes>
          <leafValues>
            -3.2491484284400940e-01 4.7944238781929016e-01</leafValues></_>
        <_>
          <internalNodes>
            0 -1 2 1397361290 -811982592 85526870 -551025641 1242139523
            -1467875320 183247435 322970283</internalNodes>
          <leafValues>
            -4.6416029334068298e-01 3.1598350405693054e-01</leafValues></_>
        <_>
          <internalNodes>
            0 -1 37 -63854826 -1212901895 -276922457 -719602187
            1333599460 -814252548 -1417705478 -1071907329</internalNodes>
          <leafValues>
            -2.9006731510162354e-01 5.0894123315811157e-01</leafValues></_>
        <_>
          <internalNodes>
            0 -1 166 -1594695514 -17293314 1051623162 -700850334
            -1896452636 -33947787 -1342288235 -1167713163</internalNodes>
          <leafValues>
            -3.5554578900337219e-01 4.1948762536048889e-01</leafValues></_>
        <_>
          <internalNodes>
            0 -1 129 528269119 -1121469065 -268472457 -1715880415
            -60948753 -562266252 -462365570 -162012613</internalNodes>
          <leafValues>
            -2.2965399920940399e-01 6.4073324203491211e-01</leafValues></_>
        <_>
          <internalNodes>
            0 -1 63 1840000999 1874542319 1878982632 1705868207
            -1073776810 -1397362859 -42509208 -834607906</internalNodes>
          <leafValues>
            -3.6953201889991760e-01 4.1708737611770630e-01</leafValues></_></weakClassifiers></_>
    <!-- stage 15 -->
    <_>
      <maxWeakCount>10</maxWeakCount>
      <stageThreshold>-5.4282802343368530e-01</stageThreshold>
      <weakClassifiers>
        <_>
          <internalNodes>
            0 -1 115 783232811 364724117 2130706325 -42467979 1174404895
            -1082261637 -621486647 -1070541312</internalNodes>
          <leafValues>
            -2.8266033530235291e-01 5.7367932796478271e-01</leafValues></_>
        <_>
          <internalNodes>
            0 -1 89 17836349 419764701 466158801 487138383 -1593806151
            -423493552 2139173181 -1362554709</internalNodes>
          <leafValues>
            -3.6803907155990601e-01 4.1024532914161682e-01</leafValues></_>
        <_>
          <internalNodes>
            0 -1 41 -1300256077 61287999 733882186 2094972861 888143591
            493221878 -973626905 -230169091</internalNodes>
          <leafValues>
            -3.4676545858383179e-01 4.1987225413322449e-01</leafValues></_>
        <_>
          <internalNodes>
            0 -1 176 -1200343896 -1849940101 1056948199 -721555721
            -1107353859 -1342177283 -1073906437 -1276502565</internalNodes>
          <leafValues>
            -3.4770601987838745e-01 3.8577944040298462e-01</leafValues></_>
        <_>
          <internalNodes>
            0 -1 159 798434079 -25005517 -670367558 -1403268800 41548287
            973771235 -1979429755 -1301169737</internalNodes>
          <leafValues>
            -3.6866691708564758e-01 3.8295340538024902e-01</leafValues></_>
        <_>
          <internalNodes>
            0 -1 164 -1740246120 280009679 18301180 -325811974
            1125331932 -593460973 656083627 -858293459</internalNodes>
          <leafValues>
            -3.7968343496322632e-01 3.9513942599296570e-01</leafValues></_>
        <_>
          <internalNodes>
            0 -1 39 -2109722050 -556232534 1124160779 -686480859
            -2144600007 -763194966 -418795485 -1541164521</internalNodes>
          <leafValues>
            -3.9114275574684143e-01 3.5834240913391113e-01</leafValues></_>
        <_>
          <internalNodes>
            0 -1 49 1324310355 -1347748017 -16781380 783937323 -559143
            -305004601 -436973616 735928149</internalNodes>
          <leafValues>
            -3.6366245150566101e-01 4.2079821228981018e-01</leafValues></_>
        <_>
          <internalNodes>
            0 -1 43 1495711671 480553841 767491966 -278396930 1014474615
            -563019777 1568157437 -171077684</internalNodes>
          <leafValues>
            -3.0894538760185242e-01 4.7517853975296021e-01</leafValues></_>
        <_>
          <internalNodes>
            0 -1 130 -1542158160 2013954817 268534104 -220327920
            -1424963456 -2004795006 -1526472206 -1414234111</internalNodes>
          <leafValues>
            -4.0427106618881226e-01 3.6464110016822815e-01</leafValues></_></weakClassifiers></_>
    <!-- stage 16 -->
    <_>
      <maxWeakCount>11</maxWeakCount>
      <stageThreshold>-4.2420130968093872e-01</stageThreshold>
      <weakClassifiers>
        <_>
          <internalNodes>
            0 -1 94 1877954511 1722658759 -1076564231 -1578893515
            -704700529 -520816848 -235420659 -1073683134</internalNodes>
          <leafValues>
            -1.7527861893177032e-01 5.8271235227584839e-01</leafValues></_>
        <_>
          <internalNodes>
            0 -1 1 973840963 -1104204241 -54726 -1624412229 922221823
            385093500 -1368040989 -135923458</internalNodes>
          <leafValues>
            -2.7794528007507324e-01 4.8575493693351746e-01</leafValues></_>
        <_>
          <internalNodes>
            0 -1 46 -339808724 -1499447454 -286277705 863579897
            -176915048 -134840451 -36353330 -1149677967</internalNodes>
          <leafValues>
            -2.8822609782218933e-01 4.7350198030471802e-01</leafValues></_>
        <_>
          <internalNodes>
            0 -1 32 402658713 491488257 -2061152015 822673541
            -1190985280 -1023409788 -1603530613 843397194</internalNodes>
          <leafValues>
            -4.5223122835159302e-01 3.1800344586372375e-01</leafValues></_>
        <_>
          <internalNodes>
            0 -1 138 -804629782 -2138800116 83886728 -1141372835
            1225850891 -1329520496 555960529 -508853010</internalNodes>
          <leafValues>
            -4.1262501478195190e-01 3.6117053031921387e-01</leafValues></_>
        <_>
          <internalNodes>
            0 -1 62 1052437471 -1134737 2139062240 1741336557 -672174484
            -196088083 -33598216 -689475611</internalNodes>
          <leafValues>
            -3.3201134204864502e-01 4.6415305137634277e-01</leafValues></_>
        <_>
          <internalNodes>
            0 -1 170 554828360 -1399551609 16777501 -2147349362
            1073980572 -1040154613 538116328 -2116038641</internalNodes>
          <leafValues>
            -4.7556516528129578e-01 3.1281206011772156e-01</leafValues></_>
        <_>
          <internalNodes>
            0 -1 109 37798001 -1944493678 671171219 -380108730
            -2130687611 587997320 -1056890519 814057569</internalNodes>
          <leafValues>
            -5.4068291187286377e-01 2.8745445609092712e-01</leafValues></_>
        <_>
          <internalNodes>
            0 -1 74 -535576369 805505286 50413717 -1753165034
            -1870331776 -1610513784 -1184330848 1706613704</internalNodes>
          <leafValues>
            -5.2976596355438232e-01 2.8662982583045959e-01</leafValues></_>
        <_>
          <internalNodes>
            0 -1 71 1510404657 871649411 1310740 302530961 671311842
            -997851072 1216651690 -1916338092</internalNodes>
          <leafValues>
            -4.2273476719856262e-01 4.0269386768341064e-01</leafValues></_>
        <_>
          <internalNodes>
            0 -1 17 1684532772 799211435 -1074102734 -336496980 -1227307
            -60817409 -2030187409 -1925447660</internalNodes>
          <leafValues>
            -3.9621752500534058e-01 4.0192073583602905e-01</leafValues></_></weakClassifiers></_>
    <!-- stage 17 -->
    <_>
      <maxWeakCount>10</maxWeakCount>
      <stageThreshold>-1.0741139650344849e+00</stageThreshold>
      <weakClassifiers>
        <_>
          <internalNodes>
            0 -1 148 750529470 519962366 -1644199956 -1418019222
            267864054 217929213 -1983115830 25773262</internalNodes>
          <leafValues>
            -3.3149930834770203e-01 5.4597449302673340e-01</leafValues></_>
        <_>
          <internalNodes>
            0 -1 106 -8425635 -1088229521 -8456577 95123299 2121792987
            -281580295 -806232834 -1952775634</internalNodes>
          <leafValues>
            -2.2820857167243958e-01 6.8175327777862549e-01</leafValues></_>
        <_>
          <internalNodes>
            0 -1 21 -1090596271 -920621527 -17106129 2116558631
            -537509890 -667617794 -545793319 1971259537</internalNodes>
          <leafValues>
            -3.4552961587905884e-01 4.3298640847206116e-01</leafValues></_>
        <_>
          <internalNodes>
            0 -1 38 1156509728 -235995393 1222033405 -812666945
            -805974939 1979707231 -1619559287 802973662</internalNodes>
          <leafValues>
            -3.5558336973190308e-01 4.2555895447731018e-01</leafValues></_>
        <_>
          <internalNodes>
            0 -1 110 5514448 981843968 285540722 386466064 75638926
            683180160 -1450634672 135598632</internalNodes>
          <leafValues>
            -6.0913300514221191e-01 2.6331892609596252e-01</leafValues></_>
        <_>
          <internalNodes>
            0 -1 167 -580517919 -730333548 -225316 1507331575 -839014488
            1607556472 -1751274098 -1943822874</internalNodes>
          <leafValues>
            -3.3760502934455872e-01 4.9419513344764709e-01</leafValues></_>
        <_>
          <internalNodes>
            0 -1 60 1107329028 1434468486 286278104 1032884232
            1912611990 -2113929216 -1056734512 339181752</internalNodes>
          <leafValues>
            -4.3854075670242310e-01 3.5330447554588318e-01</leafValues></_>
        <_>
          <internalNodes>
            0 -1 44 1992060436 709999653 -16777217 -1079230612
            2088554273 -143130789 -562821683 -2024069030</internalNodes>
          <leafValues>
            -3.4173503518104553e-01 4.5000764727592468e-01</leafValues></_>
        <_>
          <internalNodes>
            0 -1 145 1823238078 -1639236 -268435666 -578011143
            -1879069442 -588120833 1851145279 -256385630</internalNodes>
          <leafValues>
            -2.8947558999061584e-01 5.8456349372863770e-01</leafValues></_>
        <_>
          <internalNodes>
            0 -1 156 1475936136 -243954412 -805503114 -201755547
            1836443613 1344184319 217398703 617717509</internalNodes>
          <leafValues>
            -3.3857464790344238e-01 4.5974135398864746e-01</leafValues></_></weakClassifiers></_>
    <!-- stage 18 -->
    <_>
      <maxWeakCount>10</maxWeakCount>
      <stageThreshold>-7.8303611278533936e-01</stageThreshold>
      <weakClassifiers>
        <_>
          <internalNodes>
            0 -1 108 -290492418 1870475263 2147449982 1643310714
            -25182978 -2047496284 1173675518 -538063998</internalNodes>
          <leafValues>
            -4.8780487850308418e-03 7.4117648601531982e-01</leafValues></_>
        <_>
          <internalNodes>
            0 -1 142 -604577240 -76485599 -1227964436 -179901851
            -1208488739 -1922171017 -671625281 -1150341490</internalNodes>
          <leafValues>
            -1.8095095455646515e-01 6.7161142826080322e-01</leafValues></_>
        <_>
          <internalNodes>
            0 -1 102 -55642511 -1801146693 -1979782472 -1130020936
            -1537880601 -715685891 -2061586310 -315654613</internalNodes>
          <leafValues>
            -2.6202720403671265e-01 5.2927333116531372e-01</leafValues></_>
        <_>
          <internalNodes>
            0 -1 117 -220188432 -565387283 -1128841534 -1745064199
            -1615004340 1205501823 -1225620265 -1165290309</internalNodes>
          <leafValues>
            -2.8571969270706177e-01 5.2857965230941772e-01</leafValues></_>
        <_>
          <internalNodes>
            0 -1 66 142799342 1280655360 16602 -1652238260 -2105438196
            -1582661502 -1182792950 -1321133550</internalNodes>
          <leafValues>
            -4.0114173293113708e-01 3.5939422249794006e-01</leafValues></_>
        <_>
          <internalNodes>
            0 -1 114 1749322478 579928483 2031308884 -147324790
            -670547967 1359020168 185042095 449464329</internalNodes>
          <leafValues>
            -4.6029102802276611e-01 3.4825444221496582e-01</leafValues></_>
        <_>
          <internalNodes>
            0 -1 133 519814902 1806409708 -131211 2041327467 1589247800
            435859190 -1661093671 -1056246773</internalNodes>
          <leafValues>
            -3.6153772473335266e-01 4.0904152393341064e-01</leafValues></_>
        <_>
          <internalNodes>
            0 -1 29 -68185351 -30134673 -67329217 2000252534 787734177
            -1275595906 -1124091410 406527025</internalNodes>
          <leafValues>
            -3.3025392889976501e-01 4.4821953773498535e-01</leafValues></_>
        <_>
          <internalNodes>
            0 -1 50 1229472679 -670990334 1157664985 134287746
            -2147385143 671121536 1242038333 1221413259</internalNodes>
          <leafValues>
            -3.5833951830863953e-01 4.4860351085662842e-01</leafValues></_>
        <_>
          <internalNodes>
            0 -1 12 -1001357022 -250478566 1067155 -922725940 -477577191
            2074083362 -938389371 6136574</internalNodes>
          <leafValues>
            -4.9549448490142822e-01 3.3257499337196350e-01</leafValues></_></weakClassifiers></_>
    <!-- stage 19 -->
    <_>
      <maxWeakCount>12</maxWeakCount>
      <stageThreshold>-8.5206788778305054e-01</stageThreshold>
      <weakClassifiers>
        <_>
          <internalNodes>
            0 -1 5 2063347646 1337761768 -426002 -278863880 -16983457
            -889389065 -17213240 18895894</internalNodes>
          <leafValues>
            -3.5106381773948669e-01 4.9178981781005859e-01</leafValues></_>
        <_>
          <internalNodes>
            0 -1 136 -58920183 -710889957 -4493317 2042439483
            -1401471489 -856427419 -16826657 -1422162788</internalNodes>
          <leafValues>
            -1.7800052464008331e-01 6.5555655956268311e-01</leafValues></_>
        <_>
          <internalNodes>
            0 -1 100 1345237 365822150 -1992226735 93814933 243339769
            192938128 -1710554471 1068114495</internalNodes>
          <leafValues>
            -4.0258955955505371e-01 3.1136453151702881e-01</leafValues></_>
        <_>
          <internalNodes>
            0 -1 141 567863962 1323573392 -1946129145 1950877610
            -1843351253 -1819524765 1795764264 432386085</internalNodes>
          <leafValues>
            -4.4928669929504395e-01 2.8269627690315247e-01</leafValues></_>
        <_>
          <internalNodes>
            0 -1 78 105117918 1929384214 486957826 -544456426 1770238634
            -464933758 -1190553534 -1624584266</internalNodes>
          <leafValues>
            -3.6962553858757019e-01 3.3996206521987915e-01</leafValues></_>
        <_>
          <internalNodes>
            0 -1 93 1647541809 -1265618949 1743945337 485040108
            2086598035 -1797423233 -553653294 -1613044257</internalNodes>
          <leafValues>
            -3.0840635299682617e-01 3.8900882005691528e-01</leafValues></_>
        <_>
          <internalNodes>
            0 -1 83 -1347379911 510410672 -1073750273 976936946
            1052532045 1341620087 -1375873092 -1466300833</internalNodes>
          <leafValues>
            -3.3015522360801697e-01 3.7702730298042297e-01</leafValues></_>
        <_>
          <internalNodes>
            0 -1 171 -2138046464 -2129210558 1350681022 -1986428872
            -779529903 -2079809493 -125594888 -1810455670</internalNodes>
          <leafValues>
            -3.8743776082992554e-01 3.5959380865097046e-01</leafValues></_>
        <_>
          <internalNodes>
            0 -1 36 471471953 336081041 -2147319808 -993207199 134846603
            -217939966 142781067 -1368521725</internalNodes>
          <leafValues>
            -4.5010331273078918e-01 2.7919572591781616e-01</leafValues></_>
        <_>
          <internalNodes>
            0 -1 139 -1367166408 537178754 -1878777509 -584023719
            58972105 -114685310 420155565 978387386</internalNodes>
          <leafValues>
            -5.0937563180923462e-01 2.6257190108299255e-01</leafValues></_>
        <_>
          <internalNodes>
            0 -1 69 239217638 -824818834 1078363918 -2038347580
            -1467901309 1116736130 -1526724460 -797882289</internalNodes>
          <leafValues>
            -5.1470291614532471e-01 2.6229995489120483e-01</leafValues></_>
        <_>
          <internalNodes>
            0 -1 91 2102063376 -1664290816 -2071963082 1058013810
            67178851 -1858043760 -2046064483 1472916271</internalNodes>
          <leafValues>
            -3.7268027663230896e-01 3.6274164915084839e-01</leafValues></_></weakClassifiers></_></stages>
  <features>
    <_>
      <rect>
        0 0 5 6</rect></_>
    <_>
      <rect>
        0 0 8 3</rect></_>
    <_>
      <rect>
        0 0 8 5</rect></_>
    <_>
      <rect>
        0 1 3 3</rect></_>
    <_>
      <rect>
        0 1 6 2</rect></_>
    <_>
      <rect>
        0 1 6 5</rect></_>
    <_>
      <rect>
        0 1 8 5</rect></_>
    <_>
      <rect>
        0 1 8 6</rect></_>
    <_>
      <rect>
        0 2 5 2</rect></_>
    <_>
      <rect>
        0 3 6 4</rect></_>
    <_>
      <rect>
        0 4 6 6</rect></_>
    <_>
      <rect>
        0 5 3 3</rect></_>
    <_>
      <rect>
        0 5 4 2</rect></_>
    <_>
      <rect>
        0 6 8 3</rect></_>
    <_>
      <rect>
        0 6 8 6</rect></_>
    <_>
      <rect>
        0 7 6 5</rect></_>
    <_>
      <rect>
        0 10 2 2</rect></_>
    <_>
      <rect>
        0 10 3 1</rect></_>
    <_>
      <rect>
        0 10 3 2</rect></_>
    <_>
      <rect>
        0 12 7 4</rect></_>
    <_>
      <rect>
        0 14 4 2</rect></_>
    <_>
      <rect>
        0 15 6 3</rect></_>
    <_>
      <rect>
        0 15 8 3</rect></_>
    <_>
      <rect>
        0 17 3 2</rect></_>
    <_>
      <rect>
        0 17 4 2</rect></_>
    <_>
      <rect>
        0 17 5 2</rect></_>
    <_>
      <rect>
        0 17 8 2</rect></_>
    <_>
      <rect>
        0 18 3 2</rect></_>
    <_>
      <rect>
        0 18 5 1</rect></_>
    <_>
      <rect>
        0 18 7 2</rect></_>
    <_>
      <rect>
        0 18 8 2</rect></_>
    <_>
      <rect>
        0 21 1 1</rect></_>
    <_>
      <rect>
        0 21 2 1</rect></_>
    <_>
      <rect>
        0 21 3 1</rect></_>
    <_>
      <rect>
        0 21 6 1</rect></_>
    <_>
      <rect>
        1 0 1 1</rect></_>
    <_>
      <rect>
        1 0 1 2</rect></_>
    <_>
      <rect>
        1 0 3 3</rect></_>
    <_>
      <rect>
        1 0 6 2</rect></_>
    <_>
      <rect>
        1 1 4 5</rect></_>
    <_>
      <rect>
        1 1 4 7</rect></_>
    <_>
      <rect>
        1 1 6 3</rect></_>
    <_>
      <rect>
        1 2 3 3</rect></_>
    <_>
      <rect>
        1 2 4 2</rect></_>
    <_>
      <rect>
        1 8 4 2</rect></_>
    <_>
      <rect>
        1 8 5 3</rect></_>
    <_>
      <rect>
        1 9 3 1</rect></_>
    <_>
      <rect>
        1 9 3 2</rect></_>
    <_>
      <rect>
        1 11 5 3</rect></_>
    <_>
      <rect>
        1 15 6 2</rect></_>
    <_>
      <rect>
        1 16 4 2</rect></_>
    <_>
      <rect>
        1 21 3 1</rect></_>
    <_>
      <rect>
        1 21 7 1</rect></_>
    <_>
      <rect>
        2 0 2 2</rect></_>
    <_>
      <rect>
        2 0 6 5</rect></_>
    <_>
      <rect>
        2 0 7 5</rect></_>
    <_>
      <rect>
        2 1 5 2</rect></_>
    <_>
      <rect>
        2 1 6 4</rect></_>
    <_>
      <rect>
        2 2 5 2</rect></_>
    <_>
      <rect>
        2 3 7 7</rect></_>
    <_>
      <rect>
        2 6 2 1</rect></_>
    <_>
      <rect>
        2 9 3 2</rect></_>
    <_>
      <rect>
        2 12 7 3</rect></_>
    <_>
      <rect>
        2 13 4 3</rect></_>
    <_>
      <rect>
        2 14 1 1</rect></_>
    <_>
      <rect>
        2 15 6 2</rect></_>
    <_>
      <rect>
        2 16 3 1</rect></_>
    <_>
      <rect>
        2 18 7 2</rect></_>
    <_>
      <rect>
        2 21 3 1</rect></_>
    <_>
      <rect>
        3 0 6 4</rect></_>
    <_>
      <rect>
        3 1 6 2</rect></_>
    <_>
      <rect>
        3 2 2 2</rect></_>
    <_>
      <rect>
        3 5 4 4</rect></_>
    <_>
      <rect>
        3 7 7 4</rect></_>
    <_>
      <rect>
        3 10 5 3</rect></_>
    <_>
      <rect>
        3 11 3 1</rect></_>
    <_>
      <rect>
        3 12 1 1</rect></_>
    <_>
      <rect>
        3 12 4 3</rect></_>
    <_>
      <rect>
        3 12 7 3</rect></_>
    <_>
      <rect>
        3 15 6 3</rect></_>
    <_>
      <rect>
        3 15 7 3</rect></_>
    <_>
      <rect>
        3 16 5 2</rect></_>
    <_>
      <rect>
        3 17 2 1</rect></_>
    <_>
      <rect>
        3 18 1 1</rect></_>
    <_>
      <rect>
        3 20 4 1</rect></_>
    <_>
      <rect>
        3 21 1 1</rect></_>
    <_>
      <rect>
        3 21 4 1</rect></_>
    <_>
      <rect>
        4 1 3 3</rect></_>
    <_>
      <rect>
        4 18 4 2</rect></_>
    <_>
      <rect>
        4 21 3 1</rect></_>
    <_>
      <rect>
        5 0 2 2</rect></_>
    <_>
      <rect>
        5 0 4 2</rect></_>
    <_>
      <rect>
        5 1 4 2</rect></_>
    <_>
      <rect>
        5 2 3 2</rect></_>
    <_>
      <rect>
        5 6 4 3</rect></_>
    <_>
      <rect>
        5 11 1 1</rect></_>
    <_>
      <rect>
        5 16 4 2</rect></_>
    <_>
      <rect>
        5 18 2 2</rect></_>
    <_>
      <rect>
        5 21 1 1</rect></_>
    <_>
      <rect>
        5 21 2 1</rect></_>
    <_>
      <rect>
        5 21 4 1</rect></_>
    <_>
      <rect>
        6 0 6 5</rect></_>
    <_>
      <rect>
        6 1 4 2</rect></_>
    <_>
      <rect>
        6 1 6 4</rect></_>
    <_>
      <rect>
        6 2 4 3</rect></_>
    <_>
      <rect>
        6 3 5 3</rect></_>
    <_>
      <rect>
        6 7 5 2</rect></_>
    <_>
      <rect>
        6 7 5 3</rect></_>
    <_>
      <rect>
        6 11 6 4</rect></_>
    <_>
      <rect>
        6 18 6 2</rect></_>
    <_>
      <rect>
        6 21 5 1</rect></_>
    <_>
      <rect>
        7 0 5 3</rect></_>
    <_>
      <rect>
        7 1 5 2</rect></_>
    <_>
      <rect>
        7 2 5 2</rect></_>
    <_>
      <rect>
        7 3 3 2</rect></_>
    <_>
      <rect>
        7 6 3 3</rect></_>
    <_>
      <rect>
        7 12 5 4</rect></_>
    <_>
      <rect>
        7 13 1 1</rect></_>
    <_>
      <rect>
        7 14 3 3</rect></_>
    <_>
      <rect>
        7 16 4 2</rect></_>
    <_>
      <rect>
        7 21 4 1</rect></_>
    <_>
      <rect>
        8 1 3 3</rect></_>
    <_>
      <rect>
        8 2 3 2</rect></_>
    <_>
      <rect>
        8 6 3 2</rect></_>
    <_>
      <rect>
        8 7 1 1</rect></_>
    <_>
      <rect>
        8 11 1 1</rect></_>
    <_>
      <rect>
        8 12 1 1</rect></_>
    <_>
      <rect>
        8 15 2 1</rect></_>
    <_>
      <rect>
        9 2 5 4</rect></_>
    <_>
      <rect>
        9 7 3 2</rect></_>
    <_>
      <rect>
        9 11 1 1</rect></_>
    <_>
      <rect>
        9 13 1 1</rect></_>
    <_>
      <rect>
        9 18 5 2</rect></_>
    <_>
      <rect>
        10 1 4 5</rect></_>
    <_>
      <rect>
        10 2 4 3</rect></_>
    <_>
      <rect>
        10 7 1 1</rect></_>
    <_>
      <rect>
        10 9 3 1</rect></_>
    <_>
      <rect>
        10 17 1 2</rect></_>
    <_>
      <rect>
        10 18 3 1</rect></_>
    <_>
      <rect>
        10 18 3 2</rect></_>
    <_>
      <rect>
        11 0 3 3</rect></_>
    <_>
      <rect>
        11 1 4 3</rect></_>
    <_>
      <rect>
        11 6 2 1</rect></_>
    <_>
      <rect>
        11 6 4 3</rect></_>
    <_>
      <rect>
        11 13 1 1</rect></_>
    <_>
      <rect>
        11 17 4 2</rect></_>
    <_>
      <rect>
        11 21 3 1</rect></_>
    <_>
      <rect>
        12 7 1 1</rect></_>
    <_>
      <rect>
        12 15 4 3</rect></_>
    <_>
      <rect>
        12 21 2 1</rect></_>
    <_>
      <rect>
        13 3 3 1</rect></_>
    <_>
      <rect>
        13 11 1 1</rect></_>
    <_>
      <rect>
        13 12 1 1</rect></_>
    <_>
      <rect>
        13 15 1 1</rect></_>
    <_>
      <rect>
        13 21 1 1</rect></_>
    <_>
      <rect>
        14 0 1 1</rect></_>
    <_>
      <rect>
        14 3 3 2</rect></_>
    <_>
      <rect>
        14 8 1 1</rect></_>
    <_>
      <rect>
        14 13 1 1</rect></_>
    <_>
      <rect>
        14 14 3 2</rect></_>
    <_>
      <rect>
        14 16 1 1</rect></_>
    <_>
      <rect>
        14 18 3 2</rect></_>
    <_>
      <rect>
        14 21 1 1</rect></_>
    <_>
      <rect>
        14 21 3 1</rect></_>
    <_>
      <rect>
        15 4 3 2</rect></_>
    <_>
      <rect>
        15 18 3 2</rect></_>
    <_>
      <rect>
        16 3 1 1</rect></_>
    <_>
      <rect>
        16 4 2 3</rect></_>
    <_>
      <rect>
        16 12 2 2</rect></_>
    <_>
      <rect>
        16 21 1 1</rect></_>
    <_>
      <rect>
        17 0 2 2</rect></_>
    <_>
      <rect>
        17 15 2 1</rect></_>
    <_>
      <rect>
        17 21 1 1</rect></_>
    <_>
      <rect>
        18 1 2 2</rect></_>
    <_>
      <rect>
        18 10 1 1</rect></_>
    <_>
      <rect>
        18 21 1 1</rect></_>
    <_>
      <rect>
        20 21 1 1</rect></_>
    <_>
      <rect>
        21 0 1 1</rect></_>
    <_>
      <rect>
        21 1 1 1</rect></_>
    <_>
      <rect>
        21 21 1 1</rect></_></features></cascade>
</opencv_storage>
