<?xml version="1.0"?>
<opencv_storage>
<cascade>
  <stageType>BOOST</stageType>
  <featureType>LBP</featureType>
  <height>24</height>
  <width>24</width>
  <stageParams>
    <boostType>GAB</boostType>
    <minHitRate>9.9500000476837158e-01</minHitRate>
    <maxFalseAlarm>5.0000000000000000e-01</maxFalseAlarm>
    <weightTrimRate>9.4999999999999996e-01</weightTrimRate>
    <maxDepth>1</maxDepth>
    <maxWeakCount>100</maxWeakCount></stageParams>
  <featureParams>
    <maxCatCount>256</maxCatCount>
    <featSize>1</featSize></featureParams>
  <stageNum>20</stageNum>
  <stages>
    <!-- stage 0 -->
    <_>
      <maxWeakCount>6</maxWeakCount>
      <stageThreshold>-5.4929262399673462e-01</stageThreshold>
      <weakClassifiers>
        <_>
          <internalNodes>
            0 -1 7 -706557760 1560606286 -537985440 1365371682
            -631249780 -734989052 -168767794 -1069415413</internalNodes>
          <leafValues>
            -2.5730577111244202e-01 8.5222291946411133e-01</leafValues></_>
        <_>
          <internalNodes>
            0 -1 227 -89133150 -1360068754 -50432410 -494243846
            -536876480 1171259254 -447688972 -252717914</internalNodes>
          <leafValues>
            -3.1909433007240295e-01 6.7416483163833618e-01</leafValues></_>
        <_>
          <internalNodes>
            0 -1 84 -10560128 1500348010 -285332832 1071839778
            1706348236 744815941 634812616 14841739</internalNodes>
          <leafValues>
            -4.8024350404739380e-01 5.1695764064788818e-01</leafValues></_>
        <_>
          <internalNodes>
            0 -1 218 -1131016034 33345 -1710751712 -1706950528
            -1064648631 964722731 -930435952 -2147331952</internalNodes>
          <leafValues>
            -5.0228846073150635e-01 4.5015877485275269e-01</leafValues></_>
        <_>
          <internalNodes>
            0 -1 132 -4330944 1907965488 -16892560 -1847333253
            -134291570 -763969678 -453738865 -1341760481</internalNodes>
          <leafValues>
            -3.8367298245429993e-01 6.0530626773834229e-01</leafValues></_>
        <_>
          <internalNodes>
            0 -1 141 -893386666 1317032592 -1342176848 -1542516608
            -123074477 -1853849600 -624456832 -2102787536</internalNodes>
          <leafValues>
            -4.9402442574501038e-01 4.4086521863937378e-01</leafValues></_></weakClassifiers></_>
    <!-- stage 1 -->
    <_>
      <maxWeakCount>6</maxWeakCount>
      <stageThreshold>-6.6676276922225952e-01</stageThreshold>
      <weakClassifiers>
        <_>
          <internalNodes>
            0 -1 8 -705499008 -773753600 -221843712 1408326306
            -1350647346 544473392 -843780946 268690955</internalNodes>
          <leafValues>
            -2.1984732151031494e-01 7.6213020086288452e-01</leafValues></_>
        <_>
          <internalNodes>
            0 -1 45 -2103771133 -1979023232 1099038800 -1472167614
            1610678784 -1073217536 847286800 -798575984</internalNodes>
          <leafValues>
            -5.8311241865158081e-01 4.8688569664955139e-01</leafValues></_>
        <_>
          <internalNodes>
            0 -1 144 -1941960704 -1558576943 1141903376 -221904828
            -1560248176 -1610547072 -1962901344 -1104017280</internalNodes>
          <leafValues>
            -5.1700901985168457e-01 4.8580485582351685e-01</leafValues></_>
        <_>
          <internalNodes>
            0 -1 235 -1967223808 195169938 -335581404 -538120579
            242310979 217022454 -143788848 -671703564</internalNodes>
          <leafValues>
            -4.7438344359397888e-01 5.1455014944076538e-01</leafValues></_>
        <_>
          <internalNodes>
            0 -1 149 -2147348192 -1603927936 150999316 1343684632
            -804695205 8454149 -2105505648 -1080426319</internalNodes>
          <leafValues>
            -4.7227281332015991e-01 4.6841052174568176e-01</leafValues></_>
        <_>
          <internalNodes>
            0 -1 66 -2013295462 -957448535 -1100005654 1444970212
            -704684330 1862270839 1156970148 -1275426825</internalNodes>
          <leafValues>
            -3.4363493323326111e-01 6.1492204666137695e-01</leafValues></_></weakClassifiers></_>
    <!-- stage 2 -->
    <_>
      <maxWeakCount>8</maxWeakCount>
      <stageThreshold>-6.8063163757324219e-01</stageThreshold>
      <weakClassifiers>
        <_>
          <internalNodes>
            0 -1 216 -1566113248 -1467834646 -268454336 -1830371340
            -1628570336 72234835 1433794016 -1847339916</internalNodes>
          <leafValues>
            -2.2474977374076843e-01 6.5597051382064819e-01</leafValues></_>
        <_>
          <internalNodes>
            0 -1 5 -429470080 -144216146 -16851378 1366415351 2130103786
            -1471336977 -456786226 1141359619</internalNodes>
          <leafValues>
            -4.1761177778244019e-01 5.1044249534606934e-01</leafValues></_>
        <_>
          <internalNodes>
            0 -1 36 -1477293408 -2111165268 2129051232 -1199786306
            -1612319636 1189363582 -981532716 -258806571</internalNodes>
          <leafValues>
            -4.6025240421295166e-01 4.7179004549980164e-01</leafValues></_>
        <_>
          <internalNodes>
            0 -1 236 -1431598452 -1439019224 -1493274784 -1897341590
            -1750361030 -2022189953 -1495271708 -216296229</internalNodes>
          <leafValues>
            -3.7516650557518005e-01 5.0860393047332764e-01</leafValues></_>
        <_>
          <internalNodes>
            0 -1 97 -2146826054 -926416760 65746 1485832195 1342701568
            -1029701629 -2012577648 -233668600</internalNodes>
          <leafValues>
            -5.1594257354736328e-01 3.9615988731384277e-01</leafValues></_>
        <_>
          <internalNodes>
            0 -1 104 -1536624 -570814062 -26247280 1468370476 -134984663
            1021786950 -323158888 1235993803</internalNodes>
          <leafValues>
            -3.9914026856422424e-01 4.8497894406318665e-01</leafValues></_>
        <_>
          <internalNodes>
            0 -1 212 -1434255358 -2146926592 1245208 269975683
            -1837063936 2097216 -1040023168 -1836015090</internalNodes>
          <leafValues>
            -5.5021768808364868e-01 3.7396314740180969e-01</leafValues></_>
        <_>
          <internalNodes>
            0 -1 61 -1767077437 1328443380 -286298498 -755679236
            -1133548063 -645922955 -1342775820 -1927630716</internalNodes>
          <leafValues>
            -4.1449260711669922e-01 4.8412322998046875e-01</leafValues></_></weakClassifiers></_>
    <!-- stage 3 -->
    <_>
      <maxWeakCount>11</maxWeakCount>
      <stageThreshold>-7.3221135139465332e-01</stageThreshold>
      <weakClassifiers>
        <_>
          <internalNodes>
            0 -1 14 -210837336 2036922030 -269881632 -886444166
            -831557746 -1000334044 -184763941 1163125387</internalNodes>
          <leafValues>
            -1.1196911334991455e-01 6.7155426740646362e-01</leafValues></_>
        <_>
          <internalNodes>
            0 -1 203 -880893816 1176567716 2063006450 1365768095
            -1084232742 -2065776930 1147102374 -1009779233</internalNodes>
          <leafValues>
            -2.9042503237724304e-01 5.1981341838836670e-01</leafValues></_>
        <_>
          <internalNodes>
            0 -1 82 -1885174126 -880268860 -822251790 -1231937620
            -1367363748 -2030141458 914232534 -692447823</internalNodes>
          <leafValues>
            -3.5695609450340271e-01 4.2391648888587952e-01</leafValues></_>
        <_>
          <internalNodes>
            0 -1 18 -367597174 -1040782752 -139486477 1574538888
            1182557574 1683390446 1157027503 1154471371</internalNodes>
          <leafValues>
            -3.3268445730209351e-01 4.3434455990791321e-01</leafValues></_>
        <_>
          <internalNodes>
            0 -1 182 -2105409416 -805175104 1073824285 -267386799
            -2138963824 -1341980656 -1466924922 -1159593244</internalNodes>
          <leafValues>
            -4.0767672657966614e-01 3.8484027981758118e-01</leafValues></_>
        <_>
          <internalNodes>
            0 -1 87 -166046887 -2045575038 -2147413615 537055249
            -1870520320 -771751934 -1744246141 -1323685741</internalNodes>
          <leafValues>
            -4.2479306459426880e-01 3.6689433455467224e-01</leafValues></_>
        <_>
          <internalNodes>
            0 -1 140 -537920430 -1614929928 -286622928 -538188172
            1035899786 133519349 242450110 80608799</internalNodes>
          <leafValues>
            -3.1622764468193054e-01 4.8809382319450378e-01</leafValues></_>
        <_>
          <internalNodes>
            0 -1 189 -267157120 50462864 -2147479404 -1273871860
            1074380828 293863552 -1690296144 -600522108</internalNodes>
          <leafValues>
            -4.6222233772277832e-01 3.5026368498802185e-01</leafValues></_>
        <_>
          <internalNodes>
            0 -1 133 -237641184 -510847998 1073807781 322977794
            134255024 1881735312 -1073162194 234939402</internalNodes>
          <leafValues>
            -4.8252829909324646e-01 3.3702600002288818e-01</leafValues></_>
        <_>
          <internalNodes>
            0 -1 21 -1423561214 -356765714 -285311248 -153354308
            -1912635449 1159585759 -16846860 -2053452020</internalNodes>
          <leafValues>
            -3.7664252519607544e-01 4.0623101592063904e-01</leafValues></_>
        <_>
          <internalNodes>
            0 -1 53 -51714099 -1410569498 -57760 -1089212692 -1116256657
            1859944399 1316484509 -1891388178</internalNodes>
          <leafValues>
            -3.3205991983413696e-01 4.8673966526985168e-01</leafValues></_></weakClassifiers></_>
    <!-- stage 4 -->
    <_>
      <maxWeakCount>10</maxWeakCount>
      <stageThreshold>-5.2442544698715210e-01</stageThreshold>
      <weakClassifiers>
        <_>
          <internalNodes>
            0 -1 196 -1959818476 -1436262424 1857840880 -520422020
            -1351165439 121929717 -310414300 -534259856</internalNodes>
          <leafValues>
            -2.1024546027183533e-01 5.8022296428680420e-01</leafValues></_>
        <_>
          <internalNodes>
            0 -1 204 -1950633296 -2111832088 -1350680845 -8409376
            -1543641412 163442130 1161108977 -1148203876</internalNodes>
          <leafValues>
            -2.5814253091812134e-01 5.8091580867767334e-01</leafValues></_>
        <_>
          <internalNodes>
            0 -1 41 -285225022 -936759382 2096824054 -1302135060
            -142839984 912742268 -1778911325 -182192652</internalNodes>
          <leafValues>
            -3.6016541719436646e-01 4.2260459065437317e-01</leafValues></_>
        <_>
          <internalNodes>
            0 -1 80 1906333088 -788443136 -2147413542 1574781011
            -2146825755 -1308605950 -930576225 80728334</internalNodes>
          <leafValues>
            -3.8403102755546570e-01 4.0183010697364807e-01</leafValues></_>
        <_>
          <internalNodes>
            0 -1 10 -1441881438 -2105409462 1367347221 2080674192
            -805297704 -2147385054 -1970765184 -1828847504</internalNodes>
          <leafValues>
            -4.3642625212669373e-01 3.7004643678665161e-01</leafValues></_>
        <_>
          <internalNodes>
            0 -1 223 -1711127538 578945171 822083602 -1333493245
            1485349184 688259072 -125659120 -795573377</internalNodes>
          <leafValues>
            -4.8757317662239075e-01 3.1269431114196777e-01</leafValues></_>
        <_>
          <internalNodes>
            0 -1 13 1695857062 -1303117824 2304 -942587647 1124114662
            -1568124794 13158924 1195878502</internalNodes>
          <leafValues>
            -4.1679364442825317e-01 3.6315706372261047e-01</leafValues></_>
        <_>
          <internalNodes>
            0 -1 143 -1365097808 -1360101398 -1350631501 -1610727556
            -1221137007 -1098907779 -2013417514 -718604868</internalNodes>
          <leafValues>
            -3.5566517710685730e-01 4.5638778805732727e-01</leafValues></_>
        <_>
          <internalNodes>
            0 -1 94 -117793152 785317614 -36868 -235147284 -1107308786
            217546549 -579941200 -84559944</internalNodes>
          <leafValues>
            -3.8244867324829102e-01 4.2566397786140442e-01</leafValues></_>
        <_>
          <internalNodes>
            0 -1 126 -2137980646 8388928 17825812 -1777041272 168599776
            -2146926592 -234192766 -356863678</internalNodes>
          <leafValues>
            -3.8639071583747864e-01 3.9562696218490601e-01</leafValues></_></weakClassifiers></_>
    <!-- stage 5 -->
    <_>
      <maxWeakCount>13</maxWeakCount>
      <stageThreshold>-7.5160312652587891e-01</stageThreshold>
      <weakClassifiers>
        <_>
          <internalNodes>
            0 -1 34 2072951274 -28656504 -1342228560 1125133408
            926242798 1732734440 -1225959938 140181567</internalNodes>
          <leafValues>
            -7.7419355511665344e-02 6.2272727489471436e-01</leafValues></_>
        <_>
          <internalNodes>
            0 -1 158 -1412955120 -1084346571 -1895864592 -110813339
            -1359553131 -545554561 -688091236 -1231403696</internalNodes>
          <leafValues>
            -3.0980983376502991e-01 4.2442795634269714e-01</leafValues></_>
        <_>
          <internalNodes>
            0 -1 26 -2040980 -991282260 -805306640 1433037242
            -2018224134 216223734 1148834558 1167582683</internalNodes>
          <leafValues>
            -3.2261574268341064e-01 3.9873984456062317e-01</leafValues></_>
        <_>
          <internalNodes>
            0 -1 208 -1568217437 -330891256 281022784 -971450366
            -1844893596 62949634 -1572822524 -1068527488</internalNodes>
          <leafValues>
            -4.4813710451126099e-01 2.8819617629051208e-01</leafValues></_>
        <_>
          <internalNodes>
            0 -1 190 -1105060685 -1610612735 -1879043984 495915012
            26927768 -2120056607 843825342 -141918048</internalNodes>
          <leafValues>
            -3.5913938283920288e-01 3.8534715771675110e-01</leafValues></_>
        <_>
          <internalNodes>
            0 -1 44 -826765638 -2042728721 -1946225092 -1871970836
            -1887742700 2103934847 -562103500 -137380452</internalNodes>
          <leafValues>
            -3.2505837082862854e-01 4.2723286151885986e-01</leafValues></_>
        <_>
          <internalNodes>
            0 -1 233 -1611716982 -2010382486 2147385124 -1915486274
            -1258293526 119535479 -704744237 -437258785</internalNodes>
          <leafValues>
            -3.1875208020210266e-01 4.1662368178367615e-01</leafValues></_>
        <_>
          <internalNodes>
            0 -1 0 -1316828626 1124106240 -2123824813 -582184480
            -1597972248 545783944 -2111731658 -520361856</internalNodes>
          <leafValues>
            -3.6764061450958252e-01 3.6402407288551331e-01</leafValues></_>
        <_>
          <internalNodes>
            0 -1 49 1914818656 1365328064 285213060 -576497775
            -1182521060 277448706 25282889 2026095246</internalNodes>
          <leafValues>
            -3.9155793190002441e-01 3.4955790638923645e-01</leafValues></_>
        <_>
          <internalNodes>
            0 -1 142 -1304275568 -2130607976 67633169 -497827824
            -1845491708 -2012512127 788144836 -1863712736</internalNodes>
          <leafValues>
            -4.5923525094985962e-01 3.1314411759376526e-01</leafValues></_>
        <_>
          <internalNodes>
            0 -1 221 -1836072803 1094844456 1075318982 1610973185
            -1064771072 -2136997878 -364676480 -193316736</internalNodes>
          <leafValues>
            -3.7720045447349548e-01 3.9909130334854126e-01</leafValues></_>
        <_>
          <internalNodes>
            0 -1 79 1181662904 -17352777 -557856773 -1677990226
            -268556377 -1989148953 -1002309633 1259269263</internalNodes>
          <leafValues>
            -3.0060279369354248e-01 4.8547831177711487e-01</leafValues></_>
        <_>
          <internalNodes>
            0 -1 120 1377916306 -1533964208 -2130684907 1679966514
            176947639 -1566627326 -401956264 634245354</internalNodes>
          <leafValues>
            -3.9071282744407654e-01 3.7016674876213074e-01</leafValues></_></weakClassifiers></_>
    <!-- stage 6 -->
    <_>
      <maxWeakCount>14</maxWeakCount>
      <stageThreshold>-9.3750745058059692e-01</stageThreshold>
      <weakClassifiers>
        <_>
          <internalNodes>
            0 -1 59 2133849824 1970060910 -201444496 86160298 2138339822
            251494242 2088129976 191053663</internalNodes>
          <leafValues>
            -4.5843046158552170e-02 6.1821365356445312e-01</leafValues></_>
        <_>
          <internalNodes>
            0 -1 29 -2134732062 -2113863644 -2130427776 -196345856
            -1610055637 -393738078 536903840 -695738160</internalNodes>
          <leafValues>
            -3.2707047462463379e-01 3.9944529533386230e-01</leafValues></_>
        <_>
          <internalNodes>
            0 -1 153 -155713888 -1212166198 -558984028 2079324844
            376905455 359192549 -1921135396 166710498</internalNodes>
          <leafValues>
            -3.1541380286216736e-01 3.9517545700073242e-01</leafValues></_>
        <_>
          <internalNodes>
            0 -1 159 -56297726 -1786998987 1807527761 325537760 -9242208
            -10584217 1543281871 1113837931</internalNodes>
          <leafValues>
            -2.8887173533439636e-01 4.1958075761795044e-01</leafValues></_>
        <_>
          <internalNodes>
            0 -1 89 -1206613118 -997027710 268632525 -65142144
            -2102675303 -1198882806 -2146747687 -290813552</internalNodes>
          <leafValues>
            -3.4309273958206177e-01 3.9304280281066895e-01</leafValues></_>
        <_>
          <internalNodes>
            0 -1 69 1807414986 -63389706 -302022932 -1745703564 -634896
            -1092714507 -1791005154 -33823493</internalNodes>
          <leafValues>
            -2.5822392106056213e-01 4.7747182846069336e-01</leafValues></_>
        <_>
          <internalNodes>
            0 -1 47 -402764150 -1343690753 -285233438 -232554826
            -1888544955 -1367376009 -571087369 -1815687179</internalNodes>
          <leafValues>
            -3.2962706685066223e-01 3.9142656326293945e-01</leafValues></_>
        <_>
          <internalNodes>
            0 -1 107 1286134926 -42209394 -810909731 1496379185
            -537404242 -709591053 -1831564559 -911364660</internalNodes>
          <leafValues>
            -3.1171521544456482e-01 4.0782684087753296e-01</leafValues></_>
        <_>
          <internalNodes>
            0 -1 232 -219168886 1647181547 -67174608 -51450184 -18884656
            1190092595 1465841348 -688210241</internalNodes>
          <leafValues>
            -3.1152632832527161e-01 4.2807787656784058e-01</leafValues></_>
        <_>
          <internalNodes>
            0 -1 88 -2104344340 722747394 -939507500 -1837055995
            -1987564992 -1701806076 -2146821965 -1164039551</internalNodes>
          <leafValues>
            -3.5288560390472412e-01 3.6476832628250122e-01</leafValues></_>
        <_>
          <internalNodes>
            0 -1 90 -1455390543 -784334720 -1073545179 385974416
            -1869872391 688390216 42664217 -863277056</internalNodes>
          <leafValues>
            -3.9278835058212280e-01 3.4733486175537109e-01</leafValues></_>
        <_>
          <internalNodes>
            0 -1 193 -1869417304 -411006975 -2147368892 -1806528128
            1082251590 37912576 277520510 -214707324</internalNodes>
          <leafValues>
            -4.1015243530273438e-01 3.3798685669898987e-01</leafValues></_>
        <_>
          <internalNodes>
            0 -1 154 849350808 -1996451703 -1065335728 -329578472
            314605721 -1572732797 -1711136352 -858125200</internalNodes>
          <leafValues>
            -4.5880454778671265e-01 2.9558834433555603e-01</leafValues></_>
        <_>
          <internalNodes>
            0 -1 119 -1341607672 -2129592128 0 -31961087 -2105498621
            8454278 445254293 -696123200</internalNodes>
          <leafValues>
            -4.1965302824974060e-01 3.2018983364105225e-01</leafValues></_></weakClassifiers></_>
    <!-- stage 7 -->
    <_>
      <maxWeakCount>11</maxWeakCount>
      <stageThreshold>-1.0025397539138794e+00</stageThreshold>
      <weakClassifiers>
        <_>
          <internalNodes>
            0 -1 171 2071217664 389441066 -462537111 20074464 -9643004
            -1487110532 708066568 541072482</internalNodes>
          <leafValues>
            -3.9726027846336365e-01 5.3819888830184937e-01</leafValues></_>
        <_>
          <internalNodes>
            0 -1 1 -529087268 -1618998167 -1493286947 -977977798
            -808028452 1811185654 -990638897 67617998</internalNodes>
          <leafValues>
            -3.2718211412429810e-01 4.9973741173744202e-01</leafValues></_>
        <_>
          <internalNodes>
            0 -1 95 997257200 992788087 1878931531 1025662688 914277628
            -1459683467 134167272 232386778</internalNodes>
          <leafValues>
            -3.1635165214538574e-01 4.8824626207351685e-01</leafValues></_>
        <_>
          <internalNodes>
            0 -1 101 1399296656 -788546968 1862152953 1567079463
            2121924268 2028961294 1281940670 143483906</internalNodes>
          <leafValues>
            -3.1311446428298950e-01 4.9369606375694275e-01</leafValues></_>
        <_>
          <internalNodes>
            0 -1 57 -134748194 1345866364 1853796214 655572566 -25295138
            -847249419 -1082862353 252929131</internalNodes>
          <leafValues>
            -2.9052987694740295e-01 5.3891086578369141e-01</leafValues></_>
        <_>
          <internalNodes>
            0 -1 197 -201327712 1412361898 -18956492 -2027421699
            1744737664 611286900 -1510054722 -2122510394</internalNodes>
          <leafValues>
            -3.1148633360862732e-01 4.7218129038810730e-01</leafValues></_>
        <_>
          <internalNodes>
            0 -1 186 -243281872 1365176092 -17006867 1517010595
            2130500836 -393876 -1099808770 1258503498</internalNodes>
          <leafValues>
            -2.6362267136573792e-01 5.2134990692138672e-01</leafValues></_>
        <_>
          <internalNodes>
            0 -1 166 -46800208 -101843037 1803517877 -1781071951
            -1090669110 -1143275521 1585390751 140375519</internalNodes>
          <leafValues>
            -2.2295612096786499e-01 6.4087957143783569e-01</leafValues></_>
        <_>
          <internalNodes>
            0 -1 15 -227621024 464236514 -286265771 1542708772
            -939636760 -438337537 1853249279 -1048873766</internalNodes>
          <leafValues>
            -2.4253061413764954e-01 6.1043250560760498e-01</leafValues></_>
        <_>
          <internalNodes>
            0 -1 92 19146380 -1877999598 1090687257 -2059067362
            -1069514587 855670916 1476971081 -2103965182</internalNodes>
          <leafValues>
            -5.1719099283218384e-01 3.0526274442672729e-01</leafValues></_>
        <_>
          <internalNodes>
            0 -1 199 -327231440 1060831152 1736404725 774893291
            -1879726224 -696303692 1440593392 179297423</internalNodes>
          <leafValues>
            -3.4718227386474609e-01 4.0134435892105103e-01</leafValues></_></weakClassifiers></_>
    <!-- stage 8 -->
    <_>
      <maxWeakCount>14</maxWeakCount>
      <stageThreshold>-5.9619343280792236e-01</stageThreshold>
      <weakClassifiers>
        <_>
          <internalNodes>
            0 -1 209 -1674534766 -5718536 1601142705 -67150340
            -1883595284 -1375961103 213613816 -1999956535</internalNodes>
          <leafValues>
            -8.2644624635577202e-03 6.5374678373336792e-01</leafValues></_>
        <_>
          <internalNodes>
            0 -1 7 -704721974 -111675553 -537923737 -1285293533
            -622910418 -63899884 -184954921 -79174649</internalNodes>
          <leafValues>
            -2.0685751736164093e-01 5.1203846931457520e-01</leafValues></_>
        <_>
          <internalNodes>
            0 -1 63 -1872185449 -542786007 -1343816203 1173925178
            795290535 -318771331 1287451771 -1060420320</internalNodes>
          <leafValues>
            -2.9005849361419678e-01 3.9594191312789917e-01</leafValues></_>
        <_>
          <internalNodes>
            0 -1 27 -619253790 -739348802 532348726 -1721643166
            1059209184 506684918 1340145659 -87312625</internalNodes>
          <leafValues>
            -2.5810953974723816e-01 4.8039048910140991e-01</leafValues></_>
        <_>
          <internalNodes>
            0 -1 122 -1593540334 -581598704 285216853 9711884
            -1958281035 -401045376 134259784 -938868212</internalNodes>
          <leafValues>
            -4.5491775870323181e-01 2.5050318241119385e-01</leafValues></_>
        <_>
          <internalNodes>
            0 -1 229 -617874417 1455095793 -419549216 -717253265
            1828058468 922288088 115226556 -805582593</internalNodes>
          <leafValues>
            -2.1134290099143982e-01 5.6517964601516724e-01</leafValues></_>
        <_>
          <internalNodes>
            0 -1 160 2037576152 1580050450 1852763955 57244187
            -856850980 200865624 -1628139587 1377824046</internalNodes>
          <leafValues>
            -2.7624636888504028e-01 4.3301519751548767e-01</leafValues></_>
        <_>
          <internalNodes>
            0 -1 23 -755503522 -599328854 -1879310490 -67838275
            641692740 -2097946649 1156800237 -920676493</internalNodes>
          <leafValues>
            -2.6092663407325745e-01 4.4117251038551331e-01</leafValues></_>
        <_>
          <internalNodes>
            0 -1 98 -1710710712 1938818176 -1056915195 -1588001960
            -1203697265 -402456448 1644757168 -1920464864</internalNodes>
          <leafValues>
            -4.7011944651603699e-01 2.5836881995201111e-01</leafValues></_>
        <_>
          <internalNodes>
            0 -1 46 1074110538 -268287935 1116 -1810575343 -1606418315
            1914896388 -2147261782 -835761125</internalNodes>
          <leafValues>
            -3.5461169481277466e-01 3.4998849034309387e-01</leafValues></_>
        <_>
          <internalNodes>
            0 -1 175 -1247957117 1990164410 1258270460 1349419004
            1073626112 643268301 -1657505806 -509096887</internalNodes>
          <leafValues>
            -3.1679970026016235e-01 4.3169292807579041e-01</leafValues></_>
        <_>
          <internalNodes>
            0 -1 179 1597879926 976415992 1072590845 -102007436
            763288335 801112061 359950828 -1725232980</internalNodes>
          <leafValues>
            -3.0353093147277832e-01 4.3562251329421997e-01</leafValues></_>
        <_>
          <internalNodes>
            0 -1 155 -787356888 -301989526 268505169 269713792
            -2136719328 1224802304 -2138472262 -1674870201</internalNodes>
          <leafValues>
            -3.7956351041793823e-01 3.3945530652999878e-01</leafValues></_>
        <_>
          <internalNodes>
            0 -1 52 -797495306 -689021396 -1493288141 1838776293
            -848544234 1283452902 1308603996 -446843796</internalNodes>
          <leafValues>
            -3.2902356982231140e-01 3.8983544707298279e-01</leafValues></_></weakClassifiers></_>
    <!-- stage 9 -->
    <_>
      <maxWeakCount>13</maxWeakCount>
      <stageThreshold>-5.1612371206283569e-01</stageThreshold>
      <weakClassifiers>
        <_>
          <internalNodes>
            0 -1 35 -209718526 2042156911 -1359484792 -543131186
            -285223500 -1233324572 646240200 346583774</internalNodes>
          <leafValues>
            -1.4860977232456207e-01 5.9018903970718384e-01</leafValues></_>
        <_>
          <internalNodes>
            0 -1 37 -454038402 1956658874 -1476743334 1478687354
            -21555641 376733293 -990390714 1409675758</internalNodes>
          <leafValues>
            -3.2440900802612305e-01 4.1016212105751038e-01</leafValues></_>
        <_>
          <internalNodes>
            0 -1 194 -714763517 1346979587 65674 1343848714 12636940
            1208000514 843253896 1363517710</internalNodes>
          <leafValues>
            -3.1330010294914246e-01 4.0892714262008667e-01</leafValues></_>
        <_>
          <internalNodes>
            0 -1 217 -621831790 -1146454040 1337814756 -1216911
            872331250 50159578 1169683703 -1048840977</internalNodes>
          <leafValues>
            -2.2322943806648254e-01 5.3984677791595459e-01</leafValues></_>
        <_>
          <internalNodes>
            0 -1 78 281418242 1113374999 -2130685921 -1190010866
            -129965889 -1760132957 -510484189 1146159531</internalNodes>
          <leafValues>
            -4.5207712054252625e-01 2.6845473051071167e-01</leafValues></_>
        <_>
          <internalNodes>
            0 -1 172 -111332857 759162363 -8421646 1886760570 -35207744
            461176694 -1803663400 1963312202</internalNodes>
          <leafValues>
            -3.3285000920295715e-01 3.8477480411529541e-01</leafValues></_>
        <_>
          <internalNodes>
            0 -1 19 1720133320 1645535310 -1794631488 1171296706
            1107413760 1610612745 1136763080 1090562880</internalNodes>
          <leafValues>
            -5.6022143363952637e-01 2.2018454968929291e-01</leafValues></_>
        <_>
          <internalNodes>
            0 -1 131 -1052434427 -585563885 268439694 -1202666048
            -1199566416 -1064304351 1888260264 546355338</internalNodes>
          <leafValues>
            -3.8062980771064758e-01 3.3602848649024963e-01</leafValues></_>
        <_>
          <internalNodes>
            0 -1 162 -156903999 -781224598 -445187422 1375026482
            1608515372 -2038431759 -1644837397 -984377585</internalNodes>
          <leafValues>
            -2.4785515666007996e-01 5.1782149076461792e-01</leafValues></_>
        <_>
          <internalNodes>
            0 -1 136 506589077 1606069864 -295690 948633202 96329710
            1736341500 787938518 -1017384580</internalNodes>
          <leafValues>
            -2.8768482804298401e-01 4.1045758128166199e-01</leafValues></_>
        <_>
          <internalNodes>
            0 -1 85 -806800067 2028895845 -1314838 1566588907 -201933350
            1721724925 -134744334 1997741686</internalNodes>
          <leafValues>
            -3.1595659255981445e-01 3.9540138840675354e-01</leafValues></_>
        <_>
          <internalNodes>
            0 -1 127 795307004 1023343271 -1140887572 1911258342
            -1082337282 504848336 -1107397384 1969763544</internalNodes>
          <leafValues>
            -3.0923536419868469e-01 3.8795363903045654e-01</leafValues></_>
        <_>
          <internalNodes>
            0 -1 164 2109204137 -676401503 1056896870 -853804158
            -1745658232 1145042678 2000553166 -672792582</internalNodes>
          <leafValues>
            -2.4173156917095184e-01 5.1367574930191040e-01</leafValues></_></weakClassifiers></_>
    <!-- stage 10 -->
    <_>
      <maxWeakCount>15</maxWeakCount>
      <stageThreshold>-4.6331340074539185e-01</stageThreshold>
      <weakClassifiers>
        <_>
          <internalNodes>
            0 -1 33 -613417301 1795067558 -1191299136 -104571842
            -965614650 141875190 -835323992 1077147375</internalNodes>
          <leafValues>
            3.3396344631910324e-02 6.7020523548126221e-01</leafValues></_>
        <_>
          <internalNodes>
            0 -1 81 -271356272 -564285430 -784227560 999030918
            -148512647 881541172 -2013186340 273080064</internalNodes>
          <leafValues>
            -4.3115612864494324e-01 2.8689697384834290e-01</leafValues></_>
        <_>
          <internalNodes>
            0 -1 112 -282314924 -234958929 -285278612 -168820994
            -722158858 -1951432923 2121297598 423896628</internalNodes>
          <leafValues>
            -2.5098899006843567e-01 4.5912259817123413e-01</leafValues></_>
        <_>
          <internalNodes>
            0 -1 234 -151351678 515107822 -285299104 1605355388
            1055653786 256901114 536859694 -673452289</internalNodes>
          <leafValues>
            -2.3877336084842682e-01 5.3514188528060913e-01</leafValues></_>
        <_>
          <internalNodes>
            0 -1 56 -294655777 175046526 -395378712 1612864622
            -680016015 -696353418 -9046274 -1875827174</internalNodes>
          <leafValues>
            -3.2561028003692627e-01 3.5081306099891663e-01</leafValues></_>
        <_>
          <internalNodes>
            0 -1 174 -536873045 -205525138 -298 498794414 -1078219285
            -395280545 -1439270930 -750279094</internalNodes>
          <leafValues>
            -2.0363602042198181e-01 5.5168771743774414e-01</leafValues></_>
        <_>
          <internalNodes>
            0 -1 200 -742264294 -465305250 1413546064 -1069215484
            1350687673 -2012577376 1207972865 1141883034</internalNodes>
          <leafValues>
            -3.9209213852882385e-01 3.0079403519630432e-01</leafValues></_>
        <_>
          <internalNodes>
            0 -1 108 -1064770889 -925495284 -2139078328 2034237587
            1828716604 -343900150 1619153042 1263724778</internalNodes>
          <leafValues>
            -3.5528689622879028e-01 3.1564083695411682e-01</leafValues></_>
        <_>
          <internalNodes>
            0 -1 20 -167172106 -876085174 -2147155832 -1885437430
            43331942 -2113826688 -343784892 63910584</internalNodes>
          <leafValues>
            -3.7381148338317871e-01 3.0897942185401917e-01</leafValues></_>
        <_>
          <internalNodes>
            0 -1 137 1969641265 -1340997354 84975622 -117337710
            -2086369252 -360151040 591964576 88713251</internalNodes>
          <leafValues>
            -3.9950603246688843e-01 2.8716996312141418e-01</leafValues></_>
        <_>
          <internalNodes>
            0 -1 100 1490030616 2018541696 243275646 1862537350
            -125818625 -661516151 10286 546573058</internalNodes>
          <leafValues>
            -3.6380898952484131e-01 3.1707268953323364e-01</leafValues></_>
        <_>
          <internalNodes>
            0 -1 6 -380157818 1174601730 -2067783426 1845613202
            -1207885656 -2117041980 -83711888 -1755870568</internalNodes>
          <leafValues>
            -3.9530900120735168e-01 3.1491047143936157e-01</leafValues></_>
        <_>
          <internalNodes>
            0 -1 24 -671154372 -16846850 -268649622 363789924
            -1610613306 -429096962 2004174038 -495487586</internalNodes>
          <leafValues>
            -2.8669497370719910e-01 4.1428732872009277e-01</leafValues></_>
        <_>
          <internalNodes>
            0 -1 67 1446461139 1983299308 -1090519139 1537380286
            2147350434 -12558348 -1631098017 -2133034024</internalNodes>
          <leafValues>
            -3.1848397850990295e-01 3.9131346344947815e-01</leafValues></_>
        <_>
          <internalNodes>
            0 -1 214 -1095766121 -12648854 -1146241503 -688458120
            1728003266 754843508 1450505178 1143203019</internalNodes>
          <leafValues>
            -2.3535174131393433e-01 4.9015226960182190e-01</leafValues></_></weakClassifiers></_>
    <!-- stage 11 -->
    <_>
      <maxWeakCount>14</maxWeakCount>
      <stageThreshold>-8.7388288974761963e-01</stageThreshold>
      <weakClassifiers>
        <_>
          <internalNodes>
            0 -1 225 -30034 1605324526 1996387874 1919942446 2138831908
            659029853 1323825134 -182454454</internalNodes>
          <leafValues>
            6.5659500658512115e-02 6.9351053237915039e-01</leafValues></_>
        <_>
          <internalNodes>
            0 -1 48 -1177436926 -641616936 2122301088 1608859400
            1870650530 -838926337 251582463 223606088</internalNodes>
          <leafValues>
            -2.5526911020278931e-01 4.1510668396949768e-01</leafValues></_>
        <_>
          <internalNodes>
            0 -1 201 -1816398918 -743587926 1290270708 -656519
            1706028463 -1424525390 343373210 -916480549</internalNodes>
          <leafValues>
            -1.8905727565288544e-01 5.4930388927459717e-01</leafValues></_>
        <_>
          <internalNodes>
            0 -1 76 -1340040700 -721240063 -1862131708 -263905276
            -1819672567 -2113748600 -2096496493 -2004156368</internalNodes>
          <leafValues>
            -3.2256612181663513e-01 3.1269353628158569e-01</leafValues></_>
        <_>
          <internalNodes>
            0 -1 224 -13646902 1969980798 -67112983 1970273721
            -620824630 2109661041 -1226273622 -244589217</internalNodes>
          <leafValues>
            -1.6714254021644592e-01 6.9881176948547363e-01</leafValues></_>
        <_>
          <internalNodes>
            0 -1 176 -1794055622 353469570 -2147303267 -518465469
            1957415714 1619316741 117646272 345341992</internalNodes>
          <leafValues>
            -4.1899985074996948e-01 2.6686999201774597e-01</leafValues></_>
        <_>
          <internalNodes>
            0 -1 145 -67306760 2042326844 -1245385 -1083709459
            -1357061891 -1988627460 -1249968402 -1091222312</internalNodes>
          <leafValues>
            -1.7464683949947357e-01 6.4710694551467896e-01</leafValues></_>
        <_>
          <internalNodes>
            0 -1 111 -962068383 -1141957121 -1904312322 2059034414
            -1101083088 -1082687618 -956379137 -1153765788</internalNodes>
          <leafValues>
            -2.8005501627922058e-01 3.9819484949111938e-01</leafValues></_>
        <_>
          <internalNodes>
            0 -1 135 -21306797 531529142 -285282649 -847319064
            -1880673190 -17467521 1584157823 -1917198613</internalNodes>
          <leafValues>
            -2.7408641576766968e-01 4.3202343583106995e-01</leafValues></_>
        <_>
          <internalNodes>
            0 -1 73 1055047854 1610252255 -65969 1934720753 -1073802000
            -1379696780 1727985628 158711261</internalNodes>
          <leafValues>
            -2.7405443787574768e-01 4.1665095090866089e-01</leafValues></_>
        <_>
          <internalNodes>
            0 -1 195 -786056414 369263568 -1056931768 542740504
            -2128477694 -769556448 -1861148424 1497754415</internalNodes>
          <leafValues>
            -3.6655077338218689e-01 3.0273866653442383e-01</leafValues></_>
        <_>
          <internalNodes>
            0 -1 156 -1099974023 -672137329 -17930506 -717767060
            -1610631741 -1359708301 -293672990 -1537736787</internalNodes>
          <leafValues>
            -2.6256200671195984e-01 4.3013086915016174e-01</leafValues></_>
        <_>
          <internalNodes>
            0 -1 183 -580870525 -688193548 -336171139 1911025662
            -538444385 -715161737 -361129266 -751330136</internalNodes>
          <leafValues>
            -2.1919079124927521e-01 5.6486868858337402e-01</leafValues></_>
        <_>
          <internalNodes>
            0 -1 4 -1575996236 -1073559982 1361084691 1382744290
            -771678038 -624655919 520147600 105907137</internalNodes>
          <leafValues>
            -5.6219428777694702e-01 2.1877413988113403e-01</leafValues></_></weakClassifiers></_>
    <!-- stage 12 -->
    <_>
      <maxWeakCount>14</maxWeakCount>
      <stageThreshold>-7.9594165086746216e-01</stageThreshold>
      <weakClassifiers>
        <_>
          <internalNodes>
            0 -1 32 -925127957 -1029126038 -486801592 1751125410
            1081579304 1618836821 1109720732 1349776615</internalNodes>
          <leafValues>
            1.2838801369071007e-02 6.1451816558837891e-01</leafValues></_>
        <_>
          <internalNodes>
            0 -1 229 -21 112902137 1995059040 -848579097 1693840742
            372932569 1147082160 1144777983</internalNodes>
          <leafValues>
            -1.8867030739784241e-01 5.0666856765747070e-01</leafValues></_>
        <_>
          <internalNodes>
            0 -1 146 -246449003 -153894441 21168137 -1542450925
            -1008533112 1347586081 -1317360872 1915804430</internalNodes>
          <leafValues>
            -3.2237276434898376e-01 3.3027458190917969e-01</leafValues></_>
        <_>
          <internalNodes>
            0 -1 65 -1869549970 1554067738 755528074 -613826426
            -1198915778 -1057980089 320916318 1967639256</internalNodes>
          <leafValues>
            -4.1547486186027527e-01 2.3054262995719910e-01</leafValues></_>
        <_>
          <internalNodes>
            0 -1 16 1986049700 45705037 -1861608442 -276299505
            -2004869049 1660420685 1863432877 -951899318</internalNodes>
          <leafValues>
            -3.0929347872734070e-01 2.9578059911727905e-01</leafValues></_>
        <_>
          <internalNodes>
            0 -1 216 -202002575 -72093969 -16779534 -1813528588
            -135430750 -1353746597 -713164814 -1042293634</internalNodes>
          <leafValues>
            -2.3039327561855316e-01 4.2630562186241150e-01</leafValues></_>
        <_>
          <internalNodes>
            0 -1 220 1883279524 -528350966 777 24579 -1173970296
            1073807488 1912758344 1342238730</internalNodes>
          <leafValues>
            -3.6047655344009399e-01 3.0141943693161011e-01</leafValues></_>
        <_>
          <internalNodes>
            0 -1 3 -1563154457 -169152513 -34799701 -815566608
            1609324501 635895519 -536940824 -755456718</internalNodes>
          <leafValues>
            -3.0439081788063049e-01 3.4083276987075806e-01</leafValues></_>
        <_>
          <internalNodes>
            0 -1 39 -514383224 1410879635 134332418 1111625858 671260928
            1073774850 1237458947 941704273</internalNodes>
          <leafValues>
            -4.4256550073623657e-01 2.4861706793308258e-01</leafValues></_>
        <_>
          <internalNodes>
            0 -1 71 -874094997 -25841683 718962575 355978874 -142616592
            -1585155087 -59277330 -805628689</internalNodes>
          <leafValues>
            -2.0867411792278290e-01 4.8610246181488037e-01</leafValues></_>
        <_>
          <internalNodes>
            0 -1 151 -799694395 -1810459592 -2147467252 657690768
            -1878814684 -1877987070 50968768 1647404702</internalNodes>
          <leafValues>
            -3.4449663758277893e-01 3.0036258697509766e-01</leafValues></_>
        <_>
          <internalNodes>
            0 -1 51 -168468529 -638632591 1054785526 1903813474
            -1359010228 -421650563 1065246719 -1052006673</internalNodes>
          <leafValues>
            -1.6315688192844391e-01 5.9005439281463623e-01</leafValues></_>
        <_>
          <internalNodes>
            0 -1 28 235729224 1247072507 117735686 1183056143 1080162677
            -1072135678 730409140 -872338730</internalNodes>
          <leafValues>
            -4.3525129556655884e-01 2.5216078758239746e-01</leafValues></_>
        <_>
          <internalNodes>
            0 -1 9 -1721621524 1884422282 1073758596 65046925
            -1449965067 1620586664 -1728018116 37777800</internalNodes>
          <leafValues>
            -5.2973002195358276e-01 2.0266388356685638e-01</leafValues></_></weakClassifiers></_>
    <!-- stage 13 -->
    <_>
      <maxWeakCount>16</maxWeakCount>
      <stageThreshold>-5.1333230733871460e-01</stageThreshold>
      <weakClassifiers>
        <_>
          <internalNodes>
            0 -1 169 -659289532 -622506144 -17072529 19250987 2012544044
            342261604 -17011190 35683850</internalNodes>
          <leafValues>
            -1.0688836127519608e-01 5.0509732961654663e-01</leafValues></_>
        <_>
          <internalNodes>
            0 -1 191 -337117818 1498664530 -16843073 1461956530
            2113334175 1601385814 -153600802 -145525782</internalNodes>
          <leafValues>
            -1.4000171422958374e-01 5.4636037349700928e-01</leafValues></_>
        <_>
          <internalNodes>
            0 -1 116 -1291785728 -245591915 -654311273 2097795160
            -1711071084 2055372833 1082482826 215550024</internalNodes>
          <leafValues>
            -2.9415136575698853e-01 3.0884793400764465e-01</leafValues></_>
        <_>
          <internalNodes>
            0 -1 117 1994813174 -755257584 1877875942 1610022760
            -142256241 703575607 1517223593 -46174417</internalNodes>
          <leafValues>
            -2.5026056170463562e-01 4.0278548002243042e-01</leafValues></_>
        <_>
          <internalNodes>
            0 -1 222 2097146828 -764612761 1858010736 -1292763654
            -1342849212 -965251220 -964691985 -229312802</internalNodes>
          <leafValues>
            -2.6345431804656982e-01 3.7454223632812500e-01</leafValues></_>
        <_>
          <internalNodes>
            0 -1 38 -75497809 -193204231 1056665418 1361079239
            -134256991 -327254148 -1350766615 1459871647</internalNodes>
          <leafValues>
            -2.2288614511489868e-01 4.5531222224235535e-01</leafValues></_>
        <_>
          <internalNodes>
            0 -1 206 -1141079282 -1095991767 -268472782 -824115338
            1585446230 2136440703 2004342496 -1275332642</internalNodes>
          <leafValues>
            -2.9718181490898132e-01 3.1984588503837585e-01</leafValues></_>
        <_>
          <internalNodes>
            0 -1 50 -1397892671 1387200310 -21037186 1442758512
            -688228642 -1921056900 1417019364 -685885604</internalNodes>
          <leafValues>
            -2.4974291026592255e-01 3.8222101330757141e-01</leafValues></_>
        <_>
          <internalNodes>
            0 -1 123 345806476 1117147142 8470940 -1982322557 -802748364
            1770061976 1747841543 1917551706</internalNodes>
          <leafValues>
            -3.6914029717445374e-01 2.6998713612556458e-01</leafValues></_>
        <_>
          <internalNodes>
            0 -1 173 796323294 -1367605638 2147478591 829423335
            -1879724036 922058291 2146448847 2075194890</internalNodes>
          <leafValues>
            -2.3849877715110779e-01 4.1854277253150940e-01</leafValues></_>
        <_>
          <internalNodes>
            0 -1 161 1493458958 412500232 -1073414124 274661522 8585228
            -1607401447 -1207595468 -1453627228</internalNodes>
          <leafValues>
            -3.9946827292442322e-01 2.7403649687767029e-01</leafValues></_>
        <_>
          <internalNodes>
            0 -1 72 -571196430 1491856173 2130685823 2133880699
            1048413829 1996414846 -1611076034 125415391</internalNodes>
          <leafValues>
            -2.5319877266883850e-01 3.8613250851631165e-01</leafValues></_>
        <_>
          <internalNodes>
            0 -1 148 1142256273 614271388 -2008935585 299320342
            -746487624 -1307441127 -1609973700 1120277024</internalNodes>
          <leafValues>
            -3.0761060118675232e-01 3.2650461792945862e-01</leafValues></_>
        <_>
          <internalNodes>
            0 -1 11 -1854865572 -381829453 -16777352 165789559
            -1102359299 -1728348674 -1342208581 1429177598</internalNodes>
          <leafValues>
            -2.8214746713638306e-01 3.7196159362792969e-01</leafValues></_>
        <_>
          <internalNodes>
            0 -1 130 -1385647200 -1835415 -276929477 -248730003
            -445270073 1820162030 -461974337 -1653893770</internalNodes>
          <leafValues>
            -2.1110562980175018e-01 4.8137828707695007e-01</leafValues></_>
        <_>
          <internalNodes>
            0 -1 70 29364590 1209073733 16891932 175153482 1619361792
            1386266640 -1736226292 256372962</internalNodes>
          <leafValues>
            -4.2129164934158325e-01 2.6418176293373108e-01</leafValues></_></weakClassifiers></_>
    <!-- stage 14 -->
    <_>
      <maxWeakCount>15</maxWeakCount>
      <stageThreshold>-5.4273235797882080e-01</stageThreshold>
      <weakClassifiers>
        <_>
          <internalNodes>
            0 -1 167 -1346524544 243313568 788459760 1101836076
            532674276 254737852 1156997220 72959028</internalNodes>
          <leafValues>
            -2.5800377130508423e-01 4.6051031351089478e-01</leafValues></_>
        <_>
          <internalNodes>
            0 -1 60 -75768065 1311596214 -26287108 -1694679192
            -286042550 1985970046 -27465734 -1281374469</internalNodes>
          <leafValues>
            -1.8031908571720123e-01 4.6428960561752319e-01</leafValues></_>
        <_>
          <internalNodes>
            0 -1 102 -747268110 -1523499207 2139041778 784047863
            -42027114 -797020586 1357301323 162512165</internalNodes>
          <leafValues>
            -2.7912142872810364e-01 3.6323463916778564e-01</leafValues></_>
        <_>
          <internalNodes>
            0 -1 213 -423691654 -683839898 -1094713986 1570815867
            -152637243 -2055358603 -830761729 -754715442</internalNodes>
          <leafValues>
            -1.6770055890083313e-01 5.4501914978027344e-01</leafValues></_>
        <_>
          <internalNodes>
            0 -1 110 -1588954525 75497474 -1744748260 1213040720
            -1332207612 -2105532382 1250533411 -1073741150</internalNodes>
          <leafValues>
            -4.7356623411178589e-01 1.8578785657882690e-01</leafValues></_>
        <_>
          <internalNodes>
            0 -1 178 -393502254 -1588014038 263 -754891967 -904232274
            -1543004149 1367476250 264486968</internalNodes>
          <leafValues>
            -3.0735912919044495e-01 3.1213223934173584e-01</leafValues></_>
        <_>
          <internalNodes>
            0 -1 86 1402094778 -1005449012 1610661914 1346507153
            -1056396757 -1877972992 332679850 -1879039864</internalNodes>
          <leafValues>
            -3.7323331832885742e-01 2.6552218198776245e-01</leafValues></_>
        <_>
          <internalNodes>
            0 -1 68 -1039411968 335909259 268505240 1057009807
            -2113305594 134283266 -1995927947 367819074</internalNodes>
          <leafValues>
            -4.4235444068908691e-01 2.3447343707084656e-01</leafValues></_>
        <_>
          <internalNodes>
            0 -1 83 -1885358215 -919364077 -323683425 373752635
            1014903232 -1392525700 427189807 -557357572</internalNodes>
          <leafValues>
            -2.4509957432746887e-01 4.3469622731208801e-01</leafValues></_>
        <_>
          <internalNodes>
            0 -1 230 -541093949 1015807978 -1091618014 1940782909
            -1073781407 125795191 1979111394 -722348033</internalNodes>
          <leafValues>
            -2.4608418345451355e-01 4.0143728256225586e-01</leafValues></_>
        <_>
          <internalNodes>
            0 -1 12 -268119331 -1870282104 -1718595448 -1856535872
            16779747 -360185728 33652963 296026151</internalNodes>
          <leafValues>
            -3.2002723217010498e-01 3.5635843873023987e-01</leafValues></_>
        <_>
          <internalNodes>
            0 -1 210 -1087142775 -1897152882 1056440051 -1849705256
            226492378 -1502609931 524187035 -942943015</internalNodes>
          <leafValues>
            -2.3800384998321533e-01 4.5995727181434631e-01</leafValues></_>
        <_>
          <internalNodes>
            0 -1 168 -34615472 2067763142 796862003 1383055157
            -546056502 -27299979 779384558 -2109932758</internalNodes>
          <leafValues>
            -2.5769746303558350e-01 4.3064945936203003e-01</leafValues></_>
        <_>
          <internalNodes>
            0 -1 62 -1442807536 -1023409776 -1870183933 1758523650
            -1316615645 -794820608 412319753 -867758058</internalNodes>
          <leafValues>
            -3.6728075146675110e-01 3.1954130530357361e-01</leafValues></_>
        <_>
          <internalNodes>
            0 -1 184 13336834 21012595 50331840 -1202585192 -1841134944
            -2113929209 713465986 -1710653428</internalNodes>
          <leafValues>
            -3.6969396471977234e-01 2.7874904870986938e-01</leafValues></_></weakClassifiers></_>
    <!-- stage 15 -->
    <_>
      <maxWeakCount>13</maxWeakCount>
      <stageThreshold>-7.8651642799377441e-01</stageThreshold>
      <weakClassifiers>
        <_>
          <internalNodes>
            0 -1 40 -403721446 -1136722206 -402719940 -331293850
            1962362352 1738702288 1331000660 72840899</internalNodes>
          <leafValues>
            -1.6326530277729034e-01 5.0902527570724487e-01</leafValues></_>
        <_>
          <internalNodes>
            0 -1 226 -353397514 2012151662 1056878160 -623346058
            -1208105940 1333788483 -151685432 -209193042</internalNodes>
          <leafValues>
            -2.1165342628955841e-01 4.7429856657981873e-01</leafValues></_>
        <_>
          <internalNodes>
            0 -1 99 -1610158538 -787181564 -1862234088 1476432167
            -477518383 -1609432702 167498152 -1914206895</internalNodes>
          <leafValues>
            -3.2230618596076965e-01 3.2300642132759094e-01</leafValues></_>
        <_>
          <internalNodes>
            0 -1 58 1533935439 2027190207 1072872440 1030815723
            -596171016 -1895944713 2121492168 -27792102</internalNodes>
          <leafValues>
            -2.3668307065963745e-01 4.4703316688537598e-01</leafValues></_>
        <_>
          <internalNodes>
            0 -1 2 198213695 -711950064 285329473 -1224441468
            -1014466305 -637007720 721881683 -418530781</internalNodes>
          <leafValues>
            -3.0556774139404297e-01 3.7513321638107300e-01</leafValues></_>
        <_>
          <internalNodes>
            0 -1 180 -214582285 -740314518 -1417824783 -580386949
            1568134841 -1959329915 1288982703 -572785162</internalNodes>
          <leafValues>
            -1.4479792118072510e-01 6.8041217327117920e-01</leafValues></_>
        <_>
          <internalNodes>
            0 -1 192 1327788863 -92311850 -17891610 1753725171
            1610454812 -1890124204 -732072802 1347935974</internalNodes>
          <leafValues>
            -3.1047546863555908e-01 3.7613993883132935e-01</leafValues></_>
        <_>
          <internalNodes>
            0 -1 157 -58797255 -2043941198 -536938527 -1782784912
            -1786794205 -1380155521 1979000273 -1646265034</internalNodes>
          <leafValues>
            -3.2102504372596741e-01 3.5527649521827698e-01</leafValues></_>
        <_>
          <internalNodes>
            0 -1 93 -1092017257 -294097666 -407343237 -189440899
            2146732022 -188746115 1734471274 -582810416</internalNodes>
          <leafValues>
            -2.7729207277297974e-01 4.0222516655921936e-01</leafValues></_>
        <_>
          <internalNodes>
            0 -1 165 -1086395251 1013970680 788489970 -9568843
            -1879654497 -2048983209 704059198 -265366487</internalNodes>
          <leafValues>
            -2.5001487135887146e-01 4.5946359634399414e-01</leafValues></_>
        <_>
          <internalNodes>
            0 -1 187 -466760049 -2013298843 -285245573 -1095008421
            -1476567729 -834699409 351860402 -123830381</internalNodes>
          <leafValues>
            -2.5850698351860046e-01 4.4005134701728821e-01</leafValues></_>
        <_>
          <internalNodes>
            0 -1 138 1284438 -1923416055 1207992726 2087260176 268493312
            -1870200831 1107361946 -364658093</internalNodes>
          <leafValues>
            -3.3145335316658020e-01 3.6373820900917053e-01</leafValues></_>
        <_>
          <internalNodes>
            0 -1 30 1074051300 1212424215 16799232 -2079060153
            1477085716 -1958080511 -1560206416 1440755994</internalNodes>
          <leafValues>
            -5.5905044078826904e-01 2.2029724717140198e-01</leafValues></_></weakClassifiers></_>
    <!-- stage 16 -->
    <_>
      <maxWeakCount>12</maxWeakCount>
      <stageThreshold>-5.7222634553909302e-01</stageThreshold>
      <weakClassifiers>
        <_>
          <internalNodes>
            0 -1 198 -265173464 1009351970 -286356398 1429847912
            -1525799862 124288436 1057781913 -1935504228</internalNodes>
          <leafValues>
            -5.7046979665756226e-02 5.9070795774459839e-01</leafValues></_>
        <_>
          <internalNodes>
            0 -1 211 -236597523 -763806942 788459123 1391558257
            -461601186 1181089661 -1602948882 -211239953</internalNodes>
          <leafValues>
            -1.9795253872871399e-01 5.8131891489028931e-01</leafValues></_>
        <_>
          <internalNodes>
            0 -1 54 -352343538 1928239735 -1091637454 1379077743
            653681690 1190358884 -1666130236 -572799405</internalNodes>
          <leafValues>
            -2.8394100069999695e-01 4.4936114549636841e-01</leafValues></_>
        <_>
          <internalNodes>
            0 -1 103 -2143992816 -1185855488 188 -1760476797 1745404441
            -2119499643 -1604712306 -968691217</internalNodes>
          <leafValues>
            -4.1023564338684082e-01 3.1330230832099915e-01</leafValues></_>
        <_>
          <internalNodes>
            0 -1 109 -1984121550 -420921493 -421576967 -59662741
            2003762343 643334013 888332201 1229456471</internalNodes>
          <leafValues>
            -3.5428944230079651e-01 3.7828236818313599e-01</leafValues></_>
        <_>
          <internalNodes>
            0 -1 118 1374019519 -35733587 -1364740006 997455724
            -407459938 -1251049609 263517413 -1618545638</internalNodes>
          <leafValues>
            -1.9936652481555939e-01 6.3862752914428711e-01</leafValues></_>
        <_>
          <internalNodes>
            0 -1 128 -1330811749 -1150359685 -268771597 1676668560
            -34310437 -1782300690 913334193 -1548522115</internalNodes>
          <leafValues>
            -2.5816556811332703e-01 4.8483058810234070e-01</leafValues></_>
        <_>
          <internalNodes>
            0 -1 177 1526720510 -541327826 -285487506 2058764092
            95409486 122093429 259988878 -457466790</internalNodes>
          <leafValues>
            -2.8372132778167725e-01 4.6982860565185547e-01</leafValues></_>
        <_>
          <internalNodes>
            0 -1 202 -559164408 -370212893 -1216872475 -705762191
            762281967 -1408270338 345527458 -309602972</internalNodes>
          <leafValues>
            -3.1155687570571899e-01 4.5059505105018616e-01</leafValues></_>
        <_>
          <internalNodes>
            0 -1 75 -18142985 -1075118283 2130636406 1949658934
            -94931341 -1476427923 536116959 -248791105</internalNodes>
          <leafValues>
            -2.3250755667686462e-01 5.6952798366546631e-01</leafValues></_>
        <_>
          <internalNodes>
            0 -1 170 -1210137040 -80757146 -25264257 321613694
            2139082164 -159875249 -159580243 573428908</internalNodes>
          <leafValues>
            -3.5769000649452209e-01 3.9196985960006714e-01</leafValues></_>
        <_>
          <internalNodes>
            0 -1 113 1610764304 1681953104 268451855 -999030451
            1879074877 781189312 134283776 1145373057</internalNodes>
          <leafValues>
            -5.7289934158325195e-01 2.5995808839797974e-01</leafValues></_></weakClassifiers></_>
    <!-- stage 17 -->
    <_>
      <maxWeakCount>9</maxWeakCount>
      <stageThreshold>-8.9896243810653687e-01</stageThreshold>
      <weakClassifiers>
        <_>
          <internalNodes>
            0 -1 77 552377398 -1499296214 1862270919 -1920807622
            1589463718 -1073811535 -1118550044 -1057726908</internalNodes>
          <leafValues>
            -1.7869034409523010e-01 5.5312055349349976e-01</leafValues></_>
        <_>
          <internalNodes>
            0 -1 205 -319895550 -1993445768 1056894736 1379663725
            -27976441 -679575731 -167903593 -959256592</internalNodes>
          <leafValues>
            -3.2796320319175720e-01 3.9960947632789612e-01</leafValues></_>
        <_>
          <internalNodes>
            0 -1 43 -272634654 -954269970 -285213061 -1828847695
            -1082208764 -2042855595 -726272026 -758648949</internalNodes>
          <leafValues>
            -2.7720087766647339e-01 4.7689467668533325e-01</leafValues></_>
        <_>
          <internalNodes>
            0 -1 207 -794572333 -549748830 1862155833 497958908
            -813767548 -1988104193 509064702 -715920325</internalNodes>
          <leafValues>
            -1.8672131001949310e-01 6.8582516908645630e-01</leafValues></_>
        <_>
          <internalNodes>
            0 -1 114 2038457224 -1592032187 1082228964 -661352411
            21053826 -1190264827 -939040390 976243065</internalNodes>
          <leafValues>
            -4.0642380714416504e-01 3.2333165407180786e-01</leafValues></_>
        <_>
          <internalNodes>
            0 -1 139 2054240735 -197466125 -22076693 1030418203
            1739878089 -1677869122 -951158385 -273679158</internalNodes>
          <leafValues>
            -1.8745443224906921e-01 7.0934998989105225e-01</leafValues></_>
        <_>
          <internalNodes>
            0 -1 163 -33215281 396987951 -117440922 1383529724 938684034
            1160888317 -1931694764 352714696</internalNodes>
          <leafValues>
            -3.3449625968933105e-01 4.0387886762619019e-01</leafValues></_>
        <_>
          <internalNodes>
            0 -1 188 2080355472 -504955306 2121791292 901603116
            -1622010014 928479088 -302725665 -111947569</internalNodes>
          <leafValues>
            -2.7840214967727661e-01 5.1979064941406250e-01</leafValues></_>
        <_>
          <internalNodes>
            0 -1 215 -1098136878 269598720 75497473 6819841 -771653623
            -2088763384 1386447242 -661772116</internalNodes>
          <leafValues>
            -3.4825208783149719e-01 4.0782761573791504e-01</leafValues></_></weakClassifiers></_>
    <!-- stage 18 -->
    <_>
      <maxWeakCount>15</maxWeakCount>
      <stageThreshold>-5.5430698394775391e-01</stageThreshold>
      <weakClassifiers>
        <_>
          <internalNodes>
            0 -1 228 -541067830 573571006 -268517918 1153695018
            -16779706 740884446 888571604 -1261449277</internalNodes>
          <leafValues>
            5.8024689555168152e-02 6.5652173757553101e-01</leafValues></_>
        <_>
          <internalNodes>
            0 -1 25 -1054882974 1797594866 2113584872 -1351455002
            -311662890 82276222 1199036031 293852659</internalNodes>
          <leafValues>
            -2.5333049893379211e-01 4.1148468852043152e-01</leafValues></_>
        <_>
          <internalNodes>
            0 -1 152 1611891170 -2083843956 8978467 1496514819
            -1323482998 -1357840231 248068328 -2049862779</internalNodes>
          <leafValues>
            -3.1357723474502563e-01 3.3044260740280151e-01</leafValues></_>
        <_>
          <internalNodes>
            0 -1 131 -1950886699 -331829 -1073762627 960937513 939421401
            754777543 -855704450 -1954816849</internalNodes>
          <leafValues>
            -2.1568879485130310e-01 5.5032551288604736e-01</leafValues></_>
        <_>
          <internalNodes>
            0 -1 64 998981107 -17899727 1861533427 2146135386 1333538473
            -1812759010 -1199751581 -157362467</internalNodes>
          <leafValues>
            -1.9987422227859497e-01 5.1157677173614502e-01</leafValues></_>
        <_>
          <internalNodes>
            0 -1 91 -1096761872 -364934 787414865 -1318752412 1475674095
            -541593731 1048408748 -570429881</internalNodes>
          <leafValues>
            -1.7254921793937683e-01 5.7346230745315552e-01</leafValues></_>
        <_>
          <internalNodes>
            0 -1 181 1910059134 -1860665328 8406343 458752264 41634
            -1476386686 -2146925968 -1271258606</internalNodes>
          <leafValues>
            -3.0029013752937317e-01 3.6081907153129578e-01</leafValues></_>
        <_>
          <internalNodes>
            0 -1 121 1008125632 -1051721406 1075095636 -2037907101
            -620199897 1638670339 1082184597 2055944451</internalNodes>
          <leafValues>
            -3.8797962665557861e-01 3.2391998171806335e-01</leafValues></_>
        <_>
          <internalNodes>
            0 -1 31 -4199706 -689840266 -16843536 1207230326 2129540702
            1190876776 629110246 -682369553</internalNodes>
          <leafValues>
            -2.4258762598037720e-01 5.1736438274383545e-01</leafValues></_>
        <_>
          <internalNodes>
            0 -1 219 -1268408402 -144285860 2146369534 1071308396
            -134963308 -524420 -536944644 -931408365</internalNodes>
          <leafValues>
            -2.1600486338138580e-01 5.4214888811111450e-01</leafValues></_>
        <_>
          <internalNodes>
            0 -1 124 -251246553 -1953619631 -733342458 474218888
            1744851106 -374341613 -1070946011 1478828185</internalNodes>
          <leafValues>
            -3.6436995863914490e-01 3.3039659261703491e-01</leafValues></_>
        <_>
          <internalNodes>
            0 -1 96 8388816 -456064885 1887490456 1548915152 -922058551
            1753350272 -1988065152 -1307934075</internalNodes>
          <leafValues>
            -3.6305040121078491e-01 3.3392196893692017e-01</leafValues></_>
        <_>
          <internalNodes>
            0 -1 115 -670449662 1463845166 -1996271145 -1126592243
            -1065058038 437813377 279478843 -1557003592</internalNodes>
          <leafValues>
            -3.5516837239265442e-01 3.3149519562721252e-01</leafValues></_>
        <_>
          <internalNodes>
            0 -1 55 -2090090843 -72356099 -281112645 2104225619
            2046438838 -1074571457 -8848071 -2080174517</internalNodes>
          <leafValues>
            -2.2621947526931763e-01 5.3714972734451294e-01</leafValues></_>
        <_>
          <internalNodes>
            0 -1 150 -1431027796 2021621622 -1124090124 -881115292
            -1074743809 -553746563 -1657882641 -1484646299</internalNodes>
          <leafValues>
            -3.0969864130020142e-01 4.1575181484222412e-01</leafValues></_></weakClassifiers></_>
    <!-- stage 19 -->
    <_>
      <maxWeakCount>13</maxWeakCount>
      <stageThreshold>-8.3537977933883667e-01</stageThreshold>
      <weakClassifiers>
        <_>
          <internalNodes>
            0 -1 198 -265178378 -600245197 -286290856 355155818
            625977087 -1620410956 1963693471 -2009097190</internalNodes>
          <leafValues>
            1.0976226627826691e-01 7.6539587974548340e-01</leafValues></_>
        <_>
          <internalNodes>
            0 -1 129 -928254566 -826790145 -572211353 -280339726
            1060132051 -1527941122 -16973569 -1930437437</internalNodes>
          <leafValues>
            -1.8270666897296906e-01 5.6222099065780640e-01</leafValues></_>
        <_>
          <internalNodes>
            0 -1 147 -379202919 -1137832195 -273699239 -647586190
            1340921576 -192954371 1043119355 -1485212185</internalNodes>
          <leafValues>
            -2.3317708075046539e-01 5.9404933452606201e-01</leafValues></_>
        <_>
          <internalNodes>
            0 -1 185 -630331237 -750915708 2146402039 432140150
            1559535012 -1796296859 -1200759766 -1357916338</internalNodes>
          <leafValues>
            -1.6788543760776520e-01 6.5336489677429199e-01</leafValues></_>
        <_>
          <internalNodes>
            0 -1 231 -550502776 1069252512 -352403478 2000289268
            670219411 930967509 -1109813573 -548675617</internalNodes>
          <leafValues>
            -1.5238620340824127e-01 7.0984905958175659e-01</leafValues></_>
        <_>
          <internalNodes>
            0 -1 105 -2126396618 142647496 16875522 1761985683
            1300465824 -385843031 -1708490481 -938130760</internalNodes>
          <leafValues>
            -3.7144097685813904e-01 3.2528102397918701e-01</leafValues></_>
        <_>
          <internalNodes>
            0 -1 74 -355992905 1596972664 -268538895 2034499381
            1845446612 -690585769 2096583995 -1575130</internalNodes>
          <leafValues>
            -2.0162682235240936e-01 6.2241613864898682e-01</leafValues></_>
        <_>
          <internalNodes>
            0 -1 22 -974740556 935112122 -268730628 -441893020
            -1493179146 -1929510914 1835529471 -581196422</internalNodes>
          <leafValues>
            -2.3816104233264923e-01 5.0437408685684204e-01</leafValues></_>
        <_>
          <internalNodes>
            0 -1 17 -1857814821 -244552582 -1074806791 -976769822
            -151599439 1174207980 242548726 1837475750</internalNodes>
          <leafValues>
            -2.4301539361476898e-01 5.1261085271835327e-01</leafValues></_>
        <_>
          <internalNodes>
            0 -1 125 -2054876136 1233469636 581697 226103427 53348
            -1440669568 1115816652 -1004565760</internalNodes>
          <leafValues>
            -4.1375422477722168e-01 3.2007598876953125e-01</leafValues></_>
        <_>
          <internalNodes>
            0 -1 134 448711567 -59342942 1861746546 734461884 -46772529
            -270369306 276763859 1507472837</internalNodes>
          <leafValues>
            -3.2793083786964417e-01 4.2049720883369446e-01</leafValues></_>
        <_>
          <internalNodes>
            0 -1 42 -1040072596 1560281103 738197718 1477705732 8978561
            1745354760 -1610055529 -959086421</internalNodes>
          <leafValues>
            -3.3473259210586548e-01 3.9348864555358887e-01</leafValues></_>
        <_>
          <internalNodes>
            0 -1 106 -1604099065 -487850758 -70095 1795337523
            -2038460802 1339355125 -388212738 -1434960678</internalNodes>
          <leafValues>
            -3.0711203813552856e-01 4.3941697478294373e-01</leafValues></_></weakClassifiers></_></stages>
  <features>
    <_>
      <rect>
        0 0 2 1</rect></_>
    <_>
      <rect>
        0 0 3 5</rect></_>
    <_>
      <rect>
        0 0 4 2</rect></_>
    <_>
      <rect>
        0 0 5 4</rect></_>
    <_>
      <rect>
        0 0 6 8</rect></_>
    <_>
      <rect>
        0 0 8 4</rect></_>
    <_>
      <rect>
        0 0 8 5</rect></_>
    <_>
      <rect>
        0 0 8 6</rect></_>
    <_>
      <rect>
        0 0 8 7</rect></_>
    <_>
      <rect>
        0 0 8 8</rect></_>
    <_>
      <rect>
        0 1 1 1</rect></_>
    <_>
      <rect>
        0 1 2 5</rect></_>
    <_>
      <rect>
        0 1 3 1</rect></_>
    <_>
      <rect>
        0 1 6 6</rect></_>
    <_>
      <rect>
        0 1 8 5</rect></_>
    <_>
      <rect>
        0 2 2 2</rect></_>
    <_>
      <rect>
        0 2 5 4</rect></_>
    <_>
      <rect>
        0 3 3 3</rect></_>
    <_>
      <rect>
        0 3 4 3</rect></_>
    <_>
      <rect>
        0 3 4 4</rect></_>
    <_>
      <rect>
        0 3 4 6</rect></_>
    <_>
      <rect>
        0 4 1 1</rect></_>
    <_>
      <rect>
        0 4 2 3</rect></_>
    <_>
      <rect>
        0 4 3 4</rect></_>
    <_>
      <rect>
        0 5 2 1</rect></_>
    <_>
      <rect>
        0 5 2 3</rect></_>
    <_>
      <rect>
        0 5 3 3</rect></_>
    <_>
      <rect>
        0 5 3 6</rect></_>
    <_>
      <rect>
        0 5 6 5</rect></_>
    <_>
      <rect>
        0 6 1 1</rect></_>
    <_>
      <rect>
        0 6 5 4</rect></_>
    <_>
      <rect>
        0 7 1 2</rect></_>
    <_>
      <rect>
        0 7 2 4</rect></_>
    <_>
      <rect>
        0 8 2 3</rect></_>
    <_>
      <rect>
        0 9 5 5</rect></_>
    <_>
      <rect>
        0 9 8 5</rect></_>
    <_>
      <rect>
        0 10 1 1</rect></_>
    <_>
      <rect>
        0 11 2 3</rect></_>
    <_>
      <rect>
        0 12 2 3</rect></_>
    <_>
      <rect>
        0 12 2 4</rect></_>
    <_>
      <rect>
        0 12 7 4</rect></_>
    <_>
      <rect>
        0 13 1 1</rect></_>
    <_>
      <rect>
        0 14 2 1</rect></_>
    <_>
      <rect>
        0 15 1 1</rect></_>
    <_>
      <rect>
        0 17 1 1</rect></_>
    <_>
      <rect>
        0 18 1 1</rect></_>
    <_>
      <rect>
        0 18 3 2</rect></_>
    <_>
      <rect>
        0 19 1 1</rect></_>
    <_>
      <rect>
        1 0 2 3</rect></_>
    <_>
      <rect>
        1 1 7 6</rect></_>
    <_>
      <rect>
        1 2 2 1</rect></_>
    <_>
      <rect>
        1 2 3 2</rect></_>
    <_>
      <rect>
        1 4 4 3</rect></_>
    <_>
      <rect>
        1 8 5 2</rect></_>
    <_>
      <rect>
        1 10 3 3</rect></_>
    <_>
      <rect>
        1 12 3 4</rect></_>
    <_>
      <rect>
        1 15 2 2</rect></_>
    <_>
      <rect>
        1 15 3 3</rect></_>
    <_>
      <rect>
        1 15 4 3</rect></_>
    <_>
      <rect>
        1 15 6 3</rect></_>
    <_>
      <rect>
        1 17 1 1</rect></_>
    <_>
      <rect>
        2 0 1 1</rect></_>
    <_>
      <rect>
        2 1 2 2</rect></_>
    <_>
      <rect>
        2 1 3 3</rect></_>
    <_>
      <rect>
        2 1 5 6</rect></_>
    <_>
      <rect>
        2 3 7 5</rect></_>
    <_>
      <rect>
        2 8 1 1</rect></_>
    <_>
      <rect>
        2 9 6 5</rect></_>
    <_>
      <rect>
        2 9 7 4</rect></_>
    <_>
      <rect>
        2 10 3 4</rect></_>
    <_>
      <rect>
        2 10 4 4</rect></_>
    <_>
      <rect>
        2 11 5 4</rect></_>
    <_>
      <rect>
        2 15 3 3</rect></_>
    <_>
      <rect>
        2 18 3 2</rect></_>
    <_>
      <rect>
        2 18 5 2</rect></_>
    <_>
      <rect>
        2 19 1 1</rect></_>
    <_>
      <rect>
        3 0 1 1</rect></_>
    <_>
      <rect>
        3 0 3 2</rect></_>
    <_>
      <rect>
        3 0 5 5</rect></_>
    <_>
      <rect>
        3 0 6 4</rect></_>
    <_>
      <rect>
        3 0 7 4</rect></_>
    <_>
      <rect>
        3 0 7 8</rect></_>
    <_>
      <rect>
        3 1 1 1</rect></_>
    <_>
      <rect>
        3 1 6 7</rect></_>
    <_>
      <rect>
        3 12 7 4</rect></_>
    <_>
      <rect>
        3 16 2 2</rect></_>
    <_>
      <rect>
        3 17 1 1</rect></_>
    <_>
      <rect>
        3 18 1 1</rect></_>
    <_>
      <rect>
        3 21 1 1</rect></_>
    <_>
      <rect>
        4 0 1 1</rect></_>
    <_>
      <rect>
        4 0 2 2</rect></_>
    <_>
      <rect>
        4 0 3 1</rect></_>
    <_>
      <rect>
        4 1 3 7</rect></_>
    <_>
      <rect>
        4 5 5 6</rect></_>
    <_>
      <rect>
        4 9 2 1</rect></_>
    <_>
      <rect>
        4 15 6 3</rect></_>
    <_>
      <rect>
        4 18 1 1</rect></_>
    <_>
      <rect>
        4 19 1 1</rect></_>
    <_>
      <rect>
        5 0 1 2</rect></_>
    <_>
      <rect>
        5 0 3 4</rect></_>
    <_>
      <rect>
        5 0 6 2</rect></_>
    <_>
      <rect>
        5 0 6 3</rect></_>
    <_>
      <rect>
        5 0 6 4</rect></_>
    <_>
      <rect>
        5 0 6 7</rect></_>
    <_>
      <rect>
        5 0 6 8</rect></_>
    <_>
      <rect>
        5 3 2 2</rect></_>
    <_>
      <rect>
        5 3 4 4</rect></_>
    <_>
      <rect>
        5 5 5 4</rect></_>
    <_>
      <rect>
        5 8 3 3</rect></_>
    <_>
      <rect>
        5 8 4 5</rect></_>
    <_>
      <rect>
        5 9 1 1</rect></_>
    <_>
      <rect>
        5 20 1 1</rect></_>
    <_>
      <rect>
        6 0 4 1</rect></_>
    <_>
      <rect>
        6 0 4 2</rect></_>
    <_>
      <rect>
        6 0 5 4</rect></_>
    <_>
      <rect>
        6 0 5 5</rect></_>
    <_>
      <rect>
        6 1 2 2</rect></_>
    <_>
      <rect>
        6 1 5 3</rect></_>
    <_>
      <rect>
        6 2 5 3</rect></_>
    <_>
      <rect>
        6 3 1 1</rect></_>
    <_>
      <rect>
        6 4 5 6</rect></_>
    <_>
      <rect>
        6 5 4 3</rect></_>
    <_>
      <rect>
        7 1 4 7</rect></_>
    <_>
      <rect>
        7 2 4 4</rect></_>
    <_>
      <rect>
        7 3 5 4</rect></_>
    <_>
      <rect>
        7 7 4 4</rect></_>
    <_>
      <rect>
        7 10 1 1</rect></_>
    <_>
      <rect>
        7 18 4 2</rect></_>
    <_>
      <rect>
        8 6 2 3</rect></_>
    <_>
      <rect>
        8 6 4 5</rect></_>
    <_>
      <rect>
        9 0 2 1</rect></_>
    <_>
      <rect>
        9 0 4 2</rect></_>
    <_>
      <rect>
        9 0 5 4</rect></_>
    <_>
      <rect>
        9 0 5 5</rect></_>
    <_>
      <rect>
        9 5 4 3</rect></_>
    <_>
      <rect>
        9 7 4 4</rect></_>
    <_>
      <rect>
        9 8 3 3</rect></_>
    <_>
      <rect>
        9 11 5 4</rect></_>
    <_>
      <rect>
        10 0 3 2</rect></_>
    <_>
      <rect>
        10 2 4 3</rect></_>
    <_>
      <rect>
        10 10 4 4</rect></_>
    <_>
      <rect>
        10 15 1 1</rect></_>
    <_>
      <rect>
        10 18 1 1</rect></_>
    <_>
      <rect>
        10 20 1 1</rect></_>
    <_>
      <rect>
        11 0 1 1</rect></_>
    <_>
      <rect>
        11 0 3 1</rect></_>
    <_>
      <rect>
        11 0 4 6</rect></_>
    <_>
      <rect>
        11 1 3 3</rect></_>
    <_>
      <rect>
        11 1 4 3</rect></_>
    <_>
      <rect>
        11 6 1 1</rect></_>
    <_>
      <rect>
        12 0 1 1</rect></_>
    <_>
      <rect>
        12 2 3 2</rect></_>
    <_>
      <rect>
        12 8 3 4</rect></_>
    <_>
      <rect>
        12 12 4 4</rect></_>
    <_>
      <rect>
        12 21 1 1</rect></_>
    <_>
      <rect>
        13 2 3 1</rect></_>
    <_>
      <rect>
        13 14 3 2</rect></_>
    <_>
      <rect>
        13 18 3 2</rect></_>
    <_>
      <rect>
        14 0 1 1</rect></_>
    <_>
      <rect>
        14 1 3 3</rect></_>
    <_>
      <rect>
        14 2 3 4</rect></_>
    <_>
      <rect>
        14 4 3 2</rect></_>
    <_>
      <rect>
        14 5 2 2</rect></_>
    <_>
      <rect>
        14 5 3 4</rect></_>
    <_>
      <rect>
        14 10 3 2</rect></_>
    <_>
      <rect>
        14 18 1 1</rect></_>
    <_>
      <rect>
        14 18 3 2</rect></_>
    <_>
      <rect>
        14 21 2 1</rect></_>
    <_>
      <rect>
        15 0 2 1</rect></_>
    <_>
      <rect>
        15 0 3 3</rect></_>
    <_>
      <rect>
        15 0 3 4</rect></_>
    <_>
      <rect>
        15 1 3 4</rect></_>
    <_>
      <rect>
        15 2 3 6</rect></_>
    <_>
      <rect>
        15 3 3 4</rect></_>
    <_>
      <rect>
        15 5 3 4</rect></_>
    <_>
      <rect>
        15 8 1 1</rect></_>
    <_>
      <rect>
        15 9 3 5</rect></_>
    <_>
      <rect>
        15 11 3 3</rect></_>
    <_>
      <rect>
        15 13 2 3</rect></_>
    <_>
      <rect>
        15 18 2 2</rect></_>
    <_>
      <rect>
        15 18 3 2</rect></_>
    <_>
      <rect>
        16 0 2 1</rect></_>
    <_>
      <rect>
        16 1 1 1</rect></_>
    <_>
      <rect>
        16 3 2 2</rect></_>
    <_>
      <rect>
        16 12 1 1</rect></_>
    <_>
      <rect>
        17 1 2 2</rect></_>
    <_>
      <rect>
        17 1 2 3</rect></_>
    <_>
      <rect>
        17 4 1 1</rect></_>
    <_>
      <rect>
        17 5 2 3</rect></_>
    <_>
      <rect>
        17 13 1 1</rect></_>
    <_>
      <rect>
        17 21 1 1</rect></_>
    <_>
      <rect>
        18 2 2 3</rect></_>
    <_>
      <rect>
        18 3 2 3</rect></_>
    <_>
      <rect>
        18 4 2 1</rect></_>
    <_>
      <rect>
        18 5 2 3</rect></_>
    <_>
      <rect>
        18 8 2 2</rect></_>
    <_>
      <rect>
        18 10 1 1</rect></_>
    <_>
      <rect>
        18 10 2 3</rect></_>
    <_>
      <rect>
        18 10 2 4</rect></_>
    <_>
      <rect>
        18 12 2 4</rect></_>
    <_>
      <rect>
        18 16 2 2</rect></_>
    <_>
      <rect>
        18 17 2 2</rect></_>
    <_>
      <rect>
        18 18 1 1</rect></_>
    <_>
      <rect>
        18 20 2 1</rect></_>
    <_>
      <rect>
        18 21 1 1</rect></_>
    <_>
      <rect>
        19 6 1 1</rect></_>
    <_>
      <rect>
        19 11 1 1</rect></_>
    <_>
      <rect>
        19 12 1 2</rect></_>
    <_>
      <rect>
        19 13 1 1</rect></_>
    <_>
      <rect>
        19 17 1 2</rect></_>
    <_>
      <rect>
        19 21 1 1</rect></_>
    <_>
      <rect>
        20 4 1 1</rect></_>
    <_>
      <rect>
        20 5 1 1</rect></_>
    <_>
      <rect>
        20 5 1 2</rect></_>
    <_>
      <rect>
        20 8 1 2</rect></_>
    <_>
      <rect>
        20 14 1 2</rect></_>
    <_>
      <rect>
        20 17 1 1</rect></_>
    <_>
      <rect>
        20 18 1 1</rect></_>
    <_>
      <rect>
        21 1 1 1</rect></_>
    <_>
      <rect>
        21 1 1 4</rect></_>
    <_>
      <rect>
        21 2 1 4</rect></_>
    <_>
      <rect>
        21 3 1 1</rect></_>
    <_>
      <rect>
        21 5 1 1</rect></_>
    <_>
      <rect>
        21 6 1 1</rect></_>
    <_>
      <rect>
        21 6 1 3</rect></_>
    <_>
      <rect>
        21 7 1 1</rect></_>
    <_>
      <rect>
        21 9 1 1</rect></_>
    <_>
      <rect>
        21 10 1 1</rect></_>
    <_>
      <rect>
        21 10 1 2</rect></_>
    <_>
      <rect>
        21 11 1 3</rect></_>
    <_>
      <rect>
        21 14 1 1</rect></_>
    <_>
      <rect>
        21 15 1 2</rect></_>
    <_>
      <rect>
        21 16 1 1</rect></_>
    <_>
      <rect>
        21 17 1 1</rect></_>
    <_>
      <rect>
        21 18 1 2</rect></_>
    <_>
      <rect>
        21 19 1 1</rect></_>
    <_>
      <rect>
        21 21 1 1</rect></_></features></cascade>
</opencv_storage>
