<?xml version="1.0"?>
<opencv_storage>
<cascade>
  <stageType>BOOST</stageType>
  <featureType>LBP</featureType>
  <height>24</height>
  <width>24</width>
  <stageParams>
    <boostType>GAB</boostType>
    <minHitRate>9.9500000476837158e-01</minHitRate>
    <maxFalseAlarm>5.0000000000000000e-01</maxFalseAlarm>
    <weightTrimRate>9.4999999999999996e-01</weightTrimRate>
    <maxDepth>1</maxDepth>
    <maxWeakCount>100</maxWeakCount></stageParams>
  <featureParams>
    <maxCatCount>256</maxCatCount>
    <featSize>1</featSize></featureParams>
  <stageNum>20</stageNum>
  <stages>
    <!-- stage 0 -->
    <_>
      <maxWeakCount>5</maxWeakCount>
      <stageThreshold>-1.4554158449172974e+00</stageThreshold>
      <weakClassifiers>
        <_>
          <internalNodes>
            0 -1 47 -59048024 -113623128 -16842758 322564024 -958474552
            618691952 1056340734 13826</internalNodes>
          <leafValues>
            -6.0176014900207520e-01 7.3983740806579590e-01</leafValues></_>
        <_>
          <internalNodes>
            0 -1 119 -34668920 -241074370 -251658560 1348664866
            1996455304 1718972254 -218977078 -257722689</internalNodes>
          <leafValues>
            -4.8063164949417114e-01 7.0015907287597656e-01</leafValues></_>
        <_>
          <internalNodes>
            0 -1 17 2044399795 -206311502 1929325624 1903765537
            939472010 -1489538189 264178702 -441245573</internalNodes>
          <leafValues>
            -4.4696587324142456e-01 7.1246415376663208e-01</leafValues></_>
        <_>
          <internalNodes>
            0 -1 95 -2105531744 -2070900736 -805237614 -1313060672
            966263209 -2130698111 -1987919120 -1214766720</internalNodes>
          <leafValues>
            -5.7388436794281006e-01 5.8375519514083862e-01</leafValues></_>
        <_>
          <internalNodes>
            0 -1 81 -50402584 343277161 -16778310 200113838 -461546082
            -1402962064 1727496139 -1876724181</internalNodes>
          <leafValues>
            -5.3296452760696411e-01 6.4499735832214355e-01</leafValues></_></weakClassifiers></_>
    <!-- stage 1 -->
    <_>
      <maxWeakCount>4</maxWeakCount>
      <stageThreshold>-8.5861641168594360e-01</stageThreshold>
      <weakClassifiers>
        <_>
          <internalNodes>
            0 -1 146 35135488 128 -2147481216 34344960 279519300
            536870920 8986626 -1802895135</internalNodes>
          <leafValues>
            -7.1830987930297852e-01 6.5938866138458252e-01</leafValues></_>
        <_>
          <internalNodes>
            0 -1 60 -1171125728 -1884545356 -1094812078 -686594067
            1434074112 805240703 -709478536 -1477221002</internalNodes>
          <leafValues>
            -5.6188708543777466e-01 6.0576659440994263e-01</leafValues></_>
        <_>
          <internalNodes>
            0 -1 32 -617350494 -205822018 -1342215116 -1289639264
            804769007 -1208221825 800458399 -751840909</internalNodes>
          <leafValues>
            -4.4445240497589111e-01 7.3283481597900391e-01</leafValues></_>
        <_>
          <internalNodes>
            0 -1 136 -1526685534 144 1073832019 -1722417071 12607641
            32899 -1199005441 -2000975377</internalNodes>
          <leafValues>
            -5.1166558265686035e-01 6.0914742946624756e-01</leafValues></_></weakClassifiers></_>
    <!-- stage 2 -->
    <_>
      <maxWeakCount>5</maxWeakCount>
      <stageThreshold>-4.6528300642967224e-01</stageThreshold>
      <weakClassifiers>
        <_>
          <internalNodes>
            0 -1 45 -2144468960 103694138 -1207978443 981368444
            351666752 2112712573 494557093 -1292495500</internalNodes>
          <leafValues>
            -5.2188551425933838e-01 6.9464200735092163e-01</leafValues></_>
        <_>
          <internalNodes>
            0 -1 144 -1937109878 -1431933716 -486555791 -1141932112
            -2013872268 -1879146497 -838877729 -1113920257</internalNodes>
          <leafValues>
            -4.4100764393806458e-01 6.8915218114852905e-01</leafValues></_>
        <_>
          <internalNodes>
            0 -1 105 -1360913252 -1392869648 1056964605 -1196138580
            -1073758217 -1913683971 939505140 -1500898016</internalNodes>
          <leafValues>
            -5.6813669204711914e-01 5.7736790180206299e-01</leafValues></_>
        <_>
          <internalNodes>
            0 -1 6 -733883944 -788066160 402751497 320147465 -2105505558
            411140232 142657679 1075874304</internalNodes>
          <leafValues>
            -6.3714593648910522e-01 5.1055663824081421e-01</leafValues></_>
        <_>
          <internalNodes>
            0 -1 20 -79760863 -1279791235 2146909756 -239916382
            396844694 -1099432065 245761567 -943458949</internalNodes>
          <leafValues>
            -5.7277166843414307e-01 6.0672831535339355e-01</leafValues></_></weakClassifiers></_>
    <!-- stage 3 -->
    <_>
      <maxWeakCount>7</maxWeakCount>
      <stageThreshold>-1.1675212383270264e+00</stageThreshold>
      <weakClassifiers>
        <_>
          <internalNodes>
            0 -1 122 581878002 212217053 1593203711 704499439 83166398
            8216180 419386621 20677787</internalNodes>
          <leafValues>
            -5.3760445117950439e-01 6.0736197233200073e-01</leafValues></_>
        <_>
          <internalNodes>
            0 -1 102 -1531837296 -1884637452 -65794 -1144113156
            -1512245283 536633339 2012714997 -1078326248</internalNodes>
          <leafValues>
            -4.5198154449462891e-01 5.4956108331680298e-01</leafValues></_>
        <_>
          <internalNodes>
            0 -1 133 -447480581 269549735 285526039 1695232000
            1082353795 830537736 -1052311382 1152729282</internalNodes>
          <leafValues>
            -4.8017621040344238e-01 5.1508432626724243e-01</leafValues></_>
        <_>
          <internalNodes>
            0 -1 100 -1137299562 -2064388 -20612 -80511452 -1342292650
            -587857921 -671369238 -5630574</internalNodes>
          <leafValues>
            -4.0189972519874573e-01 6.3012045621871948e-01</leafValues></_>
        <_>
          <internalNodes>
            0 -1 143 -1405992736 570425602 -1073709052 -731938815
            -1340997535 -2130706304 -359489504 -1464958725</internalNodes>
          <leafValues>
            -5.1020985841751099e-01 5.0031173229217529e-01</leafValues></_>
        <_>
          <internalNodes>
            0 -1 8 319812016 1968398336 -2130607872 -1853190072
            -1803353630 538976398 1216584459 -805127762</internalNodes>
          <leafValues>
            -5.3687256574630737e-01 4.9141427874565125e-01</leafValues></_>
        <_>
          <internalNodes>
            0 -1 18 1970532851 837025136 -268485207 1910716153
            2004833457 838565887 2004783023 -1694772133</internalNodes>
          <leafValues>
            -4.2203021049499512e-01 6.6682624816894531e-01</leafValues></_></weakClassifiers></_>
    <!-- stage 4 -->
    <_>
      <maxWeakCount>5</maxWeakCount>
      <stageThreshold>-3.2848364114761353e-01</stageThreshold>
      <weakClassifiers>
        <_>
          <internalNodes>
            0 -1 24 -1439553022 -1502185617 -268523598 -50669572
            1685984256 96436087 -176181260 -1280051212</internalNodes>
          <leafValues>
            -2.6548671722412109e-01 6.9518715143203735e-01</leafValues></_>
        <_>
          <internalNodes>
            0 -1 85 -1364710232 746483709 780091114 -1594687752 -96779
            -310382724 -25760552 -1893040</internalNodes>
          <leafValues>
            -4.1313031315803528e-01 5.6841307878494263e-01</leafValues></_>
        <_>
          <internalNodes>
            0 -1 115 -2137907184 -904888184 -1862057903 -1164181504
            -1878883648 -2138963840 -2004843872 -1602090992</internalNodes>
          <leafValues>
            -6.0123056173324585e-01 4.1209119558334351e-01</leafValues></_>
        <_>
          <internalNodes>
            0 -1 128 1347482363 836149249 1644265804 785711872
            -1073631045 -201228286 -619724037 276165714</internalNodes>
          <leafValues>
            -5.3921097517013550e-01 4.7992309927940369e-01</leafValues></_>
        <_>
          <internalNodes>
            0 -1 114 -1088281216 -4657285 -65547 -8433756 -1246388764
            -1258323985 -1107906564 -1165878084</internalNodes>
          <leafValues>
            -4.5164239406585693e-01 6.1064308881759644e-01</leafValues></_></weakClassifiers></_>
    <!-- stage 5 -->
    <_>
      <maxWeakCount>8</maxWeakCount>
      <stageThreshold>-7.5152689218521118e-01</stageThreshold>
      <weakClassifiers>
        <_>
          <internalNodes>
            0 -1 4 997679394 -819342 -55489 -75796703 -780689422
            439747330 -12970 1914699802</internalNodes>
          <leafValues>
            -4.8114630579948425e-01 5.6439882516860962e-01</leafValues></_>
        <_>
          <internalNodes>
            0 -1 43 -47192399 -1281230925 2063532606 -69148552
            -1073765497 -134217733 796331213 -209849285</internalNodes>
          <leafValues>
            -3.2792794704437256e-01 6.0112589597702026e-01</leafValues></_>
        <_>
          <internalNodes>
            0 -1 140 -2045378064 -1571782528 419500049 2130772499
            -1191149453 -2138963808 -1316976189 -1194704711</internalNodes>
          <leafValues>
            -4.6655845642089844e-01 4.8088014125823975e-01</leafValues></_>
        <_>
          <internalNodes>
            0 -1 103 -33688362 1501329259 -16843073 -1855095125
            -193014530 -1896679580 -159531125 -1341573345</internalNodes>
          <leafValues>
            -3.5701316595077515e-01 6.0415875911712646e-01</leafValues></_>
        <_>
          <internalNodes>
            0 -1 82 -670566249 1133758465 1342193673 419680386 822674371
            -1559691128 -1341564758 1759499438</internalNodes>
          <leafValues>
            -4.5502340793609619e-01 4.6072041988372803e-01</leafValues></_>
        <_>
          <internalNodes>
            0 -1 19 1906044977 269717649 -2126511923 -2094956351 4344805
            571515008 1090603213 346933592</internalNodes>
          <leafValues>
            -4.9337255954742432e-01 4.4057497382164001e-01</leafValues></_>
        <_>
          <internalNodes>
            0 -1 1 -36531778 464748736 285376784 -989364224 4407483
            8912896 147599 -1063318990</internalNodes>
          <leafValues>
            -4.8054149746894836e-01 4.7054100036621094e-01</leafValues></_>
        <_>
          <internalNodes>
            0 -1 83 -1845297028 -1576873968 1476493634 939687936
            -1878851357 1879048192 -1869962530 -1299042200</internalNodes>
          <leafValues>
            -5.0420850515365601e-01 4.9151694774627686e-01</leafValues></_></weakClassifiers></_>
    <!-- stage 6 -->
    <_>
      <maxWeakCount>7</maxWeakCount>
      <stageThreshold>-6.9119977951049805e-01</stageThreshold>
      <weakClassifiers>
        <_>
          <internalNodes>
            0 -1 5 -117646090 -1325469122 -285474881 463662062
            -856236294 -1805320400 -1225327033 71571008</internalNodes>
          <leafValues>
            -4.7499999403953552e-01 5.5254238843917847e-01</leafValues></_>
        <_>
          <internalNodes>
            0 -1 75 -1930416 358268720 -8476823 -1769942 -1086351437
            -37945802 1068834585 -77652401</internalNodes>
          <leafValues>
            -3.9134079217910767e-01 5.0764089822769165e-01</leafValues></_>
        <_>
          <internalNodes>
            0 -1 69 -2046688248 139460624 8421584 -1998978800
            -2138928470 25690240 1216350956 -1901983576</internalNodes>
          <leafValues>
            -5.0921267271041870e-01 3.9638379216194153e-01</leafValues></_>
        <_>
          <internalNodes>
            0 -1 145 -1601556480 109052036 -805119917 -86966144
            -1182691303 32770 553789615 -1381367221</internalNodes>
          <leafValues>
            -5.4739528894424438e-01 3.7376296520233154e-01</leafValues></_>
        <_>
          <internalNodes>
            0 -1 132 -792537612 -771518392 1342260627 1620840858
            1073785002 537272336 -519511301 -1332500438</internalNodes>
          <leafValues>
            -4.9763008952140808e-01 4.4738647341728210e-01</leafValues></_>
        <_>
          <internalNodes>
            0 -1 44 1993375873 450285713 1073814041 -1045889024
            293638320 1653080106 -2139061726 59474607</internalNodes>
          <leafValues>
            -6.0164666175842285e-01 3.2692411541938782e-01</leafValues></_>
        <_>
          <internalNodes>
            0 -1 113 -1868291312 -1609039488 -1056865071 -166723567
            -2141190144 -2139062271 -2137505541 -1078851448</internalNodes>
          <leafValues>
            -5.2327144145965576e-01 4.1832551360130310e-01</leafValues></_></weakClassifiers></_>
    <!-- stage 7 -->
    <_>
      <maxWeakCount>7</maxWeakCount>
      <stageThreshold>-4.6039590239524841e-01</stageThreshold>
      <weakClassifiers>
        <_>
          <internalNodes>
            0 -1 16 1933288243 850571198 -1073793476 -1422348688
            523689233 -1284030602 224877593 877919778</internalNodes>
          <leafValues>
            -3.9252337813377380e-01 6.2313431501388550e-01</leafValues></_>
        <_>
          <internalNodes>
            0 -1 10 1290437456 934706942 -268534219 1068728191 787380132
            -1162076161 251559871 73375387</internalNodes>
          <leafValues>
            -4.5028072595596313e-01 5.3465062379837036e-01</leafValues></_>
        <_>
          <internalNodes>
            0 -1 104 -2013207556 1962967810 33044 386072648 1510047988
            -602922872 1074365085 812367918</internalNodes>
          <leafValues>
            -5.0811171531677246e-01 4.6042132377624512e-01</leafValues></_>
        <_>
          <internalNodes>
            0 -1 57 -989220478 -2122285039 16842934 1230536848 658869128
            -1434353528 541329038 -1118863310</internalNodes>
          <leafValues>
            -4.7464030981063843e-01 4.5828607678413391e-01</leafValues></_>
        <_>
          <internalNodes>
            0 -1 39 404018068 285278600 36931 119120208 612402109
            -1693941622 -2138373477 1783449694</internalNodes>
          <leafValues>
            -4.4531127810478210e-01 4.8334547877311707e-01</leafValues></_>
        <_>
          <internalNodes>
            0 -1 23 -1071537485 -1873698412 -2147372841 -1048477567
            1124139010 1644691602 24838723 256835587</internalNodes>
          <leafValues>
            -6.0679763555526733e-01 3.6558762192726135e-01</leafValues></_>
        <_>
          <internalNodes>
            0 -1 51 775732725 -326123716 2147479551 -1241612547
            2096586610 -1359120643 -8585234 -1902434348</internalNodes>
          <leafValues>
            -4.5230591297149658e-01 5.3259885311126709e-01</leafValues></_></weakClassifiers></_>
    <!-- stage 8 -->
    <_>
      <maxWeakCount>6</maxWeakCount>
      <stageThreshold>-2.9962256550788879e-01</stageThreshold>
      <weakClassifiers>
        <_>
          <internalNodes>
            0 -1 82 -1841851983 402108159 1375683635 -788857610
            931071349 -1308674052 -454069185 1088595694</internalNodes>
          <leafValues>
            -4.0355330705642700e-01 5.9584087133407593e-01</leafValues></_>
        <_>
          <internalNodes>
            0 -1 118 1540748358 1356005917 1090801802 462754310
            -1055874959 -619863928 -1845493622 1074645546</internalNodes>
          <leafValues>
            -4.3396118283271790e-01 4.5004126429557800e-01</leafValues></_>
        <_>
          <internalNodes>
            0 -1 3 22131010 1062437719 226562092 -338738942 437893352
            -1081933820 -880312186 1451260674</internalNodes>
          <leafValues>
            -6.3401842117309570e-01 2.8935104608535767e-01</leafValues></_>
        <_>
          <internalNodes>
            0 -1 65 1571028274 -531435725 -1073796322 -72302934
            -1082683623 -1082916867 -1099813795 -207623506</internalNodes>
          <leafValues>
            -3.9034491777420044e-01 5.0305914878845215e-01</leafValues></_>
        <_>
          <internalNodes>
            0 -1 130 1950730719 273043481 -1845264379 2118517546
            -1068830508 312475680 -264130213 277289522</internalNodes>
          <leafValues>
            -4.7268363833427429e-01 3.9626142382621765e-01</leafValues></_>
        <_>
          <internalNodes>
            0 -1 22 323236918 1031803077 -788527081 1027711003
            1610721253 553648784 629383171 757293123</internalNodes>
          <leafValues>
            -6.1141264438629150e-01 2.9298987984657288e-01</leafValues></_></weakClassifiers></_>
    <!-- stage 9 -->
    <_>
      <maxWeakCount>8</maxWeakCount>
      <stageThreshold>-5.0873476266860962e-01</stageThreshold>
      <weakClassifiers>
        <_>
          <internalNodes>
            0 -1 107 -2111446016 -1366331406 717092850 -1756938382
            796176544 -1342210540 619974908 827807876</internalNodes>
          <leafValues>
            -2.4601367115974426e-01 5.7304430007934570e-01</leafValues></_>
        <_>
          <internalNodes>
            0 -1 40 134206507 -201334919 998209343 -639190 -276859458
            -1212262573 -8450604 -102649218</internalNodes>
          <leafValues>
            -3.4790128469467163e-01 4.6722105145454407e-01</leafValues></_>
        <_>
          <internalNodes>
            0 -1 90 -1002069056 -748994086 16844952 2130935824
            -788430053 -1983315536 172722319 1745135662</internalNodes>
          <leafValues>
            -5.1548039913177490e-01 3.3047544956207275e-01</leafValues></_>
        <_>
          <internalNodes>
            0 -1 33 -618419821 -1250705669 -1074913730 729280224
            1597234589 889190399 -285801430 -797852063</internalNodes>
          <leafValues>
            -3.8334724307060242e-01 4.5124310255050659e-01</leafValues></_>
        <_>
          <internalNodes>
            0 -1 38 1342456626 1963032769 16778516 -851345276 402761888
            -1735360376 -1828618068 851969</internalNodes>
          <leafValues>
            -5.2991944551467896e-01 2.9551303386688232e-01</leafValues></_>
        <_>
          <internalNodes>
            0 -1 134 1538234623 -1309353249 -1610666497 1677716978
            2113879463 -2055868169 -293838977 -440431364</internalNodes>
          <leafValues>
            -3.1266269087791443e-01 5.4130148887634277e-01</leafValues></_>
        <_>
          <internalNodes>
            0 -1 99 482142456 -177176642 -1073807632 -26349577
            -1610664195 -961052815 503314895 -1411709634</internalNodes>
          <leafValues>
            -3.4091123938560486e-01 5.3401803970336914e-01</leafValues></_>
        <_>
          <internalNodes>
            0 -1 0 -679619593 -65553 -557709 1865675617 1073657663 -1
            226408780 1150366138</internalNodes>
          <leafValues>
            -3.2146751880645752e-01 5.3332096338272095e-01</leafValues></_></weakClassifiers></_>
    <!-- stage 10 -->
    <_>
      <maxWeakCount>10</maxWeakCount>
      <stageThreshold>-4.2491605877876282e-01</stageThreshold>
      <weakClassifiers>
        <_>
          <internalNodes>
            0 -1 80 1811931707 1996298111 7827836 -235163087 -134218113
            1962883955 2143256566 1895569426</internalNodes>
          <leafValues>
            -3.0467763543128967e-01 5.6179267168045044e-01</leafValues></_>
        <_>
          <internalNodes>
            0 -1 64 -293684412 771588088 -9541874 392723890 -177869370
            125402612 222291004 -1140867554</internalNodes>
          <leafValues>
            -3.8709032535552979e-01 4.5088970661163330e-01</leafValues></_>
        <_>
          <internalNodes>
            0 -1 70 -165173340 -1230569474 1878699582 1466527484
            1171752878 653262719 -2055369190 -278421858</internalNodes>
          <leafValues>
            -3.4456279873847961e-01 4.7236636281013489e-01</leafValues></_>
        <_>
          <internalNodes>
            0 -1 134 -217651505 869388313 1342177302 39834011 1078158821
            536969219 -251576184 1373970478</internalNodes>
          <leafValues>
            -4.1590118408203125e-01 3.8607805967330933e-01</leafValues></_>
        <_>
          <internalNodes>
            0 -1 14 1091302369 872628234 1073778879 -985494238 356518723
            1125548163 136423983 -792361186</internalNodes>
          <leafValues>
            -4.3173590302467346e-01 3.9134752750396729e-01</leafValues></_>
        <_>
          <internalNodes>
            0 -1 52 -613224492 375277309 784301939 508497663 -806027803
            -1367435522 -1074864373 -486415202</internalNodes>
          <leafValues>
            -3.2317334413528442e-01 5.2916008234024048e-01</leafValues></_>
        <_>
          <internalNodes>
            0 -1 67 -2081475689 2008283125 -1079089225 -907647254
            -1141458246 2113880045 1065324331 -188916289</internalNodes>
          <leafValues>
            -3.5865232348442078e-01 4.7576406598091125e-01</leafValues></_>
        <_>
          <internalNodes>
            0 -1 94 1762242506 -553531680 453247128 -486964081
            -939294620 -1164900327 -1073327717 547712520</internalNodes>
          <leafValues>
            -5.3455632925033569e-01 3.4139770269393921e-01</leafValues></_>
        <_>
          <internalNodes>
            0 -1 98 -73079279 -1095880710 -1208490375 2109714175
            1433808048 -4587557 1870642344 -1085429774</internalNodes>
          <leafValues>
            -3.5589447617530823e-01 5.1063531637191772e-01</leafValues></_>
        <_>
          <internalNodes>
            0 -1 46 2009303020 -67960838 -65553 1069543285 534036460
            -2013413386 -867865234 -307674101</internalNodes>
          <leafValues>
            -2.8661760687828064e-01 5.6822043657302856e-01</leafValues></_></weakClassifiers></_>
    <!-- stage 11 -->
    <_>
      <maxWeakCount>9</maxWeakCount>
      <stageThreshold>-7.2014403343200684e-01</stageThreshold>
      <weakClassifiers>
        <_>
          <internalNodes>
            0 -1 125 1559034000 2125430698 1858071664 524811950
            -1401159808 -982123308 -881788022 -953953129</internalNodes>
          <leafValues>
            -3.2125767320394516e-02 6.8119716644287109e-01</leafValues></_>
        <_>
          <internalNodes>
            0 -1 88 -273750540 2130083704 -335741212 -1176648091
            -402981681 1325325780 1467489931 -1724394493</internalNodes>
          <leafValues>
            -2.9519584774971008e-01 4.9007764458656311e-01</leafValues></_>
        <_>
          <internalNodes>
            0 -1 63 856011204 20992832 -989769679 -1308614575 -249558809
            1085374466 -1987841587 2062264048</internalNodes>
          <leafValues>
            -4.3681246042251587e-01 3.5928037762641907e-01</leafValues></_>
        <_>
          <internalNodes>
            0 -1 29 -78383948 -138691078 -402653313 1060298425
            -1082941446 -1216421889 795073978 -1672269829</internalNodes>
          <leafValues>
            -3.2978123426437378e-01 5.3534954786300659e-01</leafValues></_>
        <_>
          <internalNodes>
            0 -1 84 2073816983 1402138531 2147413939 1584639526
            2121699263 1878949759 801021405 -62965935</internalNodes>
          <leafValues>
            -3.5202401876449585e-01 4.6899840235710144e-01</leafValues></_>
        <_>
          <internalNodes>
            0 -1 11 -1985646940 -1358975234 -16777554 -152668572
            -1107321092 511705079 -822626320 -335555122</internalNodes>
          <leafValues>
            -3.4932917356491089e-01 4.6833088994026184e-01</leafValues></_>
        <_>
          <internalNodes>
            0 -1 25 -778460632 957382976 -1609557763 -485949039
            1351038998 444596240 -1073651065 307610763</internalNodes>
          <leafValues>
            -5.0520133972167969e-01 3.5538393259048462e-01</leafValues></_>
        <_>
          <internalNodes>
            0 -1 26 -1154544270 -570556688 -17826969 1541717734
            -822293332 -1140984396 -203422097 2051657166</internalNodes>
          <leafValues>
            -3.8725748658180237e-01 4.5915299654006958e-01</leafValues></_>
        <_>
          <internalNodes>
            0 -1 58 -1446628716 -1845444415 356585613 -1727414008
            2038966840 1023541320 1829308747 -1034497333</internalNodes>
          <leafValues>
            -4.9929788708686829e-01 3.6783987283706665e-01</leafValues></_></weakClassifiers></_>
    <!-- stage 12 -->
    <_>
      <maxWeakCount>8</maxWeakCount>
      <stageThreshold>-6.8651956319808960e-01</stageThreshold>
      <weakClassifiers>
        <_>
          <internalNodes>
            0 -1 2 1091609072 332660969 17105392 798491929 44636396
            136323264 -1970599680 262210</internalNodes>
          <leafValues>
            -5.4192227125167847e-01 5.0378334522247314e-01</leafValues></_>
        <_>
          <internalNodes>
            0 -1 53 -1820854299 -751698184 -218220996 -470619542
            -1073762372 -1242054793 1073712477 -738336390</internalNodes>
          <leafValues>
            -3.3797222375869751e-01 5.0304645299911499e-01</leafValues></_>
        <_>
          <internalNodes>
            0 -1 135 -2007326465 277939091 16777227 -1585184572
            1073758275 25821312 1233354891 756777691</internalNodes>
          <leafValues>
            -4.5975473523139954e-01 3.6391758918762207e-01</leafValues></_>
        <_>
          <internalNodes>
            0 -1 109 1077838221 1963177985 21764 -1509940336 -259848151
            -209141616 1073742202 -198631418</internalNodes>
          <leafValues>
            -4.5696622133255005e-01 3.6582824587821960e-01</leafValues></_>
        <_>
          <internalNodes>
            0 -1 27 269025335 4279571 17302846 -708453429 1095279466
            -2130638838 -2132227705 -835579576</internalNodes>
          <leafValues>
            -5.2141249179840088e-01 3.4087952971458435e-01</leafValues></_>
        <_>
          <internalNodes>
            0 -1 129 -588386563 469659644 -268501029 2101311484
            1020689908 -185074440 1987903485 -1122298150</internalNodes>
          <leafValues>
            -3.4611406922340393e-01 5.6262868642807007e-01</leafValues></_>
        <_>
          <internalNodes>
            0 -1 108 -998202876 -795340776 285212756 437518360 402821818
            545783937 185205483 -2094301151</internalNodes>
          <leafValues>
            -4.0137207508087158e-01 4.6490278840065002e-01</leafValues></_>
        <_>
          <internalNodes>
            0 -1 79 1861142310 985956068 -82193 -704651359 -197204
            -1795270702 -188926326 -1041513461</internalNodes>
          <leafValues>
            -3.5267540812492371e-01 5.2154713869094849e-01</leafValues></_></weakClassifiers></_>
    <!-- stage 13 -->
    <_>
      <maxWeakCount>9</maxWeakCount>
      <stageThreshold>-5.8274835348129272e-01</stageThreshold>
      <weakClassifiers>
        <_>
          <internalNodes>
            0 -1 53 -1811993291 -1817051407 1946035774 -202183958
            1073677105 2013249399 805244185 -201330625</internalNodes>
          <leafValues>
            -1.8707150220870972e-01 6.0181909799575806e-01</leafValues></_>
        <_>
          <internalNodes>
            0 -1 50 15436563 1398608257 1140916539 -217949814 1646496717
            394332353 780896806 -258559673</internalNodes>
          <leafValues>
            -3.9590233564376831e-01 3.9917555451393127e-01</leafValues></_>
        <_>
          <internalNodes>
            0 -1 59 -1584954494 33955858 1409372227 -1441869528
            -1711152984 153157760 -794262622 -524132224</internalNodes>
          <leafValues>
            -4.7172287106513977e-01 3.5147881507873535e-01</leafValues></_>
        <_>
          <internalNodes>
            0 -1 37 -1559355389 -2095902576 1344507987 -248020847
            42011683 58916992 424214748 -207678477</internalNodes>
          <leafValues>
            -4.2295897006988525e-01 3.8401907682418823e-01</leafValues></_>
        <_>
          <internalNodes>
            0 -1 89 -498424852 1343374225 -519511737 -678591842
            -2001491509 -502790519 -486079615 -898383820</internalNodes>
          <leafValues>
            -4.1184857487678528e-01 4.0567860007286072e-01</leafValues></_>
        <_>
          <internalNodes>
            0 -1 42 -1432483678 235651202 1209094484 -465862528
            -1324643883 -930545535 -2104687998 -534831072</internalNodes>
          <leafValues>
            -4.9757474660873413e-01 3.2261559367179871e-01</leafValues></_>
        <_>
          <internalNodes>
            0 -1 7 -1878871836 1397690478 21655 844490967 931934155
            487497939 1627874594 -462577538</internalNodes>
          <leafValues>
            -4.6258011460304260e-01 3.6398506164550781e-01</leafValues></_>
        <_>
          <internalNodes>
            0 -1 68 -1347424687 779677477 -1148236 -276890650 1072790997
            -671974025 1333065833 -889561097</internalNodes>
          <leafValues>
            -4.0530323982238770e-01 4.3359783291816711e-01</leafValues></_>
        <_>
          <internalNodes>
            0 -1 21 1485015459 -1816022826 1946429342 -603650558
            720443950 -1570723328 679872022 -1068502765</internalNodes>
          <leafValues>
            -5.7057082653045654e-01 3.1626993417739868e-01</leafValues></_></weakClassifiers></_>
    <!-- stage 14 -->
    <_>
      <maxWeakCount>9</maxWeakCount>
      <stageThreshold>-5.1310330629348755e-01</stageThreshold>
      <weakClassifiers>
        <_>
          <internalNodes>
            0 -1 96 792396391 -1078583309 2137945601 -1365024970
            -1208017035 2146533311 1991367992 -1514365322</internalNodes>
          <leafValues>
            -1.7382812500000000e-01 5.9615385532379150e-01</leafValues></_>
        <_>
          <internalNodes>
            0 -1 34 193540659 -2145725805 -1794931601 33672257 543781
            -1459543766 1107599687 -228023325</internalNodes>
          <leafValues>
            -4.5752766728401184e-01 3.6217835545539856e-01</leafValues></_>
        <_>
          <internalNodes>
            0 -1 28 -1813197405 -97310858 -196 -134701189 -1489025220
            -1103183886 -29443 -743261234</internalNodes>
          <leafValues>
            -3.7553426623344421e-01 4.2861512303352356e-01</leafValues></_>
        <_>
          <internalNodes>
            0 -1 120 -323093282 820346744 -385942593 -1850114641
            1425993607 1420808036 1610612207 -1854442997</internalNodes>
          <leafValues>
            -3.4228923916816711e-01 4.8006179928779602e-01</leafValues></_>
        <_>
          <internalNodes>
            0 -1 139 -1609555856 8650752 -1073639206 1503379848
            -2105360247 -536707072 293642891 -740144983</internalNodes>
          <leafValues>
            -4.7152283787727356e-01 3.6187890172004700e-01</leafValues></_>
        <_>
          <internalNodes>
            0 -1 131 -1034046985 868533387 -1572663160 -1542159703
            17694979 2015535106 1611864617 -533528485</internalNodes>
          <leafValues>
            -4.8861780762672424e-01 3.7233379483222961e-01</leafValues></_>
        <_>
          <internalNodes>
            0 -1 48 1298465502 -770690667 603980052 1866727579
            -738195322 -1298095740 -998096505 1006969385</internalNodes>
          <leafValues>
            -5.1070392131805420e-01 3.3851581811904907e-01</leafValues></_>
        <_>
          <internalNodes>
            0 -1 62 251794649 184582144 268501085 -464895856 1614844641
            998244362 -1031614303 -557594480</internalNodes>
          <leafValues>
            -4.7883427143096924e-01 3.9149698615074158e-01</leafValues></_>
        <_>
          <internalNodes>
            0 -1 41 -1870094316 1930006609 -939144987 -1055916005 240162
            806043699 25657687 1483984795</internalNodes>
          <leafValues>
            -4.9385336041450500e-01 4.1940826177597046e-01</leafValues></_></weakClassifiers></_>
    <!-- stage 15 -->
    <_>
      <maxWeakCount>7</maxWeakCount>
      <stageThreshold>-4.4535988569259644e-01</stageThreshold>
      <weakClassifiers>
        <_>
          <internalNodes>
            0 -1 54 263421236 904818411 -1074036868 -1662632094
            1610595003 620527478 502652184 2037208688</internalNodes>
          <leafValues>
            -2.6078027486801147e-01 6.1895358562469482e-01</leafValues></_>
        <_>
          <internalNodes>
            0 -1 141 -147194129 812830463 1006538743 1153346812
            -168427689 292945917 -1132516901 1154819698</internalNodes>
          <leafValues>
            -4.0767845511436462e-01 4.5849406719207764e-01</leafValues></_>
        <_>
          <internalNodes>
            0 -1 13 21397024 893471187 -2130640892 -780066280
            -1874249054 579862528 436800449 1370640856</internalNodes>
          <leafValues>
            -5.3848707675933838e-01 3.5076361894607544e-01</leafValues></_>
        <_>
          <internalNodes>
            0 -1 87 1350938813 -1609334635 -1795096123 1560348752
            2014578843 -1468006400 1283522730 195830154</internalNodes>
          <leafValues>
            -3.9236938953399658e-01 4.5766454935073853e-01</leafValues></_>
        <_>
          <internalNodes>
            0 -1 30 1073980089 -1295941098 1073766420 -1073708926
            276938915 -1062698488 1376093249 -331001901</internalNodes>
          <leafValues>
            -4.6577063202857971e-01 4.2656430602073669e-01</leafValues></_>
        <_>
          <internalNodes>
            0 -1 116 -779016916 2080450919 -1996488388 -1919152102
            -2012624880 33916976 -939488744 1620920866</internalNodes>
          <leafValues>
            -5.6789904832839966e-01 3.7494125962257385e-01</leafValues></_>
        <_>
          <internalNodes>
            0 -1 74 -226634784 -558822034 1866445607 -396706627
            -956334096 -186220683 -4200931 -1150740977</internalNodes>
          <leafValues>
            -4.3139356374740601e-01 5.1901751756668091e-01</leafValues></_></weakClassifiers></_>
    <!-- stage 16 -->
    <_>
      <maxWeakCount>10</maxWeakCount>
      <stageThreshold>-6.1619472503662109e-01</stageThreshold>
      <weakClassifiers>
        <_>
          <internalNodes>
            0 -1 93 12550370 318836992 16778251 1711965192 -1073452905
            440551680 101024010 1346666528</internalNodes>
          <leafValues>
            -5.5502390861511230e-01 4.7714948654174805e-01</leafValues></_>
        <_>
          <internalNodes>
            0 -1 106 2128994695 1316716530 -45202 -557843166 -16801798
            -164097 310162924 -302019716</internalNodes>
          <leafValues>
            -2.7635234594345093e-01 5.2312278747558594e-01</leafValues></_>
        <_>
          <internalNodes>
            0 -1 91 -219636642 -844907848 -1342218505 1572593649
            -1988391361 -1573421203 -2072787892 -604831138</internalNodes>
          <leafValues>
            -3.2768279314041138e-01 4.5778274536132812e-01</leafValues></_>
        <_>
          <internalNodes>
            0 -1 142 599917194 37912712 1879134355 1910181904 167871696
            -342750719 -1728032610 1229628043</internalNodes>
          <leafValues>
            -5.1815474033355713e-01 2.9490321874618530e-01</leafValues></_>
        <_>
          <internalNodes>
            0 -1 12 1381114516 -925757102 1090520089 -905506800
            1082197163 1931575304 -938852167 -672939501</internalNodes>
          <leafValues>
            -4.2156928777694702e-01 3.5730481147766113e-01</leafValues></_>
        <_>
          <internalNodes>
            0 -1 78 -1349522252 1987248063 -82256 1974234984 536665486
            -1652623366 1610383022 -1951451212</internalNodes>
          <leafValues>
            -3.2040935754776001e-01 4.9738079309463501e-01</leafValues></_>
        <_>
          <internalNodes>
            0 -1 137 -2143092476 -745105131 -251645734 -1798565479
            -2139029504 715294850 -117421912 -1173413592</internalNodes>
          <leafValues>
            -4.0608358383178711e-01 3.9157706499099731e-01</leafValues></_>
        <_>
          <internalNodes>
            0 -1 49 -286269769 796646094 1069547438 -118865 1878589410
            -1896981123 1828568489 -834877798</internalNodes>
          <leafValues>
            -3.2436659932136536e-01 4.7999024391174316e-01</leafValues></_>
        <_>
          <internalNodes>
            0 -1 66 1032544661 1093714376 1091954360 -64423342
            1552624402 -1442619386 151783715 1405469259</internalNodes>
          <leafValues>
            -5.0164002180099487e-01 3.2211896777153015e-01</leafValues></_>
        <_>
          <internalNodes>
            0 -1 126 126830976 2115272322 -2130681594 -62519015
            -234620412 -1726246496 420108815 -819358061</internalNodes>
          <leafValues>
            -4.0407544374465942e-01 4.2528706789016724e-01</leafValues></_></weakClassifiers></_>
    <!-- stage 17 -->
    <_>
      <maxWeakCount>10</maxWeakCount>
      <stageThreshold>-5.9252083301544189e-01</stageThreshold>
      <weakClassifiers>
        <_>
          <internalNodes>
            0 -1 86 -17186590 284250612 -1459622151 494697527 1476282294
            -1126342665 754394584 -579128813</internalNodes>
          <leafValues>
            -2.3723939433693886e-02 6.4201366901397705e-01</leafValues></_>
        <_>
          <internalNodes>
            0 -1 76 1698113979 -1926234511 791553663 -705890694
            -277367421 -50331753 -180461 -1209174273</internalNodes>
          <leafValues>
            -2.5093057751655579e-01 4.8427316546440125e-01</leafValues></_>
        <_>
          <internalNodes>
            0 -1 36 -1554054397 855654464 -752877371 -226017270
            179056737 545456257 671649928 -351711139</internalNodes>
          <leafValues>
            -4.0142285823822021e-01 3.1722959876060486e-01</leafValues></_>
        <_>
          <internalNodes>
            0 -1 71 -416294217 -136057923 -1400914818 493858342
            928941685 -2066296966 -1560441384 -915842851</internalNodes>
          <leafValues>
            -3.3294698596000671e-01 4.2934706807136536e-01</leafValues></_>
        <_>
          <internalNodes>
            0 -1 112 314627828 748093443 -989740529 894677517 -578189883
            -1182474011 -1667676019 2111539978</internalNodes>
          <leafValues>
            -4.1552370786666870e-01 3.4512194991111755e-01</leafValues></_>
        <_>
          <internalNodes>
            0 -1 127 -996166316 1135611989 285220055 1892995168
            -1610573552 -1240891368 -930413672 -253047924</internalNodes>
          <leafValues>
            -3.8672631978988647e-01 3.8248392939567566e-01</leafValues></_>
        <_>
          <internalNodes>
            0 -1 73 774831820 -2212107 1073667903 974294951 -1073765333
            -805306641 800718159 2031328490</internalNodes>
          <leafValues>
            -3.6040630936622620e-01 4.3045723438262939e-01</leafValues></_>
        <_>
          <internalNodes>
            0 -1 9 1225909977 1128272811 -2130701996 -679227117
            1225393030 -510910421 -1071789372 1885911928</internalNodes>
          <leafValues>
            -4.4612962007522583e-01 3.5159084200859070e-01</leafValues></_>
        <_>
          <internalNodes>
            0 -1 15 885637776 -1072126834 1191463443 1371742240
            873583346 -1437958134 2046886731 822027957</internalNodes>
          <leafValues>
            -4.7413933277130127e-01 3.3988389372825623e-01</leafValues></_>
        <_>
          <internalNodes>
            0 -1 111 -989159406 562976155 -1056963179 -2078502778
            990055217 1747723282 -888732024 425017512</internalNodes>
          <leafValues>
            -5.6335127353668213e-01 2.8417894244194031e-01</leafValues></_></weakClassifiers></_>
    <!-- stage 18 -->
    <_>
      <maxWeakCount>9</maxWeakCount>
      <stageThreshold>-8.9607357978820801e-01</stageThreshold>
      <weakClassifiers>
        <_>
          <internalNodes>
            0 -1 97 716775696 -1347932290 1869578026 212610618 993044145
            2096750388 -1369886956 -781179658</internalNodes>
          <leafValues>
            -3.7364339828491211e-01 5.2696388959884644e-01</leafValues></_>
        <_>
          <internalNodes>
            0 -1 125 2113863352 2125430699 801107003 -1647837521
            1820065664 -1896481579 728824218 -1021838113</internalNodes>
          <leafValues>
            -2.8798243403434753e-01 5.5204385519027710e-01</leafValues></_>
        <_>
          <internalNodes>
            0 -1 56 925287075 -224133122 -449 -72533776 -1619554386
            -1207976453 804622207 -367008977</internalNodes>
          <leafValues>
            -3.0188009142875671e-01 5.1187729835510254e-01</leafValues></_>
        <_>
          <internalNodes>
            0 -1 138 -85928794 1375467516 -285376769 141524597
            1421508432 236806012 -1249683969 -1239731173</internalNodes>
          <leafValues>
            -3.7127608060836792e-01 4.3235278129577637e-01</leafValues></_>
        <_>
          <internalNodes>
            0 -1 101 -73145666 277480001 278803 471908898 1073840275
            -1744011000 -972438609 -399441136</internalNodes>
          <leafValues>
            -4.9258270859718323e-01 3.6064407229423523e-01</leafValues></_>
        <_>
          <internalNodes>
            0 -1 35 -2101308537 -1874837341 248257 33571034 134971536
            -1711259639 142753924 117948429</internalNodes>
          <leafValues>
            -5.4212355613708496e-01 3.1686249375343323e-01</leafValues></_>
        <_>
          <internalNodes>
            0 -1 55 1637411666 -1978499054 134512796 -1576582584
            -1735800263 -1706983264 25200648 -342814301</internalNodes>
          <leafValues>
            -4.6416971087455750e-01 4.0115806460380554e-01</leafValues></_>
        <_>
          <internalNodes>
            0 -1 72 666891732 1073462588 -1077936257 800964581
            2147442615 -1745321994 -276941511 -1281110165</internalNodes>
          <leafValues>
            -3.1293767690658569e-01 5.7257568836212158e-01</leafValues></_>
        <_>
          <internalNodes>
            0 -1 92 1580891120 -554795022 -1073844497 1869356927
            930577823 -545358025 -17138279 -1204173285</internalNodes>
          <leafValues>
            -3.6863982677459717e-01 5.1259469985961914e-01</leafValues></_></weakClassifiers></_>
    <!-- stage 19 -->
    <_>
      <maxWeakCount>8</maxWeakCount>
      <stageThreshold>-4.8160114884376526e-01</stageThreshold>
      <weakClassifiers>
        <_>
          <internalNodes>
            0 -1 110 -139104480 -59363785 1593752108 1122139694
            1606403496 1029668724 1515385002 269774862</internalNodes>
          <leafValues>
            -4.0219092369079590e-01 5.3240150213241577e-01</leafValues></_>
        <_>
          <internalNodes>
            0 -1 77 -386542873 565419902 587118451 -609816835
            -1082317379 -51290113 268249392 -33306903</internalNodes>
          <leafValues>
            -3.1668725609779358e-01 5.8586543798446655e-01</leafValues></_>
        <_>
          <internalNodes>
            0 -1 124 -1291321264 -1329520552 -2147479475 -1693712384
            -1820192504 671203346 -1576982386 -1400737792</internalNodes>
          <leafValues>
            -4.5603570342063904e-01 4.0491747856140137e-01</leafValues></_>
        <_>
          <internalNodes>
            0 -1 61 -14538589 459435646 -1627687187 325795578
            -1621747026 41897331 -176785409 -1775692390</internalNodes>
          <leafValues>
            -3.3774271607398987e-01 5.4220831394195557e-01</leafValues></_>
        <_>
          <internalNodes>
            0 -1 31 -566283053 1073217131 1073741685 -6115670
            -1610907784 243138549 1039498057 1065044859</internalNodes>
          <leafValues>
            -3.7555578351020813e-01 5.2547121047973633e-01</leafValues></_>
        <_>
          <internalNodes>
            0 -1 117 -288817360 401701883 -2342950 -2051985674
            1316420767 -184748161 2117992430 -669262825</internalNodes>
          <leafValues>
            -3.4347757697105408e-01 5.8907985687255859e-01</leafValues></_>
        <_>
          <internalNodes>
            0 -1 121 -1286577025 -1861943288 -2122317646 1091252233
            -1064693623 -1096269695 -1577006967 1640753285</internalNodes>
          <leafValues>
            -4.6011129021644592e-01 4.4048860669136047e-01</leafValues></_>
        <_>
          <internalNodes>
            0 -1 123 -687049056 1628471313 1042 335659137 1209385428
            1342214272 -1593609784 1495498824</internalNodes>
          <leafValues>
            -4.6529656648635864e-01 4.5893386006355286e-01</leafValues></_></weakClassifiers></_></stages>
  <features>
    <_>
      <rect>
        0 0 3 6</rect></_>
    <_>
      <rect>
        0 0 4 4</rect></_>
    <_>
      <rect>
        0 0 5 4</rect></_>
    <_>
      <rect>
        0 0 7 6</rect></_>
    <_>
      <rect>
        0 0 7 8</rect></_>
    <_>
      <rect>
        0 0 8 3</rect></_>
    <_>
      <rect>
        0 0 8 4</rect></_>
    <_>
      <rect>
        0 3 5 3</rect></_>
    <_>
      <rect>
        0 4 5 5</rect></_>
    <_>
      <rect>
        0 4 7 6</rect></_>
    <_>
      <rect>
        0 5 4 4</rect></_>
    <_>
      <rect>
        0 6 1 1</rect></_>
    <_>
      <rect>
        0 6 2 2</rect></_>
    <_>
      <rect>
        0 6 4 3</rect></_>
    <_>
      <rect>
        0 8 3 4</rect></_>
    <_>
      <rect>
        0 8 4 4</rect></_>
    <_>
      <rect>
        0 9 5 5</rect></_>
    <_>
      <rect>
        0 9 7 5</rect></_>
    <_>
      <rect>
        0 9 8 4</rect></_>
    <_>
      <rect>
        0 11 4 4</rect></_>
    <_>
      <rect>
        0 11 6 4</rect></_>
    <_>
      <rect>
        0 12 6 4</rect></_>
    <_>
      <rect>
        0 15 5 3</rect></_>
    <_>
      <rect>
        0 15 7 3</rect></_>
    <_>
      <rect>
        0 17 1 1</rect></_>
    <_>
      <rect>
        0 17 3 2</rect></_>
    <_>
      <rect>
        1 0 6 2</rect></_>
    <_>
      <rect>
        1 0 6 8</rect></_>
    <_>
      <rect>
        1 4 5 6</rect></_>
    <_>
      <rect>
        1 8 3 5</rect></_>
    <_>
      <rect>
        1 10 3 4</rect></_>
    <_>
      <rect>
        1 10 5 3</rect></_>
    <_>
      <rect>
        1 11 6 4</rect></_>
    <_>
      <rect>
        1 12 4 4</rect></_>
    <_>
      <rect>
        1 12 5 4</rect></_>
    <_>
      <rect>
        1 14 3 3</rect></_>
    <_>
      <rect>
        1 19 1 1</rect></_>
    <_>
      <rect>
        1 21 1 1</rect></_>
    <_>
      <rect>
        2 0 5 2</rect></_>
    <_>
      <rect>
        2 2 4 4</rect></_>
    <_>
      <rect>
        2 3 6 6</rect></_>
    <_>
      <rect>
        2 6 4 6</rect></_>
    <_>
      <rect>
        2 7 1 1</rect></_>
    <_>
      <rect>
        2 9 6 5</rect></_>
    <_>
      <rect>
        2 14 7 3</rect></_>
    <_>
      <rect>
        2 19 1 1</rect></_>
    <_>
      <rect>
        3 0 3 2</rect></_>
    <_>
      <rect>
        3 0 7 4</rect></_>
    <_>
      <rect>
        3 1 6 3</rect></_>
    <_>
      <rect>
        3 2 3 3</rect></_>
    <_>
      <rect>
        3 2 7 6</rect></_>
    <_>
      <rect>
        3 3 1 1</rect></_>
    <_>
      <rect>
        3 3 4 3</rect></_>
    <_>
      <rect>
        3 9 6 5</rect></_>
    <_>
      <rect>
        3 10 4 3</rect></_>
    <_>
      <rect>
        3 11 2 3</rect></_>
    <_>
      <rect>
        3 11 5 4</rect></_>
    <_>
      <rect>
        3 12 5 3</rect></_>
    <_>
      <rect>
        3 12 6 4</rect></_>
    <_>
      <rect>
        3 13 1 1</rect></_>
    <_>
      <rect>
        3 21 1 1</rect></_>
    <_>
      <rect>
        3 21 2 1</rect></_>
    <_>
      <rect>
        4 5 1 1</rect></_>
    <_>
      <rect>
        4 7 4 4</rect></_>
    <_>
      <rect>
        4 8 5 3</rect></_>
    <_>
      <rect>
        4 9 4 5</rect></_>
    <_>
      <rect>
        4 9 5 5</rect></_>
    <_>
      <rect>
        4 9 6 4</rect></_>
    <_>
      <rect>
        4 10 5 2</rect></_>
    <_>
      <rect>
        4 11 1 1</rect></_>
    <_>
      <rect>
        4 13 4 3</rect></_>
    <_>
      <rect>
        4 13 5 3</rect></_>
    <_>
      <rect>
        5 3 4 4</rect></_>
    <_>
      <rect>
        5 6 4 2</rect></_>
    <_>
      <rect>
        5 6 6 3</rect></_>
    <_>
      <rect>
        5 9 4 4</rect></_>
    <_>
      <rect>
        5 10 6 3</rect></_>
    <_>
      <rect>
        5 15 4 3</rect></_>
    <_>
      <rect>
        6 0 3 1</rect></_>
    <_>
      <rect>
        6 0 4 2</rect></_>
    <_>
      <rect>
        6 0 6 8</rect></_>
    <_>
      <rect>
        6 1 6 2</rect></_>
    <_>
      <rect>
        6 6 6 6</rect></_>
    <_>
      <rect>
        6 10 1 1</rect></_>
    <_>
      <rect>
        6 10 3 4</rect></_>
    <_>
      <rect>
        6 11 1 1</rect></_>
    <_>
      <rect>
        6 18 5 2</rect></_>
    <_>
      <rect>
        6 18 6 2</rect></_>
    <_>
      <rect>
        7 0 4 2</rect></_>
    <_>
      <rect>
        7 1 2 2</rect></_>
    <_>
      <rect>
        7 2 5 5</rect></_>
    <_>
      <rect>
        7 17 4 2</rect></_>
    <_>
      <rect>
        7 18 2 2</rect></_>
    <_>
      <rect>
        8 1 5 5</rect></_>
    <_>
      <rect>
        8 2 5 3</rect></_>
    <_>
      <rect>
        8 3 1 1</rect></_>
    <_>
      <rect>
        8 5 4 5</rect></_>
    <_>
      <rect>
        8 8 4 4</rect></_>
    <_>
      <rect>
        8 15 4 2</rect></_>
    <_>
      <rect>
        8 18 3 2</rect></_>
    <_>
      <rect>
        8 21 1 1</rect></_>
    <_>
      <rect>
        9 0 5 3</rect></_>
    <_>
      <rect>
        9 1 1 1</rect></_>
    <_>
      <rect>
        9 1 5 2</rect></_>
    <_>
      <rect>
        9 1 5 3</rect></_>
    <_>
      <rect>
        9 4 1 1</rect></_>
    <_>
      <rect>
        9 4 4 6</rect></_>
    <_>
      <rect>
        9 13 3 2</rect></_>
    <_>
      <rect>
        10 0 2 1</rect></_>
    <_>
      <rect>
        10 6 4 5</rect></_>
    <_>
      <rect>
        10 8 4 2</rect></_>
    <_>
      <rect>
        10 11 3 3</rect></_>
    <_>
      <rect>
        10 15 4 3</rect></_>
    <_>
      <rect>
        10 20 1 1</rect></_>
    <_>
      <rect>
        10 21 1 1</rect></_>
    <_>
      <rect>
        11 2 1 1</rect></_>
    <_>
      <rect>
        11 2 4 3</rect></_>
    <_>
      <rect>
        11 5 3 2</rect></_>
    <_>
      <rect>
        11 5 4 3</rect></_>
    <_>
      <rect>
        11 8 4 1</rect></_>
    <_>
      <rect>
        12 0 4 2</rect></_>
    <_>
      <rect>
        12 11 4 4</rect></_>
    <_>
      <rect>
        12 15 4 3</rect></_>
    <_>
      <rect>
        12 16 2 2</rect></_>
    <_>
      <rect>
        13 1 1 1</rect></_>
    <_>
      <rect>
        13 10 3 2</rect></_>
    <_>
      <rect>
        13 10 3 4</rect></_>
    <_>
      <rect>
        14 6 1 1</rect></_>
    <_>
      <rect>
        15 0 3 7</rect></_>
    <_>
      <rect>
        15 2 3 3</rect></_>
    <_>
      <rect>
        15 2 3 4</rect></_>
    <_>
      <rect>
        15 5 3 3</rect></_>
    <_>
      <rect>
        15 6 3 2</rect></_>
    <_>
      <rect>
        15 6 3 6</rect></_>
    <_>
      <rect>
        15 10 3 4</rect></_>
    <_>
      <rect>
        15 12 3 4</rect></_>
    <_>
      <rect>
        15 21 3 1</rect></_>
    <_>
      <rect>
        16 2 1 1</rect></_>
    <_>
      <rect>
        17 6 2 2</rect></_>
    <_>
      <rect>
        17 20 1 1</rect></_>
    <_>
      <rect>
        17 21 1 1</rect></_>
    <_>
      <rect>
        18 9 2 4</rect></_>
    <_>
      <rect>
        18 21 2 1</rect></_>
    <_>
      <rect>
        19 3 1 1</rect></_>
    <_>
      <rect>
        19 21 1 1</rect></_>
    <_>
      <rect>
        20 20 1 1</rect></_>
    <_>
      <rect>
        21 20 1 1</rect></_></features></cascade>
</opencv_storage>
