<?xml version="1.0"?>
<opencv_storage>
<cascade>
  <stageType>BOOST</stageType>
  <featureType>LBP</featureType>
  <height>24</height>
  <width>24</width>
  <stageParams>
    <boostType>GAB</boostType>
    <minHitRate>9.9500000476837158e-01</minHitRate>
    <maxFalseAlarm>5.0000000000000000e-01</maxFalseAlarm>
    <weightTrimRate>9.4999999999999996e-01</weightTrimRate>
    <maxDepth>1</maxDepth>
    <maxWeakCount>100</maxWeakCount></stageParams>
  <featureParams>
    <maxCatCount>256</maxCatCount>
    <featSize>1</featSize></featureParams>
  <stageNum>20</stageNum>
  <stages>
    <!-- stage 0 -->
    <_>
      <maxWeakCount>5</maxWeakCount>
      <stageThreshold>-5.9221804141998291e-01</stageThreshold>
      <weakClassifiers>
        <_>
          <internalNodes>
            0 -1 4 -180104739 -779022272 268460032 -250413056 1879052495
            578813984 1224884786 1082347591</internalNodes>
          <leafValues>
            -6.5169769525527954e-01 7.6425492763519287e-01</leafValues></_>
        <_>
          <internalNodes>
            0 -1 90 -16779474 -1 -284 -1476397060 -16385 -134348801
            -16797697 -1071132542</internalNodes>
          <leafValues>
            -4.8711788654327393e-01 7.9849958419799805e-01</leafValues></_>
        <_>
          <internalNodes>
            0 -1 40 -5963866 -536908545 -69633 2147483646 -142673922
            -167903233 -1610623086 -1275044507</internalNodes>
          <leafValues>
            -5.4061764478683472e-01 6.2068033218383789e-01</leafValues></_>
        <_>
          <internalNodes>
            0 -1 31 286331336 285691986 1493174649 622264577 -1988099928
            -1333133312 -2012609606 453707779</internalNodes>
          <leafValues>
            -5.2510792016983032e-01 5.5920273065567017e-01</leafValues></_>
        <_>
          <internalNodes>
            0 -1 18 835830223 1895944216 -1056865965 -485806064
            -1988087751 1082851488 -1868514219 -183627065</internalNodes>
          <leafValues>
            -5.8664345741271973e-01 5.2801245450973511e-01</leafValues></_></weakClassifiers></_>
    <!-- stage 1 -->
    <_>
      <maxWeakCount>5</maxWeakCount>
      <stageThreshold>-5.5199998617172241e-01</stageThreshold>
      <weakClassifiers>
        <_>
          <internalNodes>
            0 -1 69 1442129408 82837423 2013233070 -1209012226 939481070
            360644607 1031798783 -1255571585</internalNodes>
          <leafValues>
            -5.2509653568267822e-01 7.8615069389343262e-01</leafValues></_>
        <_>
          <internalNodes>
            0 -1 97 -212729631 -1739553503 -1761590960 -578748285
            -1333131016 830472192 -1029526092 -1029160560</internalNodes>
          <leafValues>
            -6.5344196557998657e-01 6.0913354158401489e-01</leafValues></_>
        <_>
          <internalNodes>
            0 -1 55 -1343134445 -1107329025 -268435461 -8421379
            2004840442 2147319671 -1073774658 -1145414273</internalNodes>
          <leafValues>
            -4.6417501568794250e-01 7.3563826084136963e-01</leafValues></_>
        <_>
          <internalNodes>
            0 -1 115 -1733795182 2 151568776 671776779 -1065154462
            276824200 1233759107 -2104524220</internalNodes>
          <leafValues>
            -6.7306864261627197e-01 5.2765804529190063e-01</leafValues></_>
        <_>
          <internalNodes>
            0 -1 2 -805220130 -619622320 268435916 -721084152
            -1602158421 268435459 -2146825746 1993539927</internalNodes>
          <leafValues>
            -5.2208000421524048e-01 5.6305551528930664e-01</leafValues></_></weakClassifiers></_>
    <!-- stage 2 -->
    <_>
      <maxWeakCount>5</maxWeakCount>
      <stageThreshold>-4.5333200693130493e-01</stageThreshold>
      <weakClassifiers>
        <_>
          <internalNodes>
            0 -1 7 -8389064 -17 -26 -1 -134974159 2105016319 -559276
            -135004601</internalNodes>
          <leafValues>
            -5.3361344337463379e-01 7.3632812500000000e-01</leafValues></_>
        <_>
          <internalNodes>
            0 -1 91 -16777233 -269549585 -66 1840250877 -131073
            720764927 -8527874 15724744</internalNodes>
          <leafValues>
            -5.0912940502166748e-01 6.2059760093688965e-01</leafValues></_>
        <_>
          <internalNodes>
            0 -1 64 -1717956136 847773696 268439569 2014773312
            -1568145368 41943168 -1736441720 -1199040464</internalNodes>
          <leafValues>
            -5.3978931903839111e-01 5.8240449428558350e-01</leafValues></_>
        <_>
          <internalNodes>
            0 -1 117 -16798166 -855719960 -1118606 -973799430
            -1375736073 74444799 -444744203 -520112706</internalNodes>
          <leafValues>
            -5.1260524988174438e-01 5.6211555004119873e-01</leafValues></_>
        <_>
          <internalNodes>
            0 -1 103 -251494057 290457728 -1744807854 2147057690
            813695040 -1342013312 134908080 -1165303801</internalNodes>
          <leafValues>
            -5.4363101720809937e-01 5.6708461046218872e-01</leafValues></_></weakClassifiers></_>
    <!-- stage 3 -->
    <_>
      <maxWeakCount>6</maxWeakCount>
      <stageThreshold>-6.8847280740737915e-01</stageThreshold>
      <weakClassifiers>
        <_>
          <internalNodes>
            0 -1 3 -1 -262145 -17039361 -1 -32769 1979711485 -34817
            1978627191</internalNodes>
          <leafValues>
            -3.7275984883308411e-01 7.5159233808517456e-01</leafValues></_>
        <_>
          <internalNodes>
            0 -1 49 -1087301289 2147319807 -1073745937 -32786
            -1207992333 -655369 -134289409 -1078298625</internalNodes>
          <leafValues>
            -3.1884282827377319e-01 7.1271127462387085e-01</leafValues></_>
        <_>
          <internalNodes>
            0 -1 52 -242506916 1082364032 1073791232 -1001029504
            -645823856 -1869348727 -2105158975 -1014042758</internalNodes>
          <leafValues>
            -4.9431312084197998e-01 5.1257967948913574e-01</leafValues></_>
        <_>
          <internalNodes>
            0 -1 27 -76985960 -117490014 1442807764 264171519 427407289
            293601279 -80482375 -1355317257</internalNodes>
          <leafValues>
            -4.4255137443542480e-01 5.3371864557266235e-01</leafValues></_>
        <_>
          <internalNodes>
            0 -1 77 -1542729582 -1587347453 -2147450542 -2059206655
            -2138437616 -1878882304 -2139092843 -1576294368</internalNodes>
          <leafValues>
            -4.9082580208778381e-01 4.8530280590057373e-01</leafValues></_>
        <_>
          <internalNodes>
            0 -1 57 -1408237169 -746519407 16847107 -650047488 270533300
            -1298005888 -352318958 -30930575</internalNodes>
          <leafValues>
            -5.3218394517898560e-01 4.5469155907630920e-01</leafValues></_></weakClassifiers></_>
    <!-- stage 4 -->
    <_>
      <maxWeakCount>7</maxWeakCount>
      <stageThreshold>-2.7720388770103455e-01</stageThreshold>
      <weakClassifiers>
        <_>
          <internalNodes>
            0 -1 65 -262153 -537919897 -1 -269484289 -134217746
            -144704001 -277020721 1613780578</internalNodes>
          <leafValues>
            -3.9922481775283813e-01 7.1747964620590210e-01</leafValues></_>
        <_>
          <internalNodes>
            0 -1 13 -524289 -1073741826 -3 -16389 -9084929 2146435063
            2147436151 1876950903</internalNodes>
          <leafValues>
            -3.9196956157684326e-01 6.7894786596298218e-01</leafValues></_>
        <_>
          <internalNodes>
            0 -1 73 503135729 486293310 1065156605 -1209180419
            -1074569775 704380927 -1120289352 -1145356389</internalNodes>
          <leafValues>
            -4.3675804138183594e-01 5.3617882728576660e-01</leafValues></_>
        <_>
          <internalNodes>
            0 -1 87 -570622551 -318930963 -246276 -704643074 -1263493640
            368443325 532135857 -1157949953</internalNodes>
          <leafValues>
            -4.1934689879417419e-01 5.8893030881881714e-01</leafValues></_>
        <_>
          <internalNodes>
            0 -1 120 -2121849087 -1551794048 805408848 -1105461232
            -1072979690 553812096 570884661 -1753077472</internalNodes>
          <leafValues>
            -6.0721850395202637e-01 3.9384829998016357e-01</leafValues></_>
        <_>
          <internalNodes>
            0 -1 21 -896446143 -1827208952 -1056796539 1493369233
            -872414415 -896958295 -1962354467 -1175453545</internalNodes>
          <leafValues>
            -4.8935306072235107e-01 4.7194534540176392e-01</leafValues></_>
        <_>
          <internalNodes>
            0 -1 86 -206404 1357602687 1610555322 2113863679 -536873035
            902791157 -537395780 129891711</internalNodes>
          <leafValues>
            -4.3305295705795288e-01 5.3243172168731689e-01</leafValues></_></weakClassifiers></_>
    <!-- stage 5 -->
    <_>
      <maxWeakCount>7</maxWeakCount>
      <stageThreshold>-4.5652392506599426e-01</stageThreshold>
      <weakClassifiers>
        <_>
          <internalNodes>
            0 -1 100 -144658 -286261252 -67108869 -285280784 -16394
            -1428750347 -1107427394 1088410774</internalNodes>
          <leafValues>
            -4.2171189188957214e-01 6.8756121397018433e-01</leafValues></_>
        <_>
          <internalNodes>
            0 -1 5 -17448969 -68222978 -5 -41943053 -671645833
            1979678719 -8914953 -671113217</internalNodes>
          <leafValues>
            -3.9205679297447205e-01 6.7258650064468384e-01</leafValues></_>
        <_>
          <internalNodes>
            0 -1 12 -75661701 -16809985 2147483639 -1073774613
            -268609544 -268828801 796348415 1732214526</internalNodes>
          <leafValues>
            -3.9485630393028259e-01 5.7642394304275513e-01</leafValues></_>
        <_>
          <internalNodes>
            0 -1 111 -1526308717 -2139094525 -788529132 -2104802943
            1141408069 -132055008 -2113789949 -1600323072</internalNodes>
          <leafValues>
            -5.6979441642761230e-01 4.1516989469528198e-01</leafValues></_>
        <_>
          <internalNodes>
            0 -1 106 -740651336 -1832919057 -524508 -1074790465
            1006060281 1744814071 2147366812 -572541441</internalNodes>
          <leafValues>
            -4.3924292922019958e-01 5.3478604555130005e-01</leafValues></_>
        <_>
          <internalNodes>
            0 -1 53 -364270856 -536838143 58753181 67223553 -2146959248
            268435590 -2147466874 -2036661359</internalNodes>
          <leafValues>
            -4.6429964900016785e-01 4.9606275558471680e-01</leafValues></_>
        <_>
          <internalNodes>
            0 -1 84 -95146010 89505795 -2080341632 1375752194 -536792833
            696844296 -1727978856 1131309608</internalNodes>
          <leafValues>
            -7.3479336500167847e-01 2.9379549622535706e-01</leafValues></_></weakClassifiers></_>
    <!-- stage 6 -->
    <_>
      <maxWeakCount>6</maxWeakCount>
      <stageThreshold>-7.7585452795028687e-01</stageThreshold>
      <weakClassifiers>
        <_>
          <internalNodes>
            0 -1 31 637288368 369000447 1073672061 1069510591
            -1174833680 -1199604739 1060837304 993878001</internalNodes>
          <leafValues>
            -5.2158695459365845e-01 6.7522168159484863e-01</leafValues></_>
        <_>
          <internalNodes>
            0 -1 36 -125908351 -780222913 1308509625 -571478017
            1899753424 -100729025 -130285570 -1615069702</internalNodes>
          <leafValues>
            -3.3274158835411072e-01 8.1223094463348389e-01</leafValues></_>
        <_>
          <internalNodes>
            0 -1 24 -6537 2126511982 -16777217 2113928959 -65539 -524293
            -2068 -130977935</internalNodes>
          <leafValues>
            -3.3947467803955078e-01 6.4417946338653564e-01</leafValues></_>
        <_>
          <internalNodes>
            0 -1 79 286905096 -1807118190 -788524543 1560871112
            144703664 -109051256 142674443 437960941</internalNodes>
          <leafValues>
            -4.9356412887573242e-01 4.6662086248397827e-01</leafValues></_>
        <_>
          <internalNodes>
            0 -1 109 -1055734607 -1869573867 268501391 -83558383
            -2009005567 -50265976 -1039627616 -2111634925</internalNodes>
          <leafValues>
            -5.6049662828445435e-01 4.7608095407485962e-01</leafValues></_>
        <_>
          <internalNodes>
            0 -1 75 1909496065 1092616720 4263941 419791493 -2109079406
            268501024 -2002123977 -1430564766</internalNodes>
          <leafValues>
            -4.5276466012001038e-01 5.1182442903518677e-01</leafValues></_></weakClassifiers></_>
    <!-- stage 7 -->
    <_>
      <maxWeakCount>6</maxWeakCount>
      <stageThreshold>-8.2140874862670898e-01</stageThreshold>
      <weakClassifiers>
        <_>
          <internalNodes>
            0 -1 46 -132611 -25743553 -1208582147 -134269185 -168165895
            -1711409164 -46923877 1069249919</internalNodes>
          <leafValues>
            -1.4766839146614075e-01 8.4340661764144897e-01</leafValues></_>
        <_>
          <internalNodes>
            0 -1 43 -50353230 2113863678 -1073828062 -33574931
            -536872001 1567571884 -542293 1909440394</internalNodes>
          <leafValues>
            -2.7505567669868469e-01 7.2692763805389404e-01</leafValues></_>
        <_>
          <internalNodes>
            0 -1 6 -246825385 -821984759 486539295 -737836857 -435421129
            -779911166 420043297 1911464614</internalNodes>
          <leafValues>
            -7.4223953485488892e-01 3.5620179772377014e-01</leafValues></_>
        <_>
          <internalNodes>
            0 -1 47 1100296977 -1726885231 1367425098 499482898 245
            -1186414079 1322105311 453707985</internalNodes>
          <leafValues>
            -5.5916756391525269e-01 4.2347249388694763e-01</leafValues></_>
        <_>
          <internalNodes>
            0 -1 9 -150619276 1371570177 1074790810 -334983035
            1094795395 939593858 1476398068 2102289078</internalNodes>
          <leafValues>
            -7.0547527074813843e-01 2.5001850724220276e-01</leafValues></_>
        <_>
          <internalNodes>
            0 -1 61 1359196712 -1060536302 -1862205440 -1991688063
            1900407438 1384153096 -800980854 2110120674</internalNodes>
          <leafValues>
            -4.4573745131492615e-01 4.7991952300071716e-01</leafValues></_></weakClassifiers></_>
    <!-- stage 8 -->
    <_>
      <maxWeakCount>7</maxWeakCount>
      <stageThreshold>-3.7835577130317688e-01</stageThreshold>
      <weakClassifiers>
        <_>
          <internalNodes>
            0 -1 63 -13053808 1501540265 268388936 -167804930 -910850568
            -1847721985 1597717916 435940814</internalNodes>
          <leafValues>
            -2.7390599250793457e-01 7.5764441490173340e-01</leafValues></_>
        <_>
          <internalNodes>
            0 -1 32 805224383 -289473025 -20574 -1224757592 2139077567
            386186026 2004172699 1988079614</internalNodes>
          <leafValues>
            -3.3654725551605225e-01 6.6190576553344727e-01</leafValues></_>
        <_>
          <internalNodes>
            0 -1 108 2147475326 -536903697 -69633 -1073741825 -8300
            -536870913 1978457612 -1111986721</internalNodes>
          <leafValues>
            -3.5111984610557556e-01 5.7253694534301758e-01</leafValues></_>
        <_>
          <internalNodes>
            0 -1 60 1996591116 -736673507 32912 -984612663 -796139135
            1510113280 -2138284022 2005860968</internalNodes>
          <leafValues>
            -4.7335311770439148e-01 4.1977763175964355e-01</leafValues></_>
        <_>
          <internalNodes>
            0 -1 110 -440212852 -1954475967 16843169 -50232943
            -1602125119 1611137024 -1056791878 -63965549</internalNodes>
          <leafValues>
            -4.3662661314010620e-01 4.7904688119888306e-01</leafValues></_>
        <_>
          <internalNodes>
            0 -1 56 1565217107 1511592581 8395025 352850076 -1475790813
            -662175742 1082769576 -1692761983</internalNodes>
          <leafValues>
            -4.8809000849723816e-01 4.2331746220588684e-01</leafValues></_>
        <_>
          <internalNodes>
            0 -1 33 17402492 -129708016 -2113929086 -1072365434
            -761194064 553650312 -268359550 348933868</internalNodes>
          <leafValues>
            -7.4690794944763184e-01 2.9255437850952148e-01</leafValues></_></weakClassifiers></_>
    <!-- stage 9 -->
    <_>
      <maxWeakCount>8</maxWeakCount>
      <stageThreshold>-5.9418612718582153e-01</stageThreshold>
      <weakClassifiers>
        <_>
          <internalNodes>
            0 -1 104 -8388945 1588592639 -16781323 -286392579 -302121225
            -134348803 -272650562 -1055931934</internalNodes>
          <leafValues>
            -2.3673792183399200e-01 7.4784111976623535e-01</leafValues></_>
        <_>
          <internalNodes>
            0 -1 59 -16681 2013265279 1073691306 -3 -34095426 -84017587
            -611670 2080363486</internalNodes>
          <leafValues>
            -2.5875511765480042e-01 7.6731383800506592e-01</leafValues></_>
        <_>
          <internalNodes>
            0 -1 34 327280912 -792719350 1090781457 -868138687
            -939490935 210239680 176790403 -79847208</internalNodes>
          <leafValues>
            -4.2725190520286560e-01 5.0995874404907227e-01</leafValues></_>
        <_>
          <internalNodes>
            0 -1 29 -21008391 -33587202 -65604 -33554433 -877544023
            -1631879203 -1087111237 725499829</internalNodes>
          <leafValues>
            -3.9759102463722229e-01 5.0462126731872559e-01</leafValues></_>
        <_>
          <internalNodes>
            0 -1 83 -251616720 -1025927807 16863617 1963917313
            -1601516654 268437643 -1558100446 -250621679</internalNodes>
          <leafValues>
            -5.6992942094802856e-01 3.5756275057792664e-01</leafValues></_>
        <_>
          <internalNodes>
            0 -1 96 1811935116 -1712472450 2147442664 -55582737
            -539165291 972947455 2147481534 -37749380</internalNodes>
          <leafValues>
            -4.0079975128173828e-01 5.3943556547164917e-01</leafValues></_>
        <_>
          <internalNodes>
            0 -1 88 1367426576 -1857486766 -2130619963 -50130928
            -2122219132 964788362 -2146776504 -1476261106</internalNodes>
          <leafValues>
            -5.3395777940750122e-01 4.1868317127227783e-01</leafValues></_>
        <_>
          <internalNodes>
            0 -1 28 -1382901477 1482105024 -2013003487 1376354497
            -1994053083 -125612032 168396832 -1941047007</internalNodes>
          <leafValues>
            -5.7410138845443726e-01 3.8478112220764160e-01</leafValues></_></weakClassifiers></_>
    <!-- stage 10 -->
    <_>
      <maxWeakCount>7</maxWeakCount>
      <stageThreshold>-5.3710955381393433e-01</stageThreshold>
      <weakClassifiers>
        <_>
          <internalNodes>
            0 -1 1 -1049737 -9 -65 -65953 -171966633 -536871043
            -134217897 -819881</internalNodes>
          <leafValues>
            -3.3531156182289124e-01 6.7320263385772705e-01</leafValues></_>
        <_>
          <internalNodes>
            0 -1 26 -536936552 -1191265666 -18096151 -402751491
            -671492120 -753008641 800636843 -1161832450</internalNodes>
          <leafValues>
            -3.0066299438476562e-01 7.0667922496795654e-01</leafValues></_>
        <_>
          <internalNodes>
            0 -1 119 -795937144 676139201 32784 88281091 -1039203833
            537559193 444696579 -628194680</internalNodes>
          <leafValues>
            -5.2349281311035156e-01 4.2655768990516663e-01</leafValues></_>
        <_>
          <internalNodes>
            0 -1 74 1897118020 -1860497407 150995345 -251592485
            -1977611730 981540872 2013801129 -1769715306</internalNodes>
          <leafValues>
            -5.4890441894531250e-01 3.8392314314842224e-01</leafValues></_>
        <_>
          <internalNodes>
            0 -1 80 1030701029 -1770127499 -536953097 2135818095
            1744649676 -556401313 1568473064 -71418394</internalNodes>
          <leafValues>
            -3.9593946933746338e-01 5.1708859205245972e-01</leafValues></_>
        <_>
          <internalNodes>
            0 -1 8 1161974655 -2013233133 65557 -993713982 1652588673
            -1199046488 -2146950313 1703889537</internalNodes>
          <leafValues>
            -6.1724770069122314e-01 3.4057718515396118e-01</leafValues></_>
        <_>
          <internalNodes>
            0 -1 105 -800873496 -2069790061 315547 1124667416 -788525048
            1083703432 -2097018752 1408145498</internalNodes>
          <leafValues>
            -6.2687718868255615e-01 3.0157139897346497e-01</leafValues></_></weakClassifiers></_>
    <!-- stage 11 -->
    <_>
      <maxWeakCount>5</maxWeakCount>
      <stageThreshold>-2.3627665638923645e-01</stageThreshold>
      <weakClassifiers>
        <_>
          <internalNodes>
            0 -1 20 -33555461 -252280961 -1171459 -301989889 1262214065
            -1182826625 2033900475 456998354</internalNodes>
          <leafValues>
            -1.4931507408618927e-01 7.9090911149978638e-01</leafValues></_>
        <_>
          <internalNodes>
            0 -1 58 -1284817022 -1107296326 -1056 -17848918 -2168
            340656012 2104966975 1986000554</internalNodes>
          <leafValues>
            -3.8265445828437805e-01 5.5288398265838623e-01</leafValues></_>
        <_>
          <internalNodes>
            0 -1 11 1415148599 -1073393646 -2145300325 -737590229
            -2139094911 -2138963962 545286289 -1966648701</internalNodes>
          <leafValues>
            -5.7530307769775391e-01 4.0620884299278259e-01</leafValues></_>
        <_>
          <internalNodes>
            0 -1 72 -1844317935 -1000668543 -1853878070 -788463590
            2026447033 -1870100456 -1056603637 2110743225</internalNodes>
          <leafValues>
            -4.4369572401046753e-01 4.8142766952514648e-01</leafValues></_>
        <_>
          <internalNodes>
            0 -1 15 -517124563 1262538753 -1056943739 -2013200255
            1091119539 -2013198299 143442098 -318257141</internalNodes>
          <leafValues>
            -5.3518432378768921e-01 3.8956829905509949e-01</leafValues></_></weakClassifiers></_>
    <!-- stage 12 -->
    <_>
      <maxWeakCount>7</maxWeakCount>
      <stageThreshold>-3.4416511654853821e-01</stageThreshold>
      <weakClassifiers>
        <_>
          <internalNodes>
            0 -1 30 -1090703823 2108665727 2147385320 1073709055
            930115569 -1128890376 -13271110 1069162429</internalNodes>
          <leafValues>
            -4.4303798675537109e-01 6.4992958307266235e-01</leafValues></_>
        <_>
          <internalNodes>
            0 -1 48 738148159 -1103134930 -16777345 938115055 -65580
            -159416329 -134941208 -99024942</internalNodes>
          <leafValues>
            -3.6045020818710327e-01 6.2882864475250244e-01</leafValues></_>
        <_>
          <internalNodes>
            0 -1 81 1124151385 1645842965 65536 -1321791343 814204929
            -1073741824 -2139056128 -1064844370</internalNodes>
          <leafValues>
            -5.4355716705322266e-01 4.1492223739624023e-01</leafValues></_>
        <_>
          <internalNodes>
            0 -1 62 823423490 1166213969 538255689 1594687827 269193105
            134810240 -1190655603 702519435</internalNodes>
          <leafValues>
            -5.2316343784332275e-01 4.1382271051406860e-01</leafValues></_>
        <_>
          <internalNodes>
            0 -1 113 823255897 -679362559 16843153 1501659568
            -1862251748 730365987 -2096617470 -1289570303</internalNodes>
          <leafValues>
            -5.0014573335647583e-01 4.4437542557716370e-01</leafValues></_>
        <_>
          <internalNodes>
            0 -1 107 -1316893926 -1862188787 1073742185 562602005
            134218153 1091142690 -2008565541 -1074329588</internalNodes>
          <leafValues>
            -4.6449461579322815e-01 5.0865912437438965e-01</leafValues></_>
        <_>
          <internalNodes>
            0 -1 114 2097147565 -592449556 -16781458 -124780566
            -403180428 -168304657 485457886 -18350089</internalNodes>
          <leafValues>
            -3.4930267930030823e-01 6.8137764930725098e-01</leafValues></_></weakClassifiers></_>
    <!-- stage 13 -->
    <_>
      <maxWeakCount>7</maxWeakCount>
      <stageThreshold>-4.4211745262145996e-01</stageThreshold>
      <weakClassifiers>
        <_>
          <internalNodes>
            0 -1 67 -1111654649 -26 -9 -335544333 -1082146834 -537100418
            -268566850 1343058722</internalNodes>
          <leafValues>
            -3.5029354691505432e-01 6.8655204772949219e-01</leafValues></_>
        <_>
          <internalNodes>
            0 -1 95 1979692262 -403701782 -3158 1207959294 2147465215
            33423359 -276972354 -873080388</internalNodes>
          <leafValues>
            -4.3567958474159241e-01 5.9891664981842041e-01</leafValues></_>
        <_>
          <internalNodes>
            0 -1 35 -763120783 1107329040 134219969 1367457992 8954024
            1509949448 151038129 -1350172210</internalNodes>
          <leafValues>
            -4.6090888977050781e-01 5.6100916862487793e-01</leafValues></_>
        <_>
          <internalNodes>
            0 -1 22 1133237438 -670531511 1073741954 1610875208
            -796906789 1074300929 1619010131 1672709822</internalNodes>
          <leafValues>
            -5.8495581150054932e-01 4.2103213071823120e-01</leafValues></_>
        <_>
          <internalNodes>
            0 -1 44 992348953 -620855297 1576999609 1298624495
            -578972387 -117473427 2147483644 -1648964099</internalNodes>
          <leafValues>
            -4.5648440718650818e-01 5.3854042291641235e-01</leafValues></_>
        <_>
          <internalNodes>
            0 -1 116 -719386358 -1877933807 -2147483648 -805273340
            -2147434454 453062664 -783637774 1088420497</internalNodes>
          <leafValues>
            -5.5738306045532227e-01 5.0518143177032471e-01</leafValues></_>
        <_>
          <internalNodes>
            0 -1 101 1087731865 -1064238592 285212680 -1526691648
            -1584856919 17039360 -984952686 851744940</internalNodes>
          <leafValues>
            -6.3427054882049561e-01 3.8830134272575378e-01</leafValues></_></weakClassifiers></_>
    <!-- stage 14 -->
    <_>
      <maxWeakCount>6</maxWeakCount>
      <stageThreshold>-3.9055621623992920e-01</stageThreshold>
      <weakClassifiers>
        <_>
          <internalNodes>
            0 -1 98 -138641579 1911521150 -33025 1879015165 -140
            -33587201 -293700500 1826635700</internalNodes>
          <leafValues>
            -5.5980861186981201e-01 5.6932151317596436e-01</leafValues></_>
        <_>
          <internalNodes>
            0 -1 10 -83886093 -1157693457 -1 -65537 2004844543 -524289
            2138537983 -50366473</internalNodes>
          <leafValues>
            -2.7372750639915466e-01 7.0139092206954956e-01</leafValues></_>
        <_>
          <internalNodes>
            0 -1 38 -2147377256 -1718812204 1358979163 529072282
            -1048083279 -1994292965 858859 464064713</internalNodes>
          <leafValues>
            -4.3986159563064575e-01 4.5252332091331482e-01</leafValues></_>
        <_>
          <internalNodes>
            0 -1 50 -1857850462 -2012987366 -2130687542 -971456384
            -1203144637 -266827766 -2010461499 845083202</internalNodes>
          <leafValues>
            -6.8109130859375000e-01 2.7480667829513550e-01</leafValues></_>
        <_>
          <internalNodes>
            0 -1 70 827432759 1648739276 16779674 -1252032314 1118464962
            -1593630554 -1476310962 734757519</internalNodes>
          <leafValues>
            -4.7721651196479797e-01 3.7168717384338379e-01</leafValues></_>
        <_>
          <internalNodes>
            0 -1 41 -805101394 -1052737535 -1946095484 -2012147567
            537577610 -519022522 276931235 1960085380</internalNodes>
          <leafValues>
            -6.5603727102279663e-01 2.5367045402526855e-01</leafValues></_></weakClassifiers></_>
    <!-- stage 15 -->
    <_>
      <maxWeakCount>7</maxWeakCount>
      <stageThreshold>-2.1061928570270538e-01</stageThreshold>
      <weakClassifiers>
        <_>
          <internalNodes>
            0 -1 16 -84979747 -637587586 -536875015 -553959425
            1400426881 285212662 2067492746 -83984519</internalNodes>
          <leafValues>
            -1.5680474042892456e-01 7.3543691635131836e-01</leafValues></_>
        <_>
          <internalNodes>
            0 -1 71 1303511025 1711160943 1073396989 -1375928321
            2029854176 -646053891 1471929913 -1119897625</internalNodes>
          <leafValues>
            -3.4067794680595398e-01 5.1170760393142700e-01</leafValues></_>
        <_>
          <internalNodes>
            0 -1 99 960645952 822284304 -2079848421 -1521284400
            -2147383094 855752897 -1458898940 -2057330509</internalNodes>
          <leafValues>
            -4.3562838435173035e-01 4.0851995348930359e-01</leafValues></_>
        <_>
          <internalNodes>
            0 -1 94 -1717943785 500289763 33608137 -1676386047
            -763231613 -92135414 -1073069921 -355261312</internalNodes>
          <leafValues>
            -3.9280211925506592e-01 4.4448921084403992e-01</leafValues></_>
        <_>
          <internalNodes>
            0 -1 112 -750505065 634771842 229828 -1856651261 1082917003
            1486880780 1132536066 -598064640</internalNodes>
          <leafValues>
            -5.9623867273330688e-01 3.1741955876350403e-01</leafValues></_>
        <_>
          <internalNodes>
            0 -1 54 1165358836 -1392623618 1174334236 1878941630
            1442307830 -109711378 939507187 -256122881</internalNodes>
          <leafValues>
            -3.9396196603775024e-01 4.8121705651283264e-01</leafValues></_>
        <_>
          <internalNodes>
            0 -1 121 -1073522401 433131995 1073775622 1927316101
            -2138701817 -2147483520 -939282359 -2004885362</internalNodes>
          <leafValues>
            -4.2833065986633301e-01 4.9154317378997803e-01</leafValues></_></weakClassifiers></_>
    <!-- stage 16 -->
    <_>
      <maxWeakCount>7</maxWeakCount>
      <stageThreshold>-2.3256786167621613e-01</stageThreshold>
      <weakClassifiers>
        <_>
          <internalNodes>
            0 -1 25 -520620624 292487166 2147376878 1736441854 301446588
            -1224736770 -35393 -1178828866</internalNodes>
          <leafValues>
            -1.4345991611480713e-01 7.6299113035202026e-01</leafValues></_>
        <_>
          <internalNodes>
            0 -1 92 -541065229 1878981884 -265 1879046131 -1610612747
            -394264578 -134236419 1378343912</internalNodes>
          <leafValues>
            -3.6999145150184631e-01 5.6774103641510010e-01</leafValues></_>
        <_>
          <internalNodes>
            0 -1 85 441226412 -1040179071 1075904528 -2147352557
            1107755401 -1308590080 1082311368 -1551433274</internalNodes>
          <leafValues>
            -4.8906198143959045e-01 4.0892437100410461e-01</leafValues></_>
        <_>
          <internalNodes>
            0 -1 17 -1072054249 -795344688 1073759313 -1873477623
            10354720 131072 591528178 -2126397421</internalNodes>
          <leafValues>
            -5.3307777643203735e-01 4.0502899885177612e-01</leafValues></_>
        <_>
          <internalNodes>
            0 -1 122 -289670285 1337835263 -65669 -22122663 -98315
            -310378507 2146867191 -570523787</internalNodes>
          <leafValues>
            -4.1913726925849915e-01 5.6046164035797119e-01</leafValues></_>
        <_>
          <internalNodes>
            0 -1 102 1929462173 1359839232 82328 -2147462975 -2013265727
            276938752 1211697424 -1604007262</internalNodes>
          <leafValues>
            -4.7406083345413208e-01 4.9437001347541809e-01</leafValues></_>
        <_>
          <internalNodes>
            0 -1 66 -1866203126 -792633343 -2130706432 1375731713
            -536100174 536875008 -805257205 -1026602848</internalNodes>
          <leafValues>
            -5.7664686441421509e-01 3.8282686471939087e-01</leafValues></_></weakClassifiers></_>
    <!-- stage 17 -->
    <_>
      <maxWeakCount>6</maxWeakCount>
      <stageThreshold>-6.3073039054870605e-01</stageThreshold>
      <weakClassifiers>
        <_>
          <internalNodes>
            0 -1 89 -1342179585 2113404279 -4161 -805470209 -34820
            -67141633 -73908 779681124</internalNodes>
          <leafValues>
            -3.5193520784378052e-01 7.3636847734451294e-01</leafValues></_>
        <_>
          <internalNodes>
            0 -1 19 -1308666155 1493073903 -16789581 1879047807
            -746929695 -1040220289 2134889982 -646681098</internalNodes>
          <leafValues>
            -3.2691314816474915e-01 7.3235440254211426e-01</leafValues></_>
        <_>
          <internalNodes>
            0 -1 82 -770588163 16846881 131985 1392607748 -2147483499
            -1459585008 -2138199870 562268352</internalNodes>
          <leafValues>
            -5.3614270687103271e-01 4.8831793665885925e-01</leafValues></_>
        <_>
          <internalNodes>
            0 -1 42 -285790319 -17960962 -100864088 -1141964801
            2013249409 -48767140 2113765262 -1942504201</internalNodes>
          <leafValues>
            -3.8878837227821350e-01 6.6850811243057251e-01</leafValues></_>
        <_>
          <internalNodes>
            0 -1 45 -1115725135 -1779500113 -537171396 385843198
            1904178136 2046820223 2109683443 -12943371</internalNodes>
          <leafValues>
            -4.4095745682716370e-01 5.6668865680694580e-01</leafValues></_>
        <_>
          <internalNodes>
            0 -1 14 -1879010795 -1877950462 16812171 -753598463
            134245761 680009909 151660674 1393510530</internalNodes>
          <leafValues>
            -6.6775059700012207e-01 4.0189626812934875e-01</leafValues></_></weakClassifiers></_>
    <!-- stage 18 -->
    <_>
      <maxWeakCount>5</maxWeakCount>
      <stageThreshold>-1.0487963259220123e-01</stageThreshold>
      <weakClassifiers>
        <_>
          <internalNodes>
            0 -1 39 940708371 1342242880 65801 520093696 604508709
            -536346616 165912 989855883</internalNodes>
          <leafValues>
            -5.2201259136199951e-01 6.4172333478927612e-01</leafValues></_>
        <_>
          <internalNodes>
            0 -1 51 -1208091703 -474023943 -126183 402608392 -203426832
            -243828099 -134762053 -1168426225</internalNodes>
          <leafValues>
            -3.1171342730522156e-01 8.2465988397598267e-01</leafValues></_>
        <_>
          <internalNodes>
            0 -1 78 -21518161 -588402690 -20673 -1079099601 -1116252748
            1073659903 -43027702 -286799990</internalNodes>
          <leafValues>
            -3.7516608834266663e-01 6.9763851165771484e-01</leafValues></_>
        <_>
          <internalNodes>
            0 -1 93 -134238304 1979629550 -536870918 -1795178758
            805240315 738197247 -1073763585 1509383614</internalNodes>
          <leafValues>
            -4.5772647857666016e-01 5.9988540410995483e-01</leafValues></_>
        <_>
          <internalNodes>
            0 -1 68 -2147024280 -1862066164 268435716 -2128543733
            -1853740912 -268427262 33819403 1422373642</internalNodes>
          <leafValues>
            -5.8155912160873413e-01 5.0412708520889282e-01</leafValues></_></weakClassifiers></_>
    <!-- stage 19 -->
    <_>
      <maxWeakCount>5</maxWeakCount>
      <stageThreshold>-3.3945411443710327e-01</stageThreshold>
      <weakClassifiers>
        <_>
          <internalNodes>
            0 -1 0 2142699159 -16777217 -4165 -1179673 -541687999 -32777
            -8489389 -13273227</internalNodes>
          <leafValues>
            -4.5251396298408508e-01 6.6745841503143311e-01</leafValues></_>
        <_>
          <internalNodes>
            0 -1 76 -74909 -150994945 -83031 -1358954497 -524633
            2147237869 -4779110 1467580207</internalNodes>
          <leafValues>
            -4.1777586936950684e-01 6.5596830844879150e-01</leafValues></_>
        <_>
          <internalNodes>
            0 -1 118 -263994085 2195475 16777238 16896390 1090568907
            1140916240 245763 -91666332</internalNodes>
          <leafValues>
            -4.7503080964088440e-01 5.5236470699310303e-01</leafValues></_>
        <_>
          <internalNodes>
            0 -1 37 -1208533221 725614591 -4229 -1116733569 -160052068
            -722468865 1341709400 -21299331</internalNodes>
          <leafValues>
            -4.1473665833473206e-01 6.3644534349441528e-01</leafValues></_>
        <_>
          <internalNodes>
            0 -1 23 -788499712 -661585904 16777217 -218103615 1212424
            939524224 1376797635 2139752577</internalNodes>
          <leafValues>
            -6.5797436237335205e-01 4.1229945421218872e-01</leafValues></_></weakClassifiers></_></stages>
  <features>
    <_>
      <rect>
        0 0 3 1</rect></_>
    <_>
      <rect>
        0 0 3 3</rect></_>
    <_>
      <rect>
        0 0 8 6</rect></_>
    <_>
      <rect>
        0 0 8 8</rect></_>
    <_>
      <rect>
        0 2 8 7</rect></_>
    <_>
      <rect>
        0 4 3 5</rect></_>
    <_>
      <rect>
        0 4 7 4</rect></_>
    <_>
      <rect>
        0 7 2 2</rect></_>
    <_>
      <rect>
        0 8 8 4</rect></_>
    <_>
      <rect>
        0 10 4 4</rect></_>
    <_>
      <rect>
        0 12 6 2</rect></_>
    <_>
      <rect>
        0 18 2 2</rect></_>
    <_>
      <rect>
        0 18 3 2</rect></_>
    <_>
      <rect>
        1 3 3 7</rect></_>
    <_>
      <rect>
        1 10 4 3</rect></_>
    <_>
      <rect>
        1 15 6 2</rect></_>
    <_>
      <rect>
        1 16 5 2</rect></_>
    <_>
      <rect>
        2 4 1 2</rect></_>
    <_>
      <rect>
        2 13 2 1</rect></_>
    <_>
      <rect>
        2 16 6 2</rect></_>
    <_>
      <rect>
        2 17 5 2</rect></_>
    <_>
      <rect>
        3 0 5 2</rect></_>
    <_>
      <rect>
        3 6 3 4</rect></_>
    <_>
      <rect>
        3 13 3 2</rect></_>
    <_>
      <rect>
        4 1 6 2</rect></_>
    <_>
      <rect>
        4 14 6 3</rect></_>
    <_>
      <rect>
        4 16 3 2</rect></_>
    <_>
      <rect>
        4 16 4 2</rect></_>
    <_>
      <rect>
        4 16 5 2</rect></_>
    <_>
      <rect>
        4 17 3 2</rect></_>
    <_>
      <rect>
        4 18 3 2</rect></_>
    <_>
      <rect>
        4 18 5 2</rect></_>
    <_>
      <rect>
        5 5 3 6</rect></_>
    <_>
      <rect>
        5 7 3 4</rect></_>
    <_>
      <rect>
        5 15 4 2</rect></_>
    <_>
      <rect>
        5 16 2 2</rect></_>
    <_>
      <rect>
        5 16 4 2</rect></_>
    <_>
      <rect>
        5 18 3 1</rect></_>
    <_>
      <rect>
        5 18 6 2</rect></_>
    <_>
      <rect>
        5 21 3 1</rect></_>
    <_>
      <rect>
        6 0 2 2</rect></_>
    <_>
      <rect>
        6 4 3 5</rect></_>
    <_>
      <rect>
        6 6 4 3</rect></_>
    <_>
      <rect>
        6 8 3 4</rect></_>
    <_>
      <rect>
        6 15 4 2</rect></_>
    <_>
      <rect>
        6 17 5 2</rect></_>
    <_>
      <rect>
        6 18 3 2</rect></_>
    <_>
      <rect>
        6 18 6 2</rect></_>
    <_>
      <rect>
        6 19 3 1</rect></_>
    <_>
      <rect>
        6 21 2 1</rect></_>
    <_>
      <rect>
        7 3 4 3</rect></_>
    <_>
      <rect>
        7 6 5 2</rect></_>
    <_>
      <rect>
        7 7 2 3</rect></_>
    <_>
      <rect>
        7 8 1 2</rect></_>
    <_>
      <rect>
        7 13 3 3</rect></_>
    <_>
      <rect>
        7 21 2 1</rect></_>
    <_>
      <rect>
        7 21 3 1</rect></_>
    <_>
      <rect>
        8 0 2 1</rect></_>
    <_>
      <rect>
        8 5 3 3</rect></_>
    <_>
      <rect>
        8 7 4 5</rect></_>
    <_>
      <rect>
        8 8 3 2</rect></_>
    <_>
      <rect>
        8 9 3 4</rect></_>
    <_>
      <rect>
        8 15 4 2</rect></_>
    <_>
      <rect>
        8 16 3 2</rect></_>
    <_>
      <rect>
        8 19 1 1</rect></_>
    <_>
      <rect>
        9 0 5 3</rect></_>
    <_>
      <rect>
        9 1 1 6</rect></_>
    <_>
      <rect>
        9 1 3 4</rect></_>
    <_>
      <rect>
        9 7 3 3</rect></_>
    <_>
      <rect>
        9 14 5 3</rect></_>
    <_>
      <rect>
        9 15 5 3</rect></_>
    <_>
      <rect>
        9 17 3 2</rect></_>
    <_>
      <rect>
        9 17 4 2</rect></_>
    <_>
      <rect>
        9 18 2 2</rect></_>
    <_>
      <rect>
        10 1 3 2</rect></_>
    <_>
      <rect>
        10 9 1 2</rect></_>
    <_>
      <rect>
        10 9 3 4</rect></_>
    <_>
      <rect>
        10 11 1 1</rect></_>
    <_>
      <rect>
        10 12 2 2</rect></_>
    <_>
      <rect>
        10 18 4 2</rect></_>
    <_>
      <rect>
        10 19 2 1</rect></_>
    <_>
      <rect>
        11 6 4 3</rect></_>
    <_>
      <rect>
        11 6 4 4</rect></_>
    <_>
      <rect>
        11 7 3 2</rect></_>
    <_>
      <rect>
        11 7 4 5</rect></_>
    <_>
      <rect>
        11 13 2 3</rect></_>
    <_>
      <rect>
        11 16 4 2</rect></_>
    <_>
      <rect>
        11 17 2 2</rect></_>
    <_>
      <rect>
        12 0 3 1</rect></_>
    <_>
      <rect>
        12 0 4 2</rect></_>
    <_>
      <rect>
        12 0 4 5</rect></_>
    <_>
      <rect>
        12 1 4 6</rect></_>
    <_>
      <rect>
        12 3 4 3</rect></_>
    <_>
      <rect>
        12 8 4 5</rect></_>
    <_>
      <rect>
        12 11 1 2</rect></_>
    <_>
      <rect>
        12 11 4 4</rect></_>
    <_>
      <rect>
        12 16 3 2</rect></_>
    <_>
      <rect>
        13 0 2 2</rect></_>
    <_>
      <rect>
        13 1 3 2</rect></_>
    <_>
      <rect>
        13 3 3 4</rect></_>
    <_>
      <rect>
        13 3 3 5</rect></_>
    <_>
      <rect>
        13 5 3 6</rect></_>
    <_>
      <rect>
        13 13 1 1</rect></_>
    <_>
      <rect>
        14 1 2 1</rect></_>
    <_>
      <rect>
        14 1 3 5</rect></_>
    <_>
      <rect>
        14 8 3 2</rect></_>
    <_>
      <rect>
        14 13 2 2</rect></_>
    <_>
      <rect>
        14 18 3 2</rect></_>
    <_>
      <rect>
        15 1 3 1</rect></_>
    <_>
      <rect>
        15 2 3 3</rect></_>
    <_>
      <rect>
        15 9 3 2</rect></_>
    <_>
      <rect>
        15 11 1 1</rect></_>
    <_>
      <rect>
        15 12 2 4</rect></_>
    <_>
      <rect>
        16 1 2 1</rect></_>
    <_>
      <rect>
        16 8 2 2</rect></_>
    <_>
      <rect>
        17 13 1 2</rect></_>
    <_>
      <rect>
        18 1 2 6</rect></_>
    <_>
      <rect>
        18 7 2 3</rect></_>
    <_>
      <rect>
        18 11 2 4</rect></_>
    <_>
      <rect>
        18 17 2 2</rect></_>
    <_>
      <rect>
        18 18 1 1</rect></_>
    <_>
      <rect>
        21 2 1 5</rect></_>
    <_>
      <rect>
        21 17 1 2</rect></_></features></cascade>
</opencv_storage>
