<?xml version="1.0"?>
<opencv_storage>
<cascade>
  <stageType>BOOST</stageType>
  <featureType>LBP</featureType>
  <height>24</height>
  <width>24</width>
  <stageParams>
    <boostType>GAB</boostType>
    <minHitRate>9.9500000476837158e-01</minHitRate>
    <maxFalseAlarm>5.0000000000000000e-01</maxFalseAlarm>
    <weightTrimRate>9.4999999999999996e-01</weightTrimRate>
    <maxDepth>1</maxDepth>
    <maxWeakCount>100</maxWeakCount></stageParams>
  <featureParams>
    <maxCatCount>256</maxCatCount>
    <featSize>1</featSize></featureParams>
  <stageNum>20</stageNum>
  <stages>
    <!-- stage 0 -->
    <_>
      <maxWeakCount>4</maxWeakCount>
      <stageThreshold>-1.1172869205474854e+00</stageThreshold>
      <weakClassifiers>
        <_>
          <internalNodes>
            0 -1 11 -190280700 -595705986 -66000 1904164445 1576128140
            1576861695 1590550008 322140791</internalNodes>
          <leafValues>
            -5.7082450389862061e-01 7.4975657463073730e-01</leafValues></_>
        <_>
          <internalNodes>
            0 -1 10 1080042496 1896873986 -2063589246 420675584
            671088776 545259520 229514 -2127884021</internalNodes>
          <leafValues>
            -5.6527912616729736e-01 5.9919476509094238e-01</leafValues></_>
        <_>
          <internalNodes>
            0 -1 109 -446145024 1911357414 -1158275238 -168034370
            -539050040 394231607 -411647045 -1876478534</internalNodes>
          <leafValues>
            -4.8766073584556580e-01 6.6210329532623291e-01</leafValues></_>
        <_>
          <internalNodes>
            0 -1 126 -1047301980 -1466805886 -1073716847 -183468004
            1912799525 -503283702 -289241052 -2145873392</internalNodes>
          <leafValues>
            -6.5799641609191895e-01 4.7744938731193542e-01</leafValues></_></weakClassifiers></_>
    <!-- stage 1 -->
    <_>
      <maxWeakCount>4</maxWeakCount>
      <stageThreshold>-5.8345459401607513e-02</stageThreshold>
      <weakClassifiers>
        <_>
          <internalNodes>
            0 -1 58 -2142760768 0 1358971020 13635730 268439552
            1166147616 -2146434912 -2147483648</internalNodes>
          <leafValues>
            -7.5133687257766724e-01 6.9360566139221191e-01</leafValues></_>
        <_>
          <internalNodes>
            0 -1 129 -75345431 -1610608512 16892053 -666500940
            -1342144440 136413184 -1458929500 -1196401744</internalNodes>
          <leafValues>
            -6.0409706830978394e-01 6.2131541967391968e-01</leafValues></_>
        <_>
          <internalNodes>
            0 -1 105 -1778247664 672202774 1209061393 851787777
            -1341616000 -234553216 -394256216 -2004746240</internalNodes>
          <leafValues>
            -6.2652051448822021e-01 5.7302927970886230e-01</leafValues></_>
        <_>
          <internalNodes>
            0 -1 43 -44249728 -570663169 -285409348 -67273067 -33619970
            1962180605 -696451143 1787556251</internalNodes>
          <leafValues>
            -5.0135320425033569e-01 7.3124152421951294e-01</leafValues></_></weakClassifiers></_>
    <!-- stage 2 -->
    <_>
      <maxWeakCount>5</maxWeakCount>
      <stageThreshold>-4.8316755890846252e-01</stageThreshold>
      <weakClassifiers>
        <_>
          <internalNodes>
            0 -1 131 -1363766080 -1350631434 -46 -656081292 -1074462908
            1307540862 -1481277996 -2070643632</internalNodes>
          <leafValues>
            -4.8042705655097961e-01 6.5136766433715820e-01</leafValues></_>
        <_>
          <internalNodes>
            0 -1 7 -59189532 -1309479387 2113846877 -1252000265
            -1132536388 2147417941 1862074303 2112615035</internalNodes>
          <leafValues>
            -4.3668273091316223e-01 6.8416857719421387e-01</leafValues></_>
        <_>
          <internalNodes>
            0 -1 90 -2109733872 -263061440 -1879015419 -1862233838
            -1862238072 545390721 -1434418288 -1567749840</internalNodes>
          <leafValues>
            -5.4329848289489746e-01 5.5800879001617432e-01</leafValues></_>
        <_>
          <internalNodes>
            0 -1 132 -2138570752 278069377 268484760 -805105660
            -1735916880 536969216 -1862098430 -1299576703</internalNodes>
          <leafValues>
            -5.7007372379302979e-01 4.7330147027969360e-01</leafValues></_>
        <_>
          <internalNodes>
            0 -1 57 -1975400304 -2142601088 -1073198694 -50249456
            276924594 144703618 1778428129 -491824988</internalNodes>
          <leafValues>
            -5.9736806154251099e-01 4.6449771523475647e-01</leafValues></_></weakClassifiers></_>
    <!-- stage 3 -->
    <_>
      <maxWeakCount>7</maxWeakCount>
      <stageThreshold>-5.1511323451995850e-01</stageThreshold>
      <weakClassifiers>
        <_>
          <internalNodes>
            0 -1 29 866388992 -152061063 1879048114 937918054 -434760
            -1358958731 536458751 331306362</internalNodes>
          <leafValues>
            -3.8461539149284363e-01 6.3956254720687866e-01</leafValues></_>
        <_>
          <internalNodes>
            0 -1 111 -566362624 -205558146 788346640 1970860028
            -137258280 -1476526221 -135811160 -1569118765</internalNodes>
          <leafValues>
            -3.6749574542045593e-01 5.7664316892623901e-01</leafValues></_>
        <_>
          <internalNodes>
            0 -1 0 -1979674588 1064961 -805208033 -1877311166 950042888
            -936378367 -930406015 -1498802000</internalNodes>
          <leafValues>
            -5.2417522668838501e-01 4.3419748544692993e-01</leafValues></_>
        <_>
          <internalNodes>
            0 -1 134 -366493483 -2113384448 805372036 -763068268
            -1324701012 -2147483640 -1567546784 -1196662736</internalNodes>
          <leafValues>
            -5.9514564275741577e-01 3.7418210506439209e-01</leafValues></_>
        <_>
          <internalNodes>
            0 -1 31 -693710670 -693440658 -335609870 -202670438
            402429060 90628091 1576957183 -1704169993</internalNodes>
          <leafValues>
            -3.8786384463310242e-01 5.8263409137725830e-01</leafValues></_>
        <_>
          <internalNodes>
            0 -1 12 1717348992 -757595888 20988296 1443135508 1614840192
            -1851654016 711326 1151434990</internalNodes>
          <leafValues>
            -6.0266143083572388e-01 3.9404746890068054e-01</leafValues></_>
        <_>
          <internalNodes>
            0 -1 123 -1777336320 -1311764480 1610861011 -120905536
            -1035952053 -1610481536 -1283259714 -1733621751</internalNodes>
          <leafValues>
            -5.3712058067321777e-01 4.6476647257804871e-01</leafValues></_></weakClassifiers></_>
    <!-- stage 4 -->
    <_>
      <maxWeakCount>6</maxWeakCount>
      <stageThreshold>-7.9438072443008423e-01</stageThreshold>
      <weakClassifiers>
        <_>
          <internalNodes>
            0 -1 70 -1094816518 -1795918132 -286588937 1547599454
            -1082245890 -952246322 -17385550 -1971290668</internalNodes>
          <leafValues>
            -3.6140349507331848e-01 6.1025643348693848e-01</leafValues></_>
        <_>
          <internalNodes>
            0 -1 50 -243225180 -250733647 -1744830184 1943601681
            -394075714 -133660664 -402513272 1836032174</internalNodes>
          <leafValues>
            -4.5578464865684509e-01 4.8467391729354858e-01</leafValues></_>
        <_>
          <internalNodes>
            0 -1 78 -621747184 -1095975269 -285212702 904494904
            -1073826089 779616127 -1342245474 -1157923403</internalNodes>
          <leafValues>
            -3.7853130698204041e-01 5.2501487731933594e-01</leafValues></_>
        <_>
          <internalNodes>
            0 -1 104 -1827664923 -1560280896 -1862217711 -58326810
            -1476361520 -2139058176 -2013224288 -1098904988</internalNodes>
          <leafValues>
            -5.9880012273788452e-01 3.5501801967620850e-01</leafValues></_>
        <_>
          <internalNodes>
            0 -1 107 -214315392 2012675832 2013211313 2079817468
            2006973312 -25178162 2070361993 -363516829</internalNodes>
          <leafValues>
            -4.1335144639015198e-01 5.4261112213134766e-01</leafValues></_>
        <_>
          <internalNodes>
            0 -1 103 -1777723260 34668752 -2147379044 -1340407271
            -1341652984 -1576927232 -2147442558 -1820194463</internalNodes>
          <leafValues>
            -4.8808199167251587e-01 4.5752772688865662e-01</leafValues></_></weakClassifiers></_>
    <!-- stage 5 -->
    <_>
      <maxWeakCount>7</maxWeakCount>
      <stageThreshold>-9.0759819746017456e-01</stageThreshold>
      <weakClassifiers>
        <_>
          <internalNodes>
            0 -1 88 -832927744 1069432824 2122314610 926629348
            1072795563 1062436854 402011567 781391195</internalNodes>
          <leafValues>
            -2.6769229769706726e-01 6.2271606922149658e-01</leafValues></_>
        <_>
          <internalNodes>
            0 -1 99 -120649072 -1618855300 2097147762 2137770918
            -170082928 -1785298956 -149571686 -1339085130</internalNodes>
          <leafValues>
            -3.4078028798103333e-01 5.4575300216674805e-01</leafValues></_>
        <_>
          <internalNodes>
            0 -1 60 -835670252 -1198166 -49493 -637583372 -1644232722
            -1560313865 -1250643991 -1281917650</internalNodes>
          <leafValues>
            -2.7546304464340210e-01 6.5156370401382446e-01</leafValues></_>
        <_>
          <internalNodes>
            0 -1 23 -2146991644 -1524628966 184328 -258209751
            -2147319680 1610620937 -1316484480 -2133196136</internalNodes>
          <leafValues>
            -4.9111476540565491e-01 3.8990899920463562e-01</leafValues></_>
        <_>
          <internalNodes>
            0 -1 122 -671685484 -1746043011 -268617169 -1343340697
            -13107368 -142966987 759156553 -109084886</internalNodes>
          <leafValues>
            -3.9437416195869446e-01 5.2121394872665405e-01</leafValues></_>
        <_>
          <internalNodes>
            0 -1 32 1279340768 822105283 -1744817915 -1618099966 5243298
            411697282 25213343 -908631158</internalNodes>
          <leafValues>
            -4.8958271741867065e-01 4.4499409198760986e-01</leafValues></_>
        <_>
          <internalNodes>
            0 -1 25 -670898916 -721125294 37067 -775811008 -897367634
            1489895552 -527781958 1219015310</internalNodes>
          <leafValues>
            -4.6215090155601501e-01 4.3215069174766541e-01</leafValues></_></weakClassifiers></_>
    <!-- stage 6 -->
    <_>
      <maxWeakCount>5</maxWeakCount>
      <stageThreshold>-2.7690744400024414e-01</stageThreshold>
      <weakClassifiers>
        <_>
          <internalNodes>
            0 -1 81 1613014544 1975483943 -1073827933 667414052 -692764
            1878994868 2088654776 6530638</internalNodes>
          <leafValues>
            -3.6754176020622253e-01 6.0499536991119385e-01</leafValues></_>
        <_>
          <internalNodes>
            0 -1 117 -368259936 -206995808 -285245647 1094703097
            -1612925048 1048403967 1425702059 -1483915852</internalNodes>
          <leafValues>
            -3.7060415744781494e-01 5.6301087141036987e-01</leafValues></_>
        <_>
          <internalNodes>
            0 -1 47 -223286544 1953908478 2146320059 2108636787
            -1401028682 964132860 1073160127 692041275</internalNodes>
          <leafValues>
            -3.9500507712364197e-01 5.8534342050552368e-01</leafValues></_>
        <_>
          <internalNodes>
            0 -1 53 1757323652 1367875644 -1073741503 -1681829878
            -2029289311 1075904520 -910065655 570679809</internalNodes>
          <leafValues>
            -6.5296614170074463e-01 3.0834370851516724e-01</leafValues></_>
        <_>
          <internalNodes>
            0 -1 77 -567870192 -9536001 2013265845 -85245956 -1090537603
            -8945665 -1501642753 -1103161357</internalNodes>
          <leafValues>
            -3.8571518659591675e-01 6.1540067195892334e-01</leafValues></_></weakClassifiers></_>
    <!-- stage 7 -->
    <_>
      <maxWeakCount>7</maxWeakCount>
      <stageThreshold>-4.0226644277572632e-01</stageThreshold>
      <weakClassifiers>
        <_>
          <internalNodes>
            0 -1 114 -856905180 -1246396554 -120732 -348389507
            -1145231612 -1250033683 1022362824 -1869255076</internalNodes>
          <leafValues>
            -4.2771983146667480e-01 5.5259770154953003e-01</leafValues></_>
        <_>
          <internalNodes>
            0 -1 86 784306880 -542163030 801062897 -1677754513
            -1308633724 -1795295363 -1149788231 538781492</internalNodes>
          <leafValues>
            -4.0106385946273804e-01 4.5894944667816162e-01</leafValues></_>
        <_>
          <internalNodes>
            0 -1 133 -489976256 -168116357 1878671158 935050998
            -12927026 -8634506 1048469492 -1288177998</internalNodes>
          <leafValues>
            -4.1019207239151001e-01 4.4929656386375427e-01</leafValues></_>
        <_>
          <internalNodes>
            0 -1 83 -1081421788 -793021961 -1140953276 868044704
            -1400965729 -956366913 -226609185 -1615872397</internalNodes>
          <leafValues>
            -3.2750836014747620e-01 5.5643886327743530e-01</leafValues></_>
        <_>
          <internalNodes>
            0 -1 15 -1073641174 1493286992 536904120 -779775717
            872448416 528646146 -1111072069 -1075244406</internalNodes>
          <leafValues>
            -4.3803513050079346e-01 4.5194229483604431e-01</leafValues></_>
        <_>
          <internalNodes>
            0 -1 24 -481987802 -1827495551 25170188 -2049966056
            444662296 136352024 -1287444376 756353710</internalNodes>
          <leafValues>
            -5.6121790409088135e-01 3.5453087091445923e-01</leafValues></_>
        <_>
          <internalNodes>
            0 -1 48 589271681 -711261526 16777368 1561428183 -1423107926
            -1466793984 -255073540 187367914</internalNodes>
          <leafValues>
            -4.4600868225097656e-01 4.3172833323478699e-01</leafValues></_></weakClassifiers></_>
    <!-- stage 8 -->
    <_>
      <maxWeakCount>8</maxWeakCount>
      <stageThreshold>-3.7235853075981140e-01</stageThreshold>
      <weakClassifiers>
        <_>
          <internalNodes>
            0 -1 11 -531846140 -669903785 16879632 826410563 1095862788
            1216921731 1514752112 454668806</internalNodes>
          <leafValues>
            -5.5870443582534790e-01 5.0917798280715942e-01</leafValues></_>
        <_>
          <internalNodes>
            0 -1 33 -50397360 1387294379 -1364267009 1937457084 -71757
            -8392717 -2030209345 2067654239</internalNodes>
          <leafValues>
            -3.3991187810897827e-01 5.2008241415023804e-01</leafValues></_>
        <_>
          <internalNodes>
            0 -1 28 1879323220 273682642 83955855 1573229187 -1458003823
            -184909685 -1383524223 580196170</internalNodes>
          <leafValues>
            -4.7067472338676453e-01 3.6195480823516846e-01</leafValues></_>
        <_>
          <internalNodes>
            0 -1 97 -771096576 -1656143472 -2130601685 1004503063
            -2130653052 1853948290 -1182789493 331418154</internalNodes>
          <leafValues>
            -4.7704499959945679e-01 3.6614632606506348e-01</leafValues></_>
        <_>
          <internalNodes>
            0 -1 40 -247425835 -666791658 1091097928 -233041830
            -259907152 2046885888 -1584753900 2100058</internalNodes>
          <leafValues>
            -6.4706456661224365e-01 2.7107203006744385e-01</leafValues></_>
        <_>
          <internalNodes>
            0 -1 115 -1572489667 -585711594 -922663672 -405110654
            293936692 -1333657082 1476952296 327791110</internalNodes>
          <leafValues>
            -5.4287964105606079e-01 3.2525780797004700e-01</leafValues></_>
        <_>
          <internalNodes>
            0 -1 1 -29446524 -134468994 -268458245 2007961326 -411041827
            939524095 -671239298 -1176536405</internalNodes>
          <leafValues>
            -2.8570711612701416e-01 6.1917513608932495e-01</leafValues></_>
        <_>
          <internalNodes>
            0 -1 113 1179100470 1397082132 -805304316 1422443667
            1107409572 2031271968 1277274760 617865890</internalNodes>
          <leafValues>
            -5.2926903963088989e-01 4.0568020939826965e-01</leafValues></_></weakClassifiers></_>
    <!-- stage 9 -->
    <_>
      <maxWeakCount>9</maxWeakCount>
      <stageThreshold>-5.5403488874435425e-01</stageThreshold>
      <weakClassifiers>
        <_>
          <internalNodes>
            0 -1 22 1682241410 -140509038 1091572106 247476242 18596
            134217901 -426542972 828649572</internalNodes>
          <leafValues>
            -6.9054442644119263e-01 4.6812522411346436e-01</leafValues></_>
        <_>
          <internalNodes>
            0 -1 3 -704602080 -230785298 917220016 -1179750851
            -1249902657 -965312641 -1779132433 183793086</internalNodes>
          <leafValues>
            -3.8524025678634644e-01 4.2135524749755859e-01</leafValues></_>
        <_>
          <internalNodes>
            0 -1 120 -33128960 -201490568 -1409388806 -612954127
            -1208492056 -1090519179 -2171493 120681967</internalNodes>
          <leafValues>
            -4.0267437696456909e-01 4.4133204221725464e-01</leafValues></_>
        <_>
          <internalNodes>
            0 -1 63 1956228160 -1467747193 54834462 -777977714
            -1979220267 814845992 -653677895 1919360797</internalNodes>
          <leafValues>
            -5.0610637664794922e-01 3.3723801374435425e-01</leafValues></_>
        <_>
          <internalNodes>
            0 -1 30 -126185652 -622004290 -16799938 -579067983 -2376308
            2147483391 -134416761 -1264623753</internalNodes>
          <leafValues>
            -3.3878055214881897e-01 5.0689017772674561e-01</leafValues></_>
        <_>
          <internalNodes>
            0 -1 36 -156593268 -110166298 802336321 -1346389454
            -696928286 -1254654081 1727948491 1171076350</internalNodes>
          <leafValues>
            -3.9947369694709778e-01 4.5179814100265503e-01</leafValues></_>
        <_>
          <internalNodes>
            0 -1 110 -1177240727 1963049027 25223449 1359118978
            -242404508 -2145353687 176521231 -1089764590</internalNodes>
          <leafValues>
            -4.4914570450782776e-01 4.2100930213928223e-01</leafValues></_>
        <_>
          <internalNodes>
            0 -1 76 335784499 281379024 -184512486 -52366162 -1471546636
            1635844619 -221705667 613169976</internalNodes>
          <leafValues>
            -5.0605905055999756e-01 3.4978023171424866e-01</leafValues></_>
        <_>
          <internalNodes>
            0 -1 101 1073781248 830504980 285282522 813764616
            -1715428472 427950240 -1416789874 39652081</internalNodes>
          <leafValues>
            -5.4838675260543823e-01 3.2895094156265259e-01</leafValues></_></weakClassifiers></_>
    <!-- stage 10 -->
    <_>
      <maxWeakCount>9</maxWeakCount>
      <stageThreshold>-4.2359605431556702e-01</stageThreshold>
      <weakClassifiers>
        <_>
          <internalNodes>
            0 -1 140 -269431132 -50368800 -37024 -700743748 -134758957
            1853812607 -1241655402 -2030602252</internalNodes>
          <leafValues>
            -2.8345419093966484e-02 7.0330411195755005e-01</leafValues></_>
        <_>
          <internalNodes>
            0 -1 116 -1909929248 -29524619 -285741130 2067791340
            -1107830814 -50462745 -42561654 -1789715019</internalNodes>
          <leafValues>
            -2.9119893908500671e-01 4.8233178257942200e-01</leafValues></_>
        <_>
          <internalNodes>
            0 -1 16 1613530650 823142478 1090519488 1897431044 306266278
            197185 -527800184 118956688</internalNodes>
          <leafValues>
            -5.3121560811996460e-01 3.0066779255867004e-01</leafValues></_>
        <_>
          <internalNodes>
            0 -1 96 1621086802 -1643593456 268600024 -1434414648 4266093
            1862279439 -1866229452 -1283595708</internalNodes>
          <leafValues>
            -5.0522363185882568e-01 3.0105596780776978e-01</leafValues></_>
        <_>
          <internalNodes>
            0 -1 85 -657134456 491864211 -1052753716 1733624342
            -632707878 1342177307 1895885470 611018937</internalNodes>
          <leafValues>
            -4.4355383515357971e-01 3.7776708602905273e-01</leafValues></_>
        <_>
          <internalNodes>
            0 -1 55 -829953820 1928200046 1862264058 -67715073
            1064691628 2130116598 196958143 -1258423045</internalNodes>
          <leafValues>
            -3.1487634778022766e-01 5.5688208341598511e-01</leafValues></_>
        <_>
          <internalNodes>
            0 -1 136 -168167006 -809533443 1879047992 -486559873 -229411
            -1216446595 -142776429 -1263632422</internalNodes>
          <leafValues>
            -3.3261567354202271e-01 5.2476042509078979e-01</leafValues></_>
        <_>
          <internalNodes>
            0 -1 19 -532356596 284362945 9011925 913048084 -2122030096
            864026801 992713152 277744341</internalNodes>
          <leafValues>
            -6.5886008739471436e-01 2.7419894933700562e-01</leafValues></_>
        <_>
          <internalNodes>
            0 -1 128 -1168637896 -1870622519 26 -1873604520 -1071529816
            -1828175872 -1866448711 -2145383992</internalNodes>
          <leafValues>
            -5.8789539337158203e-01 2.9743966460227966e-01</leafValues></_></weakClassifiers></_>
    <!-- stage 11 -->
    <_>
      <maxWeakCount>8</maxWeakCount>
      <stageThreshold>-3.8172987103462219e-01</stageThreshold>
      <weakClassifiers>
        <_>
          <internalNodes>
            0 -1 87 1823431898 1651441645 -285278557 1110114298 -590280
            -278396955 -671156236 -1644363918</internalNodes>
          <leafValues>
            -3.0529171228408813e-01 5.4131680727005005e-01</leafValues></_>
        <_>
          <internalNodes>
            0 -1 61 1793379984 -203313461 2146401776 832715496
            -268441669 -964689931 -1770430513 -1814315713</internalNodes>
          <leafValues>
            -2.8793451189994812e-01 5.1834994554519653e-01</leafValues></_>
        <_>
          <internalNodes>
            0 -1 6 -525684719 1616085656 -2147442360 -40594429
            -620702335 -359104221 -1455216437 457220587</internalNodes>
          <leafValues>
            -3.7687242031097412e-01 4.2212629318237305e-01</leafValues></_>
        <_>
          <internalNodes>
            0 -1 135 -835002880 -38818072 -164106 1522483064 -1208025648
            -1107329027 -16912919 -1933894683</internalNodes>
          <leafValues>
            -3.3641448616981506e-01 4.5491176843643188e-01</leafValues></_>
        <_>
          <internalNodes>
            0 -1 125 1111917355 -1878547838 1082130864 1884782738
            -939505599 1107329028 -528111464 -741425150</internalNodes>
          <leafValues>
            -4.3625441193580627e-01 3.9693033695220947e-01</leafValues></_>
        <_>
          <internalNodes>
            0 -1 65 -496053933 -1678839825 -1107378181 -1217134665
            937368973 -1635811466 2146773934 1643984779</internalNodes>
          <leafValues>
            -3.5917645692825317e-01 4.9164414405822754e-01</leafValues></_>
        <_>
          <internalNodes>
            0 -1 100 -1073491856 -749611326 332057 -1257453440 46244292
            -1307918336 1082753156 631485432</internalNodes>
          <leafValues>
            -4.4138282537460327e-01 3.9057430624961853e-01</leafValues></_>
        <_>
          <internalNodes>
            0 -1 95 -860947525 1044185018 -67174620 -1074139146
            -168380458 1849688052 2012741528 -336218249</internalNodes>
          <leafValues>
            -2.6068511605262756e-01 6.3045889139175415e-01</leafValues></_></weakClassifiers></_>
    <!-- stage 12 -->
    <_>
      <maxWeakCount>8</maxWeakCount>
      <stageThreshold>-4.6024024486541748e-01</stageThreshold>
      <weakClassifiers>
        <_>
          <internalNodes>
            0 -1 37 -1039490558 571572505 17039744 -997719552 440410435
            815284353 8488960 1083679234</internalNodes>
          <leafValues>
            -6.1522197723388672e-01 5.1088249683380127e-01</leafValues></_>
        <_>
          <internalNodes>
            0 -1 93 -167774697 -1527005195 -16997834 -1216497922
            -38289623 1978990589 -30386546 -567328898</internalNodes>
          <leafValues>
            -2.8643679618835449e-01 7.0477384328842163e-01</leafValues></_>
        <_>
          <internalNodes>
            0 -1 72 1390584608 -1046762442 -16908350 468155114
            -445120521 -1997636097 -151685681 -785432802</internalNodes>
          <leafValues>
            -3.7027230858802795e-01 5.4583042860031128e-01</leafValues></_>
        <_>
          <internalNodes>
            0 -1 35 -292835702 -709050584 2146361250 1572126371
            -1485390511 -1074268293 -436344963 -1594368633</internalNodes>
          <leafValues>
            -2.8710952401161194e-01 7.4068498611450195e-01</leafValues></_>
        <_>
          <internalNodes>
            0 -1 38 -285216814 1944841982 -268436622 -152109077 -524476
            1281326949 -168331275 -857342349</internalNodes>
          <leafValues>
            -4.4309723377227783e-01 5.3981059789657593e-01</leafValues></_>
        <_>
          <internalNodes>
            0 -1 26 -996958182 -1065353215 16 -1065353190 8835 33882112
            268574856 -1617985406</internalNodes>
          <leafValues>
            -4.9183216691017151e-01 4.8409503698348999e-01</leafValues></_>
        <_>
          <internalNodes>
            0 -1 56 40477211 1511235589 285212939 29360265 -251658103
            1644363840 -394182076 -794641911</internalNodes>
          <leafValues>
            -4.7800132632255554e-01 5.1266151666641235e-01</leafValues></_>
        <_>
          <internalNodes>
            0 -1 119 -1052278195 -2130542512 -2147465216 -2135916525
            -1744555870 16781312 -796815360 2056152066</internalNodes>
          <leafValues>
            -4.8320123553276062e-01 4.9193042516708374e-01</leafValues></_></weakClassifiers></_>
    <!-- stage 13 -->
    <_>
      <maxWeakCount>8</maxWeakCount>
      <stageThreshold>-7.7749758958816528e-01</stageThreshold>
      <weakClassifiers>
        <_>
          <internalNodes>
            0 -1 45 83107648 875576484 -84185096 786317110 -566485052
            1563918143 670777340 909196791</internalNodes>
          <leafValues>
            -5.1515150070190430e-01 5.2849531173706055e-01</leafValues></_>
        <_>
          <internalNodes>
            0 -1 80 2055195420 -672399496 -1081443 -134250569
            -1110583393 1761474527 -8396866 -1469990977</internalNodes>
          <leafValues>
            -2.5839492678642273e-01 7.0056056976318359e-01</leafValues></_>
        <_>
          <internalNodes>
            0 -1 92 1612001912 -1063898976 -2146957199 1443072018
            1342611546 546390416 -1073112899 -181353685</internalNodes>
          <leafValues>
            -4.1373434662818909e-01 4.2785283923149109e-01</leafValues></_>
        <_>
          <internalNodes>
            0 -1 69 -1820111723 -1015021556 68327433 302678224
            -1048530752 -1727922088 -1048473566 -1473737828</internalNodes>
          <leafValues>
            -4.9806523323059082e-01 3.3629122376441956e-01</leafValues></_>
        <_>
          <internalNodes>
            0 -1 17 -640559732 1409552394 -2147430000 705777720
            -1010249558 -1180430192 539011713 1803602145</internalNodes>
          <leafValues>
            -4.5163148641586304e-01 4.4210740923881531e-01</leafValues></_>
        <_>
          <internalNodes>
            0 -1 9 1107296985 1544556575 -2097114751 442860625 403208400
            -1966440246 -934633463 1921940315</internalNodes>
          <leafValues>
            -4.6975913643836975e-01 3.8014918565750122e-01</leafValues></_>
        <_>
          <internalNodes>
            0 -1 118 1575782132 1978449900 -1124192324 -1086345304
            804781519 -1611202691 -50937947 -755540994</internalNodes>
          <leafValues>
            -3.6102110147476196e-01 5.1333314180374146e-01</leafValues></_>
        <_>
          <internalNodes>
            0 -1 34 -2000624604 -535818106 159926466 1410564227
            159459425 571310083 1208606849 1669695618</internalNodes>
          <leafValues>
            -6.9555878639221191e-01 3.0502611398696899e-01</leafValues></_></weakClassifiers></_>
    <!-- stage 14 -->
    <_>
      <maxWeakCount>8</maxWeakCount>
      <stageThreshold>-4.7247526049613953e-01</stageThreshold>
      <weakClassifiers>
        <_>
          <internalNodes>
            0 -1 138 -1082147081 -151110297 -16778314 1941766052
            -16842927 268435263 1056961760 -197388988</internalNodes>
          <leafValues>
            -2.8327643871307373e-01 5.8887314796447754e-01</leafValues></_>
        <_>
          <internalNodes>
            0 -1 130 1766794018 -245844839 293896395 -2142719349
            1355178098 -2130572798 -486535152 -1504269800</internalNodes>
          <leafValues>
            -5.3284102678298950e-01 3.2026252150535583e-01</leafValues></_>
        <_>
          <internalNodes>
            0 -1 127 -1761571120 -1308556861 -921587501 303421579
            -1572503014 -394063872 -511250230 -1300077716</internalNodes>
          <leafValues>
            -3.8775125145912170e-01 3.9343774318695068e-01</leafValues></_>
        <_>
          <internalNodes>
            0 -1 44 -249427180 -1603148815 -1878965845 703939035
            -71229107 731906210 -1316939333 1525236216</internalNodes>
          <leafValues>
            -5.1235657930374146e-01 3.2559484243392944e-01</leafValues></_>
        <_>
          <internalNodes>
            0 -1 84 -796884976 -1215886448 -1725920872 -1669328880
            1711901096 -1205239678 1485903989 169838522</internalNodes>
          <leafValues>
            -4.4965016841888428e-01 3.4497573971748352e-01</leafValues></_>
        <_>
          <internalNodes>
            0 -1 20 -1920365940 197952650 1359036992 71934146 549462691
            1895825408 -1987968619 -680585855</internalNodes>
          <leafValues>
            -5.1613521575927734e-01 3.2334241271018982e-01</leafValues></_>
        <_>
          <internalNodes>
            0 -1 59 -1191050967 -1455204928 301990957 -392380408
            -2139055488 -2146828280 -1878949755 -1709040952</internalNodes>
          <leafValues>
            -4.8510611057281494e-01 3.5767108201980591e-01</leafValues></_>
        <_>
          <internalNodes>
            0 -1 68 140159345 973476558 -251559791 -423305216 -904895766
            428507136 -1065739648 2102769472</internalNodes>
          <leafValues>
            -6.0642653703689575e-01 2.8849101066589355e-01</leafValues></_></weakClassifiers></_>
    <!-- stage 15 -->
    <_>
      <maxWeakCount>10</maxWeakCount>
      <stageThreshold>-6.4239299297332764e-01</stageThreshold>
      <weakClassifiers>
        <_>
          <internalNodes>
            0 -1 98 -1096546000 -1212616708 -1099204819 -1917075808
            402011942 1040179070 536754165 618425534</internalNodes>
          <leafValues>
            -3.9642858505249023e-01 5.0081968307495117e-01</leafValues></_>
        <_>
          <internalNodes>
            0 -1 2 -168973588 2011692981 -1090895876 -101374020
            -1610760578 2138800126 -17221703 2094216503</internalNodes>
          <leafValues>
            -3.1276524066925049e-01 4.6353447437286377e-01</leafValues></_>
        <_>
          <internalNodes>
            0 -1 89 1435411233 890249225 -1610581801 2081783939
            599889205 1529381040 -1949893699 157676464</internalNodes>
          <leafValues>
            -4.5272082090377808e-01 3.0334660410881042e-01</leafValues></_>
        <_>
          <internalNodes>
            0 -1 42 -220151980 -25515214 -285743119 761670526 -402882641
            -1965838461 -145278978 -1401552931</internalNodes>
          <leafValues>
            -3.2553559541702271e-01 4.5341187715530396e-01</leafValues></_>
        <_>
          <internalNodes>
            0 -1 120 -1006580992 -786955255 1091567699 383090691 39611
            -2004860925 -1182261117 -1759313205</internalNodes>
          <leafValues>
            -4.3052116036415100e-01 3.3750703930854797e-01</leafValues></_>
        <_>
          <internalNodes>
            0 -1 142 -1806061347 352328192 151130160 1644269569
            -1845260264 134774784 -2012864112 -1453465328</internalNodes>
          <leafValues>
            -4.4934147596359253e-01 3.3474546670913696e-01</leafValues></_>
        <_>
          <internalNodes>
            0 -1 124 29736449 865421717 200714 -146960311 -817776183
            -536150016 -1602221683 -613973850</internalNodes>
          <leafValues>
            -4.0253722667694092e-01 4.1289249062538147e-01</leafValues></_>
        <_>
          <internalNodes>
            0 -1 54 -689125980 -1114369 -17913054 1878931251 -17373212
            -1778417665 -8929865 -1495835162</internalNodes>
          <leafValues>
            -3.2432937622070312e-01 4.8300921916961670e-01</leafValues></_>
        <_>
          <internalNodes>
            0 -1 14 -152902272 938163951 -1896878210 -68419593
            1728047013 -813801610 1551707583 -605630733</internalNodes>
          <leafValues>
            -3.2968917489051819e-01 4.8043593764305115e-01</leafValues></_>
        <_>
          <internalNodes>
            0 -1 74 -63403079 519978874 -268468240 154075108 -575764
            -524417 2004301630 -1981030438</internalNodes>
          <leafValues>
            -3.4658429026603699e-01 4.7016102075576782e-01</leafValues></_></weakClassifiers></_>
    <!-- stage 16 -->
    <_>
      <maxWeakCount>9</maxWeakCount>
      <stageThreshold>-7.9274886846542358e-01</stageThreshold>
      <weakClassifiers>
        <_>
          <internalNodes>
            0 -1 62 -488608768 -1562989842 -419644782 717483178
            401407893 -1125744675 -18913323 1093803614</internalNodes>
          <leafValues>
            -4.2215088009834290e-01 5.3134202957153320e-01</leafValues></_>
        <_>
          <internalNodes>
            0 -1 73 -834742470 -9916626 -100716909 -32901 1336340143
            -135430273 -17455106 -1108396230</internalNodes>
          <leafValues>
            -2.1240307390689850e-01 7.1878671646118164e-01</leafValues></_>
        <_>
          <internalNodes>
            0 -1 27 -683749855 -215056514 2013208564 581959405
            1442240153 -336101377 2012598263 -970468130</internalNodes>
          <leafValues>
            -3.1389847397804260e-01 5.5246567726135254e-01</leafValues></_>
        <_>
          <internalNodes>
            0 -1 121 -1120075871 1968635762 1040187350 -251674627
            -671846464 1505460087 -8667230 -1827127308</internalNodes>
          <leafValues>
            -3.8695028424263000e-01 4.4957998394966125e-01</leafValues></_>
        <_>
          <internalNodes>
            0 -1 13 1455331054 -29610385 603897780 -1476935892
            -319439376 1056882167 -1086425603 -1155574274</internalNodes>
          <leafValues>
            -3.6972022056579590e-01 4.8264592885971069e-01</leafValues></_>
        <_>
          <internalNodes>
            0 -1 108 -328418436 -1081474 -268452039 1660616565
            -1216888884 2004809724 -1090765400 -357833242</internalNodes>
          <leafValues>
            -3.6374130845069885e-01 5.1392120122909546e-01</leafValues></_>
        <_>
          <internalNodes>
            0 -1 137 -4478025 -1442938946 -1073776772 2020605426
            1073511680 134217662 1710864375 -665395753</internalNodes>
          <leafValues>
            -4.0374258160591125e-01 4.9942547082901001e-01</leafValues></_>
        <_>
          <internalNodes>
            0 -1 79 1921274850 -1571503737 -1408167681 -905736000
            1091162192 -1390403416 -2013259125 869080576</internalNodes>
          <leafValues>
            -4.5692017674446106e-01 4.3907162547111511e-01</leafValues></_>
        <_>
          <internalNodes>
            0 -1 5 580587376 -523980783 -1610612651 -1391607806
            -402579451 -662568959 -2103398388 326772782</internalNodes>
          <leafValues>
            -5.6767469644546509e-01 3.5594749450683594e-01</leafValues></_></weakClassifiers></_>
    <!-- stage 17 -->
    <_>
      <maxWeakCount>9</maxWeakCount>
      <stageThreshold>-5.8658111095428467e-01</stageThreshold>
      <weakClassifiers>
        <_>
          <internalNodes>
            0 -1 4 541331716 -1208044518 67438988 462874922 -2140523808
            -2126247782 657929 494944863</internalNodes>
          <leafValues>
            -5.5555558204650879e-01 4.8651817440986633e-01</leafValues></_>
        <_>
          <internalNodes>
            0 -1 49 -1079229284 -75989122 2080319479 -33685652 -12599369
            -1107822593 -1207978563 -1076912323</internalNodes>
          <leafValues>
            -2.7468019723892212e-01 5.1388525962829590e-01</leafValues></_>
        <_>
          <internalNodes>
            0 -1 132 -1448998912 671613009 -1879015211 -1466777395
            -125068758 -1610481535 -1014359976 -1501881212</internalNodes>
          <leafValues>
            -4.8931348323822021e-01 2.8472560644149780e-01</leafValues></_>
        <_>
          <internalNodes>
            0 -1 94 -1378884558 387072194 1108023097 176427015 310577252
            -1147142110 -652715799 1387117187</internalNodes>
          <leafValues>
            -4.5737037062644958e-01 3.1411370635032654e-01</leafValues></_>
        <_>
          <internalNodes>
            0 -1 18 -535568188 1412481031 1377206430 -263584427
            -1870429766 -1602224000 -1836906092 -640868216</internalNodes>
          <leafValues>
            -3.7473738193511963e-01 3.7033009529113770e-01</leafValues></_>
        <_>
          <internalNodes>
            0 -1 82 -801021037 269779335 1157771613 72384530 478644341
            -273809407 -1706316627 464024379</internalNodes>
          <leafValues>
            -4.0561312437057495e-01 3.7024092674255371e-01</leafValues></_>
        <_>
          <internalNodes>
            0 -1 75 -1742159808 -61754863 2216028 -1627193332
            -1836959615 675823616 -935210346 -1953821537</internalNodes>
          <leafValues>
            -3.6994418501853943e-01 4.0917196869850159e-01</leafValues></_>
        <_>
          <internalNodes>
            0 -1 67 1083243226 -1777102845 18941248 -1603009024
            -226282803 822124619 -350156628 1048769398</internalNodes>
          <leafValues>
            -4.6820321679115295e-01 3.4281411767005920e-01</leafValues></_>
        <_>
          <internalNodes>
            0 -1 106 -622330556 -167772225 -1108344961 2117811948
            753392802 -1610614787 -581306951 -1353763173</internalNodes>
          <leafValues>
            -2.7213460206985474e-01 5.8777511119842529e-01</leafValues></_></weakClassifiers></_>
    <!-- stage 18 -->
    <_>
      <maxWeakCount>8</maxWeakCount>
      <stageThreshold>-3.1376555562019348e-01</stageThreshold>
      <weakClassifiers>
        <_>
          <internalNodes>
            0 -1 112 -1628675260 -1599393923 -5296419 -1708314691
            -1476559039 -557445 -1225026056 -2063782184</internalNodes>
          <leafValues>
            -1.8947368860244751e-01 5.7560974359512329e-01</leafValues></_>
        <_>
          <internalNodes>
            0 -1 110 520107296 -781926331 1073873221 -1848180722
            1124110864 -1474715624 76186120 -621671901</internalNodes>
          <leafValues>
            -5.5156701803207397e-01 3.1977900862693787e-01</leafValues></_>
        <_>
          <internalNodes>
            0 -1 64 -16851467 -42274824 2063281095 2062352381 -536903745
            -41945217 2142748668 2073944023</internalNodes>
          <leafValues>
            -2.7033069729804993e-01 5.5992966890335083e-01</leafValues></_>
        <_>
          <internalNodes>
            0 -1 41 1913860278 374780336 276832240 1590845769
            -1423920607 582582923 171163848 1092620706</internalNodes>
          <leafValues>
            -5.1290410757064819e-01 2.9274755716323853e-01</leafValues></_>
        <_>
          <internalNodes>
            0 -1 71 -1339498483 1746223610 -1848048460 -1613020968
            -1567538344 -905377622 151036099 -1148245368</internalNodes>
          <leafValues>
            -4.1998362541198730e-01 3.9621740579605103e-01</leafValues></_>
        <_>
          <internalNodes>
            0 -1 52 613968256 42650074 2757722 -587087542 1091788900
            -124583920 407541921 1714694677</internalNodes>
          <leafValues>
            -7.2255069017410278e-01 2.3323464393615723e-01</leafValues></_>
        <_>
          <internalNodes>
            0 -1 46 -2146473266 -804880367 -1610608566 -246931200
            33685633 839712770 1074931914 -609326820</internalNodes>
          <leafValues>
            -5.0495606660842896e-01 3.1886383891105652e-01</leafValues></_>
        <_>
          <internalNodes>
            0 -1 51 -1397083732 2079567800 1073725423 -1246281743
            -1646920228 763330421 -1074405683 -1174462613</internalNodes>
          <leafValues>
            -3.6681497097015381e-01 4.7955840826034546e-01</leafValues></_></weakClassifiers></_>
    <!-- stage 19 -->
    <_>
      <maxWeakCount>8</maxWeakCount>
      <stageThreshold>-2.5543960928916931e-01</stageThreshold>
      <weakClassifiers>
        <_>
          <internalNodes>
            0 -1 39 -805281388 143540674 154 672792576 75936 -536870776
            1208256676 1006770444</internalNodes>
          <leafValues>
            -5.4393303394317627e-01 4.9960348010063171e-01</leafValues></_>
        <_>
          <internalNodes>
            0 -1 8 2066674425 2130624446 1878998958 -570490953
            2008940476 -811598985 939490715 -638341649</internalNodes>
          <leafValues>
            -2.2450625896453857e-01 7.5201815366744995e-01</leafValues></_>
        <_>
          <internalNodes>
            0 -1 139 -1359155423 486440887 -16879653 -1963655178
            -33554880 -8912899 1458961444 -1562437134</internalNodes>
          <leafValues>
            -3.8890188932418823e-01 4.8312175273895264e-01</leafValues></_>
        <_>
          <internalNodes>
            0 -1 91 -773927614 -924401922 -1241579666 401596222
            -1619134994 -278921218 2110552433 -2055268865</internalNodes>
          <leafValues>
            -4.1017571091651917e-01 4.6460181474685669e-01</leafValues></_>
        <_>
          <internalNodes>
            0 -1 21 -240204286 -1611731090 1073720059 397344608
            133660159 -1770033283 787906525 1689777639</internalNodes>
          <leafValues>
            -3.3133324980735779e-01 5.2952611446380615e-01</leafValues></_>
        <_>
          <internalNodes>
            0 -1 141 -1901945741 -1090603142 -134289425 787996657
            -4325442 2112880615 -143333457 -134840838</internalNodes>
          <leafValues>
            -3.1298127770423889e-01 6.4361560344696045e-01</leafValues></_>
        <_>
          <internalNodes>
            0 -1 66 -462426370 -553904129 -1073823746 -1209401374
            -142811401 -1082179593 -1116248168 -1503298057</internalNodes>
          <leafValues>
            -2.6957654953002930e-01 6.7131704092025757e-01</leafValues></_>
        <_>
          <internalNodes>
            0 -1 102 -2116499394 -2130575344 -520093408 -1051033511
            68247601 -1459617632 -1734835784 -515702399</internalNodes>
          <leafValues>
            -4.7972938418388367e-01 4.2421543598175049e-01</leafValues></_></weakClassifiers></_></stages>
  <features>
    <_>
      <rect>
        0 0 1 1</rect></_>
    <_>
      <rect>
        0 0 2 1</rect></_>
    <_>
      <rect>
        0 0 2 3</rect></_>
    <_>
      <rect>
        0 0 3 1</rect></_>
    <_>
      <rect>
        0 0 4 6</rect></_>
    <_>
      <rect>
        0 0 5 5</rect></_>
    <_>
      <rect>
        0 0 6 4</rect></_>
    <_>
      <rect>
        0 0 7 5</rect></_>
    <_>
      <rect>
        0 0 8 2</rect></_>
    <_>
      <rect>
        0 1 4 2</rect></_>
    <_>
      <rect>
        0 1 4 3</rect></_>
    <_>
      <rect>
        0 1 8 6</rect></_>
    <_>
      <rect>
        0 2 3 5</rect></_>
    <_>
      <rect>
        0 3 2 2</rect></_>
    <_>
      <rect>
        0 3 3 1</rect></_>
    <_>
      <rect>
        0 3 3 2</rect></_>
    <_>
      <rect>
        0 3 3 6</rect></_>
    <_>
      <rect>
        0 3 5 2</rect></_>
    <_>
      <rect>
        0 4 2 1</rect></_>
    <_>
      <rect>
        0 5 6 3</rect></_>
    <_>
      <rect>
        0 6 1 1</rect></_>
    <_>
      <rect>
        0 6 3 2</rect></_>
    <_>
      <rect>
        0 9 7 5</rect></_>
    <_>
      <rect>
        0 11 1 1</rect></_>
    <_>
      <rect>
        0 11 8 4</rect></_>
    <_>
      <rect>
        0 15 5 3</rect></_>
    <_>
      <rect>
        0 18 3 1</rect></_>
    <_>
      <rect>
        1 0 3 1</rect></_>
    <_>
      <rect>
        1 0 6 2</rect></_>
    <_>
      <rect>
        1 0 7 4</rect></_>
    <_>
      <rect>
        1 2 1 1</rect></_>
    <_>
      <rect>
        1 3 2 1</rect></_>
    <_>
      <rect>
        1 3 4 2</rect></_>
    <_>
      <rect>
        1 3 6 2</rect></_>
    <_>
      <rect>
        1 3 7 3</rect></_>
    <_>
      <rect>
        1 4 1 1</rect></_>
    <_>
      <rect>
        1 4 2 1</rect></_>
    <_>
      <rect>
        1 7 7 2</rect></_>
    <_>
      <rect>
        1 13 2 1</rect></_>
    <_>
      <rect>
        1 18 3 2</rect></_>
    <_>
      <rect>
        1 18 5 2</rect></_>
    <_>
      <rect>
        2 0 4 3</rect></_>
    <_>
      <rect>
        2 0 5 1</rect></_>
    <_>
      <rect>
        2 0 6 8</rect></_>
    <_>
      <rect>
        2 1 6 3</rect></_>
    <_>
      <rect>
        2 2 4 3</rect></_>
    <_>
      <rect>
        2 13 1 3</rect></_>
    <_>
      <rect>
        3 0 4 2</rect></_>
    <_>
      <rect>
        3 0 4 3</rect></_>
    <_>
      <rect>
        3 0 6 2</rect></_>
    <_>
      <rect>
        3 0 7 6</rect></_>
    <_>
      <rect>
        3 1 2 1</rect></_>
    <_>
      <rect>
        3 1 5 3</rect></_>
    <_>
      <rect>
        3 1 5 7</rect></_>
    <_>
      <rect>
        3 2 3 1</rect></_>
    <_>
      <rect>
        3 4 2 1</rect></_>
    <_>
      <rect>
        3 7 6 4</rect></_>
    <_>
      <rect>
        3 8 2 1</rect></_>
    <_>
      <rect>
        3 15 1 1</rect></_>
    <_>
      <rect>
        3 21 1 1</rect></_>
    <_>
      <rect>
        4 0 1 1</rect></_>
    <_>
      <rect>
        4 0 3 1</rect></_>
    <_>
      <rect>
        4 0 4 1</rect></_>
    <_>
      <rect>
        4 0 4 4</rect></_>
    <_>
      <rect>
        4 0 5 2</rect></_>
    <_>
      <rect>
        4 1 4 1</rect></_>
    <_>
      <rect>
        4 3 1 1</rect></_>
    <_>
      <rect>
        4 7 4 4</rect></_>
    <_>
      <rect>
        4 10 3 2</rect></_>
    <_>
      <rect>
        4 19 2 1</rect></_>
    <_>
      <rect>
        4 20 1 1</rect></_>
    <_>
      <rect>
        5 0 2 1</rect></_>
    <_>
      <rect>
        5 0 3 1</rect></_>
    <_>
      <rect>
        5 1 2 1</rect></_>
    <_>
      <rect>
        5 1 5 2</rect></_>
    <_>
      <rect>
        5 2 1 1</rect></_>
    <_>
      <rect>
        5 5 6 4</rect></_>
    <_>
      <rect>
        6 0 1 1</rect></_>
    <_>
      <rect>
        6 0 2 1</rect></_>
    <_>
      <rect>
        6 0 6 4</rect></_>
    <_>
      <rect>
        6 1 6 1</rect></_>
    <_>
      <rect>
        6 1 6 4</rect></_>
    <_>
      <rect>
        6 12 6 4</rect></_>
    <_>
      <rect>
        7 0 2 1</rect></_>
    <_>
      <rect>
        7 0 4 1</rect></_>
    <_>
      <rect>
        7 1 2 2</rect></_>
    <_>
      <rect>
        7 1 5 1</rect></_>
    <_>
      <rect>
        7 17 5 2</rect></_>
    <_>
      <rect>
        8 0 3 2</rect></_>
    <_>
      <rect>
        8 8 5 4</rect></_>
    <_>
      <rect>
        9 0 1 1</rect></_>
    <_>
      <rect>
        9 0 3 1</rect></_>
    <_>
      <rect>
        9 1 5 6</rect></_>
    <_>
      <rect>
        9 2 5 5</rect></_>
    <_>
      <rect>
        9 4 4 2</rect></_>
    <_>
      <rect>
        9 6 2 2</rect></_>
    <_>
      <rect>
        9 7 3 2</rect></_>
    <_>
      <rect>
        10 0 3 1</rect></_>
    <_>
      <rect>
        10 0 3 2</rect></_>
    <_>
      <rect>
        10 1 3 1</rect></_>
    <_>
      <rect>
        10 1 3 2</rect></_>
    <_>
      <rect>
        10 2 3 1</rect></_>
    <_>
      <rect>
        10 5 2 1</rect></_>
    <_>
      <rect>
        10 7 1 1</rect></_>
    <_>
      <rect>
        10 21 1 1</rect></_>
    <_>
      <rect>
        11 0 1 1</rect></_>
    <_>
      <rect>
        11 0 2 1</rect></_>
    <_>
      <rect>
        11 1 4 1</rect></_>
    <_>
      <rect>
        11 3 3 2</rect></_>
    <_>
      <rect>
        12 0 4 1</rect></_>
    <_>
      <rect>
        12 0 4 8</rect></_>
    <_>
      <rect>
        12 1 4 1</rect></_>
    <_>
      <rect>
        12 3 2 1</rect></_>
    <_>
      <rect>
        12 3 4 2</rect></_>
    <_>
      <rect>
        12 4 4 4</rect></_>
    <_>
      <rect>
        12 5 4 3</rect></_>
    <_>
      <rect>
        13 0 2 1</rect></_>
    <_>
      <rect>
        13 0 3 1</rect></_>
    <_>
      <rect>
        13 1 2 2</rect></_>
    <_>
      <rect>
        13 2 3 4</rect></_>
    <_>
      <rect>
        14 0 3 1</rect></_>
    <_>
      <rect>
        14 2 2 1</rect></_>
    <_>
      <rect>
        14 2 3 3</rect></_>
    <_>
      <rect>
        15 0 1 1</rect></_>
    <_>
      <rect>
        15 1 3 4</rect></_>
    <_>
      <rect>
        15 5 3 2</rect></_>
    <_>
      <rect>
        15 18 1 1</rect></_>
    <_>
      <rect>
        16 0 1 1</rect></_>
    <_>
      <rect>
        16 1 1 1</rect></_>
    <_>
      <rect>
        16 21 1 1</rect></_>
    <_>
      <rect>
        17 7 2 2</rect></_>
    <_>
      <rect>
        17 19 1 1</rect></_>
    <_>
      <rect>
        18 0 1 1</rect></_>
    <_>
      <rect>
        18 2 2 3</rect></_>
    <_>
      <rect>
        18 21 1 1</rect></_>
    <_>
      <rect>
        19 0 1 1</rect></_>
    <_>
      <rect>
        20 5 1 1</rect></_>
    <_>
      <rect>
        20 14 1 1</rect></_>
    <_>
      <rect>
        20 21 1 1</rect></_>
    <_>
      <rect>
        21 1 1 1</rect></_>
    <_>
      <rect>
        21 4 1 1</rect></_>
    <_>
      <rect>
        21 10 1 1</rect></_>
    <_>
      <rect>
        21 20 1 1</rect></_></features></cascade>
</opencv_storage>
