<?xml version="1.0"?>
<opencv_storage>
<cascade>
  <stageType>BOOST</stageType>
  <featureType>LBP</featureType>
  <height>24</height>
  <width>24</width>
  <stageParams>
    <boostType>GAB</boostType>
    <minHitRate>9.9500000476837158e-01</minHitRate>
    <maxFalseAlarm>5.0000000000000000e-01</maxFalseAlarm>
    <weightTrimRate>9.4999999999999996e-01</weightTrimRate>
    <maxDepth>1</maxDepth>
    <maxWeakCount>100</maxWeakCount></stageParams>
  <featureParams>
    <maxCatCount>256</maxCatCount>
    <featSize>1</featSize></featureParams>
  <stageNum>20</stageNum>
  <stages>
    <!-- stage 0 -->
    <_>
      <maxWeakCount>2</maxWeakCount>
      <stageThreshold>-9.3020409345626831e-02</stageThreshold>
      <weakClassifiers>
        <_>
          <internalNodes>
            0 -1 10 -687801890 -586072063 66 1427111936 1074307274
            1375863296 659660 1073758408</internalNodes>
          <leafValues>
            -8.1635218858718872e-01 7.4784582853317261e-01</leafValues></_>
        <_>
          <internalNodes>
            0 -1 24 -532354874 1392541706 17039489 -1044381694
            1627449551 1082196160 16793754 -1903468333</internalNodes>
          <leafValues>
            -6.4755457639694214e-01 7.2333180904388428e-01</leafValues></_></weakClassifiers></_>
    <!-- stage 1 -->
    <_>
      <maxWeakCount>2</maxWeakCount>
      <stageThreshold>-2.2027241066098213e-03</stageThreshold>
      <weakClassifiers>
        <_>
          <internalNodes>
            0 -1 60 -1610350576 612589712 1073745937 1880129795 2228264
            536870912 34136192 -1307416040</internalNodes>
          <leafValues>
            -7.4013918638229370e-01 7.6613658666610718e-01</leafValues></_>
        <_>
          <internalNodes>
            0 -1 3 -649659944 -742391590 -1073197056 -782233468
            956334273 1887567872 -1551136374 -611630782</internalNodes>
          <leafValues>
            -6.5416127443313599e-01 7.3793649673461914e-01</leafValues></_></weakClassifiers></_>
    <!-- stage 2 -->
    <_>
      <maxWeakCount>2</maxWeakCount>
      <stageThreshold>-1.8395002186298370e-01</stageThreshold>
      <weakClassifiers>
        <_>
          <internalNodes>
            0 -1 28 -2146500352 -2078801776 -2147479472 76120064
            1090585120 1343225856 66288 -805167102</internalNodes>
          <leafValues>
            -8.2841825485229492e-01 7.1783494949340820e-01</leafValues></_>
        <_>
          <internalNodes>
            0 -1 1 2102313196 -170655616 939556996 -251297536
            -1047754518 557842568 -2134191714 1181196303</internalNodes>
          <leafValues>
            -7.0137596130371094e-01 6.4446818828582764e-01</leafValues></_></weakClassifiers></_>
    <!-- stage 3 -->
    <_>
      <maxWeakCount>2</maxWeakCount>
      <stageThreshold>4.1704170405864716e-02</stageThreshold>
      <weakClassifiers>
        <_>
          <internalNodes>
            0 -1 69 -34075028 651681597 -65794 -1166508034 -106924
            2122317695 -25756556 -1563019276</internalNodes>
          <leafValues>
            -6.2077921628952026e-01 6.6278028488159180e-01</leafValues></_>
        <_>
          <internalNodes>
            0 -1 38 -17912082 -361058562 -285278515 -85000322 1677688319
            1879015423 -66348 -678694793</internalNodes>
          <leafValues>
            -5.3369748592376709e-01 6.6248339414596558e-01</leafValues></_></weakClassifiers></_>
    <!-- stage 4 -->
    <_>
      <maxWeakCount>4</maxWeakCount>
      <stageThreshold>7.2761632502079010e-02</stageThreshold>
      <weakClassifiers>
        <_>
          <internalNodes>
            0 -1 42 -2088630452 -535818238 -250605420 1616036240
            -1451224776 2 -2012700512 -2101695856</internalNodes>
          <leafValues>
            -6.2310868501663208e-01 6.3924330472946167e-01</leafValues></_>
        <_>
          <internalNodes>
            0 -1 11 -788409346 -237907756 -1878191460 1998116304
            -1744465414 -1567940444 -1315880740 1364410595</internalNodes>
          <leafValues>
            -6.3907426595687866e-01 5.5107051134109497e-01</leafValues></_>
        <_>
          <internalNodes>
            0 -1 71 -1094804293 738000894 1073725439 -201359620
            -1073746049 -276824065 -81924 -1157632258</internalNodes>
          <leafValues>
            -4.5698353648185730e-01 7.6816725730895996e-01</leafValues></_>
        <_>
          <internalNodes>
            0 -1 18 1174520198 428883987 528632 995201427 151042219
            -394264576 167838384 -592493950</internalNodes>
          <leafValues>
            -5.9013307094573975e-01 6.0178333520889282e-01</leafValues></_></weakClassifiers></_>
    <!-- stage 5 -->
    <_>
      <maxWeakCount>4</maxWeakCount>
      <stageThreshold>-3.4978635609149933e-02</stageThreshold>
      <weakClassifiers>
        <_>
          <internalNodes>
            0 -1 27 2147221486 1584758524 -65540 -704643080 -134316555
            2012020572 2113928406 190443740</internalNodes>
          <leafValues>
            -5.7258063554763794e-01 6.3209217786788940e-01</leafValues></_>
        <_>
          <internalNodes>
            0 -1 30 -59842848 -9961556 -1090519749 -8650758 -8421380
            -283148315 1878972347 184418266</internalNodes>
          <leafValues>
            -5.3006881475448608e-01 5.7513558864593506e-01</leafValues></_>
        <_>
          <internalNodes>
            0 -1 73 -1576386495 -2147350261 268456275 1427558483 8945733
            -1937735167 -2097134894 -2136309274</internalNodes>
          <leafValues>
            -6.5883177518844604e-01 5.0111275911331177e-01</leafValues></_>
        <_>
          <internalNodes>
            0 -1 45 -1073824519 352305150 -1090519297 1577058047
            779582686 -2063614225 234779871 -2032223026</internalNodes>
          <leafValues>
            -5.3864634037017822e-01 6.1609691381454468e-01</leafValues></_></weakClassifiers></_>
    <!-- stage 6 -->
    <_>
      <maxWeakCount>4</maxWeakCount>
      <stageThreshold>-1.7158250510692596e-01</stageThreshold>
      <weakClassifiers>
        <_>
          <internalNodes>
            0 -1 49 947299904 2003828592 -25296947 776339445 -1073813564
            -17039497 2147444463 203921267</internalNodes>
          <leafValues>
            -5.6641602516174316e-01 6.5940052270889282e-01</leafValues></_>
        <_>
          <internalNodes>
            0 -1 26 -433797892 1394315633 16797779 -585826303 536906171
            -1440743158 -1985888070 -1954069824</internalNodes>
          <leafValues>
            -4.9869611859321594e-01 6.0257196426391602e-01</leafValues></_>
        <_>
          <internalNodes>
            0 -1 21 318947649 -674103206 16973973 440799242 -758644728
            -241563647 -1970764918 1158797979</internalNodes>
          <leafValues>
            -6.6462695598602295e-01 4.9111124873161316e-01</leafValues></_>
        <_>
          <internalNodes>
            0 -1 57 -721106636 -1726775280 1543536772 1163247659
            -1979613184 -637394944 -1048119265 437605410</internalNodes>
          <leafValues>
            -6.6641426086425781e-01 4.5688849687576294e-01</leafValues></_></weakClassifiers></_>
    <!-- stage 7 -->
    <_>
      <maxWeakCount>4</maxWeakCount>
      <stageThreshold>-4.3043041229248047e-01</stageThreshold>
      <weakClassifiers>
        <_>
          <internalNodes>
            0 -1 12 -787418114 1971888578 1480594024 1699252558
            700617700 -2088075231 -377413140 416621108</internalNodes>
          <leafValues>
            -7.2250425815582275e-01 5.9236198663711548e-01</leafValues></_>
        <_>
          <internalNodes>
            0 -1 7 -18890497 -723584880 1074791768 -37707772 1128927264
            -779485053 -536756216 1934654395</internalNodes>
          <leafValues>
            -7.0240700244903564e-01 4.4065812230110168e-01</leafValues></_>
        <_>
          <internalNodes>
            0 -1 43 -796855776 -715988979 -1744748221 -716961400
            -1065242200 -2134736760 306940170 311816744</internalNodes>
          <leafValues>
            -6.7083823680877686e-01 4.5574888586997986e-01</leafValues></_>
        <_>
          <internalNodes>
            0 -1 22 -1982730214 -1059127038 1342182290 1959910466
            -1870446080 1048576 571051404 -253245521</internalNodes>
          <leafValues>
            -6.0433322191238403e-01 5.0002336502075195e-01</leafValues></_></weakClassifiers></_>
    <!-- stage 8 -->
    <_>
      <maxWeakCount>5</maxWeakCount>
      <stageThreshold>-4.9574163556098938e-01</stageThreshold>
      <weakClassifiers>
        <_>
          <internalNodes>
            0 -1 20 -1060510740 -749092774 1896359005 -742075700
            -477959194 2032284308 606157572 51024754</internalNodes>
          <leafValues>
            -6.7957746982574463e-01 5.6990128755569458e-01</leafValues></_>
        <_>
          <internalNodes>
            0 -1 39 318812252 336593050 -184549281 290784337 -1433821126
            -1181745016 -1744097190 182325299</internalNodes>
          <leafValues>
            -5.8505761623382568e-01 4.9017596244812012e-01</leafValues></_>
        <_>
          <internalNodes>
            0 -1 9 -204737638 1091305667 1073741840 -2146762624
            557992448 131072 84099 -1016900093</internalNodes>
          <leafValues>
            -4.9041062593460083e-01 5.4015409946441650e-01</leafValues></_>
        <_>
          <internalNodes>
            0 -1 36 -243248132 -1853685440 1074790557 1964152849
            1342319208 554827808 432701611 -1759825878</internalNodes>
          <leafValues>
            -5.0556737184524536e-01 5.6853115558624268e-01</leafValues></_>
        <_>
          <internalNodes>
            0 -1 56 1985144847 -716701531 306266446 -1245609959
            -1040123463 -1610405880 -1305765176 860604826</internalNodes>
          <leafValues>
            -5.1517206430435181e-01 5.5620968341827393e-01</leafValues></_></weakClassifiers></_>
    <!-- stage 9 -->
    <_>
      <maxWeakCount>4</maxWeakCount>
      <stageThreshold>7.5021244585514069e-02</stageThreshold>
      <weakClassifiers>
        <_>
          <internalNodes>
            0 -1 17 -299394 -1343225861 -4124 2147221235 1048346452
            1321107189 1878425558 1468037119</internalNodes>
          <leafValues>
            -4.9307480454444885e-01 5.9525901079177856e-01</leafValues></_>
        <_>
          <internalNodes>
            0 -1 34 -22041426 -361494 -1073741834 -223543362 2130182013
            1711210366 -524308 -201327106</internalNodes>
          <leafValues>
            -3.9520606398582458e-01 6.5400034189224243e-01</leafValues></_>
        <_>
          <internalNodes>
            0 -1 29 1090577108 -795180912 -1861722660 1969177945
            -1459564327 -1114071006 336142988 324534493</internalNodes>
          <leafValues>
            -6.1186921596527100e-01 4.4816815853118896e-01</leafValues></_>
        <_>
          <internalNodes>
            0 -1 50 -917722225 -1858500580 268489084 -1687035730
            1078585450 -368965632 -1056102483 -1895311238</internalNodes>
          <leafValues>
            -5.3407245874404907e-01 5.3716582059860229e-01</leafValues></_></weakClassifiers></_>
    <!-- stage 10 -->
    <_>
      <maxWeakCount>4</maxWeakCount>
      <stageThreshold>-2.9720297455787659e-01</stageThreshold>
      <weakClassifiers>
        <_>
          <internalNodes>
            0 -1 2 -398290094 1073779216 98321 268861441 -1073118808
            32768 33696396 1090783488</internalNodes>
          <leafValues>
            -8.8317757844924927e-01 5.3576982021331787e-01</leafValues></_>
        <_>
          <internalNodes>
            0 -1 46 -700350145 1879113737 1073763344 268570753
            -2113830781 65664 168345752 952729602</internalNodes>
          <leafValues>
            -5.2680271863937378e-01 5.6767374277114868e-01</leafValues></_>
        <_>
          <internalNodes>
            0 -1 0 -1069424464 318801984 134217744 -1132199807
            1342210234 -133693310 142770305 1262723094</internalNodes>
          <leafValues>
            -6.0077559947967529e-01 5.5767661333084106e-01</leafValues></_>
        <_>
          <internalNodes>
            0 -1 44 -1308585718 -1862172654 -2147336048 -1876934644
            32826 -2147483648 570558593 -68747126</internalNodes>
          <leafValues>
            -5.6447857618331909e-01 6.1907643079757690e-01</leafValues></_></weakClassifiers></_>
    <!-- stage 11 -->
    <_>
      <maxWeakCount>4</maxWeakCount>
      <stageThreshold>-3.0497381091117859e-01</stageThreshold>
      <weakClassifiers>
        <_>
          <internalNodes>
            0 -1 52 -1574295344 -1407977022 -1744563823 -1735076194
            708837536 1788575872 323268643 218529860</internalNodes>
          <leafValues>
            -7.5619834661483765e-01 5.4292529821395874e-01</leafValues></_>
        <_>
          <internalNodes>
            0 -1 8 -225521422 -804060926 -2011098861 -527425511
            186787121 -1549426287 -392097077 1605364612</internalNodes>
          <leafValues>
            -5.8504801988601685e-01 4.5813125371932983e-01</leafValues></_>
        <_>
          <internalNodes>
            0 -1 33 1604722683 -420725762 -131331 -84394122 -807538698
            1870495615 -536911905 -138453126</internalNodes>
          <leafValues>
            -4.8416018486022949e-01 5.6720232963562012e-01</leafValues></_>
        <_>
          <internalNodes>
            0 -1 16 -1023163452 -787742576 -671084388 -252403518
            -260046768 1879093248 -1836965408 -1293704407</internalNodes>
          <leafValues>
            -5.7410907745361328e-01 5.1282018423080444e-01</leafValues></_></weakClassifiers></_>
    <!-- stage 12 -->
    <_>
      <maxWeakCount>4</maxWeakCount>
      <stageThreshold>-1.9171652197837830e-01</stageThreshold>
      <weakClassifiers>
        <_>
          <internalNodes>
            0 -1 32 -413732332 -951016942 84017488 1467130644 1082226824
            -1719435214 168503832 18676192</internalNodes>
          <leafValues>
            -9.1747570037841797e-01 5.3245747089385986e-01</leafValues></_>
        <_>
          <internalNodes>
            0 -1 37 1448407936 1765298320 -2063525883 -1094373081
            -1196848705 -1668709830 -1467815522 816228373</internalNodes>
          <leafValues>
            -6.1700409650802612e-01 4.1453742980957031e-01</leafValues></_>
        <_>
          <internalNodes>
            0 -1 23 -1023201009 307953664 1327177 -804814848 545784352
            -1341915136 1384259720 1396958103</internalNodes>
          <leafValues>
            -5.4468137025833130e-01 4.9278885126113892e-01</leafValues></_>
        <_>
          <internalNodes>
            0 -1 35 287200660 -449834920 -1761443691 -1182760624
            176193688 -192413496 1493631034 731791511</internalNodes>
          <leafValues>
            -5.9403008222579956e-01 4.4708403944969177e-01</leafValues></_></weakClassifiers></_>
    <!-- stage 13 -->
    <_>
      <maxWeakCount>5</maxWeakCount>
      <stageThreshold>1.0934971272945404e-01</stageThreshold>
      <weakClassifiers>
        <_>
          <internalNodes>
            0 -1 58 1096086262 -359628320 -804913057 1192235534
            560661105 -1206353788 193465017 169871792</internalNodes>
          <leafValues>
            -9.0425533056259155e-01 5.1067072153091431e-01</leafValues></_>
        <_>
          <internalNodes>
            0 -1 51 -1207109565 -121613583 -1862205028 -599197102
            -1593759663 -1962081743 -611071324 354914330</internalNodes>
          <leafValues>
            -7.2577804327011108e-01 3.4447830915451050e-01</leafValues></_>
        <_>
          <internalNodes>
            0 -1 48 -532169644 2064973915 -922713907 1514864654
            411908585 -805126144 1243253434 -1135025397</internalNodes>
          <leafValues>
            -5.9139275550842285e-01 4.1722559928894043e-01</leafValues></_>
        <_>
          <internalNodes>
            0 -1 15 -1072564715 -929348526 1426079895 1506836610
            -481588692 403212344 -1023276386 390566492</internalNodes>
          <leafValues>
            -6.0597848892211914e-01 4.1276904940605164e-01</leafValues></_>
        <_>
          <internalNodes>
            0 -1 25 -2129476573 -775667568 16562 1468027088 -2013257288
            -1870593888 -1970568814 -1681694014</internalNodes>
          <leafValues>
            -5.4114633798599243e-01 5.1320987939834595e-01</leafValues></_></weakClassifiers></_>
    <!-- stage 14 -->
    <_>
      <maxWeakCount>4</maxWeakCount>
      <stageThreshold>-1.9072131812572479e-01</stageThreshold>
      <weakClassifiers>
        <_>
          <internalNodes>
            0 -1 65 -2144726496 -1825503017 -2130657279 273778826
            -1031657448 553648681 -1467986291 840968228</internalNodes>
          <leafValues>
            -8.7755101919174194e-01 5.1533740758895874e-01</leafValues></_>
        <_>
          <internalNodes>
            0 -1 61 -8388993 2025781821 -589956 1333002239 2147483550
            -1904443531 1962409148 1501024563</internalNodes>
          <leafValues>
            -4.5688417553901672e-01 5.5374199151992798e-01</leafValues></_>
        <_>
          <internalNodes>
            0 -1 63 -1357438410 802734074 -554205452 -4123 -285221082
            -809500818 -1082196481 -1212426626</internalNodes>
          <leafValues>
            -4.0217885375022888e-01 6.4142525196075439e-01</leafValues></_>
        <_>
          <internalNodes>
            0 -1 68 -767393378 1091633154 136 -704444413 -1342160728
            -394223616 411730402 -207473990</internalNodes>
          <leafValues>
            -5.2066153287887573e-01 5.3526657819747925e-01</leafValues></_></weakClassifiers></_>
    <!-- stage 15 -->
    <_>
      <maxWeakCount>4</maxWeakCount>
      <stageThreshold>1.5995553135871887e-01</stageThreshold>
      <weakClassifiers>
        <_>
          <internalNodes>
            0 -1 40 1071705600 -1376141576 2147434495 -33751043
            795738095 -1074888738 2096379437 1047945164</internalNodes>
          <leafValues>
            -4.6813726425170898e-01 6.3278388977050781e-01</leafValues></_>
        <_>
          <internalNodes>
            0 -1 6 -286269443 -25231491 -2 -335876 -163980 -229513
            -1342275590 1931703767</internalNodes>
          <leafValues>
            -4.6875941753387451e-01 6.1818766593933105e-01</leafValues></_>
        <_>
          <internalNodes>
            0 -1 54 1324162552 -311427090 1862250495 -1081604 -806029323
            634249085 1584916204 -605000970</internalNodes>
          <leafValues>
            -4.9323752522468567e-01 5.9197819232940674e-01</leafValues></_>
        <_>
          <internalNodes>
            0 -1 70 -1069503829 285213971 -805302272 -1023340510
            -2147295080 -2130444287 1628156312 495252123</internalNodes>
          <leafValues>
            -5.8207303285598755e-01 5.4375171661376953e-01</leafValues></_></weakClassifiers></_>
    <!-- stage 16 -->
    <_>
      <maxWeakCount>4</maxWeakCount>
      <stageThreshold>-1.2856386601924896e-01</stageThreshold>
      <weakClassifiers>
        <_>
          <internalNodes>
            0 -1 64 13762820 167772441 -1207893952 25178128 -1744633855
            -1467973631 -1845493715 -1975648255</internalNodes>
          <leafValues>
            -6.5203762054443359e-01 5.9949195384979248e-01</leafValues></_>
        <_>
          <internalNodes>
            0 -1 53 -26345555 -454164611 -589829 -135200771 -536879236
            -277414019 -302678027 -42475137</internalNodes>
          <leafValues>
            -4.1719889640808105e-01 6.8388450145721436e-01</leafValues></_>
        <_>
          <internalNodes>
            0 -1 62 -2113760606 84279299 81986 -536788477 -1040086879
            442369 -360511488 290048135</internalNodes>
          <leafValues>
            -6.5754431486129761e-01 4.8539599776268005e-01</leafValues></_>
        <_>
          <internalNodes>
            0 -1 47 25217302 -2112823277 1140867091 -855440637
            -2142982046 1342701760 1208201272 -1662531572</internalNodes>
          <leafValues>
            -6.4580672979354858e-01 5.0079691410064697e-01</leafValues></_></weakClassifiers></_>
    <!-- stage 17 -->
    <_>
      <maxWeakCount>4</maxWeakCount>
      <stageThreshold>5.7527471333742142e-02</stageThreshold>
      <weakClassifiers>
        <_>
          <internalNodes>
            0 -1 5 -501898726 574717968 -2147479478 1082130432
            1098916361 -1862205438 721553920 1343820036</internalNodes>
          <leafValues>
            -8.8546258211135864e-01 5.5066770315170288e-01</leafValues></_>
        <_>
          <internalNodes>
            0 -1 55 -1860140093 -2138963712 285278233 -582921968
            536870935 -2138750839 -1610578805 1258488001</internalNodes>
          <leafValues>
            -5.3837716579437256e-01 6.0351592302322388e-01</leafValues></_>
        <_>
          <internalNodes>
            0 -1 72 -411046234 -21070017 -43009 821477311 -1090519212
            -411697281 -134357922 -145031217</internalNodes>
          <leafValues>
            -4.4398814439773560e-01 8.1851541996002197e-01</leafValues></_>
        <_>
          <internalNodes>
            0 -1 66 268899081 -1862238200 128 -779976686 571514937
            -1845493760 50339912 -781999862</internalNodes>
          <leafValues>
            -6.5266799926757812e-01 5.8813166618347168e-01</leafValues></_></weakClassifiers></_>
    <!-- stage 18 -->
    <_>
      <maxWeakCount>4</maxWeakCount>
      <stageThreshold>-2.4924765527248383e-01</stageThreshold>
      <weakClassifiers>
        <_>
          <internalNodes>
            0 -1 67 -1593638912 269516808 129 1233133696 524804 8388737
            -1577024856 414353064</internalNodes>
          <leafValues>
            -7.4591648578643799e-01 5.7615351676940918e-01</leafValues></_>
        <_>
          <internalNodes>
            0 -1 59 -2079735725 131200 294913 -788004863 -2144845613
            327688 1082982672 517644467</internalNodes>
          <leafValues>
            -6.8920391798019409e-01 4.4259291887283325e-01</leafValues></_>
        <_>
          <internalNodes>
            0 -1 41 276830464 1426260032 268451984 -788168572
            -2113896413 419954722 1075841185 -133332710</internalNodes>
          <leafValues>
            -5.7292401790618896e-01 6.1508935689926147e-01</leafValues></_>
        <_>
          <internalNodes>
            0 -1 19 -1073557166 -2147479551 21102609 1166090296
            -2146369397 134610944 -1979574134 260702226</internalNodes>
          <leafValues>
            -6.9507014751434326e-01 5.0330239534378052e-01</leafValues></_></weakClassifiers></_>
    <!-- stage 19 -->
    <_>
      <maxWeakCount>4</maxWeakCount>
      <stageThreshold>9.2900432646274567e-02</stageThreshold>
      <weakClassifiers>
        <_>
          <internalNodes>
            0 -1 31 1866338291 515702764 -16843018 2013165310 805269486
            -16777228 2147385204 -2022548272</internalNodes>
          <leafValues>
            -4.5362904667854309e-01 7.2211158275604248e-01</leafValues></_>
        <_>
          <internalNodes>
            0 -1 4 1861119410 -286261249 -16777473 -219152646 -2065
            1744793599 -35369 -58859530</internalNodes>
          <leafValues>
            -5.5417448282241821e-01 6.4167618751525879e-01</leafValues></_>
        <_>
          <internalNodes>
            0 -1 13 1074336532 -805306367 285212744 -54472486
            -1576337384 1216512000 -1807515487 123009</internalNodes>
          <leafValues>
            -7.6376777887344360e-01 5.0257992744445801e-01</leafValues></_>
        <_>
          <internalNodes>
            0 -1 14 -272638728 1878900733 -1 -9142273 -45323 2147319679
            -180358 -147628430</internalNodes>
          <leafValues>
            -5.0711947679519653e-01 7.9377669095993042e-01</leafValues></_></weakClassifiers></_></stages>
  <features>
    <_>
      <rect>
        0 0 4 2</rect></_>
    <_>
      <rect>
        0 0 8 5</rect></_>
    <_>
      <rect>
        0 2 2 5</rect></_>
    <_>
      <rect>
        0 2 6 7</rect></_>
    <_>
      <rect>
        0 4 2 1</rect></_>
    <_>
      <rect>
        0 4 3 3</rect></_>
    <_>
      <rect>
        0 5 1 6</rect></_>
    <_>
      <rect>
        0 5 3 6</rect></_>
    <_>
      <rect>
        0 6 4 3</rect></_>
    <_>
      <rect>
        0 8 1 2</rect></_>
    <_>
      <rect>
        0 11 8 4</rect></_>
    <_>
      <rect>
        0 12 5 4</rect></_>
    <_>
      <rect>
        0 12 8 3</rect></_>
    <_>
      <rect>
        0 14 2 2</rect></_>
    <_>
      <rect>
        0 15 1 3</rect></_>
    <_>
      <rect>
        0 15 2 2</rect></_>
    <_>
      <rect>
        0 17 1 1</rect></_>
    <_>
      <rect>
        0 18 5 2</rect></_>
    <_>
      <rect>
        1 0 4 1</rect></_>
    <_>
      <rect>
        1 0 5 3</rect></_>
    <_>
      <rect>
        1 0 7 6</rect></_>
    <_>
      <rect>
        1 9 2 4</rect></_>
    <_>
      <rect>
        1 10 1 1</rect></_>
    <_>
      <rect>
        1 10 1 2</rect></_>
    <_>
      <rect>
        2 0 4 5</rect></_>
    <_>
      <rect>
        2 1 2 1</rect></_>
    <_>
      <rect>
        2 1 2 3</rect></_>
    <_>
      <rect>
        2 3 7 7</rect></_>
    <_>
      <rect>
        2 7 1 1</rect></_>
    <_>
      <rect>
        2 17 6 2</rect></_>
    <_>
      <rect>
        3 0 7 4</rect></_>
    <_>
      <rect>
        3 1 1 1</rect></_>
    <_>
      <rect>
        3 9 4 4</rect></_>
    <_>
      <rect>
        3 10 1 2</rect></_>
    <_>
      <rect>
        3 15 1 1</rect></_>
    <_>
      <rect>
        3 18 5 2</rect></_>
    <_>
      <rect>
        3 21 2 1</rect></_>
    <_>
      <rect>
        4 0 6 3</rect></_>
    <_>
      <rect>
        4 9 1 1</rect></_>
    <_>
      <rect>
        4 18 6 2</rect></_>
    <_>
      <rect>
        5 1 3 3</rect></_>
    <_>
      <rect>
        6 4 2 2</rect></_>
    <_>
      <rect>
        6 14 1 1</rect></_>
    <_>
      <rect>
        7 0 3 3</rect></_>
    <_>
      <rect>
        7 5 1 1</rect></_>
    <_>
      <rect>
        8 18 5 2</rect></_>
    <_>
      <rect>
        10 0 3 1</rect></_>
    <_>
      <rect>
        10 14 3 3</rect></_>
    <_>
      <rect>
        11 0 3 2</rect></_>
    <_>
      <rect>
        11 0 4 3</rect></_>
    <_>
      <rect>
        11 3 4 4</rect></_>
    <_>
      <rect>
        11 7 4 3</rect></_>
    <_>
      <rect>
        11 18 3 2</rect></_>
    <_>
      <rect>
        12 4 4 5</rect></_>
    <_>
      <rect>
        12 18 2 1</rect></_>
    <_>
      <rect>
        12 18 3 2</rect></_>
    <_>
      <rect>
        13 7 3 3</rect></_>
    <_>
      <rect>
        14 5 3 3</rect></_>
    <_>
      <rect>
        14 13 2 3</rect></_>
    <_>
      <rect>
        14 15 3 3</rect></_>
    <_>
      <rect>
        15 2 1 1</rect></_>
    <_>
      <rect>
        15 6 3 3</rect></_>
    <_>
      <rect>
        15 9 3 5</rect></_>
    <_>
      <rect>
        16 10 1 1</rect></_>
    <_>
      <rect>
        16 21 1 1</rect></_>
    <_>
      <rect>
        17 1 2 3</rect></_>
    <_>
      <rect>
        17 8 2 3</rect></_>
    <_>
      <rect>
        17 10 1 2</rect></_>
    <_>
      <rect>
        18 0 2 2</rect></_>
    <_>
      <rect>
        18 5 1 1</rect></_>
    <_>
      <rect>
        18 15 2 2</rect></_>
    <_>
      <rect>
        19 21 1 1</rect></_>
    <_>
      <rect>
        20 10 1 1</rect></_>
    <_>
      <rect>
        20 18 1 1</rect></_></features></cascade>
</opencv_storage>
