<?xml version="1.0"?>
<opencv_storage>
<cascade>
  <stageType>BOOST</stageType>
  <featureType>LBP</featureType>
  <height>24</height>
  <width>24</width>
  <stageParams>
    <boostType>GAB</boostType>
    <minHitRate>9.9500000476837158e-01</minHitRate>
    <maxFalseAlarm>5.0000000000000000e-01</maxFalseAlarm>
    <weightTrimRate>9.4999999999999996e-01</weightTrimRate>
    <maxDepth>1</maxDepth>
    <maxWeakCount>100</maxWeakCount></stageParams>
  <featureParams>
    <maxCatCount>256</maxCatCount>
    <featSize>1</featSize></featureParams>
  <stageNum>20</stageNum>
  <stages>
    <!-- stage 0 -->
    <_>
      <maxWeakCount>5</maxWeakCount>
      <stageThreshold>-3.8988757133483887e-01</stageThreshold>
      <weakClassifiers>
        <_>
          <internalNodes>
            0 -1 6 -1114428 2138738318 251577952 -639111484 -408031602
            1971289948 536804492 272769346</internalNodes>
          <leafValues>
            -5.2238804101943970e-01 7.6441103219985962e-01</leafValues></_>
        <_>
          <internalNodes>
            0 -1 41 -50345854 -139530440 1023372928 -1275613188
            -747670294 -730710146 1985438858 -2143072677</internalNodes>
          <leafValues>
            -3.5445252060890198e-01 7.3028928041458130e-01</leafValues></_>
        <_>
          <internalNodes>
            0 -1 165 -729662332 -2138980207 -1069334385 -1744154496
            -1073575936 270139651 1610656160 -1596979200</internalNodes>
          <leafValues>
            -5.8053547143936157e-01 5.0518041849136353e-01</leafValues></_>
        <_>
          <internalNodes>
            0 -1 9 -725430656 -22171856 -16841136 400670576 -50425874
            -847945895 1991669708 -1068249929</internalNodes>
          <leafValues>
            -4.4158250093460083e-01 6.8087375164031982e-01</leafValues></_>
        <_>
          <internalNodes>
            0 -1 48 -65642208 -2112331630 -2147450276 -460013432
            403341313 1350582787 709855360 -1201512448</internalNodes>
          <leafValues>
            -6.6762435436248779e-01 4.2432919144630432e-01</leafValues></_></weakClassifiers></_>
    <!-- stage 1 -->
    <_>
      <maxWeakCount>5</maxWeakCount>
      <stageThreshold>-2.5554439425468445e-01</stageThreshold>
      <weakClassifiers>
        <_>
          <internalNodes>
            0 -1 14 -2432 -8724856 2130636480 1441898053 -1082204452
            2108579676 -4459314 1094911466</internalNodes>
          <leafValues>
            -3.1302875280380249e-01 7.5357538461685181e-01</leafValues></_>
        <_>
          <internalNodes>
            0 -1 169 -2145779198 545554432 10320 -1295772642 -1339416510
            134316160 -2138898046 -222655679</internalNodes>
          <leafValues>
            -5.3394532203674316e-01 5.9714823961257935e-01</leafValues></_>
        <_>
          <internalNodes>
            0 -1 115 -1206252512 797868001 -1091641614 -1795326475
            -54526186 1467440895 -1611203084 -323080752</internalNodes>
          <leafValues>
            -5.1937305927276611e-01 5.7315278053283691e-01</leafValues></_>
        <_>
          <internalNodes>
            0 -1 24 -4987232 -1368543366 -1493209356 -84246548 -25276588
            92209014 -587831308 -151554234</internalNodes>
          <leafValues>
            -5.0052767992019653e-01 5.9532874822616577e-01</leafValues></_>
        <_>
          <internalNodes>
            0 -1 123 -44777278 -708673279 -1006398976 1367363600
            -2139062070 805830665 -2012946376 1619767371</internalNodes>
          <leafValues>
            -5.3592097759246826e-01 5.4472631216049194e-01</leafValues></_></weakClassifiers></_>
    <!-- stage 2 -->
    <_>
      <maxWeakCount>6</maxWeakCount>
      <stageThreshold>-6.3863533735275269e-01</stageThreshold>
      <weakClassifiers>
        <_>
          <internalNodes>
            0 -1 137 -1355276640 -2077313670 -639792 888557564 183861076
            257261567 570375604 -1537057616</internalNodes>
          <leafValues>
            -3.8812786340713501e-01 6.3088512420654297e-01</leafValues></_>
        <_>
          <internalNodes>
            0 -1 102 -2132533584 -1402306720 -118922 -637763604
            -1744833040 402620415 -1229015561 -1430645452</internalNodes>
          <leafValues>
            -4.4141155481338501e-01 5.5722647905349731e-01</leafValues></_>
        <_>
          <internalNodes>
            0 -1 101 -2147444350 -436076528 -805236716 -1869086704
            -2143122926 -1610612606 -2138926440 -209059680</internalNodes>
          <leafValues>
            -4.3939003348350525e-01 5.1156145334243774e-01</leafValues></_>
        <_>
          <internalNodes>
            0 -1 18 2147471050 -96804889 -1090586924 -142901272
            -1637908545 2122276726 1726783451 1469828266</internalNodes>
          <leafValues>
            -4.3055671453475952e-01 5.4014432430267334e-01</leafValues></_>
        <_>
          <internalNodes>
            0 -1 124 -1072543680 -2146491902 293638288 -666558192
            -1325391680 536936448 172655488 -225828184</internalNodes>
          <leafValues>
            -4.9492603540420532e-01 5.2973651885986328e-01</leafValues></_>
        <_>
          <internalNodes>
            0 -1 4 -330523514 -1086390294 -721539424 455212690 -9043969
            2113748978 2130049007 1465081099</internalNodes>
          <leafValues>
            -4.1418758034706116e-01 5.8302021026611328e-01</leafValues></_></weakClassifiers></_>
    <!-- stage 3 -->
    <_>
      <maxWeakCount>7</maxWeakCount>
      <stageThreshold>-2.3350159823894501e-01</stageThreshold>
      <weakClassifiers>
        <_>
          <internalNodes>
            0 -1 88 2142041376 1919811112 -269762784 455196220
            -462156188 -25690283 779908108 2429398</internalNodes>
          <leafValues>
            -4.3788820505142212e-01 5.4414260387420654e-01</leafValues></_>
        <_>
          <internalNodes>
            0 -1 62 -1398141536 -290930716 -100696326 -1677891912
            888725492 1987543031 -268456236 -1982439564</internalNodes>
          <leafValues>
            -4.3608605861663818e-01 4.7353801131248474e-01</leafValues></_>
        <_>
          <internalNodes>
            0 -1 25 -90905 -69663 -16778653 1135410288 871569034
            1381990263 368784814 1472716763</internalNodes>
          <leafValues>
            -3.7106251716613770e-01 5.4696691036224365e-01</leafValues></_>
        <_>
          <internalNodes>
            0 -1 26 -477994810 167870594 -2147479422 -770686592
            1082337280 805502976 -788412175 -206860207</internalNodes>
          <leafValues>
            -4.4312256574630737e-01 4.5693424344062805e-01</leafValues></_>
        <_>
          <internalNodes>
            0 -1 131 -1238086624 -1443078415 2130706411 -75596172
            -58796578 -142639233 1794954494 -1080852494</internalNodes>
          <leafValues>
            -4.1848820447921753e-01 5.0919491052627563e-01</leafValues></_>
        <_>
          <internalNodes>
            0 -1 121 -12587286 1777647269 1857715441 1068367729
            2113863620 2113699732 -51255749 1950684767</internalNodes>
          <leafValues>
            -4.1289320588111877e-01 4.9630486965179443e-01</leafValues></_>
        <_>
          <internalNodes>
            0 -1 105 -1097155160 -1096142849 -84000770 -880808332
            385826278 2145910775 -1342817049 -1754571348</internalNodes>
          <leafValues>
            -4.5081245899200439e-01 4.6638020873069763e-01</leafValues></_></weakClassifiers></_>
    <!-- stage 4 -->
    <_>
      <maxWeakCount>7</maxWeakCount>
      <stageThreshold>-3.5157379508018494e-01</stageThreshold>
      <weakClassifiers>
        <_>
          <internalNodes>
            0 -1 155 452462592 652238788 -16777486 1512734564 -147137456
            -2051014657 171183524 -1609771468</internalNodes>
          <leafValues>
            -3.8328531384468079e-01 5.4900258779525757e-01</leafValues></_>
        <_>
          <internalNodes>
            0 -1 36 -327504350 652824314 -219742542 -252119694
            -847919214 670531446 -26700 -1208781156</internalNodes>
          <leafValues>
            -3.7792798876762390e-01 4.8425415158271790e-01</leafValues></_>
        <_>
          <internalNodes>
            0 -1 117 272629808 738332800 -786923431 -1265629180
            939534336 -1979711487 -1702192992 -1264923776</internalNodes>
          <leafValues>
            -5.5728489160537720e-01 3.4705436229705811e-01</leafValues></_>
        <_>
          <internalNodes>
            0 -1 81 -17969952 -1142161810 -352571659 -236523536
            1341998302 -805830669 -185289041 -493426985</internalNodes>
          <leafValues>
            -3.4333252906799316e-01 5.6503754854202271e-01</leafValues></_>
        <_>
          <internalNodes>
            0 -1 170 -1703631960 36928 536871040 -1869316031 268544072
            -2113339389 -1501380479 -1297444405</internalNodes>
          <leafValues>
            -4.6414813399314880e-01 4.4308441877365112e-01</leafValues></_>
        <_>
          <internalNodes>
            0 -1 144 -1363675742 2095902694 -285577606 -139657483
            -1778421812 1828159349 -195249008 -159975571</internalNodes>
          <leafValues>
            -4.0968215465545654e-01 4.9221870303153992e-01</leafValues></_>
        <_>
          <internalNodes>
            0 -1 50 -201289564 838881584 269586752 -1525558271 75637914
            817891496 -1920827186 1361289294</internalNodes>
          <leafValues>
            -4.8040425777435303e-01 4.1353496909141541e-01</leafValues></_></weakClassifiers></_>
    <!-- stage 5 -->
    <_>
      <maxWeakCount>8</maxWeakCount>
      <stageThreshold>-6.7783921957015991e-01</stageThreshold>
      <weakClassifiers>
        <_>
          <internalNodes>
            0 -1 30 -1359565152 1647245292 -553716238 1055190908
            -1344831563 97877221 368534912 -1813015086</internalNodes>
          <leafValues>
            -9.9261686205863953e-02 6.2942165136337280e-01</leafValues></_>
        <_>
          <internalNodes>
            0 -1 138 -514794992 -1723580398 1073758477 860921866
            570458188 9445514 537768392 35880507</internalNodes>
          <leafValues>
            -4.1966089606285095e-01 3.8686159253120422e-01</leafValues></_>
        <_>
          <internalNodes>
            0 -1 167 -1508664702 -931004160 1358954640 -1600221184
            -1073634327 1484816398 -2147417420 -1549039451</internalNodes>
          <leafValues>
            -3.9714029431343079e-01 4.2190372943878174e-01</leafValues></_>
        <_>
          <internalNodes>
            0 -1 40 -57763168 -435683326 1610986736 -1273524200
            -1879039992 65664 616812720 -215285760</internalNodes>
          <leafValues>
            -4.0852805972099304e-01 4.0343198180198669e-01</leafValues></_>
        <_>
          <internalNodes>
            0 -1 34 -1064655396 -1790869498 -1056829100 2015330336
            -763166312 -258342878 1217190650 1000239694</internalNodes>
          <leafValues>
            -4.6175664663314819e-01 3.6000660061836243e-01</leafValues></_>
        <_>
          <internalNodes>
            0 -1 149 -1533914592 -2046639984 -2130706380 554635652
            -1834778576 1619034112 -2004217680 -1062557131</internalNodes>
          <leafValues>
            -5.5426478385925293e-01 3.1644755601882935e-01</leafValues></_>
        <_>
          <internalNodes>
            0 -1 87 -369426926 -83886274 654225199 2134617903 2012593368
            -1091272842 752766683 -1559900881</internalNodes>
          <leafValues>
            -3.7019953131675720e-01 4.9818700551986694e-01</leafValues></_>
        <_>
          <internalNodes>
            0 -1 129 -702009020 -1588330414 402718918 2022838556
            -1610587488 536873106 -2130539552 -1351987120</internalNodes>
          <leafValues>
            -4.6874374151229858e-01 4.2707335948944092e-01</leafValues></_></weakClassifiers></_>
    <!-- stage 6 -->
    <_>
      <maxWeakCount>8</maxWeakCount>
      <stageThreshold>-2.8711867332458496e-01</stageThreshold>
      <weakClassifiers>
        <_>
          <internalNodes>
            0 -1 119 -165112560 2100886422 -285284805 1902264230
            1442055176 1451193460 73317898 708801870</internalNodes>
          <leafValues>
            -2.2562673687934875e-01 6.4638584852218628e-01</leafValues></_>
        <_>
          <internalNodes>
            0 -1 85 2063530000 -1100026256 -1125468875 635764585
            2111721188 -197165710 -58962392 710376823</internalNodes>
          <leafValues>
            -4.0132227540016174e-01 4.8647311329841614e-01</leafValues></_>
        <_>
          <internalNodes>
            0 -1 75 -34162564 1056587516 -147585 2046308047 -1342285840
            -277541379 662609903 407570027</internalNodes>
          <leafValues>
            -3.9412567019462585e-01 4.8990136384963989e-01</leafValues></_>
        <_>
          <internalNodes>
            0 -1 166 -727002944 -98691 -1627455752 2042326253 -805969924
            2096947188 304637695 -923069189</internalNodes>
          <leafValues>
            -3.0858501791954041e-01 6.1358213424682617e-01</leafValues></_>
        <_>
          <internalNodes>
            0 -1 55 805351456 302071824 268469331 1628258304 -1475835264
            -1392508928 671123708 1023442960</internalNodes>
          <leafValues>
            -4.9501070380210876e-01 4.0241825580596924e-01</leafValues></_>
        <_>
          <internalNodes>
            0 -1 28 -833693120 1357168224 1073700727 2146692981
            1325393722 108953588 -1350575025 2057531287</internalNodes>
          <leafValues>
            -3.5023537278175354e-01 5.6616050004959106e-01</leafValues></_>
        <_>
          <internalNodes>
            0 -1 164 -267722223 -1672310640 201330900 420347904
            411042208 -1573912574 42533517 16994619</internalNodes>
          <leafValues>
            -4.5509552955627441e-01 4.5224672555923462e-01</leafValues></_>
        <_>
          <internalNodes>
            0 -1 90 -155388038 -1129517082 -335585347 1069416367
            1055776436 527794045 -276890946 720215295</internalNodes>
          <leafValues>
            -3.1058600544929504e-01 6.2134528160095215e-01</leafValues></_></weakClassifiers></_>
    <!-- stage 7 -->
    <_>
      <maxWeakCount>9</maxWeakCount>
      <stageThreshold>-6.9876259565353394e-01</stageThreshold>
      <weakClassifiers>
        <_>
          <internalNodes>
            0 -1 2 1150193154 1486909024 -1073840220 -727646622
            1593835510 1283391479 1073733128 1100326482</internalNodes>
          <leafValues>
            -2.5117370486259460e-01 5.6517690420150757e-01</leafValues></_>
        <_>
          <internalNodes>
            0 -1 158 -17055870 2084205880 1056888828 1853550059
            -851495888 511156223 1451071288 1109110126</internalNodes>
          <leafValues>
            -3.2312986254692078e-01 4.6960130333900452e-01</leafValues></_>
        <_>
          <internalNodes>
            0 -1 98 -385490172 1376960976 83972312 318898486 1531546549
            1649623042 -1459256640 990365802</internalNodes>
          <leafValues>
            -4.4456022977828979e-01 3.5209631919860840e-01</leafValues></_>
        <_>
          <internalNodes>
            0 -1 52 1609289448 -12949 -25187346 863567550 -302573593
            1467817966 1073538558 1422381791</internalNodes>
          <leafValues>
            -3.5183280706405640e-01 4.3861976265907288e-01</leafValues></_>
        <_>
          <internalNodes>
            0 -1 118 2013260560 -73449477 -16843153 -528524 -730067568
            1995898751 1985077150 -1650360550</internalNodes>
          <leafValues>
            -3.7573549151420593e-01 4.5145234465599060e-01</leafValues></_>
        <_>
          <internalNodes>
            0 -1 35 -16974266 -1829998595 -1090584875 230342630
            -671621940 -1614413828 1610012570 -940049310</internalNodes>
          <leafValues>
            -3.0749005079269409e-01 4.9482154846191406e-01</leafValues></_>
        <_>
          <internalNodes>
            0 -1 154 -592061010 1543139323 -268456350 1940913726
            -142811177 267878199 -687931736 -212240870</internalNodes>
          <leafValues>
            -2.9870325326919556e-01 5.6241756677627563e-01</leafValues></_>
        <_>
          <internalNodes>
            0 -1 7 1484783107 1894477790 -20971524 1576512994 780004767
            2129985407 1577057422 1974726546</internalNodes>
          <leafValues>
            -2.9451867938041687e-01 6.0616731643676758e-01</leafValues></_>
        <_>
          <internalNodes>
            0 -1 43 254474250 -160067311 17301852 -1233977148 1627523253
            -1440792318 -1059503698 1758824576</internalNodes>
          <leafValues>
            -4.9592310190200806e-01 3.8412073254585266e-01</leafValues></_></weakClassifiers></_>
    <!-- stage 8 -->
    <_>
      <maxWeakCount>9</maxWeakCount>
      <stageThreshold>-4.3021094799041748e-01</stageThreshold>
      <weakClassifiers>
        <_>
          <internalNodes>
            0 -1 15 -87097406 -5189956 -16973852 -555459181 771644756
            524050197 -775948348 12674050</internalNodes>
          <leafValues>
            -3.7605395913124084e-01 5.0810134410858154e-01</leafValues></_>
        <_>
          <internalNodes>
            0 -1 120 1458889414 1494319191 34607248 1141084163
            -535320576 1757970432 808554522 839688714</internalNodes>
          <leafValues>
            -4.6045500040054321e-01 3.2219547033309937e-01</leafValues></_>
        <_>
          <internalNodes>
            0 -1 113 1774314755 337186896 419431168 760252434 281062325
            1887469569 -524023368 371562574</internalNodes>
          <leafValues>
            -3.9735773205757141e-01 3.7480589747428894e-01</leafValues></_>
        <_>
          <internalNodes>
            0 -1 86 -716639080 1423082112 83984410 75841810 1350640624
            2055733455 165910863 -1606178014</internalNodes>
          <leafValues>
            -4.3291661143302917e-01 3.1822383403778076e-01</leafValues></_>
        <_>
          <internalNodes>
            0 -1 20 1929220090 -273748626 788496114 -306401800
            1056886342 1686011775 -1359706360 1365620206</internalNodes>
          <leafValues>
            -3.7040430307388306e-01 3.9892685413360596e-01</leafValues></_>
        <_>
          <internalNodes>
            0 -1 58 -554721415 1591607292 -83075 -404490894 -815835772
            -1124204673 -155722066 -216884114</internalNodes>
          <leafValues>
            -3.2098439335823059e-01 4.6964630484580994e-01</leafValues></_>
        <_>
          <internalNodes>
            0 -1 97 -1781140080 1674068246 21100810 -577129962
            1356949808 -257814386 -416225064 69673490</internalNodes>
          <leafValues>
            -5.3067511320114136e-01 2.7637353539466858e-01</leafValues></_>
        <_>
          <internalNodes>
            0 -1 83 1811919965 -39584921 2071359165 -1930428421
            -251691521 1694447484 1450232972 -744910993</internalNodes>
          <leafValues>
            -2.9823994636535645e-01 5.3126794099807739e-01</leafValues></_>
        <_>
          <internalNodes>
            0 -1 142 -669866144 -2129108862 553910686 -1176952448
            -536622711 -226271096 -771677652 297921230</internalNodes>
          <leafValues>
            -3.5329458117485046e-01 4.3338051438331604e-01</leafValues></_></weakClassifiers></_>
    <!-- stage 9 -->
    <_>
      <maxWeakCount>10</maxWeakCount>
      <stageThreshold>-4.9475964903831482e-01</stageThreshold>
      <weakClassifiers>
        <_>
          <internalNodes>
            0 -1 31 1596894244 -168141380 -1073841038 2137407038
            -419544848 -1796442378 2096462888 1614025802</internalNodes>
          <leafValues>
            -2.7472528815269470e-01 4.9724924564361572e-01</leafValues></_>
        <_>
          <internalNodes>
            0 -1 107 277135520 -574504367 -2147418096 -1182334782
            1379967724 -1870659584 537049870 36875864</internalNodes>
          <leafValues>
            -3.5010498762130737e-01 3.5390871763229370e-01</leafValues></_>
        <_>
          <internalNodes>
            0 -1 130 -438326911 -1869610608 1073852733 -687029876 45442
            814219285 -1082047756 1366124790</internalNodes>
          <leafValues>
            -3.8431784510612488e-01 3.2482624053955078e-01</leafValues></_>
        <_>
          <internalNodes>
            0 -1 54 -804285773 -745095144 1367347208 21930150
            -1994018534 -1585413468 -1047934296 -1882095546</internalNodes>
          <leafValues>
            -3.4239941835403442e-01 3.7090820074081421e-01</leafValues></_>
        <_>
          <internalNodes>
            0 -1 156 1393277705 -1336115194 537002496 1921077266
            -524180992 -2084536256 -2146842484 1146464483</internalNodes>
          <leafValues>
            -3.6492484807968140e-01 3.5130754113197327e-01</leafValues></_>
        <_>
          <internalNodes>
            0 -1 19 -773987826 -1860857654 -729808118 1971605570
            1073816717 814219337 -1877763960 733208745</internalNodes>
          <leafValues>
            -3.6688336730003357e-01 4.0646275877952576e-01</leafValues></_>
        <_>
          <internalNodes>
            0 -1 37 1582689890 -1082132497 -268501336 -109255106
            -84488782 2004252670 2004850237 1470622994</internalNodes>
          <leafValues>
            -3.4680628776550293e-01 4.1387993097305298e-01</leafValues></_>
        <_>
          <internalNodes>
            0 -1 134 1973208752 -1878884224 9507010 1914081410
            -805283244 553848960 -301877014 -2077414902</internalNodes>
          <leafValues>
            -4.2669472098350525e-01 3.5007348656654358e-01</leafValues></_>
        <_>
          <internalNodes>
            0 -1 63 -68432515 -285212886 -403212481 -542986385
            -269091074 -235438097 249943919 1307268790</internalNodes>
          <leafValues>
            -2.9483318328857422e-01 5.6401610374450684e-01</leafValues></_>
        <_>
          <internalNodes>
            0 -1 135 -938674 -1082351897 -1342247428 1609428735
            -71842333 2129657720 351641470 -727845505</internalNodes>
          <leafValues>
            -2.4859790503978729e-01 5.6312453746795654e-01</leafValues></_></weakClassifiers></_>
    <!-- stage 10 -->
    <_>
      <maxWeakCount>12</maxWeakCount>
      <stageThreshold>-7.8634190559387207e-01</stageThreshold>
      <weakClassifiers>
        <_>
          <internalNodes>
            0 -1 67 1315851808 -622133465 1861066536 520027812 -188600
            343834558 -588910700 634483956</internalNodes>
          <leafValues>
            -3.2849365472793579e-01 4.8223763704299927e-01</leafValues></_>
        <_>
          <internalNodes>
            0 -1 29 -1014967742 355176898 276882124 1629233170 72064
            1101037712 1294469689 1360122627</internalNodes>
          <leafValues>
            -3.9361894130706787e-01 3.1834676861763000e-01</leafValues></_>
        <_>
          <internalNodes>
            0 -1 152 1944542286 1567686527 -1090617740 938700671
            989724204 1056898942 -688464098 -1219502373</internalNodes>
          <leafValues>
            -2.5540596246719360e-01 4.3675130605697632e-01</leafValues></_>
        <_>
          <internalNodes>
            0 -1 103 -2147462496 1899069657 268488783 1129594984
            1342210718 402653312 536916881 1746929878</internalNodes>
          <leafValues>
            -4.6260905265808105e-01 2.5731962919235229e-01</leafValues></_>
        <_>
          <internalNodes>
            0 -1 23 -775697908 274694170 1073856786 -1744698598
            -134201302 1624375328 184732051 1096243681</internalNodes>
          <leafValues>
            -4.1925114393234253e-01 2.7557265758514404e-01</leafValues></_>
        <_>
          <internalNodes>
            0 -1 80 286310432 -1807646694 1208025365 -1097772672
            553750533 1778450602 134250714 -2063532000</internalNodes>
          <leafValues>
            -4.5041772723197937e-01 2.9480847716331482e-01</leafValues></_>
        <_>
          <internalNodes>
            0 -1 125 -159913922 1388592381 1073544944 -1552324614
            2147431548 1901592573 -1888002310 -688417026</internalNodes>
          <leafValues>
            -3.0307972431182861e-01 4.3525108695030212e-01</leafValues></_>
        <_>
          <internalNodes>
            0 -1 10 -1021074646 16777755 53248 -737075134 -1996273662
            553779456 -2096971605 1951877519</internalNodes>
          <leafValues>
            -3.6974307894706726e-01 3.6789447069168091e-01</leafValues></_>
        <_>
          <internalNodes>
            0 -1 49 1086416794 412352915 587207143 -1802170358 436800148
            1273104424 2041678376 1607766538</internalNodes>
          <leafValues>
            -4.4462880492210388e-01 3.2886400818824768e-01</leafValues></_>
        <_>
          <internalNodes>
            0 -1 160 -29446493 -160141391 -65688 -639189020 -1242564818
            2147483622 -1208501010 -1774244360</internalNodes>
          <leafValues>
            -3.0642795562744141e-01 4.9324631690979004e-01</leafValues></_>
        <_>
          <internalNodes>
            0 -1 38 1568661231 1030678526 1861939123 -2090172423
            -1644704666 309854071 1951776734 -982706786</internalNodes>
          <leafValues>
            -3.1264221668243408e-01 4.9325928092002869e-01</leafValues></_>
        <_>
          <internalNodes>
            0 -1 84 1121277768 -1728016249 -1862007422 -973066212
            -1767691766 -1329069880 153274800 2003243269</internalNodes>
          <leafValues>
            -5.6057333946228027e-01 2.8299787640571594e-01</leafValues></_></weakClassifiers></_>
    <!-- stage 11 -->
    <_>
      <maxWeakCount>10</maxWeakCount>
      <stageThreshold>-4.1729637980461121e-01</stageThreshold>
      <weakClassifiers>
        <_>
          <internalNodes>
            0 -1 27 -286593872 1554436008 -336070032 -1682178332
            1878453684 1207926772 1207359391 -1012951065</internalNodes>
          <leafValues>
            4.0650404989719391e-02 6.6738045215606689e-01</leafValues></_>
        <_>
          <internalNodes>
            0 -1 78 -753958386 -570326784 549503376 -767556974
            -2113887906 705303681 560081328 -737255340</internalNodes>
          <leafValues>
            -3.4445980191230774e-01 3.4135812520980835e-01</leafValues></_>
        <_>
          <internalNodes>
            0 -1 16 -1853610054 -719977449 33627 -1807431656 -905961005
            -1868521215 1233856719 50938151</internalNodes>
          <leafValues>
            -4.0990117192268372e-01 2.8348350524902344e-01</leafValues></_>
        <_>
          <internalNodes>
            0 -1 168 -1661083932 -324370443 -21350176 -237257732
            -1073885364 1031798655 1384103870 -1849688127</internalNodes>
          <leafValues>
            -2.8265601396560669e-01 4.2652246356010437e-01</leafValues></_>
        <_>
          <internalNodes>
            0 -1 111 184794028 538501664 269029540 -1802976004
            -645463759 -783941632 1757468760 542499340</internalNodes>
          <leafValues>
            -6.4018207788467407e-01 1.9347989559173584e-01</leafValues></_>
        <_>
          <internalNodes>
            0 -1 70 -2028416096 -586104832 150995281 1997537428
            -213736816 -1710555120 -1043799546 -241814875</internalNodes>
          <leafValues>
            -3.9244368672370911e-01 3.5611698031425476e-01</leafValues></_>
        <_>
          <internalNodes>
            0 -1 133 -34810190 -1158791302 -285297108 -177389697
            -1086337348 -445186178 1828681661 -2080801161</internalNodes>
          <leafValues>
            -2.9007458686828613e-01 4.9201858043670654e-01</leafValues></_>
        <_>
          <internalNodes>
            0 -1 141 -85860670 2091233264 -4527639 -2093044108 -542019
            393834486 481811757 -930360081</internalNodes>
          <leafValues>
            -2.7044892311096191e-01 4.8596614599227905e-01</leafValues></_>
        <_>
          <internalNodes>
            0 -1 17 2030011582 2080227181 -285295365 -236931982
            1560018511 -34242566 2113839034 -948453697</internalNodes>
          <leafValues>
            -2.6705601811408997e-01 5.3603345155715942e-01</leafValues></_>
        <_>
          <internalNodes>
            0 -1 92 -411373766 1253965490 -1501892753 536542895
            -1367384676 -153096218 209501769 -931295697</internalNodes>
          <leafValues>
            -3.3886602520942688e-01 4.2322123050689697e-01</leafValues></_></weakClassifiers></_>
    <!-- stage 12 -->
    <_>
      <maxWeakCount>8</maxWeakCount>
      <stageThreshold>-4.5942944288253784e-01</stageThreshold>
      <weakClassifiers>
        <_>
          <internalNodes>
            0 -1 1 -282138750 -2144370846 -285216798 32827360 1182658023
            1450147831 2138961140 -712509690</internalNodes>
          <leafValues>
            -1.2588652968406677e-01 6.1004275083541870e-01</leafValues></_>
        <_>
          <internalNodes>
            0 -1 51 1862246106 -5148874 -16897418 1377893936 -1107792588
            -849522848 -1745361438 -413151631</internalNodes>
          <leafValues>
            -3.2639771699905396e-01 4.7786030173301697e-01</leafValues></_>
        <_>
          <internalNodes>
            0 -1 163 -13906182 -1103462414 -1493238163 -773362058
            1014949819 -1380061314 510915996 -1008863417</internalNodes>
          <leafValues>
            -2.6856145262718201e-01 6.7538493871688843e-01</leafValues></_>
        <_>
          <internalNodes>
            0 -1 152 2063465474 1609629567 -1090584964 2012868478
            989658702 -16842884 1995873789 -535571347</internalNodes>
          <leafValues>
            -4.1218671202659607e-01 4.9245491623878479e-01</leafValues></_>
        <_>
          <internalNodes>
            0 -1 127 1860251036 -26378643 2130640895 -30720003
            -874106677 -41943177 1701990008 -233787469</internalNodes>
          <leafValues>
            -4.1025975346565247e-01 4.6984055638313293e-01</leafValues></_>
        <_>
          <internalNodes>
            0 -1 57 -784187234 453025943 4228187 -762281918 -2146628766
            -2012086263 706742408 1261471808</internalNodes>
          <leafValues>
            -5.0426751375198364e-01 3.7564957141876221e-01</leafValues></_>
        <_>
          <internalNodes>
            0 -1 94 -607020141 -1077219800 1862233588 1069154173
            1874728935 -268501031 -21530774 -1902938666</internalNodes>
          <leafValues>
            -3.7255099415779114e-01 5.7374167442321777e-01</leafValues></_>
        <_>
          <internalNodes>
            0 -1 96 25321541 1879179265 16777361 -1055649723 1217986620
            -989298032 570656976 453905155</internalNodes>
          <leafValues>
            -4.5960640907287598e-01 4.4236227869987488e-01</leafValues></_></weakClassifiers></_>
    <!-- stage 13 -->
    <_>
      <maxWeakCount>10</maxWeakCount>
      <stageThreshold>-4.7484380006790161e-01</stageThreshold>
      <weakClassifiers>
        <_>
          <internalNodes>
            0 -1 112 5583628 537969048 377024 671270243 -2113912816
            143048748 -1207838684 5292608</internalNodes>
          <leafValues>
            -6.4820843935012817e-01 4.4522836804389954e-01</leafValues></_>
        <_>
          <internalNodes>
            0 -1 104 -1208046080 2076175356 -286261377 -3723340
            -554245146 2088435700 -294324290 -625018894</internalNodes>
          <leafValues>
            -2.1672244369983673e-01 5.3206920623779297e-01</leafValues></_>
        <_>
          <internalNodes>
            0 -1 150 -69792 868151294 -285771790 1396703138 931135412
            805199463 -176785432 -2035091465</internalNodes>
          <leafValues>
            -3.1648498773574829e-01 4.5295953750610352e-01</leafValues></_>
        <_>
          <internalNodes>
            0 -1 59 -386015515 -30228626 1324265386 954613752 -50338274
            1996488699 -856244234 -468462408</internalNodes>
          <leafValues>
            -3.3189874887466431e-01 4.2292475700378418e-01</leafValues></_>
        <_>
          <internalNodes>
            0 -1 108 1355993816 1103208578 -2147254157 1125454297
            -997522726 -1593114624 -930994020 1517380114</internalNodes>
          <leafValues>
            -3.9535379409790039e-01 3.7939134240150452e-01</leafValues></_>
        <_>
          <internalNodes>
            0 -1 132 1086333952 -1593765776 139575775 1426082240
            -1014988216 478185600 -520052580 -1507098547</internalNodes>
          <leafValues>
            -4.7753629088401794e-01 3.2512044906616211e-01</leafValues></_>
        <_>
          <internalNodes>
            0 -1 128 -281729057 -1088589825 -917519 -1243153284
            -1100024397 1190092660 -661142 -1001527525</internalNodes>
          <leafValues>
            -3.1114992499351501e-01 5.1724058389663696e-01</leafValues></_>
        <_>
          <internalNodes>
            0 -1 39 -934784706 -1337671536 873497159 246579264
            -360004719 446775353 35750505 440609048</internalNodes>
          <leafValues>
            -4.6060061454772949e-01 3.6669272184371948e-01</leafValues></_>
        <_>
          <internalNodes>
            0 -1 66 -17003973 -352588122 1862201259 -1309738066
            -1780523259 -1912602753 1862182363 -495471019</internalNodes>
          <leafValues>
            -3.6908048391342163e-01 4.7131985425949097e-01</leafValues></_>
        <_>
          <internalNodes>
            0 -1 99 -709349704 -337739796 2130706422 -142692364
            -1074399433 -1142489089 528275447 -2086261402</internalNodes>
          <leafValues>
            -3.6743831634521484e-01 4.6052652597427368e-01</leafValues></_></weakClassifiers></_>
    <!-- stage 14 -->
    <_>
      <maxWeakCount>11</maxWeakCount>
      <stageThreshold>-5.4309564828872681e-01</stageThreshold>
      <weakClassifiers>
        <_>
          <internalNodes>
            0 -1 69 8793728 -2002603902 -1069376412 718310606 46858304
            537075785 743602288 1146390336</internalNodes>
          <leafValues>
            -8.5046726465225220e-01 4.2426419258117676e-01</leafValues></_>
        <_>
          <internalNodes>
            0 -1 162 -302684495 -87229829 1862069918 -219808132
            -1611475631 -1380974593 -50350106 -781257288</internalNodes>
          <leafValues>
            -2.5786939263343811e-01 4.3114131689071655e-01</leafValues></_>
        <_>
          <internalNodes>
            0 -1 33 -1575649074 1745506818 -2147462976 -535789488
            595821192 850952192 1923262864 -173244000</internalNodes>
          <leafValues>
            -4.4363483786582947e-01 2.6692238450050354e-01</leafValues></_>
        <_>
          <internalNodes>
            0 -1 109 -523587448 536973312 -2147315494 -1811922800
            1149391683 -671072112 1503774673 -155694924</internalNodes>
          <leafValues>
            -4.5646113157272339e-01 2.6429650187492371e-01</leafValues></_>
        <_>
          <internalNodes>
            0 -1 45 -125867225 -1158443141 2129655788 564527009
            2121832142 1861156797 -1612323809 -331933714</internalNodes>
          <leafValues>
            -2.8097936511039734e-01 4.4824728369712830e-01</leafValues></_>
        <_>
          <internalNodes>
            0 -1 153 -1475655376 -1719061757 17006681 -1294450432
            2116619076 -366936055 -1308561290 -1239242492</internalNodes>
          <leafValues>
            -4.8850587010383606e-01 2.7084556221961975e-01</leafValues></_>
        <_>
          <internalNodes>
            0 -1 68 -880824681 1031777530 -469832081 -1835008385
            -134281500 -681082896 -613133203 -338174497</internalNodes>
          <leafValues>
            -3.0174329876899719e-01 4.8786279559135437e-01</leafValues></_>
        <_>
          <internalNodes>
            0 -1 72 42637850 9655937 -2087780223 -1026080048 -1877865503
            270559238 1653475726 -2133529775</internalNodes>
          <leafValues>
            -5.0509065389633179e-01 2.9248189926147461e-01</leafValues></_>
        <_>
          <internalNodes>
            0 -1 60 1107441698 478709784 -1893662551 353702162
            -1412722281 730005640 1761780138 480485509</internalNodes>
          <leafValues>
            -3.8668966293334961e-01 3.8750746846199036e-01</leafValues></_>
        <_>
          <internalNodes>
            0 -1 151 -1936328288 1619021835 -2077683515 1480952448
            -1836861402 -1333753715 1262650147 -508391256</internalNodes>
          <leafValues>
            -4.7615629434585571e-01 3.1389743089675903e-01</leafValues></_>
        <_>
          <internalNodes>
            0 -1 11 1404546739 -251732226 -25268807 -578818574
            2147228925 -23724161 -188547 -1304972141</internalNodes>
          <leafValues>
            -3.0679684877395630e-01 5.1759678125381470e-01</leafValues></_></weakClassifiers></_>
    <!-- stage 15 -->
    <_>
      <maxWeakCount>11</maxWeakCount>
      <stageThreshold>-4.0647155046463013e-01</stageThreshold>
      <weakClassifiers>
        <_>
          <internalNodes>
            0 -1 32 16791684 671813644 -2130689888 549589256 -1977532413
            438153283 -2121627646 12755008</internalNodes>
          <leafValues>
            -5.0857144594192505e-01 4.4452831149101257e-01</leafValues></_>
        <_>
          <internalNodes>
            0 -1 46 -458549598 -890503701 -16777290 -621953106
            1861985872 1315864447 -956540954 -1510517581</internalNodes>
          <leafValues>
            -2.8823727369308472e-01 3.8869267702102661e-01</leafValues></_>
        <_>
          <internalNodes>
            0 -1 143 -1710859878 143790449 -805301164 -309657472
            -1600122741 -1610055520 -1324638207 -1571356535</internalNodes>
          <leafValues>
            -3.6433073878288269e-01 3.2865911722183228e-01</leafValues></_>
        <_>
          <internalNodes>
            0 -1 64 834721168 -2058321640 324010518 22577602 1613670506
            -1423114229 1665156317 1720929042</internalNodes>
          <leafValues>
            -4.1512325406074524e-01 3.0484542250633240e-01</leafValues></_>
        <_>
          <internalNodes>
            0 -1 47 -293605440 2063329007 -419647643 -1361495053
            -33613130 1700888573 -52568891 -1928506408</internalNodes>
          <leafValues>
            -3.3498170971870422e-01 3.8562762737274170e-01</leafValues></_>
        <_>
          <internalNodes>
            0 -1 139 -973081690 -8554499 -1358954907 -1963360668 -761927
            2130116479 762658764 -129008034</internalNodes>
          <leafValues>
            -3.0401763319969177e-01 4.6672731637954712e-01</leafValues></_>
        <_>
          <internalNodes>
            0 -1 147 1861737983 2108341886 -4263942 1404776383 -8520457
            -1921155211 650112988 -650645649</internalNodes>
          <leafValues>
            -2.7193519473075867e-01 5.5694031715393066e-01</leafValues></_>
        <_>
          <internalNodes>
            0 -1 110 1085743178 -402259958 -1879015401 294715520
            -1610415992 -1073217407 -803176337 -776196072</internalNodes>
          <leafValues>
            -3.7545886635780334e-01 3.9397656917572021e-01</leafValues></_>
        <_>
          <internalNodes>
            0 -1 5 -989438186 -2147467245 18170204 -459861162
            -2012683880 315787393 1640040496 348490529</internalNodes>
          <leafValues>
            -5.6995224952697754e-01 2.6937508583068848e-01</leafValues></_>
        <_>
          <internalNodes>
            0 -1 12 -143569376 1778040784 1858004095 -1958740061
            499048029 225374071 -8523906 1350524907</internalNodes>
          <leafValues>
            -3.6206510663032532e-01 4.2073187232017517e-01</leafValues></_>
        <_>
          <internalNodes>
            0 -1 22 -1300019451 -907837308 394401188 -1069170688
            -805216040 579383307 -1743780919 191122246</internalNodes>
          <leafValues>
            -5.1128131151199341e-01 3.2300496101379395e-01</leafValues></_></weakClassifiers></_>
    <!-- stage 16 -->
    <_>
      <maxWeakCount>10</maxWeakCount>
      <stageThreshold>-5.9869414567947388e-01</stageThreshold>
      <weakClassifiers>
        <_>
          <internalNodes>
            0 -1 71 -401416188 419430914 67108940 -1500990847
            -2147450572 1622343832 -2146397220 4473888</internalNodes>
          <leafValues>
            -5.5135136842727661e-01 4.5779466629028320e-01</leafValues></_>
        <_>
          <internalNodes>
            0 -1 42 -2124774680 -1190625272 1114388 496959872 159393843
            590016 1074991126 -205184959</internalNodes>
          <leafValues>
            -3.8013067841529846e-01 3.3842173218727112e-01</leafValues></_>
        <_>
          <internalNodes>
            0 -1 8 -92407959 -1066483728 -562107455 2012577606
            1870135001 2119499773 -1778526963 234075807</internalNodes>
          <leafValues>
            -3.0803945660591125e-01 4.7905668616294861e-01</leafValues></_>
        <_>
          <internalNodes>
            0 -1 73 274653965 -2025840080 -1056964341 -377159227
            -1878982444 92274873 -1543497651 784040260</internalNodes>
          <leafValues>
            -3.8386344909667969e-01 4.0026378631591797e-01</leafValues></_>
        <_>
          <internalNodes>
            0 -1 114 -1082523679 -262145 -142624476 -1275465994
            -1476401289 -143262724 2146792862 1610575318</internalNodes>
          <leafValues>
            -2.9635113477706909e-01 5.4515594244003296e-01</leafValues></_>
        <_>
          <internalNodes>
            0 -1 148 -951369757 805018235 -1879048536 1793539889
            -546374315 1056964213 -1921958580 -1673016902</internalNodes>
          <leafValues>
            -3.4317624568939209e-01 4.7226381301879883e-01</leafValues></_>
        <_>
          <internalNodes>
            0 -1 95 -5628349 -285868177 -159959295 795678652 -335659809
            -16853123 2113371375 -1007866790</internalNodes>
          <leafValues>
            -3.2092258334159851e-01 5.1191514730453491e-01</leafValues></_>
        <_>
          <internalNodes>
            0 -1 93 -2129550892 -2097114875 -2122317650 307272466
            1074837577 -1852833656 463430180 1483553728</internalNodes>
          <leafValues>
            -5.3355050086975098e-01 3.1363505125045776e-01</leafValues></_>
        <_>
          <internalNodes>
            0 -1 159 -1727724693 496140312 1074020353 71319685
            -782581760 595656705 1493270537 -2015516544</internalNodes>
          <leafValues>
            -4.8499903082847595e-01 3.5168799757957458e-01</leafValues></_>
        <_>
          <internalNodes>
            0 -1 146 1593243161 2117255085 -1107313668 1459257343
            -142759938 1853714279 2096890985 1500635358</internalNodes>
          <leafValues>
            -3.4779134392738342e-01 5.2886241674423218e-01</leafValues></_></weakClassifiers></_>
    <!-- stage 17 -->
    <_>
      <maxWeakCount>8</maxWeakCount>
      <stageThreshold>-4.5031097531318665e-01</stageThreshold>
      <weakClassifiers>
        <_>
          <internalNodes>
            0 -1 61 -601735493 2055008182 -813781214 740355936 -274630
            -142770177 -19105398 -1596553530</internalNodes>
          <leafValues>
            -3.7821482867002487e-02 6.2574493885040283e-01</leafValues></_>
        <_>
          <internalNodes>
            0 -1 0 564571280 464011254 -1114123 1575972832 -269262916
            1870528510 -1896472658 -1953032905</internalNodes>
          <leafValues>
            -3.0742722749710083e-01 4.2544984817504883e-01</leafValues></_>
        <_>
          <internalNodes>
            0 -1 76 -1826641638 1888485541 352338333 -1585283024
            562626572 -1475868669 1224788124 2064893962</internalNodes>
          <leafValues>
            -3.6040607094764709e-01 3.8208526372909546e-01</leafValues></_>
        <_>
          <internalNodes>
            0 -1 157 -26829474 1979086325 -1090600965 972898303
            -688523372 -1103691783 -96658152 1488422607</internalNodes>
          <leafValues>
            -3.2095396518707275e-01 4.2922735214233398e-01</leafValues></_>
        <_>
          <internalNodes>
            0 -1 126 -95913107 38961200 -1073724899 -1958653166
            -1308463091 -226328575 -1182169077 571121676</internalNodes>
          <leafValues>
            -5.0020039081573486e-01 3.0053812265396118e-01</leafValues></_>
        <_>
          <internalNodes>
            0 -1 106 -17068036 -957816840 788508539 -117900676
            1870650353 -42509313 -160661810 -1279350850</internalNodes>
          <leafValues>
            -2.6062062382698059e-01 5.7354557514190674e-01</leafValues></_>
        <_>
          <internalNodes>
            0 -1 21 411926623 1611989520 -1039585955 1464373769
            -263448174 948572163 -917231415 1233495072</internalNodes>
          <leafValues>
            -4.1060733795166016e-01 3.8504514098167419e-01</leafValues></_>
        <_>
          <internalNodes>
            0 -1 56 1364657952 1594102160 -2130706353 354632091
            1023444992 -1684854766 453126476 -1469998083</internalNodes>
          <leafValues>
            -4.4945591688156128e-01 3.8903337717056274e-01</leafValues></_></weakClassifiers></_>
    <!-- stage 18 -->
    <_>
      <maxWeakCount>9</maxWeakCount>
      <stageThreshold>-5.5924898386001587e-01</stageThreshold>
      <weakClassifiers>
        <_>
          <internalNodes>
            0 -1 13 1241664566 181960727 17338644 -2142994412 153230338
            -1984122717 -1114886391 2248960</internalNodes>
          <leafValues>
            -5.2785146236419678e-01 4.5711016654968262e-01</leafValues></_>
        <_>
          <internalNodes>
            0 -1 145 -16884676 -1905635523 -318931105 -617930916
            -193032242 -8388745 -272711778 -1145435304</internalNodes>
          <leafValues>
            -2.5763282179832458e-01 4.1590306162834167e-01</leafValues></_>
        <_>
          <internalNodes>
            0 -1 82 -548014542 -1644300297 -68057 1874591485 -8388686
            -563683361 -25412200 -1121632486</internalNodes>
          <leafValues>
            -2.8203767538070679e-01 3.9840579032897949e-01</leafValues></_>
        <_>
          <internalNodes>
            0 -1 44 -1872797030 568135832 -716863284 2019608990 75602450
            -385810431 789266826 -1511738485</internalNodes>
          <leafValues>
            -3.6262121796607971e-01 3.3184200525283813e-01</leafValues></_>
        <_>
          <internalNodes>
            0 -1 116 -1065316336 1803784344 661 -736485356 -1585362508
            134357120 1082818986 -426065712</internalNodes>
          <leafValues>
            -4.0595030784606934e-01 3.1648001074790955e-01</leafValues></_>
        <_>
          <internalNodes>
            0 -1 161 -1706744397 1854066824 -939388822 -356478607
            -1068531582 1636892834 1208005384 347326024</internalNodes>
          <leafValues>
            -5.1522058248519897e-01 2.5308614969253540e-01</leafValues></_>
        <_>
          <internalNodes>
            0 -1 136 700500785 -1591967566 1099085850 -862612928
            1225478362 -100433536 -121414012 -347786283</internalNodes>
          <leafValues>
            -4.0305587649345398e-01 3.4488436579704285e-01</leafValues></_>
        <_>
          <internalNodes>
            0 -1 89 839643734 1136662937 -2130706083 -1844173661
            -2143280565 1980366866 1803951055 -1120747414</internalNodes>
          <leafValues>
            -3.8082072138786316e-01 3.6924403905868530e-01</leafValues></_>
        <_>
          <internalNodes>
            0 -1 134 398725634 -1454342015 33657111 1213497394
            1091187292 1764454576 -527689014 1684365892</internalNodes>
          <leafValues>
            -6.2185472249984741e-01 2.4121497571468353e-01</leafValues></_></weakClassifiers></_>
    <!-- stage 19 -->
    <_>
      <maxWeakCount>10</maxWeakCount>
      <stageThreshold>-6.8214941024780273e-01</stageThreshold>
      <weakClassifiers>
        <_>
          <internalNodes>
            0 -1 53 135397380 412254424 -1845493682 805838980 135431952
            856719388 -1995421140 137376016</internalNodes>
          <leafValues>
            -8.4693878889083862e-01 4.1583451628684998e-01</leafValues></_>
        <_>
          <internalNodes>
            0 -1 3 -1475427116 1276281539 428343625 -867172010 328970242
            -1476163304 38725667 428169222</internalNodes>
          <leafValues>
            -4.0835046768188477e-01 2.8895395994186401e-01</leafValues></_>
        <_>
          <internalNodes>
            0 -1 79 -1078047586 -201654290 -16793864 829881979 264150174
            525860719 2059203422 -102825999</internalNodes>
          <leafValues>
            -2.9447868466377258e-01 3.7664541602134705e-01</leafValues></_>
        <_>
          <internalNodes>
            0 -1 122 -1787152011 730103955 319229010 1461370893
            1770104869 1082818986 1227041572 582980823</internalNodes>
          <leafValues>
            -3.9105322957038879e-01 2.7291387319564819e-01</leafValues></_>
        <_>
          <internalNodes>
            0 -1 100 1530247867 1790001148 -16892947 442384052 884916189
            -196609 805304186 -1727559073</internalNodes>
          <leafValues>
            -2.4415214359760284e-01 4.7885623574256897e-01</leafValues></_>
        <_>
          <internalNodes>
            0 -1 74 -699452042 1375797656 268452176 -567910397
            -1467913224 540705 672098308 -1146092772</internalNodes>
          <leafValues>
            -4.8802363872528076e-01 2.5774982571601868e-01</leafValues></_>
        <_>
          <internalNodes>
            0 -1 91 -156454830 -710467672 1056849916 -1246191756
            -1610850618 -562104329 -1224900905 -1913928537</internalNodes>
          <leafValues>
            -3.2832089066505432e-01 4.2322477698326111e-01</leafValues></_>
        <_>
          <internalNodes>
            0 -1 65 -1347431817 1257013099 -1744933795 -650711124
            1608101732 2137978870 1476392557 -65286353</internalNodes>
          <leafValues>
            -2.8066983819007874e-01 4.8727139830589294e-01</leafValues></_>
        <_>
          <internalNodes>
            0 -1 77 691790272 1612578832 98621 811290770 277774930
            1261109283 -58558336 -1592360816</internalNodes>
          <leafValues>
            -4.8108470439910889e-01 2.9745951294898987e-01</leafValues></_>
        <_>
          <internalNodes>
            0 -1 140 -2108497638 -97451621 -1072624634 1347321866 20492
            -1893711195 -1434350818 1220472087</internalNodes>
          <leafValues>
            -4.9325418472290039e-01 2.8805977106094360e-01</leafValues></_></weakClassifiers></_></stages>
  <features>
    <_>
      <rect>
        0 0 2 3</rect></_>
    <_>
      <rect>
        0 0 4 2</rect></_>
    <_>
      <rect>
        0 0 4 6</rect></_>
    <_>
      <rect>
        0 0 5 5</rect></_>
    <_>
      <rect>
        0 0 6 4</rect></_>
    <_>
      <rect>
        0 1 5 5</rect></_>
    <_>
      <rect>
        0 1 8 7</rect></_>
    <_>
      <rect>
        0 2 2 4</rect></_>
    <_>
      <rect>
        0 2 3 2</rect></_>
    <_>
      <rect>
        0 2 3 4</rect></_>
    <_>
      <rect>
        0 3 1 2</rect></_>
    <_>
      <rect>
        0 3 2 4</rect></_>
    <_>
      <rect>
        0 3 3 4</rect></_>
    <_>
      <rect>
        0 3 5 6</rect></_>
    <_>
      <rect>
        0 3 8 7</rect></_>
    <_>
      <rect>
        0 4 7 6</rect></_>
    <_>
      <rect>
        0 6 4 6</rect></_>
    <_>
      <rect>
        0 8 2 4</rect></_>
    <_>
      <rect>
        0 9 8 5</rect></_>
    <_>
      <rect>
        0 10 2 2</rect></_>
    <_>
      <rect>
        0 10 2 4</rect></_>
    <_>
      <rect>
        0 12 2 4</rect></_>
    <_>
      <rect>
        0 12 5 4</rect></_>
    <_>
      <rect>
        0 14 2 3</rect></_>
    <_>
      <rect>
        0 15 1 1</rect></_>
    <_>
      <rect>
        0 15 4 3</rect></_>
    <_>
      <rect>
        0 17 1 1</rect></_>
    <_>
      <rect>
        1 0 3 1</rect></_>
    <_>
      <rect>
        1 0 3 3</rect></_>
    <_>
      <rect>
        1 4 3 2</rect></_>
    <_>
      <rect>
        1 6 1 1</rect></_>
    <_>
      <rect>
        1 6 3 6</rect></_>
    <_>
      <rect>
        1 7 5 3</rect></_>
    <_>
      <rect>
        1 9 1 1</rect></_>
    <_>
      <rect>
        1 9 5 5</rect></_>
    <_>
      <rect>
        1 10 2 2</rect></_>
    <_>
      <rect>
        1 11 1 1</rect></_>
    <_>
      <rect>
        1 12 3 4</rect></_>
    <_>
      <rect>
        1 13 3 3</rect></_>
    <_>
      <rect>
        1 13 5 3</rect></_>
    <_>
      <rect>
        1 18 1 1</rect></_>
    <_>
      <rect>
        2 0 7 3</rect></_>
    <_>
      <rect>
        2 1 2 1</rect></_>
    <_>
      <rect>
        2 1 7 4</rect></_>
    <_>
      <rect>
        2 3 2 3</rect></_>
    <_>
      <rect>
        2 3 3 3</rect></_>
    <_>
      <rect>
        2 4 1 1</rect></_>
    <_>
      <rect>
        2 9 7 4</rect></_>
    <_>
      <rect>
        2 13 1 1</rect></_>
    <_>
      <rect>
        2 15 6 3</rect></_>
    <_>
      <rect>
        2 15 7 3</rect></_>
    <_>
      <rect>
        2 16 2 2</rect></_>
    <_>
      <rect>
        2 18 3 2</rect></_>
    <_>
      <rect>
        3 0 2 5</rect></_>
    <_>
      <rect>
        3 0 4 4</rect></_>
    <_>
      <rect>
        3 0 5 2</rect></_>
    <_>
      <rect>
        3 3 3 4</rect></_>
    <_>
      <rect>
        3 10 4 4</rect></_>
    <_>
      <rect>
        3 11 3 3</rect></_>
    <_>
      <rect>
        3 18 1 1</rect></_>
    <_>
      <rect>
        4 0 3 1</rect></_>
    <_>
      <rect>
        4 0 4 4</rect></_>
    <_>
      <rect>
        4 1 1 1</rect></_>
    <_>
      <rect>
        4 2 6 3</rect></_>
    <_>
      <rect>
        4 3 4 2</rect></_>
    <_>
      <rect>
        4 3 5 3</rect></_>
    <_>
      <rect>
        4 8 2 1</rect></_>
    <_>
      <rect>
        4 12 6 4</rect></_>
    <_>
      <rect>
        4 17 3 2</rect></_>
    <_>
      <rect>
        4 17 4 2</rect></_>
    <_>
      <rect>
        5 2 1 1</rect></_>
    <_>
      <rect>
        5 4 5 6</rect></_>
    <_>
      <rect>
        5 6 2 3</rect></_>
    <_>
      <rect>
        5 6 6 4</rect></_>
    <_>
      <rect>
        5 8 4 5</rect></_>
    <_>
      <rect>
        5 9 3 5</rect></_>
    <_>
      <rect>
        5 12 3 3</rect></_>
    <_>
      <rect>
        5 15 1 1</rect></_>
    <_>
      <rect>
        5 16 1 1</rect></_>
    <_>
      <rect>
        5 18 1 1</rect></_>
    <_>
      <rect>
        6 0 2 1</rect></_>
    <_>
      <rect>
        6 0 4 1</rect></_>
    <_>
      <rect>
        6 0 5 2</rect></_>
    <_>
      <rect>
        6 0 5 3</rect></_>
    <_>
      <rect>
        6 1 4 3</rect></_>
    <_>
      <rect>
        6 1 6 3</rect></_>
    <_>
      <rect>
        6 2 4 2</rect></_>
    <_>
      <rect>
        6 2 5 3</rect></_>
    <_>
      <rect>
        6 3 6 5</rect></_>
    <_>
      <rect>
        6 4 2 2</rect></_>
    <_>
      <rect>
        6 18 3 2</rect></_>
    <_>
      <rect>
        7 1 2 2</rect></_>
    <_>
      <rect>
        7 1 4 4</rect></_>
    <_>
      <rect>
        7 1 5 5</rect></_>
    <_>
      <rect>
        7 2 2 2</rect></_>
    <_>
      <rect>
        7 3 3 3</rect></_>
    <_>
      <rect>
        7 8 3 4</rect></_>
    <_>
      <rect>
        7 8 5 4</rect></_>
    <_>
      <rect>
        7 8 5 5</rect></_>
    <_>
      <rect>
        8 2 1 1</rect></_>
    <_>
      <rect>
        8 12 2 4</rect></_>
    <_>
      <rect>
        8 16 1 1</rect></_>
    <_>
      <rect>
        9 0 1 1</rect></_>
    <_>
      <rect>
        9 0 2 1</rect></_>
    <_>
      <rect>
        9 0 3 1</rect></_>
    <_>
      <rect>
        9 6 1 2</rect></_>
    <_>
      <rect>
        9 9 1 1</rect></_>
    <_>
      <rect>
        10 0 2 1</rect></_>
    <_>
      <rect>
        10 2 2 2</rect></_>
    <_>
      <rect>
        10 6 1 1</rect></_>
    <_>
      <rect>
        10 7 1 1</rect></_>
    <_>
      <rect>
        10 7 4 5</rect></_>
    <_>
      <rect>
        10 10 4 4</rect></_>
    <_>
      <rect>
        10 15 4 3</rect></_>
    <_>
      <rect>
        10 18 3 2</rect></_>
    <_>
      <rect>
        11 1 1 1</rect></_>
    <_>
      <rect>
        11 17 1 1</rect></_>
    <_>
      <rect>
        11 21 1 1</rect></_>
    <_>
      <rect>
        12 0 3 2</rect></_>
    <_>
      <rect>
        12 0 4 2</rect></_>
    <_>
      <rect>
        12 2 4 3</rect></_>
    <_>
      <rect>
        12 2 4 4</rect></_>
    <_>
      <rect>
        12 5 4 6</rect></_>
    <_>
      <rect>
        12 6 4 4</rect></_>
    <_>
      <rect>
        12 10 1 1</rect></_>
    <_>
      <rect>
        12 15 3 3</rect></_>
    <_>
      <rect>
        13 1 2 4</rect></_>
    <_>
      <rect>
        13 1 3 4</rect></_>
    <_>
      <rect>
        13 6 3 5</rect></_>
    <_>
      <rect>
        13 7 1 1</rect></_>
    <_>
      <rect>
        13 16 3 2</rect></_>
    <_>
      <rect>
        14 0 1 1</rect></_>
    <_>
      <rect>
        14 1 3 1</rect></_>
    <_>
      <rect>
        14 2 2 1</rect></_>
    <_>
      <rect>
        14 2 2 2</rect></_>
    <_>
      <rect>
        14 7 3 5</rect></_>
    <_>
      <rect>
        14 17 2 2</rect></_>
    <_>
      <rect>
        14 19 1 1</rect></_>
    <_>
      <rect>
        15 0 3 3</rect></_>
    <_>
      <rect>
        15 1 3 4</rect></_>
    <_>
      <rect>
        15 1 3 6</rect></_>
    <_>
      <rect>
        15 7 3 4</rect></_>
    <_>
      <rect>
        15 16 2 2</rect></_>
    <_>
      <rect>
        15 21 1 1</rect></_>
    <_>
      <rect>
        16 9 2 1</rect></_>
    <_>
      <rect>
        17 1 1 1</rect></_>
    <_>
      <rect>
        17 7 2 3</rect></_>
    <_>
      <rect>
        17 8 2 4</rect></_>
    <_>
      <rect>
        17 12 2 3</rect></_>
    <_>
      <rect>
        17 14 1 1</rect></_>
    <_>
      <rect>
        17 17 2 1</rect></_>
    <_>
      <rect>
        17 20 2 1</rect></_>
    <_>
      <rect>
        18 1 2 3</rect></_>
    <_>
      <rect>
        18 2 1 1</rect></_>
    <_>
      <rect>
        18 2 2 1</rect></_>
    <_>
      <rect>
        18 3 1 1</rect></_>
    <_>
      <rect>
        18 3 2 4</rect></_>
    <_>
      <rect>
        18 3 2 7</rect></_>
    <_>
      <rect>
        18 7 2 5</rect></_>
    <_>
      <rect>
        18 8 2 5</rect></_>
    <_>
      <rect>
        18 10 1 1</rect></_>
    <_>
      <rect>
        18 11 2 3</rect></_>
    <_>
      <rect>
        18 13 1 1</rect></_>
    <_>
      <rect>
        18 14 2 2</rect></_>
    <_>
      <rect>
        18 15 2 3</rect></_>
    <_>
      <rect>
        19 6 1 1</rect></_>
    <_>
      <rect>
        20 6 1 3</rect></_>
    <_>
      <rect>
        20 17 1 1</rect></_>
    <_>
      <rect>
        21 6 1 1</rect></_>
    <_>
      <rect>
        21 8 1 1</rect></_>
    <_>
      <rect>
        21 20 1 1</rect></_></features></cascade>
</opencv_storage>
