<?xml version="1.0"?>
<opencv_storage>
<cascade>
  <stageType>BOOST</stageType>
  <featureType>LBP</featureType>
  <height>24</height>
  <width>24</width>
  <stageParams>
    <boostType>GAB</boostType>
    <minHitRate>9.9500000476837158e-01</minHitRate>
    <maxFalseAlarm>5.0000000000000000e-01</maxFalseAlarm>
    <weightTrimRate>9.4999999999999996e-01</weightTrimRate>
    <maxDepth>1</maxDepth>
    <maxWeakCount>100</maxWeakCount></stageParams>
  <featureParams>
    <maxCatCount>256</maxCatCount>
    <featSize>1</featSize></featureParams>
  <stageNum>20</stageNum>
  <stages>
    <!-- stage 0 -->
    <_>
      <maxWeakCount>6</maxWeakCount>
      <stageThreshold>-9.0243571996688843e-01</stageThreshold>
      <weakClassifiers>
        <_>
          <internalNodes>
            0 -1 83 -4944676 1606975452 -67469512 1895825772 -4931624
            -770384260 -382581112 68608</internalNodes>
          <leafValues>
            -5.7276993989944458e-01 6.9273740053176880e-01</leafValues></_>
        <_>
          <internalNodes>
            0 -1 237 117442820 -1601552384 1082147221 -61550464
            -1610612656 1350631560 -536862204 -1500511744</internalNodes>
          <leafValues>
            -7.0596969127655029e-01 4.4756105542182922e-01</leafValues></_>
        <_>
          <internalNodes>
            0 -1 61 -105903424 1027366756 -17912096 2066812621
            -183722040 1283202340 1876176010 -2144123893</internalNodes>
          <leafValues>
            -4.4674861431121826e-01 6.3484418392181396e-01</leafValues></_>
        <_>
          <internalNodes>
            0 -1 184 -1641657216 -1531023572 -1359090004 1895792416
            -134994620 1174241277 -134293850 -1330741376</internalNodes>
          <leafValues>
            -4.4796967506408691e-01 5.4299581050872803e-01</leafValues></_>
        <_>
          <internalNodes>
            0 -1 106 -788377448 -720875376 33636424 469848136 268960392
            1879080968 33577226 1109563531</internalNodes>
          <leafValues>
            -4.5378026366233826e-01 5.1108390092849731e-01</leafValues></_>
        <_>
          <internalNodes>
            0 -1 193 -12911188 -589842 -65552 -295112 -17791864
            1736372094 -1523266308 -1490867165</internalNodes>
          <leafValues>
            -3.9359241724014282e-01 6.2373560667037964e-01</leafValues></_></weakClassifiers></_>
    <!-- stage 1 -->
    <_>
      <maxWeakCount>5</maxWeakCount>
      <stageThreshold>-1.3678293228149414e+00</stageThreshold>
      <weakClassifiers>
        <_>
          <internalNodes>
            0 -1 214 72617252 788299641 -4292747 -1301512324 1030780788
            2139029375 2130460436 -1237951120</internalNodes>
          <leafValues>
            -6.0000002384185791e-01 6.9330251216888428e-01</leafValues></_>
        <_>
          <internalNodes>
            0 -1 67 9437312 67109056 -2147467176 1410826260 -1609957376
            27787264 1073774756 -1308482976</internalNodes>
          <leafValues>
            -5.4383456707000732e-01 5.5510872602462769e-01</leafValues></_>
        <_>
          <internalNodes>
            0 -1 221 -1542450160 -1918013660 1874358268 -1222283408
            930524252 -1040294033 -1443608637 -1284897599</internalNodes>
          <leafValues>
            -4.4065988063812256e-01 6.2010294198989868e-01</leafValues></_>
        <_>
          <internalNodes>
            0 -1 115 -2000673632 180354 -2147483512 -1845493628 1048657
            272760866 -1467315328 -1864236376</internalNodes>
          <leafValues>
            -5.6415128707885742e-01 4.9084609746932983e-01</leafValues></_>
        <_>
          <internalNodes>
            0 -1 225 -1600649088 4194304 -1874853632 -1272868728
            -2147344159 2097314 -1870648688 -2071321456</internalNodes>
          <leafValues>
            -5.1248610019683838e-01 5.2061229944229126e-01</leafValues></_></weakClassifiers></_>
    <!-- stage 2 -->
    <_>
      <maxWeakCount>5</maxWeakCount>
      <stageThreshold>-4.8115488886833191e-01</stageThreshold>
      <weakClassifiers>
        <_>
          <internalNodes>
            0 -1 242 -1434712736 -1074270209 -1 -33656858 -9159051
            -65537 2147358004 -203016748</internalNodes>
          <leafValues>
            -4.0976646542549133e-01 6.7346936464309692e-01</leafValues></_>
        <_>
          <internalNodes>
            0 -1 55 -72810508 -35282947 -1078558772 -550224148 -25509944
            -293732546 -1096556662 68356306</internalNodes>
          <leafValues>
            -4.7314974665641785e-01 5.7213407754898071e-01</leafValues></_>
        <_>
          <internalNodes>
            0 -1 89 -2146959164 1107345541 1090519088 -27717632
            -1577056222 -2119696383 -2004844350 -1870001664</internalNodes>
          <leafValues>
            -4.6669408679008484e-01 5.5727744102478027e-01</leafValues></_>
        <_>
          <internalNodes>
            0 -1 206 -2142498732 -1987903359 -1056767613 -493023206
            -804642752 1073741952 -1865809773 -1564335990</internalNodes>
          <leafValues>
            -5.2180808782577515e-01 4.6795028448104858e-01</leafValues></_>
        <_>
          <internalNodes>
            0 -1 11 -1466261184 -1969061886 -2147418104 -1845362688
            549585024 536936448 -1071578624 -1460534272</internalNodes>
          <leafValues>
            -6.1176872253417969e-01 4.0050512552261353e-01</leafValues></_></weakClassifiers></_>
    <!-- stage 3 -->
    <_>
      <maxWeakCount>8</maxWeakCount>
      <stageThreshold>-1.2815337181091309e+00</stageThreshold>
      <weakClassifiers>
        <_>
          <internalNodes>
            0 -1 3 -1667191420 -160432131 1069481451 -13893768 72679374
            -286368268 1073011706 25602</internalNodes>
          <leafValues>
            -2.7671754360198975e-01 6.6086065769195557e-01</leafValues></_>
        <_>
          <internalNodes>
            0 -1 231 212076384 -2129690481 268468245 1461594177
            -2012527614 -1870528512 -771217375 -1296110896</internalNodes>
          <leafValues>
            -5.1799279451370239e-01 4.0669971704483032e-01</leafValues></_>
        <_>
          <internalNodes>
            0 -1 70 -561982216 1966767676 1492811325 1362751019
            -420084082 1012776702 204481775 1361300527</internalNodes>
          <leafValues>
            -3.5305026173591614e-01 5.8406579494476318e-01</leafValues></_>
        <_>
          <internalNodes>
            0 -1 194 -12659796 -8540291 -1359138893 -14544976 -17499728
            -687943818 -1565352549 1681334282</internalNodes>
          <leafValues>
            -3.5899433493614197e-01 4.9427163600921631e-01</leafValues></_>
        <_>
          <internalNodes>
            0 -1 136 -42402055 2141361395 -1073811464 -4914000
            -574829157 1735818679 -1082356018 1394822415</internalNodes>
          <leafValues>
            -3.1496766209602356e-01 5.6663024425506592e-01</leafValues></_>
        <_>
          <internalNodes>
            0 -1 92 42205472 -2139062109 -1593716725 1389891840
            548012320 805306496 -1874836830 -1829350936</internalNodes>
          <leafValues>
            -5.3113526105880737e-01 3.4583714604377747e-01</leafValues></_>
        <_>
          <internalNodes>
            0 -1 213 -1869986656 1099169920 1073807763 -733671280
            -1073741650 -394133472 -2136472698 -1238495095</internalNodes>
          <leafValues>
            -3.9631032943725586e-01 4.4832780957221985e-01</leafValues></_>
        <_>
          <internalNodes>
            0 -1 183 -2042800944 1065332735 -1074891026 -1091637316
            1987510134 1610481661 -1510416988 -1767461651</internalNodes>
          <leafValues>
            -3.9463627338409424e-01 4.5100131630897522e-01</leafValues></_></weakClassifiers></_>
    <!-- stage 4 -->
    <_>
      <maxWeakCount>11</maxWeakCount>
      <stageThreshold>-6.6260117292404175e-01</stageThreshold>
      <weakClassifiers>
        <_>
          <internalNodes>
            0 -1 15 -6227720 -548765867 -1398194382 -2119086227
            -1074332540 -42770820 -122118454 51579924</internalNodes>
          <leafValues>
            -2.9067245125770569e-01 6.1020213365554810e-01</leafValues></_>
        <_>
          <internalNodes>
            0 -1 49 -2143808384 -1050124308 -16875594 -1335984144
            -1087058218 241631061 -1210255466 -1214642692</internalNodes>
          <leafValues>
            -3.3766555786132812e-01 4.9933046102523804e-01</leafValues></_>
        <_>
          <internalNodes>
            0 -1 131 -1539570572 -496205955 -4276225 -1645268996
            -1108019362 1207861245 -689555969 -423973154</internalNodes>
          <leafValues>
            -3.3358567953109741e-01 4.9116122722625732e-01</leafValues></_>
        <_>
          <internalNodes>
            0 -1 39 -1744776872 -1085898751 1090781201 1833107459
            268435628 159514763 -2144730941 1744896523</internalNodes>
          <leafValues>
            -4.1624388098716736e-01 3.8633576035499573e-01</leafValues></_>
        <_>
          <internalNodes>
            0 -1 239 -1611528768 -1937227804 -8459312 -138924353
            -729883252 527334268 -188832269 -1213594130</internalNodes>
          <leafValues>
            -3.6424002051353455e-01 4.7983294725418091e-01</leafValues></_>
        <_>
          <internalNodes>
            0 -1 132 -541550128 -1260863492 -67373093 1069526622
            2008845724 -941785176 -1359821110 739519795</internalNodes>
          <leafValues>
            -3.5859480500221252e-01 4.7133612632751465e-01</leafValues></_>
        <_>
          <internalNodes>
            0 -1 104 -558317584 -1162203331 -33575173 -22138947
            1586808250 1457323855 -25932098 850641615</internalNodes>
          <leafValues>
            -3.3886879682540894e-01 5.1266139745712280e-01</leafValues></_>
        <_>
          <internalNodes>
            0 -1 226 -2062679871 1402585218 168661 -23789437 -1342005214
            0 -1307922288 -68531632</internalNodes>
          <leafValues>
            -3.8573476672172546e-01 4.2600581049919128e-01</leafValues></_>
        <_>
          <internalNodes>
            0 -1 235 -1440349972 -1392693764 -20168846 -252887188
            -1879779850 -553648338 -1770981408 -1146400872</internalNodes>
          <leafValues>
            -3.3608227968215942e-01 4.9638336896896362e-01</leafValues></_>
        <_>
          <internalNodes>
            0 -1 142 -1262435952 1450908988 1868480372 -1074842016
            -1086424066 796360702 913333246 933897595</internalNodes>
          <leafValues>
            -3.3730658888816833e-01 5.0726175308227539e-01</leafValues></_>
        <_>
          <internalNodes>
            0 -1 27 -1549893452 -1870004089 180224 -1810755581
            -1592655743 281018368 197282 -1568087162</internalNodes>
          <leafValues>
            -4.5637732744216919e-01 3.5224971175193787e-01</leafValues></_></weakClassifiers></_>
    <!-- stage 5 -->
    <_>
      <maxWeakCount>13</maxWeakCount>
      <stageThreshold>-7.1831101179122925e-01</stageThreshold>
      <weakClassifiers>
        <_>
          <internalNodes>
            0 -1 240 -1363925132 -1367408898 -69761 -1073922066
            2147252087 2130706430 -17629323 -67207179</internalNodes>
          <leafValues>
            -2.0703125000000000e-01 6.1336034536361694e-01</leafValues></_>
        <_>
          <internalNodes>
            0 -1 26 2075948377 2132958448 -1111547928 -46179295
            2096922505 -41943387 -269185845 1250150819</internalNodes>
          <leafValues>
            -2.9232475161552429e-01 4.9815768003463745e-01</leafValues></_>
        <_>
          <internalNodes>
            0 -1 191 -131019556 1379405369 2126150314 -138860741
            510985402 -134590479 1685517690 757809903</internalNodes>
          <leafValues>
            -3.0045169591903687e-01 4.9049052596092224e-01</leafValues></_>
        <_>
          <internalNodes>
            0 -1 212 -1775236996 -119150471 -1225101958 -771939024
            -1092215596 -268666881 -1124811018 -1214090084</internalNodes>
          <leafValues>
            -3.4101191163063049e-01 4.3197569251060486e-01</leafValues></_>
        <_>
          <internalNodes>
            0 -1 82 -242200304 1041276948 268436630 -1627287544
            343937450 -2147483256 193071586 1712515400</internalNodes>
          <leafValues>
            -4.8781090974807739e-01 2.8041723370552063e-01</leafValues></_>
        <_>
          <internalNodes>
            0 -1 159 -2003156628 -2003681280 -805236602 815300696
            -1967087288 -1837105142 -527261164 -2099621087</internalNodes>
          <leafValues>
            -4.4658714532852173e-01 3.0990156531333923e-01</leafValues></_>
        <_>
          <internalNodes>
            0 -1 37 2027581644 295458833 -1342074731 1505869861
            1889599663 806879497 1095387310 602103855</internalNodes>
          <leafValues>
            -3.6484247446060181e-01 4.1933614015579224e-01</leafValues></_>
        <_>
          <internalNodes>
            0 -1 229 1651515012 -580452439 -84197408 -655966226
            -1669972760 -1510506892 -1535738443 -380990</internalNodes>
          <leafValues>
            -3.0407446622848511e-01 4.6664613485336304e-01</leafValues></_>
        <_>
          <internalNodes>
            0 -1 163 -34800203 2126327725 1073676156 1794588209
            -1091551554 2013265911 -1212798986 -1431157378</internalNodes>
          <leafValues>
            -2.9934751987457275e-01 4.6793949604034424e-01</leafValues></_>
        <_>
          <internalNodes>
            0 -1 141 -1800221292 276721208 -327373843 1830923963
            -1225644816 -134334593 394165738 112942498</internalNodes>
          <leafValues>
            -3.4489271044731140e-01 4.1171684861183167e-01</leafValues></_>
        <_>
          <internalNodes>
            0 -1 227 -1312554558 -2008989670 -1342177211 -191496063
            2013470723 285425688 319521281 -262002072</internalNodes>
          <leafValues>
            -4.5169088244438171e-01 3.1979727745056152e-01</leafValues></_>
        <_>
          <internalNodes>
            0 -1 186 2106391548 -687865471 16892120 -560267120
            1082133177 285278849 -372242281 976470438</internalNodes>
          <leafValues>
            -3.6920392513275146e-01 4.0804409980773926e-01</leafValues></_>
        <_>
          <internalNodes>
            0 -1 224 -1396937167 -16814081 -1342242826 -2195731
            -176294090 -142606338 -1627619425 -11075588</internalNodes>
          <leafValues>
            -3.7580090761184692e-01 4.2734575271606445e-01</leafValues></_></weakClassifiers></_>
    <!-- stage 6 -->
    <_>
      <maxWeakCount>14</maxWeakCount>
      <stageThreshold>-1.0002967119216919e+00</stageThreshold>
      <weakClassifiers>
        <_>
          <internalNodes>
            0 -1 4 -80833380 -134512783 -268795924 1475536817 1022647742
            -285278209 -50956310 1120202511</internalNodes>
          <leafValues>
            -7.3795177042484283e-02 6.5669858455657959e-01</leafValues></_>
        <_>
          <internalNodes>
            0 -1 158 -2012216156 -2071981999 318787994 1923481728
            -1860165055 25165955 -805140432 -219528568</internalNodes>
          <leafValues>
            -3.7305870652198792e-01 3.5317701101303101e-01</leafValues></_>
        <_>
          <internalNodes>
            0 -1 97 -202327555 -174980864 -1073589998 -721416056
            -1065309797 -1585283069 -1475679302 730925188</internalNodes>
          <leafValues>
            -4.2013856768608093e-01 3.0458399653434753e-01</leafValues></_>
        <_>
          <internalNodes>
            0 -1 156 -469614428 -1835909039 -1073703936 -191229946
            -259514340 8978696 -2138040170 -1415958512</internalNodes>
          <leafValues>
            -3.6452192068099976e-01 3.6438474059104919e-01</leafValues></_>
        <_>
          <internalNodes>
            0 -1 68 -670252567 1498189966 25235797 1326547073 679480266
            1611268301 -1736242262 61039183</internalNodes>
          <leafValues>
            -3.5304772853851318e-01 3.7541815638542175e-01</leafValues></_>
        <_>
          <internalNodes>
            0 -1 69 982020740 885007457 -1069514662 -124428269
            -1065082880 -1593769942 -1599428218 -387808623</internalNodes>
          <leafValues>
            -3.6743435263633728e-01 3.4700566530227661e-01</leafValues></_>
        <_>
          <internalNodes>
            0 -1 123 -2138115260 -2147041020 -1744796272 1108100154
            1355423935 -2085453815 -1038090032 552763814</internalNodes>
          <leafValues>
            -4.7525215148925781e-01 2.9292699694633484e-01</leafValues></_>
        <_>
          <internalNodes>
            0 -1 199 -851640915 -13439178 1878765492 1744038457
            2147188317 771747839 1459054335 1665089999</internalNodes>
          <leafValues>
            -3.0728849768638611e-01 4.5782658457756042e-01</leafValues></_>
        <_>
          <internalNodes>
            0 -1 167 -248710768 1343254721 269484499 -1660744896
            -1949609254 1937966720 -1206990174 1159928326</internalNodes>
          <leafValues>
            -3.6491790413856506e-01 3.9347261190414429e-01</leafValues></_>
        <_>
          <internalNodes>
            0 -1 51 545800224 260378753 -922730478 210690442 -125132784
            196736 -360126320 -2135250816</internalNodes>
          <leafValues>
            -5.1049256324768066e-01 2.6626676321029663e-01</leafValues></_>
        <_>
          <internalNodes>
            0 -1 65 -46211268 -16785499 -1074221079 1978044001
            -570624116 -805830679 -278974742 -993321733</internalNodes>
          <leafValues>
            -2.6830950379371643e-01 5.2707970142364502e-01</leafValues></_>
        <_>
          <internalNodes>
            0 -1 238 -2138570596 -1878917119 -2113871870 -1273753560
            1342349796 1342310536 -2013265231 -1581592439</internalNodes>
          <leafValues>
            -3.6333027482032776e-01 3.8792076706886292e-01</leafValues></_>
        <_>
          <internalNodes>
            0 -1 187 -559020899 -324849746 1862203319 -84377630
            -687894532 -2013822977 -1753309228 -39678724</internalNodes>
          <leafValues>
            -2.7018758654594421e-01 5.0358819961547852e-01</leafValues></_>
        <_>
          <internalNodes>
            0 -1 127 -73879464 1055145826 2120871228 699600105
            -423637825 -1392625673 955477565 -477301205</internalNodes>
          <leafValues>
            -2.9034912586212158e-01 4.8842632770538330e-01</leafValues></_></weakClassifiers></_>
    <!-- stage 7 -->
    <_>
      <maxWeakCount>12</maxWeakCount>
      <stageThreshold>-1.0917840003967285e+00</stageThreshold>
      <weakClassifiers>
        <_>
          <internalNodes>
            0 -1 211 -1377629092 -269582345 -1082654874 -8962060
            -142672284 -570425481 1601468260 -286491148</internalNodes>
          <leafValues>
            -1.9206680357456207e-01 5.7982367277145386e-01</leafValues></_>
        <_>
          <internalNodes>
            0 -1 99 -1341473928 -548855295 604045591 -684638060
            -1316865102 -1576424824 -1652464757 453054532</internalNodes>
          <leafValues>
            -4.2319312691688538e-01 3.4235784411430359e-01</leafValues></_>
        <_>
          <internalNodes>
            0 -1 86 -1869463352 -921167848 402670709 160292882
            -1593835382 942278701 2032291370 1124846895</internalNodes>
          <leafValues>
            -3.6992830038070679e-01 3.2763412594795227e-01</leafValues></_>
        <_>
          <internalNodes>
            0 -1 243 92545108 1090732226 -2146889271 -91062139
            -1299503018 596148365 -1841135103 -74394486</internalNodes>
          <leafValues>
            -4.4949078559875488e-01 2.6675143837928772e-01</leafValues></_>
        <_>
          <internalNodes>
            0 -1 173 -13449731 2050136853 1996488701 321484856
            -1401927939 -1157955842 1957869391 -1096333621</internalNodes>
          <leafValues>
            -2.3442421853542328e-01 5.4357671737670898e-01</leafValues></_>
        <_>
          <internalNodes>
            0 -1 2 1930354077 -1800405009 -296962 -604372999 888567263
            -1447102466 -285852166 -420780121</internalNodes>
          <leafValues>
            -2.6228868961334229e-01 5.1985019445419312e-01</leafValues></_>
        <_>
          <internalNodes>
            0 -1 19 -341541392 1719254932 -269500854 -1229279670
            -1292470570 226458781 -822710658 -256125405</internalNodes>
          <leafValues>
            -3.4168678522109985e-01 3.8315764069557190e-01</leafValues></_>
        <_>
          <internalNodes>
            0 -1 40 -1158146371 2116709820 1055883173 1000599277
            805205163 175595076 1037445032 -1873689528</internalNodes>
          <leafValues>
            -3.3460894227027893e-01 3.8816782832145691e-01</leafValues></_>
        <_>
          <internalNodes>
            0 -1 146 -528264248 -2100821884 392 -1634008818 -1862090646
            444628993 -368319840 -998579932</internalNodes>
          <leafValues>
            -3.9878171682357788e-01 3.4168383479118347e-01</leafValues></_>
        <_>
          <internalNodes>
            0 -1 177 -1261407792 1343717585 151372189 -1894629309
            1098918639 145459332 -1459558253 -494511573</internalNodes>
          <leafValues>
            -3.4348982572555542e-01 3.9558237791061401e-01</leafValues></_>
        <_>
          <internalNodes>
            0 -1 170 -1828398696 1171515403 469827820 1142853969
            -2122223302 -1702854487 -1962788196 549413154</internalNodes>
          <leafValues>
            -4.0793541073799133e-01 3.5525009036064148e-01</leafValues></_>
        <_>
          <internalNodes>
            0 -1 164 -1200567052 1367047466 788246140 -76599316
            2134021810 666892031 1319806566 -1463972402</internalNodes>
          <leafValues>
            -3.4462654590606689e-01 4.1607835888862610e-01</leafValues></_></weakClassifiers></_>
    <!-- stage 8 -->
    <_>
      <maxWeakCount>13</maxWeakCount>
      <stageThreshold>-7.2294598817825317e-01</stageThreshold>
      <weakClassifiers>
        <_>
          <internalNodes>
            0 -1 205 740306721 -1090584577 -268664931 993951711
            -142836111 -1610645507 -231563 -16973988</internalNodes>
          <leafValues>
            -2.5274726748466492e-01 5.5341583490371704e-01</leafValues></_>
        <_>
          <internalNodes>
            0 -1 77 -2018244960 -1828950594 2097102832 -152494147
            -444699585 1742569463 -1364166922 -1221976904</internalNodes>
          <leafValues>
            -3.3182418346405029e-01 4.0356445312500000e-01</leafValues></_>
        <_>
          <internalNodes>
            0 -1 79 -16855856 -676593681 -268534211 -541229075
            1862018284 1340047311 -152825970 -51433601</internalNodes>
          <leafValues>
            -2.5055184960365295e-01 5.1902353763580322e-01</leafValues></_>
        <_>
          <internalNodes>
            0 -1 195 -1592593736 -415911288 268435458 -552156590
            -2122022909 -1845460982 -939288389 2301952</internalNodes>
          <leafValues>
            -4.7808086872100830e-01 2.8461980819702148e-01</leafValues></_>
        <_>
          <internalNodes>
            0 -1 230 -2033706836 8454153 -1073708239 -1266417535
            -1987386724 805306514 -536341853 -1279653224</internalNodes>
          <leafValues>
            -4.0761798620223999e-01 2.9811236262321472e-01</leafValues></_>
        <_>
          <internalNodes>
            0 -1 60 -2138661630 -2137419645 310411716 -635829840
            310551224 403210249 -1853738332 -155811123</internalNodes>
          <leafValues>
            -3.6513423919677734e-01 3.5701739788055420e-01</leafValues></_>
        <_>
          <internalNodes>
            0 -1 233 46559941 1351630848 -1862070061 -1584954737
            134357802 1116408448 -351607244 -1429560896</internalNodes>
          <leafValues>
            -4.7171068191528320e-01 2.6200047135353088e-01</leafValues></_>
        <_>
          <internalNodes>
            0 -1 100 -5481283 460947453 -16859407 -1489601021 -8501282
            792690686 -914481 -403701873</internalNodes>
          <leafValues>
            -2.2821544110774994e-01 6.3299572467803955e-01</leafValues></_>
        <_>
          <internalNodes>
            0 -1 41 -1743781752 637534410 -1811902448 -1496047552
            -905883150 537001984 -763190685 -1281884000</internalNodes>
          <leafValues>
            -4.1973459720611572e-01 3.4921196103096008e-01</leafValues></_>
        <_>
          <internalNodes>
            0 -1 200 522246076 -17762307 1608413043 -68112911 -4272933
            939490623 -721476689 -813725077</internalNodes>
          <leafValues>
            -2.2260746359825134e-01 6.2795752286911011e-01</leafValues></_>
        <_>
          <internalNodes>
            0 -1 105 -1313292500 -411144361 -1343311900 -1287852239
            921728494 1988091380 -700550413 -1608557557</internalNodes>
          <leafValues>
            -3.5449260473251343e-01 3.8425251841545105e-01</leafValues></_>
        <_>
          <internalNodes>
            0 -1 150 -770612300 -1005584368 -922679026 -1198128767
            -1868951453 -2004287360 -1206328446 -1071726443</internalNodes>
          <leafValues>
            -3.4434664249420166e-01 4.0213388204574585e-01</leafValues></_>
        <_>
          <internalNodes>
            0 -1 56 -1096024683 -1799557281 -1073791050 -814674462
            -17533441 -293739301 -1259067666 -428605597</internalNodes>
          <leafValues>
            -2.9767468571662903e-01 4.7557023167610168e-01</leafValues></_></weakClassifiers></_>
    <!-- stage 9 -->
    <_>
      <maxWeakCount>14</maxWeakCount>
      <stageThreshold>-1.0842956304550171e+00</stageThreshold>
      <weakClassifiers>
        <_>
          <internalNodes>
            0 -1 81 -50821104 -1817182354 -268505345 -537100307
            2130447436 1843158911 -419665938 -318951571</internalNodes>
          <leafValues>
            -8.6419753730297089e-02 6.1904764175415039e-01</leafValues></_>
        <_>
          <internalNodes>
            0 -1 39 403763544 -717225979 -805109479 -313966583
            1084229836 1476608152 -1069006777 1243841601</internalNodes>
          <leafValues>
            -3.9525038003921509e-01 3.3349421620368958e-01</leafValues></_>
        <_>
          <internalNodes>
            0 -1 45 -121999192 -176341332 -1351631127 624766717
            -1225742920 -990380331 -1888863061 288033946</internalNodes>
          <leafValues>
            -2.7325621247291565e-01 4.1144883632659912e-01</leafValues></_>
        <_>
          <internalNodes>
            0 -1 111 -542716796 -1100095762 -1099989358 -59944970
            -184767147 -704843777 -855990365 -5598022</internalNodes>
          <leafValues>
            -2.2168287634849548e-01 5.3553575277328491e-01</leafValues></_>
        <_>
          <internalNodes>
            0 -1 0 -330057 2133835388 -82051 -335855688 -45163081
            -805314561 -8628801 633482370</internalNodes>
          <leafValues>
            -3.1645926833152771e-01 3.5759732127189636e-01</leafValues></_>
        <_>
          <internalNodes>
            0 -1 174 -197995299 1915695942 -289952081 1027308061
            -1227698689 -545489538 -704979201 1592491498</internalNodes>
          <leafValues>
            -2.3065726459026337e-01 6.0988003015518188e-01</leafValues></_>
        <_>
          <internalNodes>
            0 -1 34 2074752857 -1103364603 1878923836 -1154551956
            -734110004 -546875790 -138519421 1264821395</internalNodes>
          <leafValues>
            -3.1089976429939270e-01 3.8079050183296204e-01</leafValues></_>
        <_>
          <internalNodes>
            0 -1 75 -633547048 532631420 2130358247 -1605852 -21954568
            -1493172233 -1221063446 -1581689738</internalNodes>
          <leafValues>
            -2.4942171573638916e-01 5.0649690628051758e-01</leafValues></_>
        <_>
          <internalNodes>
            0 -1 217 -554520944 -1096089827 -1074037125 -270614729
            -1267200043 117194622 -17498633 -46937030</internalNodes>
          <leafValues>
            -2.7846351265907288e-01 4.3230873346328735e-01</leafValues></_>
        <_>
          <internalNodes>
            0 -1 181 -605369095 -68001988 -1358960091 -1361023443
            -550156630 -16814140 -114222134 -1263538358</internalNodes>
          <leafValues>
            -2.3626285791397095e-01 5.0280338525772095e-01</leafValues></_>
        <_>
          <internalNodes>
            0 -1 128 -1814282132 -1773420412 -1072431082 -1269079784
            -2096553685 -1878982655 -251131898 -1498808166</internalNodes>
          <leafValues>
            -3.6145073175430298e-01 3.3533221483230591e-01</leafValues></_>
        <_>
          <internalNodes>
            0 -1 18 -1592227640 -1249341169 -2147282944 -703545277
            -2138750546 553828520 -527296488 -513357225</internalNodes>
          <leafValues>
            -3.9183270931243896e-01 3.1443277001380920e-01</leafValues></_>
        <_>
          <internalNodes>
            0 -1 147 -1065344660 68661663 -1073737514 -1382809587
            1355493611 42991627 1208352802 1891345068</internalNodes>
          <leafValues>
            -4.0900233387947083e-01 3.1407725811004639e-01</leafValues></_>
        <_>
          <internalNodes>
            0 -1 108 -1116158740 -1087443043 -285218077 -1380749446
            -1091801880 913833855 771352500 -161803193</internalNodes>
          <leafValues>
            -3.2274067401885986e-01 3.9618432521820068e-01</leafValues></_></weakClassifiers></_>
    <!-- stage 10 -->
    <_>
      <maxWeakCount>16</maxWeakCount>
      <stageThreshold>-5.0745379924774170e-01</stageThreshold>
      <weakClassifiers>
        <_>
          <internalNodes>
            0 -1 232 -912237227 2113667069 -79 -33587203 2147241821
            2147483519 -1208193571 -1078578385</internalNodes>
          <leafValues>
            -1.1167512834072113e-01 6.2266224622726440e-01</leafValues></_>
        <_>
          <internalNodes>
            0 -1 9 -96421379 151028807 1090589017 -67014645 -939157432
            -1979121664 -930563679 721488980</internalNodes>
          <leafValues>
            -3.8986986875534058e-01 3.2310912013053894e-01</leafValues></_>
        <_>
          <internalNodes>
            0 -1 114 -542482756 1904111415 1681052649 524075059
            -218634068 389518518 -1705336897 531851183</internalNodes>
          <leafValues>
            -2.4291445314884186e-01 4.7039064764976501e-01</leafValues></_>
        <_>
          <internalNodes>
            0 -1 59 -50424451 1064959293 -268468237 -537957123
            -593752865 2147381226 1157564159 1706200179</internalNodes>
          <leafValues>
            -2.9065230488777161e-01 3.7368971109390259e-01</leafValues></_>
        <_>
          <internalNodes>
            0 -1 130 -1337178944 -2143137645 -1064271600 -65847151
            -402484600 -1591607158 -2134761320 -1254483840</internalNodes>
          <leafValues>
            -3.5994341969490051e-01 3.2411590218544006e-01</leafValues></_>
        <_>
          <internalNodes>
            0 -1 144 -1163470440 -839389249 -524289 1048543103
            -1125751673 -403177473 -136944897 -487768221</internalNodes>
          <leafValues>
            -2.8762003779411316e-01 4.2032885551452637e-01</leafValues></_>
        <_>
          <internalNodes>
            0 -1 145 -826142576 1354768405 16859160 25264264 210242099
            671221890 -266392912 1722960422</internalNodes>
          <leafValues>
            -4.7828891873359680e-01 2.5485742092132568e-01</leafValues></_>
        <_>
          <internalNodes>
            0 -1 140 -1124557171 -9814469 -823390423 -1346568654
            -427825509 -1124139009 955510334 -1078604437</internalNodes>
          <leafValues>
            -2.0949760079383850e-01 5.1544797420501709e-01</leafValues></_>
        <_>
          <internalNodes>
            0 -1 20 -1055251779 -1056745322 218157197 -96114414
            -1073207078 1217265832 -360600824 -427734617</internalNodes>
          <leafValues>
            -3.4928303956985474e-01 3.3235925436019897e-01</leafValues></_>
        <_>
          <internalNodes>
            0 -1 74 -2042617628 -1869610981 -1810853613 408883237
            -536698878 -1607827326 -1819752222 -2119560508</internalNodes>
          <leafValues>
            -3.6576449871063232e-01 3.2953235507011414e-01</leafValues></_>
        <_>
          <internalNodes>
            0 -1 190 -1068572584 2046820361 16879889 503681024
            -1710473036 1744994443 8429686 302352995</internalNodes>
          <leafValues>
            -4.2339369654655457e-01 2.7680912613868713e-01</leafValues></_>
        <_>
          <internalNodes>
            0 -1 154 -2010619723 -795733821 268472337 -1321205760
            -1073435888 192970754 176226946 -1566293475</internalNodes>
          <leafValues>
            -3.5395592451095581e-01 3.4815159440040588e-01</leafValues></_>
        <_>
          <internalNodes>
            0 -1 93 -1877470972 -1002143740 16865690 -561757936
            554314339 989921283 151691698 -1229684678</internalNodes>
          <leafValues>
            -4.6588674187660217e-01 2.4712768197059631e-01</leafValues></_>
        <_>
          <internalNodes>
            0 -1 118 268737110 -801071021 101265795 122454103
            -1048538836 587203206 1082321197 -2068077910</internalNodes>
          <leafValues>
            -3.0519601702690125e-01 3.8481104373931885e-01</leafValues></_>
        <_>
          <internalNodes>
            0 -1 228 -1283157356 -1793945086 -939393008 -1852960766
            1082304825 671187587 990454096 -1688335614</internalNodes>
          <leafValues>
            -3.6024898290634155e-01 3.1703564524650574e-01</leafValues></_>
        <_>
          <internalNodes>
            0 -1 58 -1788821092 17142158 -1055831646 -376274681
            -2136340294 8620160 1074397336 102687302</internalNodes>
          <leafValues>
            -3.5063824057579041e-01 3.3769455552101135e-01</leafValues></_></weakClassifiers></_>
    <!-- stage 11 -->
    <_>
      <maxWeakCount>12</maxWeakCount>
      <stageThreshold>-7.6867812871932983e-01</stageThreshold>
      <weakClassifiers>
        <_>
          <internalNodes>
            0 -1 182 1847236372 -1078726660 -16947625 1508898732
            2012501764 1870593407 -143231016 758087524</internalNodes>
          <leafValues>
            -1.4285714924335480e-01 6.3438522815704346e-01</leafValues></_>
        <_>
          <internalNodes>
            0 -1 98 -934960257 -1860923388 88345 101237269 -1744600432
            -1600946000 -922523501 408356952</internalNodes>
          <leafValues>
            -3.8359349966049194e-01 4.0821161866188049e-01</leafValues></_>
        <_>
          <internalNodes>
            0 -1 8 -1415006788 2112798582 -336023 804126565 754786030
            -26738692 -461552469 1828015967</internalNodes>
          <leafValues>
            -2.9097515344619751e-01 5.2106171846389771e-01</leafValues></_>
        <_>
          <internalNodes>
            0 -1 160 492873297 993708883 536838005 -1146053845
            -990213928 1958378678 -398479862 124059667</internalNodes>
          <leafValues>
            -3.5988572239875793e-01 4.0055170655250549e-01</leafValues></_>
        <_>
          <internalNodes>
            0 -1 179 -1862221568 1394081793 32780 470319114 1189932
            -1400864630 -2004741092 -1141958587</internalNodes>
          <leafValues>
            -3.9606934785842896e-01 3.6413761973381042e-01</leafValues></_>
        <_>
          <internalNodes>
            0 -1 129 -465647085 -770921692 -1477824987 -2119096917
            -982343704 -1346486410 -308576391 1025201467</internalNodes>
          <leafValues>
            -2.5578519701957703e-01 5.2955740690231323e-01</leafValues></_>
        <_>
          <internalNodes>
            0 -1 94 2109574428 1999630249 2130688959 788439032 886857340
            635305983 -1930592805 -454086697</internalNodes>
          <leafValues>
            -2.9650375247001648e-01 4.6133401989936829e-01</leafValues></_>
        <_>
          <internalNodes>
            0 -1 152 -1633634354 -1229435088 -26513563 163180213
            485858746 -1082167297 -1090926862 734467165</internalNodes>
          <leafValues>
            -3.0991283059120178e-01 4.2642283439636230e-01</leafValues></_>
        <_>
          <internalNodes>
            0 -1 218 -776017799 -1396719832 1073676280 -1178681492
            -2021711876 805232637 -641739 -1885405150</internalNodes>
          <leafValues>
            -2.7346557378768921e-01 4.8940157890319824e-01</leafValues></_>
        <_>
          <internalNodes>
            0 -1 189 -30895952 850389231 -21288976 2142859057 -12710755
            260014069 -1129113682 441394971</internalNodes>
          <leafValues>
            -3.2020476460456848e-01 4.4612643122673035e-01</leafValues></_>
        <_>
          <internalNodes>
            0 -1 90 1391369460 -1141932051 -269533594 1765748578
            -285597714 -1526726657 -985940695 -1422566075</internalNodes>
          <leafValues>
            -2.9589676856994629e-01 4.7442167997360229e-01</leafValues></_>
        <_>
          <internalNodes>
            0 -1 6 -1068326568 -800030700 10 -1744780416 -1874097640
            -934804352 -2105339744 114506498</internalNodes>
          <leafValues>
            -5.4176384210586548e-01 2.8505584597587585e-01</leafValues></_></weakClassifiers></_>
    <!-- stage 12 -->
    <_>
      <maxWeakCount>14</maxWeakCount>
      <stageThreshold>-8.2889229059219360e-01</stageThreshold>
      <weakClassifiers>
        <_>
          <internalNodes>
            0 -1 10 -2143247536 -1069514416 -1878719028 -603422583
            -2096266688 -1037983736 -1872672256 470884372</internalNodes>
          <leafValues>
            -5.6834530830383301e-01 4.7890049219131470e-01</leafValues></_>
        <_>
          <internalNodes>
            0 -1 35 -1727201511 1359188752 369168700 -79063979 273496197
            1258389640 1210255684 578126017</internalNodes>
          <leafValues>
            -4.4248756766319275e-01 3.4208816289901733e-01</leafValues></_>
        <_>
          <internalNodes>
            0 -1 155 -1423918664 -172706254 1920448149 2008117244
            -1502303347 -1115718033 -126448710 -1679616560</internalNodes>
          <leafValues>
            -1.8045793473720551e-01 6.3194763660430908e-01</leafValues></_>
        <_>
          <internalNodes>
            0 -1 203 -93259811 1395305779 1992290238 -747378829
            -1942781422 -420229385 612324572 -471662136</internalNodes>
          <leafValues>
            -2.6649954915046692e-01 4.6106076240539551e-01</leafValues></_>
        <_>
          <internalNodes>
            0 -1 22 -2112736376 -2079162160 1234182528 -1060012014
            -889118700 177930497 -1744764798 1188495649</internalNodes>
          <leafValues>
            -6.5165668725967407e-01 1.9020168483257294e-01</leafValues></_>
        <_>
          <internalNodes>
            0 -1 232 -1784414639 2138046445 -16777305 -33652753 -178347
            -1073741825 -200961 -136317969</internalNodes>
          <leafValues>
            -2.3742821812629700e-01 5.1661527156829834e-01</leafValues></_>
        <_>
          <internalNodes>
            0 -1 188 1074307672 -803950044 65816 -2066708335 579153937
            1915367561 143197007 871694352</internalNodes>
          <leafValues>
            -4.3608370423316956e-01 2.9009231925010681e-01</leafValues></_>
        <_>
          <internalNodes>
            0 -1 153 -1637162595 -417177794 1055870572 1802092144
            -12628710 2138732287 879920698 -1586812959</internalNodes>
          <leafValues>
            -3.1768494844436646e-01 3.7354487180709839e-01</leafValues></_>
        <_>
          <internalNodes>
            0 -1 135 320663976 -1047486130 4264209 -813399643 559481229
            1000931338 174336038 166921116</internalNodes>
          <leafValues>
            -3.4276455640792847e-01 3.2824560999870300e-01</leafValues></_>
        <_>
          <internalNodes>
            0 -1 32 286275640 374444697 279125 517480960 17461408
            1250459817 -2004329920 1077350700</internalNodes>
          <leafValues>
            -5.6633526086807251e-01 2.0829167962074280e-01</leafValues></_>
        <_>
          <internalNodes>
            0 -1 223 -1083513175 -776050930 -1208078797 -1174672916
            1870548412 394067962 -1091308052 -1284800856</internalNodes>
          <leafValues>
            -2.1797285974025726e-01 5.3376621007919312e-01</leafValues></_>
        <_>
          <internalNodes>
            0 -1 48 -1325079774 -1315847678 -2147380911 -1890779064
            -1995535303 850035208 -1933559512 358559873</internalNodes>
          <leafValues>
            -3.4390276670455933e-01 3.3599075675010681e-01</leafValues></_>
        <_>
          <internalNodes>
            0 -1 16 -1690270791 158958337 -2080276372 -2080358056
            -1072968960 620790024 -1950257494 347587301</internalNodes>
          <leafValues>
            -4.1938683390617371e-01 2.8539338707923889e-01</leafValues></_>
        <_>
          <internalNodes>
            0 -1 84 -1347871486 951844574 -67377429 -273219859
            -352921642 1853833212 922176739 -278954231</internalNodes>
          <leafValues>
            -3.1485068798065186e-01 3.9932745695114136e-01</leafValues></_></weakClassifiers></_>
    <!-- stage 13 -->
    <_>
      <maxWeakCount>14</maxWeakCount>
      <stageThreshold>-8.5373818874359131e-01</stageThreshold>
      <weakClassifiers>
        <_>
          <internalNodes>
            0 -1 95 -1112009452 -201850946 -269680705 -604110851
            -17036788 -73857 -17498132 -52150436</internalNodes>
          <leafValues>
            -1.3035871088504791e-01 6.1873990297317505e-01</leafValues></_>
        <_>
          <internalNodes>
            0 -1 96 -116116491 -804388777 -775355570 -1069793009
            -83846210 -902586112 -2055130126 587213600</internalNodes>
          <leafValues>
            -4.5649665594100952e-01 3.1507048010826111e-01</leafValues></_>
        <_>
          <internalNodes>
            0 -1 21 2112831065 2042625885 -1074053377 -1078853678
            -159596755 -1371570180 -1669964054 -138953753</internalNodes>
          <leafValues>
            -2.4383564293384552e-01 5.0288254022598267e-01</leafValues></_>
        <_>
          <internalNodes>
            0 -1 63 1967466868 1124778453 17010890 -65232506 2017469250
            -1283252086 -1385815678 1052999874</internalNodes>
          <leafValues>
            -4.2683926224708557e-01 2.7798718214035034e-01</leafValues></_>
        <_>
          <internalNodes>
            0 -1 219 -639340340 1403403951 1065026976 -679772285
            -25512808 895483775 -145710022 -239139826</internalNodes>
          <leafValues>
            -3.0716186761856079e-01 4.1353788971900940e-01</leafValues></_>
        <_>
          <internalNodes>
            0 -1 143 -1600117542 -88230603 -369169822 728726829
            1610276274 -1242136714 -416236006 288972605</internalNodes>
          <leafValues>
            -3.1609451770782471e-01 3.8976985216140747e-01</leafValues></_>
        <_>
          <internalNodes>
            0 -1 50 -1628143391 2063183721 -487690648 -1786953811
            -578898018 1181154677 -1136753265 1033385177</internalNodes>
          <leafValues>
            -2.8646934032440186e-01 4.2946326732635498e-01</leafValues></_>
        <_>
          <internalNodes>
            0 -1 149 -1790143032 -97272297 1073729258 -161307022
            242204377 -46407937 -889747467 -412767306</internalNodes>
          <leafValues>
            -3.1670483946800232e-01 4.1869497299194336e-01</leafValues></_>
        <_>
          <internalNodes>
            0 -1 192 -1580202687 1909719057 -1870642929 -720027390
            -125665195 2047049728 -1862195144 -1752517974</internalNodes>
          <leafValues>
            -3.5328391194343567e-01 3.3997365832328796e-01</leafValues></_>
        <_>
          <internalNodes>
            0 -1 72 -575021092 -268447747 -268517890 1457159401
            1442373324 1107263255 -1640645438 825728003</internalNodes>
          <leafValues>
            -2.8235864639282227e-01 4.5303669571876526e-01</leafValues></_>
        <_>
          <internalNodes>
            0 -1 24 -647122435 -344609209 -1073758342 -269246613
            -1078182404 1996226293 -423106712 1727377875</internalNodes>
          <leafValues>
            -2.6501059532165527e-01 4.7507122159004211e-01</leafValues></_>
        <_>
          <internalNodes>
            0 -1 88 -1674307260 -1638896571 -286556948 -105484370
            1870495712 2145714156 -831119698 1437898109</internalNodes>
          <leafValues>
            -2.9303345084190369e-01 4.1174250841140747e-01</leafValues></_>
        <_>
          <internalNodes>
            0 -1 120 276845196 -1294089963 16816590 1434452568
            -2133315330 -1842184054 135000094 -1824251601</internalNodes>
          <leafValues>
            -3.4490928053855896e-01 3.6234524846076965e-01</leafValues></_>
        <_>
          <internalNodes>
            0 -1 197 1124771036 1226019201 16842754 -377436158
            -712883871 436215814 -230111848 1626712964</internalNodes>
          <leafValues>
            -4.2960768938064575e-01 3.0545565485954285e-01</leafValues></_></weakClassifiers></_>
    <!-- stage 14 -->
    <_>
      <maxWeakCount>12</maxWeakCount>
      <stageThreshold>-6.1743605136871338e-01</stageThreshold>
      <weakClassifiers>
        <_>
          <internalNodes>
            0 -1 80 2041318732 -134251011 1610280954 536018939
            2130599764 1828716543 -151720824 1717858130</internalNodes>
          <leafValues>
            -2.4942263960838318e-01 5.6982195377349854e-01</leafValues></_>
        <_>
          <internalNodes>
            0 -1 241 -587956363 -268484610 -805322841 2078801903 -754315
            -33587202 1070528366 -67617</internalNodes>
          <leafValues>
            -2.6985117793083191e-01 4.7392779588699341e-01</leafValues></_>
        <_>
          <internalNodes>
            0 -1 148 1842102109 1360165155 -1728052688 -2129338286
            -792403048 1511031427 -255810602 549334914</internalNodes>
          <leafValues>
            -4.1368195414543152e-01 3.3646449446678162e-01</leafValues></_>
        <_>
          <internalNodes>
            0 -1 29 -736218371 -1567201151 -2130673459 -1169783991
            -373281092 1090715816 -376954012 -959468794</internalNodes>
          <leafValues>
            -3.7534561753273010e-01 3.4765458106994629e-01</leafValues></_>
        <_>
          <internalNodes>
            0 -1 121 -1079369729 -566704323 -1422918662 258188857
            -1271494928 -671137794 -1192821713 -570802822</internalNodes>
          <leafValues>
            -2.9731720685958862e-01 4.5154011249542236e-01</leafValues></_>
        <_>
          <internalNodes>
            0 -1 17 -1513334387 173081175 1090621448 -1215790178
            1779308574 1593870337 -266882560 1442882386</internalNodes>
          <leafValues>
            -4.2015439271926880e-01 3.0529654026031494e-01</leafValues></_>
        <_>
          <internalNodes>
            0 -1 220 -1059562596 -1064791794 18940416 1271398402
            -213874152 832668201 1657281074 867723163</internalNodes>
          <leafValues>
            -4.0155380964279175e-01 3.0485165119171143e-01</leafValues></_>
        <_>
          <internalNodes>
            0 -1 112 -115565394 2081587278 286270924 1699414643
            -267779111 1784807450 -1738168229 614654865</internalNodes>
          <leafValues>
            -3.6956852674484253e-01 3.2631915807723999e-01</leafValues></_>
        <_>
          <internalNodes>
            0 -1 117 1460964853 -1870286625 1090529614 -318635235
            1889207083 -1304264576 -534633836 566199126</internalNodes>
          <leafValues>
            -3.5229250788688660e-01 3.4383457899093628e-01</leafValues></_>
        <_>
          <internalNodes>
            0 -1 138 1278483512 -143667691 738152170 646934078 956015000
            2121793119 -547868967 -2319069</internalNodes>
          <leafValues>
            -3.1919485330581665e-01 3.9610829949378967e-01</leafValues></_>
        <_>
          <internalNodes>
            0 -1 157 1957955289 -1090732561 -152126618 -79712332
            -419496417 1996455935 -50415692 -22872182</internalNodes>
          <leafValues>
            -3.0067449808120728e-01 4.0186619758605957e-01</leafValues></_>
        <_>
          <internalNodes>
            0 -1 33 851471665 -66953777 -1241444083 1825768327
            -792432455 -1193574237 -534320574 680235058</internalNodes>
          <leafValues>
            -4.0382918715476990e-01 3.0300825834274292e-01</leafValues></_></weakClassifiers></_>
    <!-- stage 15 -->
    <_>
      <maxWeakCount>15</maxWeakCount>
      <stageThreshold>-7.2496366500854492e-01</stageThreshold>
      <weakClassifiers>
        <_>
          <internalNodes>
            0 -1 5 -1600591004 -1803112255 -2147235700 -1241463292
            -2125922240 -1064796160 -904434928 336922692</internalNodes>
          <leafValues>
            -5.3884708881378174e-01 4.6712803840637207e-01</leafValues></_>
        <_>
          <internalNodes>
            0 -1 169 1857290167 -67535009 -1090633807 -839651549
            -21627047 -453181963 -541851986 -84725988</internalNodes>
          <leafValues>
            -2.2173309326171875e-01 4.9854964017868042e-01</leafValues></_>
        <_>
          <internalNodes>
            0 -1 12 92903300 -1172463225 1367443916 -611401511 705637082
            679575560 -1073732742 1658149728</internalNodes>
          <leafValues>
            -3.8172250986099243e-01 3.0375233292579651e-01</leafValues></_>
        <_>
          <internalNodes>
            0 -1 38 -1103495263 -349966424 2130437820 2134700010
            -1476631315 922089307 -1892909841 399869645</internalNodes>
          <leafValues>
            -2.9585549235343933e-01 3.9315217733383179e-01</leafValues></_>
        <_>
          <internalNodes>
            0 -1 215 -1686716619 -1829244929 -65617 -273219660
            -570988758 2147450741 -690564 -211341385</internalNodes>
          <leafValues>
            -3.3516848087310791e-01 3.5834541916847229e-01</leafValues></_>
        <_>
          <internalNodes>
            0 -1 42 -1634170909 1048505979 1055862589 -477503959
            -826859921 -591906 -1217712377 -672930609</internalNodes>
          <leafValues>
            -2.7523282170295715e-01 4.4853624701499939e-01</leafValues></_>
        <_>
          <internalNodes>
            0 -1 85 1055399769 -1079791636 -1073763140 -98267147
            1560100007 1602215161 802512533 -1291860387</internalNodes>
          <leafValues>
            -3.1717717647552490e-01 3.7913420796394348e-01</leafValues></_>
        <_>
          <internalNodes>
            0 -1 172 436010352 -1082724596 805121793 1160240887
            -1216467776 2146701055 -268885906 936058333</internalNodes>
          <leafValues>
            -3.0566167831420898e-01 3.9074772596359253e-01</leafValues></_>
        <_>
          <internalNodes>
            0 -1 47 -1068830175 -2024771563 83988484 -945450992
            -2113472480 1476438528 806031946 895552663</internalNodes>
          <leafValues>
            -3.3997118473052979e-01 3.3244791626930237e-01</leafValues></_>
        <_>
          <internalNodes>
            0 -1 45 -1178931028 2103738156 -9437203 -164647172 511520424
            -856162617 1340749019 -1182821279</internalNodes>
          <leafValues>
            -2.4763977527618408e-01 4.5704826712608337e-01</leafValues></_>
        <_>
          <internalNodes>
            0 -1 113 -1648809013 -147112389 1728047673 -1363939789
            -411975955 2067249725 259251990 -142238534</internalNodes>
          <leafValues>
            -2.8002098202705383e-01 4.2478603124618530e-01</leafValues></_>
        <_>
          <internalNodes>
            0 -1 180 -43847544 2080071468 2063350434 855523254
            -1346761178 268205919 1047659686 195804492</internalNodes>
          <leafValues>
            -3.1843304634094238e-01 3.5386475920677185e-01</leafValues></_>
        <_>
          <internalNodes>
            0 -1 101 -1844921081 1636942296 16797832 -1384066895
            -1996409556 1644298881 541125737 637485795</internalNodes>
          <leafValues>
            -3.5462620854377747e-01 3.2529005408287048e-01</leafValues></_>
        <_>
          <internalNodes>
            0 -1 236 705452917 1639041032 -1072692799 -745832439
            -972480506 -1845485440 -2104997344 -607502336</internalNodes>
          <leafValues>
            -5.1977729797363281e-01 2.1671567857265472e-01</leafValues></_>
        <_>
          <internalNodes>
            0 -1 126 -1108410893 -205799469 -402657605 -1254824413
            -1275130749 -1237430437 -1921545009 -2030211096</internalNodes>
          <leafValues>
            -2.0997677743434906e-01 5.6958895921707153e-01</leafValues></_></weakClassifiers></_>
    <!-- stage 16 -->
    <_>
      <maxWeakCount>17</maxWeakCount>
      <stageThreshold>-6.6368591785430908e-01</stageThreshold>
      <weakClassifiers>
        <_>
          <internalNodes>
            0 -1 168 916766417 -65539 -16814158 -538030587 -76155016
            -168779780 -47040597 975176204</internalNodes>
          <leafValues>
            -2.0676203072071075e-01 5.1949799060821533e-01</leafValues></_>
        <_>
          <internalNodes>
            0 -1 52 -1654387492 -76021764 1073740669 -1082261523
            1020669054 268298102 -1241745478 -1440743683</internalNodes>
          <leafValues>
            -2.1731315553188324e-01 4.5790454745292664e-01</leafValues></_>
        <_>
          <internalNodes>
            0 -1 102 -46097615 -1903960000 18465626 1600495737
            1637466018 -896474965 -651007566 1140162813</internalNodes>
          <leafValues>
            -3.0679649114608765e-01 3.3420801162719727e-01</leafValues></_>
        <_>
          <internalNodes>
            0 -1 201 -1188384003 1915149882 -1342283616 -14029765
            -1955265003 2012380915 390044735 1677402058</internalNodes>
          <leafValues>
            -2.6637303829193115e-01 3.6252298951148987e-01</leafValues></_>
        <_>
          <internalNodes>
            0 -1 151 -1239892336 -454381649 -1493242194 -810897878
            -1423657221 1072087036 1609929247 -302052249</internalNodes>
          <leafValues>
            -2.8514489531517029e-01 3.6195278167724609e-01</leafValues></_>
        <_>
          <internalNodes>
            0 -1 43 -1108460326 -1653838227 1978161765 -412289469
            -1486557199 -1091207338 207802619 -611459667</internalNodes>
          <leafValues>
            -2.0736713707447052e-01 5.0154471397399902e-01</leafValues></_>
        <_>
          <internalNodes>
            0 -1 31 -1778325199 -1873350647 -2147483181 1342492872
            -1073475520 2038534273 1342704406 -140230123</internalNodes>
          <leafValues>
            -4.2824685573577881e-01 2.6779314875602722e-01</leafValues></_>
        <_>
          <internalNodes>
            0 -1 234 -322157566 2107387817 1795108295 944635766
            -159395930 -1497907202 -197718905 -334032903</internalNodes>
          <leafValues>
            -2.8621959686279297e-01 3.9436599612236023e-01</leafValues></_>
        <_>
          <internalNodes>
            0 -1 2 50629021 27615256 -981463024 -879442663 2494879
            1888059410 -1433925622 1087742021</internalNodes>
          <leafValues>
            -3.7998843193054199e-01 2.9157182574272156e-01</leafValues></_>
        <_>
          <internalNodes>
            0 -1 28 -15488321 -1238696193 -537153628 -21053663 -42911489
            1979121238 -1251560209 -726145522</internalNodes>
          <leafValues>
            -2.1223507821559906e-01 4.9152931571006775e-01</leafValues></_>
        <_>
          <internalNodes>
            0 -1 134 1719672656 -1576008239 487325704 -1036255214
            -264228395 -1870528499 -637140109 806355040</internalNodes>
          <leafValues>
            -6.6987752914428711e-01 1.6733044385910034e-01</leafValues></_>
        <_>
          <internalNodes>
            0 -1 175 -1083125097 -63299672 984149567 254639661
            2134228657 -1363249188 1459292113 2058067116</internalNodes>
          <leafValues>
            -2.7082186937332153e-01 4.0458834171295166e-01</leafValues></_>
        <_>
          <internalNodes>
            0 -1 109 -2061600872 1482170384 16793987 -25008639
            1921942249 1476952065 25833634 323355404</internalNodes>
          <leafValues>
            -4.3919539451599121e-01 2.4105437099933624e-01</leafValues></_>
        <_>
          <internalNodes>
            0 -1 46 940052938 -2067627962 352322796 1259077773
            -1333778119 521142282 -1995513662 59707819</internalNodes>
          <leafValues>
            -4.1106832027435303e-01 2.5794166326522827e-01</leafValues></_>
        <_>
          <internalNodes>
            0 -1 66 967617293 -1091960994 -1359139205 -1088377191
            -151077124 738195156 -973293590 770676694</internalNodes>
          <leafValues>
            -2.3852908611297607e-01 4.2853617668151855e-01</leafValues></_>
        <_>
          <internalNodes>
            0 -1 176 -9791101 -123295884 -337199448 -201695573
            -1073807636 -1267204276 -403319574 -97575559</internalNodes>
          <leafValues>
            -2.1210888028144836e-01 4.9660274386405945e-01</leafValues></_>
        <_>
          <internalNodes>
            0 -1 208 847565204 1376903681 -2126505714 -2088763302
            16851271 98304 537039024 -421260479</internalNodes>
          <leafValues>
            -4.7462838888168335e-01 2.2789591550827026e-01</leafValues></_></weakClassifiers></_>
    <!-- stage 17 -->
    <_>
      <maxWeakCount>14</maxWeakCount>
      <stageThreshold>-6.3453906774520874e-01</stageThreshold>
      <weakClassifiers>
        <_>
          <internalNodes>
            0 -1 16 1064058045 1060601727 -269271110 221347817 -614764
            1595506684 -354222358 915570484</internalNodes>
          <leafValues>
            -2.0000000298023224e-01 5.4766356945037842e-01</leafValues></_>
        <_>
          <internalNodes>
            0 -1 54 -1879044088 -183466987 68260029 -822083304 545261568
            1820328074 -1735915476 -426213247</internalNodes>
          <leafValues>
            -3.9132723212242126e-01 3.0183264613151550e-01</leafValues></_>
        <_>
          <internalNodes>
            0 -1 36 -1952617639 69109532 -2125379042 -1906998228
            -523620652 -1081732996 -1467029434 34794317</internalNodes>
          <leafValues>
            -4.3816179037094116e-01 2.3430614173412323e-01</leafValues></_>
        <_>
          <internalNodes>
            0 -1 1 -963075187 -791494134 1082261513 -1064384497
            -406805992 -1056849632 -1845403000 1451560083</internalNodes>
          <leafValues>
            -3.6879223585128784e-01 2.9501906037330627e-01</leafValues></_>
        <_>
          <internalNodes>
            0 -1 185 110470038 1360187487 25461120 -1592078063
            -775874304 2013397018 -569277527 1904990752</internalNodes>
          <leafValues>
            -3.3831796050071716e-01 3.2266438007354736e-01</leafValues></_>
        <_>
          <internalNodes>
            0 -1 107 -401280276 -1907227263 17039632 478732936
            1091142573 1384219008 748251310 -443753972</internalNodes>
          <leafValues>
            -3.6692357063293457e-01 2.7464547753334045e-01</leafValues></_>
        <_>
          <internalNodes>
            0 -1 103 -2091907319 42150260 293897287 -199081627
            1480601011 301998978 1124082368 117475661</internalNodes>
          <leafValues>
            -4.3534743785858154e-01 2.9100939631462097e-01</leafValues></_>
        <_>
          <internalNodes>
            0 -1 216 -751505388 1624408389 16777472 -1995300606
            -230678080 -796721147 -503087071 1944684546</internalNodes>
          <leafValues>
            -3.6790609359741211e-01 2.7135092020034790e-01</leafValues></_>
        <_>
          <internalNodes>
            0 -1 162 -263969282 1539121145 1608855471 -809980180
            2004803306 1442185206 -1776646150 2144955879</internalNodes>
          <leafValues>
            -2.5663399696350098e-01 4.0473634004592896e-01</leafValues></_>
        <_>
          <internalNodes>
            0 -1 14 67503060 77174807 16848270 -1458909032 1753236036
            715202691 -1469814450 1084539648</internalNodes>
          <leafValues>
            -5.8433520793914795e-01 1.9405020773410797e-01</leafValues></_>
        <_>
          <internalNodes>
            0 -1 178 -1202716379 1149345797 -779548664 -1270734493
            -779467107 17859234 -519651280 -796762046</internalNodes>
          <leafValues>
            -4.6795436739921570e-01 2.0764344930648804e-01</leafValues></_>
        <_>
          <internalNodes>
            0 -1 91 -989850108 1146094340 -1868480116 -1893990142
            1881387050 813697065 -113110740 1477644424</internalNodes>
          <leafValues>
            -4.2116099596023560e-01 2.5972980260848999e-01</leafValues></_>
        <_>
          <internalNodes>
            0 -1 160 -1130193207 2116746006 -37068 -1146021334
            -688228132 1706095806 -432066930 -203112859</internalNodes>
          <leafValues>
            -2.8454372286796570e-01 4.0369135141372681e-01</leafValues></_>
        <_>
          <internalNodes>
            0 -1 30 1247574392 1577156864 -1207925883 107260505
            1426065652 943325315 -204707566 -1605588491</internalNodes>
          <leafValues>
            -4.2641136050224304e-01 2.6740092039108276e-01</leafValues></_></weakClassifiers></_>
    <!-- stage 18 -->
    <_>
      <maxWeakCount>18</maxWeakCount>
      <stageThreshold>-5.7399040460586548e-01</stageThreshold>
      <weakClassifiers>
        <_>
          <internalNodes>
            0 -1 57 -39045287 -1961414786 -273072453 756096752 -2113722
            1048207196 -285395794 596861892</internalNodes>
          <leafValues>
            -1.2460064142942429e-01 5.4196989536285400e-01</leafValues></_>
        <_>
          <internalNodes>
            0 -1 207 -774616207 891162773 -2143223527 151344070 8429648
            940638208 -1206146888 -678557656</internalNodes>
          <leafValues>
            -2.8698173165321350e-01 3.3547693490982056e-01</leafValues></_>
        <_>
          <internalNodes>
            0 -1 133 -469913767 -1080345923 -1476464706 1337031496
            2113169406 2113240935 2062741399 -422576371</internalNodes>
          <leafValues>
            -2.2214110195636749e-01 4.2511302232742310e-01</leafValues></_>
        <_>
          <internalNodes>
            0 -1 222 -86451972 -110057552 1459525106 -785288716
            -1762599800 2109963868 -189554517 -207385633</internalNodes>
          <leafValues>
            -1.5833805501461029e-01 5.7027876377105713e-01</leafValues></_>
        <_>
          <internalNodes>
            0 -1 53 -1079206755 2008809405 -82756 -536936851 1425823214
            754450431 -319514645 -1024520867</internalNodes>
          <leafValues>
            -2.5128799676895142e-01 3.7244287133216858e-01</leafValues></_>
        <_>
          <internalNodes>
            0 -1 122 -37958437 -671830721 -360788357 -1213239950
            -1086849581 -407225034 -843553026 330921263</internalNodes>
          <leafValues>
            -2.3315484821796417e-01 4.3934473395347595e-01</leafValues></_>
        <_>
          <internalNodes>
            0 -1 13 840491837 -1877262292 1073774888 -1768042389
            -381132012 -2126379000 -795727832 1091569813</internalNodes>
          <leafValues>
            -4.4664350152015686e-01 2.1404853463172913e-01</leafValues></_>
        <_>
          <internalNodes>
            0 -1 210 -20976239 -88309762 -1090535711 -1086840911
            2130570654 -1075396738 787793914 2003015470</internalNodes>
          <leafValues>
            -2.0301564037799835e-01 4.5777586102485657e-01</leafValues></_>
        <_>
          <internalNodes>
            0 -1 87 -188727252 72253449 -2146860696 -536817408
            -1475862440 1367640065 -1593302924 923941568</internalNodes>
          <leafValues>
            -5.8041954040527344e-01 1.7009125649929047e-01</leafValues></_>
        <_>
          <internalNodes>
            0 -1 209 -827136806 -12748818 -1141129695 -542032966
            -633676523 -327155732 -2038468787 -224709057</internalNodes>
          <leafValues>
            -2.3755279183387756e-01 4.0869736671447754e-01</leafValues></_>
        <_>
          <internalNodes>
            0 -1 76 2146499748 -601034755 -236523784 -1249022601
            -167993396 2113896311 -1493281109 668613953</internalNodes>
          <leafValues>
            -2.6406443119049072e-01 4.1082856059074402e-01</leafValues></_>
        <_>
          <internalNodes>
            0 -1 71 -1705639032 1712476183 1359022214 538579155
            -970971178 1361248460 675889190 2069047871</internalNodes>
          <leafValues>
            -4.4413569569587708e-01 2.4175266921520233e-01</leafValues></_>
        <_>
          <internalNodes>
            0 -1 204 1949291137 2141079114 -151537847 -38506580
            -1082959398 259358583 -458162693 -1556711524</internalNodes>
          <leafValues>
            -2.4261221289634705e-01 4.4078287482261658e-01</leafValues></_>
        <_>
          <internalNodes>
            0 -1 165 -1299674464 -572633236 -1361100806 -1385992600
            -1808335142 -547471370 -1170559750 1469778934</internalNodes>
          <leafValues>
            -2.7954748272895813e-01 3.7301370501518250e-01</leafValues></_>
        <_>
          <internalNodes>
            0 -1 161 -723011625 1023360739 -1342292166 1609596724
            1440533951 -1099473409 -1091260718 -1011923637</internalNodes>
          <leafValues>
            -2.1111391484737396e-01 5.1132136583328247e-01</leafValues></_>
        <_>
          <internalNodes>
            0 -1 78 -621876795 -1476857938 -84168992 1392066283 -2212664
            1870528403 -537821766 -9726159</internalNodes>
          <leafValues>
            -2.1004293859004974e-01 4.7105151414871216e-01</leafValues></_>
        <_>
          <internalNodes>
            0 -1 25 -2129088202 689070101 -1056886197 -935246897
            1344807430 468189332 1216371255 1649132275</internalNodes>
          <leafValues>
            -4.0000057220458984e-01 2.6407337188720703e-01</leafValues></_>
        <_>
          <internalNodes>
            0 -1 125 -956287456 1565667467 16810242 -998063583
            1101726642 1518940330 -1019049973 1910385156</internalNodes>
          <leafValues>
            -4.1167652606964111e-01 2.7183192968368530e-01</leafValues></_></weakClassifiers></_>
    <!-- stage 19 -->
    <_>
      <maxWeakCount>18</maxWeakCount>
      <stageThreshold>-6.5717059373855591e-01</stageThreshold>
      <weakClassifiers>
        <_>
          <internalNodes>
            0 -1 110 -1343539371 1866358399 -50593864 -764875221
            2086888586 -721382 -1132318732 1357203650</internalNodes>
          <leafValues>
            -7.2407044470310211e-02 5.4297268390655518e-01</leafValues></_>
        <_>
          <internalNodes>
            0 -1 116 -109908547 -306222343 2147430049 -885293267
            2130582430 1306525436 2012622495 1466420942</internalNodes>
          <leafValues>
            -1.8695934116840363e-01 4.6675240993499756e-01</leafValues></_>
        <_>
          <internalNodes>
            0 -1 7 1344236237 1367951754 1075921234 1947943116
            1208566364 -1442217543 -507076431 -1961813948</internalNodes>
          <leafValues>
            -3.4395608305931091e-01 2.6987671852111816e-01</leafValues></_>
        <_>
          <internalNodes>
            0 -1 202 -713768208 -1858560502 -1074077791 -46674245
            -1896563662 939063212 -554672701 871314911</internalNodes>
          <leafValues>
            -2.7369523048400879e-01 3.3647748827934265e-01</leafValues></_>
        <_>
          <internalNodes>
            0 -1 171 -1712942246 17007104 -1987837507 93806611
            -1006489172 1300267009 -1065147438 1743448075</internalNodes>
          <leafValues>
            -3.0639892816543579e-01 3.2577994465827942e-01</leafValues></_>
        <_>
          <internalNodes>
            0 -1 73 -146651559 2019655682 169328770 471105733 1519616563
            1795162143 1497893387 30607554</internalNodes>
          <leafValues>
            -3.6722210049629211e-01 2.6449573040008545e-01</leafValues></_>
        <_>
          <internalNodes>
            0 -1 119 2087457500 -303144971 -142620094 -1585728327
            -1766289734 -1745395874 -2005543557 -1556699779</internalNodes>
          <leafValues>
            -2.8757551312446594e-01 3.3529314398765564e-01</leafValues></_>
        <_>
          <internalNodes>
            0 -1 64 -356584563 -113378228 -1627930629 -1363546702
            1610078179 617938782 -939760150 -154687837</internalNodes>
          <leafValues>
            -1.8666811287403107e-01 4.9872037768363953e-01</leafValues></_>
        <_>
          <internalNodes>
            0 -1 198 -39133365 -390373762 1056907188 -310818270
            -1635000407 2013200246 83012847 -86115953</internalNodes>
          <leafValues>
            -1.5800902247428894e-01 5.8169937133789062e-01</leafValues></_>
        <_>
          <internalNodes>
            0 -1 139 537433492 -1962405029 -2096053816 101040141
            105120391 1661470866 1614826050 -968199653</internalNodes>
          <leafValues>
            -3.4922492504119873e-01 2.6975810527801514e-01</leafValues></_>
        <_>
          <internalNodes>
            0 -1 166 -294097969 -1075871748 2130636602 -743198737
            1962725175 2139029487 -1476593726 -134341225</internalNodes>
          <leafValues>
            -2.5674629211425781e-01 3.5994863510131836e-01</leafValues></_>
        <_>
          <internalNodes>
            0 -1 62 818492240 -384532335 269571246 -1025978158
            -926790065 -922746746 -1341526894 64180356</internalNodes>
          <leafValues>
            -4.5227119326591492e-01 2.0966416597366333e-01</leafValues></_>
        <_>
          <internalNodes>
            0 -1 196 1874374073 -1112691077 -1363476824 -1086708957
            -277053522 -1367408699 -353077 -142355093</internalNodes>
          <leafValues>
            -1.8590211868286133e-01 5.1496350765228271e-01</leafValues></_>
        <_>
          <internalNodes>
            0 -1 244 2125113356 430931877 -1358987534 -638107846
            2097081501 -1753874481 -1107980334 -1257276121</internalNodes>
          <leafValues>
            -2.2682583332061768e-01 4.2171660065650940e-01</leafValues></_>
        <_>
          <internalNodes>
            0 -1 44 -17932545 -324147340 1170896371 796901091 -509172533
            -532514 -1351447585 -813746769</internalNodes>
          <leafValues>
            -1.4672780036926270e-01 6.3100200891494751e-01</leafValues></_>
        <_>
          <internalNodes>
            0 -1 137 -601621346 -626042598 -1409552662 801025795
            -1704287194 1249899935 -1075874158 -739291442</internalNodes>
          <leafValues>
            -2.4391491711139679e-01 4.0778273344039917e-01</leafValues></_>
        <_>
          <internalNodes>
            0 -1 124 4380804 -1270308858 285294922 307925006 1384167719
            949059593 1099039235 1116095232</internalNodes>
          <leafValues>
            -5.2703660726547241e-01 2.0984660089015961e-01</leafValues></_>
        <_>
          <internalNodes>
            0 -1 23 -2083243792 303112195 1073742169 -1824349933
            335741368 855671490 548409426 887134272</internalNodes>
          <leafValues>
            -6.0683649778366089e-01 1.6463680565357208e-01</leafValues></_></weakClassifiers></_></stages>
  <features>
    <_>
      <rect>
        0 0 2 5</rect></_>
    <_>
      <rect>
        0 0 4 8</rect></_>
    <_>
      <rect>
        0 0 5 3</rect></_>
    <_>
      <rect>
        0 0 5 4</rect></_>
    <_>
      <rect>
        0 0 6 3</rect></_>
    <_>
      <rect>
        0 0 6 8</rect></_>
    <_>
      <rect>
        0 0 7 5</rect></_>
    <_>
      <rect>
        0 0 7 7</rect></_>
    <_>
      <rect>
        0 0 8 3</rect></_>
    <_>
      <rect>
        0 0 8 6</rect></_>
    <_>
      <rect>
        0 0 8 8</rect></_>
    <_>
      <rect>
        0 1 1 3</rect></_>
    <_>
      <rect>
        0 1 4 3</rect></_>
    <_>
      <rect>
        0 1 4 7</rect></_>
    <_>
      <rect>
        0 1 5 3</rect></_>
    <_>
      <rect>
        0 1 8 6</rect></_>
    <_>
      <rect>
        0 2 8 5</rect></_>
    <_>
      <rect>
        0 3 4 4</rect></_>
    <_>
      <rect>
        0 5 3 3</rect></_>
    <_>
      <rect>
        0 5 4 3</rect></_>
    <_>
      <rect>
        0 5 6 6</rect></_>
    <_>
      <rect>
        0 5 7 4</rect></_>
    <_>
      <rect>
        0 5 8 2</rect></_>
    <_>
      <rect>
        0 6 3 4</rect></_>
    <_>
      <rect>
        0 6 4 4</rect></_>
    <_>
      <rect>
        0 6 7 3</rect></_>
    <_>
      <rect>
        0 6 8 6</rect></_>
    <_>
      <rect>
        0 7 1 3</rect></_>
    <_>
      <rect>
        0 7 2 2</rect></_>
    <_>
      <rect>
        0 7 4 4</rect></_>
    <_>
      <rect>
        0 7 8 4</rect></_>
    <_>
      <rect>
        0 8 4 2</rect></_>
    <_>
      <rect>
        0 8 5 4</rect></_>
    <_>
      <rect>
        0 8 8 5</rect></_>
    <_>
      <rect>
        0 9 7 4</rect></_>
    <_>
      <rect>
        0 9 8 5</rect></_>
    <_>
      <rect>
        0 11 7 4</rect></_>
    <_>
      <rect>
        0 12 5 4</rect></_>
    <_>
      <rect>
        0 12 6 3</rect></_>
    <_>
      <rect>
        0 12 8 4</rect></_>
    <_>
      <rect>
        0 13 4 3</rect></_>
    <_>
      <rect>
        0 14 1 1</rect></_>
    <_>
      <rect>
        0 14 5 3</rect></_>
    <_>
      <rect>
        0 15 7 2</rect></_>
    <_>
      <rect>
        0 15 8 2</rect></_>
    <_>
      <rect>
        0 16 4 2</rect></_>
    <_>
      <rect>
        0 16 5 2</rect></_>
    <_>
      <rect>
        0 18 3 2</rect></_>
    <_>
      <rect>
        0 18 4 2</rect></_>
    <_>
      <rect>
        0 19 1 1</rect></_>
    <_>
      <rect>
        0 21 3 1</rect></_>
    <_>
      <rect>
        1 0 1 1</rect></_>
    <_>
      <rect>
        1 0 3 1</rect></_>
    <_>
      <rect>
        1 0 5 2</rect></_>
    <_>
      <rect>
        1 0 6 1</rect></_>
    <_>
      <rect>
        1 0 7 8</rect></_>
    <_>
      <rect>
        1 2 4 4</rect></_>
    <_>
      <rect>
        1 3 7 5</rect></_>
    <_>
      <rect>
        1 5 2 2</rect></_>
    <_>
      <rect>
        1 5 3 6</rect></_>
    <_>
      <rect>
        1 6 2 1</rect></_>
    <_>
      <rect>
        1 6 5 5</rect></_>
    <_>
      <rect>
        1 6 6 6</rect></_>
    <_>
      <rect>
        1 6 7 6</rect></_>
    <_>
      <rect>
        1 7 2 2</rect></_>
    <_>
      <rect>
        1 7 4 5</rect></_>
    <_>
      <rect>
        1 7 5 3</rect></_>
    <_>
      <rect>
        1 14 1 1</rect></_>
    <_>
      <rect>
        1 14 5 3</rect></_>
    <_>
      <rect>
        1 15 1 1</rect></_>
    <_>
      <rect>
        1 15 6 3</rect></_>
    <_>
      <rect>
        1 15 7 3</rect></_>
    <_>
      <rect>
        1 16 2 2</rect></_>
    <_>
      <rect>
        1 17 5 2</rect></_>
    <_>
      <rect>
        1 18 1 1</rect></_>
    <_>
      <rect>
        1 18 3 2</rect></_>
    <_>
      <rect>
        1 20 3 1</rect></_>
    <_>
      <rect>
        1 21 1 1</rect></_>
    <_>
      <rect>
        1 21 2 1</rect></_>
    <_>
      <rect>
        2 0 6 2</rect></_>
    <_>
      <rect>
        2 0 6 3</rect></_>
    <_>
      <rect>
        2 0 7 2</rect></_>
    <_>
      <rect>
        2 0 7 4</rect></_>
    <_>
      <rect>
        2 0 7 7</rect></_>
    <_>
      <rect>
        2 2 7 3</rect></_>
    <_>
      <rect>
        2 6 7 5</rect></_>
    <_>
      <rect>
        2 15 6 3</rect></_>
    <_>
      <rect>
        2 16 3 2</rect></_>
    <_>
      <rect>
        2 17 4 1</rect></_>
    <_>
      <rect>
        2 18 1 1</rect></_>
    <_>
      <rect>
        2 18 2 2</rect></_>
    <_>
      <rect>
        2 18 5 2</rect></_>
    <_>
      <rect>
        3 0 1 1</rect></_>
    <_>
      <rect>
        3 0 2 1</rect></_>
    <_>
      <rect>
        3 0 3 2</rect></_>
    <_>
      <rect>
        3 0 7 2</rect></_>
    <_>
      <rect>
        3 0 7 6</rect></_>
    <_>
      <rect>
        3 0 7 7</rect></_>
    <_>
      <rect>
        3 1 7 7</rect></_>
    <_>
      <rect>
        3 2 7 7</rect></_>
    <_>
      <rect>
        3 3 7 4</rect></_>
    <_>
      <rect>
        3 7 6 3</rect></_>
    <_>
      <rect>
        3 7 6 5</rect></_>
    <_>
      <rect>
        3 7 7 5</rect></_>
    <_>
      <rect>
        3 8 3 4</rect></_>
    <_>
      <rect>
        3 9 4 3</rect></_>
    <_>
      <rect>
        3 9 7 5</rect></_>
    <_>
      <rect>
        3 10 3 4</rect></_>
    <_>
      <rect>
        3 12 3 2</rect></_>
    <_>
      <rect>
        3 12 4 3</rect></_>
    <_>
      <rect>
        3 12 4 4</rect></_>
    <_>
      <rect>
        3 13 1 1</rect></_>
    <_>
      <rect>
        3 13 7 3</rect></_>
    <_>
      <rect>
        3 15 7 3</rect></_>
    <_>
      <rect>
        3 16 7 2</rect></_>
    <_>
      <rect>
        4 1 1 1</rect></_>
    <_>
      <rect>
        4 4 4 3</rect></_>
    <_>
      <rect>
        4 4 5 5</rect></_>
    <_>
      <rect>
        4 8 6 3</rect></_>
    <_>
      <rect>
        4 14 5 2</rect></_>
    <_>
      <rect>
        4 15 5 2</rect></_>
    <_>
      <rect>
        4 15 6 2</rect></_>
    <_>
      <rect>
        4 17 6 2</rect></_>
    <_>
      <rect>
        5 3 2 3</rect></_>
    <_>
      <rect>
        5 3 4 2</rect></_>
    <_>
      <rect>
        5 11 4 3</rect></_>
    <_>
      <rect>
        5 13 6 3</rect></_>
    <_>
      <rect>
        5 15 5 3</rect></_>
    <_>
      <rect>
        5 16 1 2</rect></_>
    <_>
      <rect>
        5 18 5 2</rect></_>
    <_>
      <rect>
        5 21 1 1</rect></_>
    <_>
      <rect>
        6 0 1 1</rect></_>
    <_>
      <rect>
        6 0 6 4</rect></_>
    <_>
      <rect>
        6 3 6 3</rect></_>
    <_>
      <rect>
        6 5 6 6</rect></_>
    <_>
      <rect>
        6 7 6 3</rect></_>
    <_>
      <rect>
        6 8 5 5</rect></_>
    <_>
      <rect>
        6 9 5 3</rect></_>
    <_>
      <rect>
        6 11 5 2</rect></_>
    <_>
      <rect>
        6 12 6 3</rect></_>
    <_>
      <rect>
        6 15 5 3</rect></_>
    <_>
      <rect>
        6 15 6 2</rect></_>
    <_>
      <rect>
        6 16 3 2</rect></_>
    <_>
      <rect>
        6 18 6 2</rect></_>
    <_>
      <rect>
        7 0 3 3</rect></_>
    <_>
      <rect>
        7 2 4 4</rect></_>
    <_>
      <rect>
        7 6 1 1</rect></_>
    <_>
      <rect>
        7 7 4 4</rect></_>
    <_>
      <rect>
        7 7 5 5</rect></_>
    <_>
      <rect>
        7 8 5 4</rect></_>
    <_>
      <rect>
        7 9 1 1</rect></_>
    <_>
      <rect>
        7 10 4 2</rect></_>
    <_>
      <rect>
        7 15 4 2</rect></_>
    <_>
      <rect>
        7 15 4 3</rect></_>
    <_>
      <rect>
        7 19 1 1</rect></_>
    <_>
      <rect>
        7 20 3 1</rect></_>
    <_>
      <rect>
        7 21 1 1</rect></_>
    <_>
      <rect>
        8 0 2 1</rect></_>
    <_>
      <rect>
        8 2 1 1</rect></_>
    <_>
      <rect>
        8 7 1 1</rect></_>
    <_>
      <rect>
        8 12 5 4</rect></_>
    <_>
      <rect>
        8 13 3 3</rect></_>
    <_>
      <rect>
        8 16 3 2</rect></_>
    <_>
      <rect>
        8 17 1 2</rect></_>
    <_>
      <rect>
        8 17 4 2</rect></_>
    <_>
      <rect>
        8 18 3 2</rect></_>
    <_>
      <rect>
        9 0 2 1</rect></_>
    <_>
      <rect>
        9 1 5 5</rect></_>
    <_>
      <rect>
        9 1 5 7</rect></_>
    <_>
      <rect>
        9 2 5 6</rect></_>
    <_>
      <rect>
        9 3 5 4</rect></_>
    <_>
      <rect>
        9 4 4 3</rect></_>
    <_>
      <rect>
        9 13 4 2</rect></_>
    <_>
      <rect>
        9 14 5 3</rect></_>
    <_>
      <rect>
        9 15 5 2</rect></_>
    <_>
      <rect>
        9 17 4 2</rect></_>
    <_>
      <rect>
        9 20 3 1</rect></_>
    <_>
      <rect>
        10 1 4 3</rect></_>
    <_>
      <rect>
        10 3 2 2</rect></_>
    <_>
      <rect>
        10 11 2 2</rect></_>
    <_>
      <rect>
        10 17 2 2</rect></_>
    <_>
      <rect>
        10 17 3 2</rect></_>
    <_>
      <rect>
        11 0 4 2</rect></_>
    <_>
      <rect>
        11 2 1 1</rect></_>
    <_>
      <rect>
        11 7 1 1</rect></_>
    <_>
      <rect>
        11 7 4 3</rect></_>
    <_>
      <rect>
        11 7 4 5</rect></_>
    <_>
      <rect>
        11 11 1 1</rect></_>
    <_>
      <rect>
        11 11 4 2</rect></_>
    <_>
      <rect>
        11 12 4 3</rect></_>
    <_>
      <rect>
        11 13 4 3</rect></_>
    <_>
      <rect>
        11 15 4 3</rect></_>
    <_>
      <rect>
        12 0 3 1</rect></_>
    <_>
      <rect>
        12 0 4 6</rect></_>
    <_>
      <rect>
        12 1 4 6</rect></_>
    <_>
      <rect>
        12 1 4 7</rect></_>
    <_>
      <rect>
        12 5 4 3</rect></_>
    <_>
      <rect>
        12 5 4 5</rect></_>
    <_>
      <rect>
        12 8 4 4</rect></_>
    <_>
      <rect>
        12 9 4 4</rect></_>
    <_>
      <rect>
        12 9 4 5</rect></_>
    <_>
      <rect>
        12 14 4 3</rect></_>
    <_>
      <rect>
        12 15 4 2</rect></_>
    <_>
      <rect>
        12 15 4 3</rect></_>
    <_>
      <rect>
        12 18 2 1</rect></_>
    <_>
      <rect>
        13 0 1 1</rect></_>
    <_>
      <rect>
        13 0 1 2</rect></_>
    <_>
      <rect>
        13 0 3 1</rect></_>
    <_>
      <rect>
        13 1 3 3</rect></_>
    <_>
      <rect>
        13 9 3 3</rect></_>
    <_>
      <rect>
        14 2 3 4</rect></_>
    <_>
      <rect>
        14 3 1 1</rect></_>
    <_>
      <rect>
        14 18 1 1</rect></_>
    <_>
      <rect>
        14 20 1 1</rect></_>
    <_>
      <rect>
        15 0 1 1</rect></_>
    <_>
      <rect>
        15 0 3 2</rect></_>
    <_>
      <rect>
        15 3 3 4</rect></_>
    <_>
      <rect>
        15 7 3 3</rect></_>
    <_>
      <rect>
        15 9 1 3</rect></_>
    <_>
      <rect>
        15 16 3 2</rect></_>
    <_>
      <rect>
        15 17 3 2</rect></_>
    <_>
      <rect>
        15 18 1 1</rect></_>
    <_>
      <rect>
        15 19 2 1</rect></_>
    <_>
      <rect>
        15 21 3 1</rect></_>
    <_>
      <rect>
        16 0 2 1</rect></_>
    <_>
      <rect>
        16 14 1 1</rect></_>
    <_>
      <rect>
        17 2 1 1</rect></_>
    <_>
      <rect>
        17 5 1 1</rect></_>
    <_>
      <rect>
        17 10 1 2</rect></_>
    <_>
      <rect>
        17 14 1 1</rect></_>
    <_>
      <rect>
        17 21 1 1</rect></_>
    <_>
      <rect>
        18 0 1 1</rect></_>
    <_>
      <rect>
        18 0 2 2</rect></_>
    <_>
      <rect>
        18 2 1 1</rect></_>
    <_>
      <rect>
        18 15 1 1</rect></_>
    <_>
      <rect>
        18 19 1 1</rect></_>
    <_>
      <rect>
        19 0 1 1</rect></_>
    <_>
      <rect>
        19 2 1 1</rect></_>
    <_>
      <rect>
        19 17 1 1</rect></_>
    <_>
      <rect>
        19 18 1 1</rect></_>
    <_>
      <rect>
        20 0 1 1</rect></_>
    <_>
      <rect>
        21 0 1 1</rect></_>
    <_>
      <rect>
        21 0 1 2</rect></_>
    <_>
      <rect>
        21 1 1 1</rect></_>
    <_>
      <rect>
        21 20 1 1</rect></_></features></cascade>
</opencv_storage>
