<?xml version="1.0"?>
<opencv_storage>
<cascade>
  <stageType>BOOST</stageType>
  <featureType>LBP</featureType>
  <height>24</height>
  <width>24</width>
  <stageParams>
    <boostType>GAB</boostType>
    <minHitRate>9.9500000476837158e-01</minHitRate>
    <maxFalseAlarm>5.0000000000000000e-01</maxFalseAlarm>
    <weightTrimRate>9.4999999999999996e-01</weightTrimRate>
    <maxDepth>1</maxDepth>
    <maxWeakCount>100</maxWeakCount></stageParams>
  <featureParams>
    <maxCatCount>256</maxCatCount>
    <featSize>1</featSize></featureParams>
  <stageNum>20</stageNum>
  <stages>
    <!-- stage 0 -->
    <_>
      <maxWeakCount>6</maxWeakCount>
      <stageThreshold>-5.6989347934722900e-01</stageThreshold>
      <weakClassifiers>
        <_>
          <internalNodes>
            0 -1 85 -300095302 1214966562 2059397792 1671488240
            -151352180 192902972 1580526218 2246665</internalNodes>
          <leafValues>
            -4.9766355752944946e-01 6.6511195898056030e-01</leafValues></_>
        <_>
          <internalNodes>
            0 -1 237 -1796453248 -1070961618 -84013568 -727425118
            -2022419088 1307082588 -1923729772 -1308430736</internalNodes>
          <leafValues>
            -4.6788707375526428e-01 5.8993226289749146e-01</leafValues></_>
        <_>
          <internalNodes>
            0 -1 111 -643644200 -748414136 779530017 1362198328
            -88419698 -814457484 -965302069 -1018440609</internalNodes>
          <leafValues>
            -3.0652731657028198e-01 8.4246480464935303e-01</leafValues></_>
        <_>
          <internalNodes>
            0 -1 188 -1300217688 -1610612733 -2147434304 -800817024
            -1836957595 0 -1904049996 -2113765376</internalNodes>
          <leafValues>
            -4.6241593360900879e-01 5.3903019428253174e-01</leafValues></_>
        <_>
          <internalNodes>
            0 -1 6 -135600950 -153059724 -1208046912 -411567503
            1064457358 -143231150 -1246038912 -1605189554</internalNodes>
          <leafValues>
            -4.4650360941886902e-01 5.1344919204711914e-01</leafValues></_>
        <_>
          <internalNodes>
            0 -1 249 -27357422 -1395376844 1073639141 -755521693
            -1082732985 -1359511564 -562102581 -502283840</internalNodes>
          <leafValues>
            -3.1912258267402649e-01 6.5115112066268921e-01</leafValues></_></weakClassifiers></_>
    <!-- stage 1 -->
    <_>
      <maxWeakCount>7</maxWeakCount>
      <stageThreshold>-1.2307485342025757e+00</stageThreshold>
      <weakClassifiers>
        <_>
          <internalNodes>
            0 -1 191 -1460752894 -1473450131 -1501630860 1886317308
            2138989572 108983876 -185272592 -2143128384</internalNodes>
          <leafValues>
            -4.8571428656578064e-01 6.5185183286666870e-01</leafValues></_>
        <_>
          <internalNodes>
            0 -1 146 -2121858028 43647110 -2146316207 973603338 33751297
            -804782080 1504182786 -2138406392</internalNodes>
          <leafValues>
            -5.1957798004150391e-01 5.1554363965988159e-01</leafValues></_>
        <_>
          <internalNodes>
            0 -1 243 -1610086272 -2122317822 -1610578923 -1878982656
            -670793200 276832257 -2013028192 -1874673536</internalNodes>
          <leafValues>
            -4.8676142096519470e-01 5.1217889785766602e-01</leafValues></_>
        <_>
          <internalNodes>
            0 -1 196 -1877880662 -2147352576 1879048656 1880162304
            -2147481462 1073774592 545292446 -185540078</internalNodes>
          <leafValues>
            -4.9262791872024536e-01 4.7805684804916382e-01</leafValues></_>
        <_>
          <internalNodes>
            0 -1 104 -1810660970 -1605238784 469795224 -1869086712
            1074282561 -201326549 -1834843488 -1874853120</internalNodes>
          <leafValues>
            -5.5139815807342529e-01 4.3159687519073486e-01</leafValues></_>
        <_>
          <internalNodes>
            0 -1 242 -1878392808 -2147479550 -2147397375 302710786
            4333589 -2013265919 -1878482285 -1360355255</internalNodes>
          <leafValues>
            -4.6818763017654419e-01 5.0014096498489380e-01</leafValues></_>
        <_>
          <internalNodes>
            0 -1 62 2007031529 1957845922 -134230406 1744173816 -605046
            92233564 935253963 1177258122</internalNodes>
          <leafValues>
            -3.3237582445144653e-01 6.4472872018814087e-01</leafValues></_></weakClassifiers></_>
    <!-- stage 2 -->
    <_>
      <maxWeakCount>9</maxWeakCount>
      <stageThreshold>-9.0038686990737915e-01</stageThreshold>
      <weakClassifiers>
        <_>
          <internalNodes>
            0 -1 56 -2063726592 -1426292749 -1426129394 1894317756
            -688108219 -1024000001 -1535216466 -1936785476</internalNodes>
          <leafValues>
            -2.1967212855815887e-01 7.1235954761505127e-01</leafValues></_>
        <_>
          <internalNodes>
            0 -1 34 -1088243496 1928097508 1996074562 1366360016
            -269464837 -2039340448 1757596335 1089450427</internalNodes>
          <leafValues>
            -3.6423400044441223e-01 5.5691361427307129e-01</leafValues></_>
        <_>
          <internalNodes>
            0 -1 247 -2113798144 -2046820216 268435714 -1811906550
            -1870651006 177733760 -2139060080 -1609138016</internalNodes>
          <leafValues>
            -4.6890068054199219e-01 4.6149098873138428e-01</leafValues></_>
        <_>
          <internalNodes>
            0 -1 76 -1366356830 -2101706771 -293605834 1903721976
            -185248188 897023863 -855708460 -247288188</internalNodes>
          <leafValues>
            -4.0850964188575745e-01 4.7211915254592896e-01</leafValues></_>
        <_>
          <internalNodes>
            0 -1 192 -2129522520 538050768 1342197789 -661520376
            805339177 -796393470 -780107599 -1335844600</internalNodes>
          <leafValues>
            -5.3371900320053101e-01 3.3710598945617676e-01</leafValues></_>
        <_>
          <internalNodes>
            0 -1 138 -1342257506 -1058080518 -159453678 1030553124
            -536889445 -394264665 -17011825 1818881314</internalNodes>
          <leafValues>
            -3.9663606882095337e-01 4.8141151666641235e-01</leafValues></_>
        <_>
          <internalNodes>
            0 -1 137 -1995996992 1090519168 4180 -1006632936 -2146918400
            -1602158584 -1870495344 -444407104</internalNodes>
          <leafValues>
            -4.4239860773086548e-01 4.3670919537544250e-01</leafValues></_>
        <_>
          <internalNodes>
            0 -1 229 -1628559346 -2085786948 -1078051142 -1187444037
            -1208191562 -1384362116 -1132577313 -1146416674</internalNodes>
          <leafValues>
            -2.9200124740600586e-01 6.3480722904205322e-01</leafValues></_>
        <_>
          <internalNodes>
            0 -1 226 -1844520893 -1593638912 16793793 -738197488
            -2147331582 536871042 1484947675 -1962869931</internalNodes>
          <leafValues>
            -4.2749336361885071e-01 4.6700805425643921e-01</leafValues></_></weakClassifiers></_>
    <!-- stage 3 -->
    <_>
      <maxWeakCount>13</maxWeakCount>
      <stageThreshold>-8.3460098505020142e-01</stageThreshold>
      <weakClassifiers>
        <_>
          <internalNodes>
            0 -1 25 1916597162 1225439456 1929169122 1374809812
            -430570358 1130790775 1949559514 1210780683</internalNodes>
          <leafValues>
            -2.0738874375820160e-01 6.8933111429214478e-01</leafValues></_>
        <_>
          <internalNodes>
            0 -1 179 -47327208 -42352788 -1566659339 1366947952
            -1948473685 1870483444 1599794446 1114361615</internalNodes>
          <leafValues>
            -2.2612468898296356e-01 6.5033257007598877e-01</leafValues></_>
        <_>
          <internalNodes>
            0 -1 77 -838890281 -1494597640 -639762 -214171919 1879005254
            -680034433 1425300548 -491728</internalNodes>
          <leafValues>
            -3.4552282094955444e-01 4.2871829867362976e-01</leafValues></_>
        <_>
          <internalNodes>
            0 -1 195 -1878331216 -1609564158 1184144 -1608253238
            420511762 -527957504 -2096463226 -1004492752</internalNodes>
          <leafValues>
            -5.1245188713073730e-01 2.8307488560676575e-01</leafValues></_>
        <_>
          <internalNodes>
            0 -1 7 -14616862 -76619854 1073721190 1664442360 1592987295
            1316937086 -285285121 125566155</internalNodes>
          <leafValues>
            -3.1369954347610474e-01 5.2631622552871704e-01</leafValues></_>
        <_>
          <internalNodes>
            0 -1 241 -1551183712 1216479440 268566667 65665 -1073586128
            8331 -1207909656 -507465468</internalNodes>
          <leafValues>
            -4.3739247322082520e-01 3.1659236550331116e-01</leafValues></_>
        <_>
          <internalNodes>
            0 -1 123 269668655 687931408 102539 17891329 268435593
            2055864328 67595 731062811</internalNodes>
          <leafValues>
            -3.7333974242210388e-01 3.8235774636268616e-01</leafValues></_>
        <_>
          <internalNodes>
            0 -1 231 -1361171903 -815710220 -1074298958 -555192348
            -50350381 2013134709 -1774198795 -242551483</internalNodes>
          <leafValues>
            -3.5576307773590088e-01 4.1964292526245117e-01</leafValues></_>
        <_>
          <internalNodes>
            0 -1 0 -1004893694 -2105307136 285410322 -1533509622
            -1073631183 545292288 -1602190896 -531864928</internalNodes>
          <leafValues>
            -4.5687577128410339e-01 3.1469160318374634e-01</leafValues></_>
        <_>
          <internalNodes>
            0 -1 79 -533642146 1292960131 -1072656120 1376813060
            1879048213 -2139090806 1361780817 -113711072</internalNodes>
          <leafValues>
            -4.3507903814315796e-01 3.3890566229820251e-01</leafValues></_>
        <_>
          <internalNodes>
            0 -1 97 1072427164 2046361586 -83890437 -705564932
            2013205379 -1283571778 -1644856726 1228045435</internalNodes>
          <leafValues>
            -2.7729415893554688e-01 5.2446019649505615e-01</leafValues></_>
        <_>
          <internalNodes>
            0 -1 115 -1610362593 604094720 -2147483392 739115024
            -2147393480 -2147483392 302168706 -1414520687</internalNodes>
          <leafValues>
            -4.4592016935348511e-01 3.3257567882537842e-01</leafValues></_>
        <_>
          <internalNodes>
            0 -1 87 -1230773606 375832548 -17301541 896794618 1073638570
            -646022473 938929643 96128270</internalNodes>
          <leafValues>
            -3.0118763446807861e-01 4.6087148785591125e-01</leafValues></_></weakClassifiers></_>
    <!-- stage 4 -->
    <_>
      <maxWeakCount>12</maxWeakCount>
      <stageThreshold>-1.0347964763641357e+00</stageThreshold>
      <weakClassifiers>
        <_>
          <internalNodes>
            0 -1 9 455186642 -878178696 -1082196118 1509937149
            -562911635 1458601598 527579242 310113314</internalNodes>
          <leafValues>
            -1.4991481602191925e-01 6.4403069019317627e-01</leafValues></_>
        <_>
          <internalNodes>
            0 -1 167 -105983430 -72155336 -69276733 -710290784
            -545458006 2138918898 -1769617717 1783616859</internalNodes>
          <leafValues>
            -2.2506658732891083e-01 6.0876500606536865e-01</leafValues></_>
        <_>
          <internalNodes>
            0 -1 244 -1565655006 66944874 1056925302 -229081493
            -1250145006 1139703679 -1788422713 -152422932</internalNodes>
          <leafValues>
            -3.5219311714172363e-01 3.9604431390762329e-01</leafValues></_>
        <_>
          <internalNodes>
            0 -1 169 -22098910 -886300744 -201916557 1924011528
            637432922 75198431 -403548017 -678654900</internalNodes>
          <leafValues>
            -3.4722593426704407e-01 3.8099172711372375e-01</leafValues></_>
        <_>
          <internalNodes>
            0 -1 21 -206253146 -1108590828 -24445325 -498467140
            670356175 934704567 920925688 29343598</internalNodes>
          <leafValues>
            -3.0497005581855774e-01 4.2551597952842712e-01</leafValues></_>
        <_>
          <internalNodes>
            0 -1 121 -1568144893 -1924657022 -1862270848 -132382590
            -1073604555 -1065320440 37939880 -674987904</internalNodes>
          <leafValues>
            -4.0946111083030701e-01 3.1248894333839417e-01</leafValues></_>
        <_>
          <internalNodes>
            0 -1 190 -1681670004 -1564159296 82251 -418823936 -243199830
            17301632 687915293 75534532</internalNodes>
          <leafValues>
            -5.0837063789367676e-01 2.3789070546627045e-01</leafValues></_>
        <_>
          <internalNodes>
            0 -1 186 -17933138 1761501116 -1090584578 -1033895940
            -595732652 997097310 1165686770 -1548037004</internalNodes>
          <leafValues>
            -3.4124645590782166e-01 3.6725199222564697e-01</leafValues></_>
        <_>
          <internalNodes>
            0 -1 81 380286866 1927790260 -1275136050 1408203516
            2146100618 -881696841 -1208551987 112459358</internalNodes>
          <leafValues>
            -3.0297872424125671e-01 4.1594180464744568e-01</leafValues></_>
        <_>
          <internalNodes>
            0 -1 216 1359135147 688062483 16860169 659095553 -805306296
            168427523 134966058 448471075</internalNodes>
          <leafValues>
            -4.2093381285667419e-01 3.0514007806777954e-01</leafValues></_>
        <_>
          <internalNodes>
            0 -1 95 -581181781 -340197587 2063105574 -206372952
            -545387441 -1100579049 1148982479 -826552513</internalNodes>
          <leafValues>
            -2.3606175184249878e-01 5.3021800518035889e-01</leafValues></_>
        <_>
          <internalNodes>
            0 -1 66 -246820634 277984296 -2130706304 -1072230128
            151538347 1761673353 2055208967 188237129</internalNodes>
          <leafValues>
            -4.5929732918739319e-01 2.9536974430084229e-01</leafValues></_></weakClassifiers></_>
    <!-- stage 5 -->
    <_>
      <maxWeakCount>13</maxWeakCount>
      <stageThreshold>-6.3651210069656372e-01</stageThreshold>
      <weakClassifiers>
        <_>
          <internalNodes>
            0 -1 110 -139799526 -614281720 1047986021 -2093941136
            1068012762 1526362748 221445370 1808498939</internalNodes>
          <leafValues>
            -4.7034766525030136e-02 6.9732552766799927e-01</leafValues></_>
        <_>
          <internalNodes>
            0 -1 159 -1167428042 11353925 -83886347 -189890825
            -546341548 -562167818 -1361120140 -538257980</internalNodes>
          <leafValues>
            -3.1827136874198914e-01 4.2507576942443848e-01</leafValues></_>
        <_>
          <internalNodes>
            0 -1 201 -2145775472 -2045738494 -1862156198 -997670904
            -1996324351 -2144862207 -643650284 -2104983548</internalNodes>
          <leafValues>
            -5.2198988199234009e-01 2.4390074610710144e-01</leafValues></_>
        <_>
          <internalNodes>
            0 -1 39 -1092362612 -5243086 1056108101 -613318671 -9279750
            1283259711 1332932335 -314429209</internalNodes>
          <leafValues>
            -2.8917035460472107e-01 4.3588668107986450e-01</leafValues></_>
        <_>
          <internalNodes>
            0 -1 204 -542117956 -270803080 2130599662 -245237260
            736077042 1591672795 2012470827 -1003756069</internalNodes>
          <leafValues>
            -2.7088019251823425e-01 4.8441374301910400e-01</leafValues></_>
        <_>
          <internalNodes>
            0 -1 56 -2134289896 -1605808120 -2147397622 -402386944
            -243199464 -1610530807 -1861711118 -997940572</internalNodes>
          <leafValues>
            -5.1520860195159912e-01 2.5107681751251221e-01</leafValues></_>
        <_>
          <internalNodes>
            0 -1 103 -984578820 -2113388412 268517633 688669712
            -2004724521 729940504 536972202 -157251301</internalNodes>
          <leafValues>
            -3.6776512861251831e-01 3.3416530489921570e-01</leafValues></_>
        <_>
          <internalNodes>
            0 -1 53 -292951550 -1992987909 922730445 -38048131
            1291746351 1971257343 -956403741 -41885732</internalNodes>
          <leafValues>
            -3.2746827602386475e-01 3.8928934931755066e-01</leafValues></_>
        <_>
          <internalNodes>
            0 -1 250 -370519546 542308860 2105470691 -717520898
            -1753295010 83885943 -176886483 -264511665</internalNodes>
          <leafValues>
            -2.6249861717224121e-01 4.6978199481964111e-01</leafValues></_>
        <_>
          <internalNodes>
            0 -1 58 -1545943598 -2003730302 65944 -2111123448 -264101726
            537526787 -1744723679 -1879008872</internalNodes>
          <leafValues>
            -5.1109641790390015e-01 2.3730254173278809e-01</leafValues></_>
        <_>
          <internalNodes>
            0 -1 16 -1900859269 1987116400 1006612045 -705464507
            -270123377 1055286911 1313302779 -1149509165</internalNodes>
          <leafValues>
            -2.3961913585662842e-01 5.7230269908905029e-01</leafValues></_>
        <_>
          <internalNodes>
            0 -1 68 -1453496 -38109272 -1090600965 1940975608 1560035295
            662140918 770817261 -4598001</internalNodes>
          <leafValues>
            -2.3813538253307343e-01 5.3435540199279785e-01</leafValues></_>
        <_>
          <internalNodes>
            0 -1 184 1426102168 -1404792173 -2146957295 -738045928
            -2147450879 839516161 -376925263 -2137407487</internalNodes>
          <leafValues>
            -4.1922172904014587e-01 3.1125727295875549e-01</leafValues></_></weakClassifiers></_>
    <!-- stage 6 -->
    <_>
      <maxWeakCount>14</maxWeakCount>
      <stageThreshold>-6.0737705230712891e-01</stageThreshold>
      <weakClassifiers>
        <_>
          <internalNodes>
            0 -1 29 -777942822 -289612112 -17043601 -1719804319
            -1015794574 1862235519 1294145019 1060369315</internalNodes>
          <leafValues>
            -3.9832286536693573e-02 6.7367750406265259e-01</leafValues></_>
        <_>
          <internalNodes>
            0 -1 122 -1627452162 -1438699650 -1359057668 -1400930312
            520035884 -1082195977 -16798345 -1432482331</internalNodes>
          <leafValues>
            -3.2713711261749268e-01 3.8434863090515137e-01</leafValues></_>
        <_>
          <internalNodes>
            0 -1 222 -216083420 -402403072 1073825161 -62578109
            1094754474 394297354 298057889 -465647023</internalNodes>
          <leafValues>
            -3.7574461102485657e-01 3.3970406651496887e-01</leafValues></_>
        <_>
          <internalNodes>
            0 -1 111 -1179429733 -715011240 779611965 -546211015
            -1682255193 -537076228 -956847445 1842345418</internalNodes>
          <leafValues>
            -2.1241997182369232e-01 5.9904998540878296e-01</leafValues></_>
        <_>
          <internalNodes>
            0 -1 224 -506888030 -1047329919 4120 1455570952 -1836996232
            9994314 1090687216 -859813724</internalNodes>
          <leafValues>
            -5.0038945674896240e-01 2.3678416013717651e-01</leafValues></_>
        <_>
          <internalNodes>
            0 -1 132 1576393375 -1096134666 -33620491 -538055306
            1341705438 2113699583 -808387105 -1428467989</internalNodes>
          <leafValues>
            -2.1512730419635773e-01 5.7640093564987183e-01</leafValues></_>
        <_>
          <internalNodes>
            0 -1 211 -2142289906 541197315 1107349783 -1169694192
            -1870003918 -2011103232 -1337743186 -2103928816</internalNodes>
          <leafValues>
            -3.8510793447494507e-01 3.2712027430534363e-01</leafValues></_>
        <_>
          <internalNodes>
            0 -1 92 -1815963183 -1593704319 -1878945591 -392757104
            16989194 134366336 -935042910 -1600374612</internalNodes>
          <leafValues>
            -4.3915337324142456e-01 2.4677851796150208e-01</leafValues></_>
        <_>
          <internalNodes>
            0 -1 61 -1277134929 -622559346 939436721 1870068464
            -540769121 -1208557577 2113853146 1883236175</internalNodes>
          <leafValues>
            -2.9754358530044556e-01 4.4915559887886047e-01</leafValues></_>
        <_>
          <internalNodes>
            0 -1 120 -1863927722 -2013114338 -1879048094 1748304028
            6832690 1544028288 -905766795 -527769196</internalNodes>
          <leafValues>
            -4.9326175451278687e-01 2.4274443089962006e-01</leafValues></_>
        <_>
          <internalNodes>
            0 -1 182 -1618150880 -598839300 1946086647 363321469
            -2340118 510463711 -1504285377 1825670558</internalNodes>
          <leafValues>
            -3.1291601061820984e-01 3.6933082342147827e-01</leafValues></_>
        <_>
          <internalNodes>
            0 -1 232 -1190761129 102383752 -1878998599 1346658304
            1090748422 134809600 -208993632 -468521968</internalNodes>
          <leafValues>
            -3.8390460610389709e-01 3.0839747190475464e-01</leafValues></_>
        <_>
          <internalNodes>
            0 -1 20 -1442077660 -1048575869 -1073704439 -1006038016
            -536870846 -268296192 1082851393 -1944794828</internalNodes>
          <leafValues>
            -5.0203317403793335e-01 2.3995082080364227e-01</leafValues></_>
        <_>
          <internalNodes>
            0 -1 98 -1615790067 -2129526591 16401 -482147670 -2142650332
            -671021048 -255774592 -90666868</internalNodes>
          <leafValues>
            -3.6780291795730591e-01 3.4288325905799866e-01</leafValues></_></weakClassifiers></_>
    <!-- stage 7 -->
    <_>
      <maxWeakCount>15</maxWeakCount>
      <stageThreshold>-4.3944135308265686e-01</stageThreshold>
      <weakClassifiers>
        <_>
          <internalNodes>
            0 -1 45 -847717372 -1900220673 -1092304921 -748306480
            -134783501 251551607 511120699 695297081</internalNodes>
          <leafValues>
            -1.5004840493202209e-01 5.8718860149383545e-01</leafValues></_>
        <_>
          <internalNodes>
            0 -1 139 -13920129 -721822054 1048492635 -738663847 -4673549
            265605436 183487611 -86012769</internalNodes>
          <leafValues>
            -1.7304112017154694e-01 6.0952037572860718e-01</leafValues></_>
        <_>
          <internalNodes>
            0 -1 30 -39528238 1571717032 1048362730 -377684747
            -547354977 2004113269 618693960 1878522187</internalNodes>
          <leafValues>
            -2.8795874118804932e-01 4.1811990737915039e-01</leafValues></_>
        <_>
          <internalNodes>
            0 -1 246 -2091753336 -1610608510 268623978 -60014480
            -536706934 1527250962 176718516 -1146082528</internalNodes>
          <leafValues>
            -4.3244749307632446e-01 2.8898575901985168e-01</leafValues></_>
        <_>
          <internalNodes>
            0 -1 101 -1124119299 -1342222482 -268554498 -1091752196
            -721452793 536346606 -570475214 -1361410193</internalNodes>
          <leafValues>
            -3.0828440189361572e-01 3.8524621725082397e-01</leafValues></_>
        <_>
          <internalNodes>
            0 -1 206 -1513176846 -2080092160 -721268463 -568983288
            -502659517 65584 -905834094 -1945255472</internalNodes>
          <leafValues>
            -4.3691685795783997e-01 2.9029271006584167e-01</leafValues></_>
        <_>
          <internalNodes>
            0 -1 161 -1099432507 -33784076 2130655995 1778335633
            -159548185 -595624114 -52659009 -1598171778</internalNodes>
          <leafValues>
            -2.2450591623783112e-01 5.1347923278808594e-01</leafValues></_>
        <_>
          <internalNodes>
            0 -1 129 -1280075619 -38076429 -65673 -17826192 1878416426
            905346878 1559631867 -1378890047</internalNodes>
          <leafValues>
            -2.7956193685531616e-01 4.4117271900177002e-01</leafValues></_>
        <_>
          <internalNodes>
            0 -1 228 -2137325334 -1048379391 -2147462537 110135298
            -2147471296 -763363326 -2008972413 -871595903</internalNodes>
          <leafValues>
            -4.5175337791442871e-01 2.8368052840232849e-01</leafValues></_>
        <_>
          <internalNodes>
            0 -1 160 -788479093 -920845871 -2130640637 -2091839359
            -2113929079 1644724266 168347675 723192330</internalNodes>
          <leafValues>
            -3.4117424488067627e-01 3.5959413647651672e-01</leafValues></_>
        <_>
          <internalNodes>
            0 -1 57 -1826897114 76562715 -805240556 -494190318
            -502750423 545783808 -1994390718 -1067693664</internalNodes>
          <leafValues>
            -4.6991673111915588e-01 2.5618225336074829e-01</leafValues></_>
        <_>
          <internalNodes>
            0 -1 33 -1213347845 1144252138 1828714170 -718147847
            -1076387804 -187236483 -193537474 -631591877</internalNodes>
          <leafValues>
            -2.8770077228546143e-01 4.1979414224624634e-01</leafValues></_>
        <_>
          <internalNodes>
            0 -1 210 -2004204404 -506363904 268456080 1480999378
            -1597276131 -1828683759 1652605059 -1182748672</internalNodes>
          <leafValues>
            -3.9227175712585449e-01 3.1845429539680481e-01</leafValues></_>
        <_>
          <internalNodes>
            0 -1 143 -37763940 1559945215 -1157632257 -952566031
            2013030075 2127723460 -964699725 1523441895</internalNodes>
          <leafValues>
            -2.8403943777084351e-01 4.5830434560775757e-01</leafValues></_>
        <_>
          <internalNodes>
            0 -1 219 -4587607 859406260 -553877907 1491631713 -268480037
            -142639233 -1208947057 -454081201</internalNodes>
          <leafValues>
            -1.9537043571472168e-01 5.7817035913467407e-01</leafValues></_></weakClassifiers></_>
    <!-- stage 8 -->
    <_>
      <maxWeakCount>15</maxWeakCount>
      <stageThreshold>-6.8920975923538208e-01</stageThreshold>
      <weakClassifiers>
        <_>
          <internalNodes>
            0 -1 100 -1976628165 -1472495745 -562092037 -285311178
            396853047 729776127 402478452 -202707524</internalNodes>
          <leafValues>
            -1.2452830374240875e-01 5.8350515365600586e-01</leafValues></_>
        <_>
          <internalNodes>
            0 -1 165 -1158119160 -47595742 1795061969 -710313263
            -25921029 -142712962 1574629339 1661721610</internalNodes>
          <leafValues>
            -2.5955593585968018e-01 4.8299649357795715e-01</leafValues></_>
        <_>
          <internalNodes>
            0 -1 54 -370238001 -1027637403 -151064717 -614236234
            889183494 -1216577673 -841032562 -674060308</internalNodes>
          <leafValues>
            -2.2633372247219086e-01 5.1089978218078613e-01</leafValues></_>
        <_>
          <internalNodes>
            0 -1 248 -1835220860 708837392 285299025 1880621190
            306745460 -436076400 -1589407584 -674060112</internalNodes>
          <leafValues>
            -4.0075346827507019e-01 2.8913214802742004e-01</leafValues></_>
        <_>
          <internalNodes>
            0 -1 178 2133605850 -1279853872 1056882679 1373948108
            -1208218725 -9109548 1322081583 -2039883298</internalNodes>
          <leafValues>
            -3.2640421390533447e-01 3.9099848270416260e-01</leafValues></_>
        <_>
          <internalNodes>
            0 -1 133 -1130677277 -511295464 -1862172343 -792588068
            -1308041179 679510152 -2117357024 -214507336</internalNodes>
          <leafValues>
            -3.0676120519638062e-01 3.9126631617546082e-01</leafValues></_>
        <_>
          <internalNodes>
            0 -1 91 -1839480832 -2066612062 -1073659500 -401190781
            589923 687865856 -1416969291 -1802723200</internalNodes>
          <leafValues>
            -4.1861259937286377e-01 3.0451798439025879e-01</leafValues></_>
        <_>
          <internalNodes>
            0 -1 209 620890323 539624576 16830626 -594030592 -1601994176
            -1417670136 296878259 -2125422204</internalNodes>
          <leafValues>
            -4.5596507191658020e-01 2.4602401256561279e-01</leafValues></_>
        <_>
          <internalNodes>
            0 -1 240 -410384280 -1072512512 1090552081 1354899456
            -2138537829 -2001600380 -761685887 -984446320</internalNodes>
          <leafValues>
            -3.1370532512664795e-01 3.8814932107925415e-01</leafValues></_>
        <_>
          <internalNodes>
            0 -1 52 2035519626 -1571793592 285279285 1962578268
            -528463213 2131693696 -2136989231 1550565531</internalNodes>
          <leafValues>
            -3.8603916764259338e-01 3.3266547322273254e-01</leafValues></_>
        <_>
          <internalNodes>
            0 -1 131 -649645516 -2122231653 -2147479147 -586313456
            -259979086 34078730 -2138664951 -1542526352</internalNodes>
          <leafValues>
            -3.6516267061233521e-01 3.1447929143905640e-01</leafValues></_>
        <_>
          <internalNodes>
            0 -1 107 -1312868405 -235669294 985660129 -235900952
            -19473681 -1141641761 2143288955 -268439621</internalNodes>
          <leafValues>
            -1.8825435638427734e-01 6.6074305772781372e-01</leafValues></_>
        <_>
          <internalNodes>
            0 -1 227 -17109854 -1900123292 1858039733 -256965021
            -16875667 670527341 1996428759 -740057935</internalNodes>
          <leafValues>
            -2.7136522531509399e-01 4.6177905797958374e-01</leafValues></_>
        <_>
          <internalNodes>
            0 -1 220 -1484073527 -1759913582 65988 1304531072
            -2013167109 1610678298 -1476376055 210826754</internalNodes>
          <leafValues>
            -3.7005835771560669e-01 3.4235197305679321e-01</leafValues></_>
        <_>
          <internalNodes>
            0 -1 170 1073824236 -1367342016 268501078 -221237217
            276894466 1921515520 855806706 -732327792</internalNodes>
          <leafValues>
            -5.0992357730865479e-01 2.4684666097164154e-01</leafValues></_></weakClassifiers></_>
    <!-- stage 9 -->
    <_>
      <maxWeakCount>16</maxWeakCount>
      <stageThreshold>-6.6860467195510864e-01</stageThreshold>
      <weakClassifiers>
        <_>
          <internalNodes>
            0 -1 147 -22481760 1434254856 2042531575 1832116145
            1568426218 1048301567 -631061 439946571</internalNodes>
          <leafValues>
            -6.0344826430082321e-02 6.7412936687469482e-01</leafValues></_>
        <_>
          <internalNodes>
            0 -1 113 454567952 1477459980 -805240751 -1048018934
            -804256862 -1300004732 537692194 717850626</internalNodes>
          <leafValues>
            -3.9067268371582031e-01 3.6933130025863647e-01</leafValues></_>
        <_>
          <internalNodes>
            0 -1 35 -5992197 -104907844 -1078034570 -382701776
            -554400318 401962871 1861472456 2135157898</internalNodes>
          <leafValues>
            -2.4709904193878174e-01 4.9786186218261719e-01</leafValues></_>
        <_>
          <internalNodes>
            0 -1 197 1470487586 -1313251530 -285430027 -2068709392
            1065125620 -1480837326 -556741383 1328272505</internalNodes>
          <leafValues>
            -2.9168623685836792e-01 3.7355989217758179e-01</leafValues></_>
        <_>
          <internalNodes>
            0 -1 117 1442160170 -15863938 -99785 -604242382 2139047645
            381611828 1391779036 -1434783990</internalNodes>
          <leafValues>
            -2.4749830365180969e-01 4.1648569703102112e-01</leafValues></_>
        <_>
          <internalNodes>
            0 -1 251 -1853868928 50331672 13111363 974655745 -1023410142
            1251999874 -2002108414 976888339</internalNodes>
          <leafValues>
            -5.1628828048706055e-01 2.0107296109199524e-01</leafValues></_>
        <_>
          <internalNodes>
            0 -1 13 -16897307 -205717523 -1413550221 771620852 -729394
            -285247674 -1116422290 -1896481442</internalNodes>
          <leafValues>
            -2.1258737146854401e-01 5.1945769786834717e-01</leafValues></_>
        <_>
          <internalNodes>
            0 -1 32 -1941875504 -867659583 150997254 -723972023
            -1073069347 1228965890 184600722 -1621647191</internalNodes>
          <leafValues>
            -3.4098386764526367e-01 3.3525094389915466e-01</leafValues></_>
        <_>
          <internalNodes>
            0 -1 180 -217188206 -2045542383 35861 286527749 268982503
            -1342168951 -1207891965 1756135442</internalNodes>
          <leafValues>
            -3.5241344571113586e-01 3.0853602290153503e-01</leafValues></_>
        <_>
          <internalNodes>
            0 -1 135 -1878587253 -1626324848 -2147417947 1117848645 74
            -1140097024 -515888994 584450564</internalNodes>
          <leafValues>
            -4.1931626200675964e-01 2.5028645992279053e-01</leafValues></_>
        <_>
          <internalNodes>
            0 -1 46 1483988387 -1078972553 -16781315 -215122113
            804681900 -1477017731 209625086 -281809313</internalNodes>
          <leafValues>
            -1.7927497625350952e-01 6.4450401067733765e-01</leafValues></_>
        <_>
          <internalNodes>
            0 -1 93 2142473280 2126053168 2130624511 -1418592262 -74334
            -1073840138 -33661444 -373305740</internalNodes>
          <leafValues>
            -2.3922674357891083e-01 4.3344166874885559e-01</leafValues></_>
        <_>
          <internalNodes>
            0 -1 96 -1573333 917479397 2129656561 2007957168 -822223213
            1409220439 2000551647 -887826894</internalNodes>
          <leafValues>
            -2.3523670434951782e-01 4.4558179378509521e-01</leafValues></_>
        <_>
          <internalNodes>
            0 -1 102 -1928189870 -381660800 134748436 -1734866151
            -921927415 847380518 -905902057 190275625</internalNodes>
          <leafValues>
            -4.4376665353775024e-01 2.5689071416854858e-01</leafValues></_>
        <_>
          <internalNodes>
            0 -1 24 -665243438 -1127149229 151062793 -602369975
            -763182884 1611808768 50436634 1230827659</internalNodes>
          <leafValues>
            -3.0992999672889709e-01 3.6787912249565125e-01</leafValues></_>
        <_>
          <internalNodes>
            0 -1 229 -135286813 -1611744324 788217593 -1146606977
            -1208128234 -1217605636 -1116324193 985346655</internalNodes>
          <leafValues>
            -2.8790339827537537e-01 3.9679223299026489e-01</leafValues></_></weakClassifiers></_>
    <!-- stage 10 -->
    <_>
      <maxWeakCount>15</maxWeakCount>
      <stageThreshold>-7.2917705774307251e-01</stageThreshold>
      <weakClassifiers>
        <_>
          <internalNodes>
            0 -1 86 -68815205 1923431566 -218170274 1669298940 -1801046
            -1158415431 -134555826 976952655</internalNodes>
          <leafValues>
            3.6340851336717606e-02 6.7094016075134277e-01</leafValues></_>
        <_>
          <internalNodes>
            0 -1 10 -8912901 -223088645 -1141982409 -407769163
            -402897746 -612993027 -453709846 1001897606</internalNodes>
          <leafValues>
            -1.6740065813064575e-01 5.4573255777359009e-01</leafValues></_>
        <_>
          <internalNodes>
            0 -1 72 234717328 -1153892493 -18153537 -1083478156
            754745011 2122282871 226120975 -1558458639</internalNodes>
          <leafValues>
            -3.1042340397834778e-01 3.3903020620346069e-01</leafValues></_>
        <_>
          <internalNodes>
            0 -1 173 -134583557 1937111731 1593822975 -708975639
            -26084657 1459511164 -85987432 -380645638</internalNodes>
          <leafValues>
            -2.1609051525592804e-01 5.5179768800735474e-01</leafValues></_>
        <_>
          <internalNodes>
            0 -1 3 2142293083 -826761223 -32785 -1430302851 -453732642
            -25264132 431174908 -810813718</internalNodes>
          <leafValues>
            -2.2848078608512878e-01 4.4108054041862488e-01</leafValues></_>
        <_>
          <internalNodes>
            0 -1 14 56324314 1108710418 294915 -1659829812 -260045534
            1347952771 -250824070 169916569</internalNodes>
          <leafValues>
            -4.3068715929985046e-01 2.6368713378906250e-01</leafValues></_>
        <_>
          <internalNodes>
            0 -1 140 -1655447012 -16404454 -536788899 -669416182
            -771704706 -1015020888 -1056827217 1657260086</internalNodes>
          <leafValues>
            -3.0575063824653625e-01 3.3421918749809265e-01</leafValues></_>
        <_>
          <internalNodes>
            0 -1 49 -1543323064 -285142016 -1853833187 -1676128238
            545261576 142606354 -1551243119 -910131188</internalNodes>
          <leafValues>
            -3.9923682808876038e-01 2.5680249929428101e-01</leafValues></_>
        <_>
          <internalNodes>
            0 -1 136 -792378977 763363600 -2143189872 409678 -1988023797
            1308691208 -1735773631 640363299</internalNodes>
          <leafValues>
            -6.0113054513931274e-01 1.7647711932659149e-01</leafValues></_>
        <_>
          <internalNodes>
            0 -1 141 906383780 806490626 285392992 -1207761268 29655074
            163850 1896038971 -1891458236</internalNodes>
          <leafValues>
            -4.5049336552619934e-01 2.3335860669612885e-01</leafValues></_>
        <_>
          <internalNodes>
            0 -1 238 -786798464 8421392 -536837739 -199815164
            -2111272644 16908417 1091232144 -1987411803</internalNodes>
          <leafValues>
            -3.2982179522514343e-01 3.2807999849319458e-01</leafValues></_>
        <_>
          <internalNodes>
            0 -1 112 -84419949 -575013896 795863665 -1782841799
            -1090586378 -922755236 1698683694 804254815</internalNodes>
          <leafValues>
            -1.9794481992721558e-01 5.3184700012207031e-01</leafValues></_>
        <_>
          <internalNodes>
            0 -1 144 -2061217692 134221977 -1878245071 1350715456
            1611268160 1778384936 -1979571630 -2012734508</internalNodes>
          <leafValues>
            -6.4848774671554565e-01 1.7873722314834595e-01</leafValues></_>
        <_>
          <internalNodes>
            0 -1 198 -16790525 -337707282 -286979 -538559396 -704907797
            -824197123 -302172293 -556450126</internalNodes>
          <leafValues>
            -2.6016247272491455e-01 4.3373787403106689e-01</leafValues></_>
        <_>
          <internalNodes>
            0 -1 239 -1876115054 270532736 4246 1279406116 -1862197206
            1358954506 444640427 -2121774960</internalNodes>
          <leafValues>
            -3.7622907757759094e-01 2.7907389402389526e-01</leafValues></_></weakClassifiers></_>
    <!-- stage 11 -->
    <_>
      <maxWeakCount>15</maxWeakCount>
      <stageThreshold>-9.2685598134994507e-01</stageThreshold>
      <weakClassifiers>
        <_>
          <internalNodes>
            0 -1 183 1794493458 -1713602724 989820851 174618224
            -285278088 -1126785575 2138966845 135800882</internalNodes>
          <leafValues>
            -2.0288363099098206e-01 5.8994579315185547e-01</leafValues></_>
        <_>
          <internalNodes>
            0 -1 73 -717759474 1530711739 1055829983 -537808908
            -269050373 -822124598 -1439649349 775023163</internalNodes>
          <leafValues>
            -2.4883364140987396e-01 5.4802197217941284e-01</leafValues></_>
        <_>
          <internalNodes>
            0 -1 168 -134293929 -198443246 -488964399 1431696313
            -537081212 -1740736673 -203770261 -1945647541</internalNodes>
          <leafValues>
            -2.1018941700458527e-01 5.8468550443649292e-01</leafValues></_>
        <_>
          <internalNodes>
            0 -1 61 -204181281 1950355458 1627427091 130303637
            -461371234 -653786976 2113978515 202081048</internalNodes>
          <leafValues>
            -3.8556021451950073e-01 2.9485711455345154e-01</leafValues></_>
        <_>
          <internalNodes>
            0 -1 11 1111803634 -1567178352 277188695 -334429924
            -1073740787 -1718582750 -1438460090 117489842</internalNodes>
          <leafValues>
            -4.4053441286087036e-01 2.5292068719863892e-01</leafValues></_>
        <_>
          <internalNodes>
            0 -1 175 157432410 -1324466031 134287389 1561631828
            -669435901 1477576848 -893306606 61663305</internalNodes>
          <leafValues>
            -4.4194027781486511e-01 2.5521549582481384e-01</leafValues></_>
        <_>
          <internalNodes>
            0 -1 162 -84125488 -1481688345 -1427194119 200095480
            -1074479620 -135626899 -62980277 1018297842</internalNodes>
          <leafValues>
            -2.8317946195602417e-01 3.6896494030952454e-01</leafValues></_>
        <_>
          <internalNodes>
            0 -1 118 -1107336061 1424354047 -1157629185 347471595
            2113882480 -353535000 -583247 -1390824422</internalNodes>
          <leafValues>
            -2.6947352290153503e-01 3.9415791630744934e-01</leafValues></_>
        <_>
          <internalNodes>
            0 -1 48 -665399280 -2145611621 -2147483387 -1677655406
            1207982212 176160905 436799489 1208221729</internalNodes>
          <leafValues>
            -5.0802999734878540e-01 2.1975235641002655e-01</leafValues></_>
        <_>
          <internalNodes>
            0 -1 142 -185166757 2113928894 -1124139025 99942260
            -101163813 1047855031 -96933783 1999097459</internalNodes>
          <leafValues>
            -2.4067832529544830e-01 4.6369084715843201e-01</leafValues></_>
        <_>
          <internalNodes>
            0 -1 8 22284562 -1039138407 16793608 504140548 -532545526
            -73400192 1292115976 203973424</internalNodes>
          <leafValues>
            -6.0865664482116699e-01 1.9153133034706116e-01</leafValues></_>
        <_>
          <internalNodes>
            0 -1 245 -17309837 -1146197012 -269520973 -1745113161
            -1623970740 -1929674753 -1610730609 -1615176173</internalNodes>
          <leafValues>
            -2.3631924390792847e-01 4.7672331333160400e-01</leafValues></_>
        <_>
          <internalNodes>
            0 -1 38 457489754 -1944583168 335552512 -671088620
            -1736422274 -776863616 1812038203 693117032</internalNodes>
          <leafValues>
            -4.7101518511772156e-01 2.3808741569519043e-01</leafValues></_>
        <_>
          <internalNodes>
            0 -1 67 -268689863 2067083057 -1879066777 779452413
            1744674786 259192574 -814506927 -1823512329</internalNodes>
          <leafValues>
            -2.5407612323760986e-01 4.4845381379127502e-01</leafValues></_>
        <_>
          <internalNodes>
            0 -1 1 -803745454 68288513 1367441563 -2013163518 1073780903
            -2139090815 671236168 261679364</internalNodes>
          <leafValues>
            -4.1697317361831665e-01 2.5986805558204651e-01</leafValues></_></weakClassifiers></_>
    <!-- stage 12 -->
    <_>
      <maxWeakCount>14</maxWeakCount>
      <stageThreshold>-7.9391413927078247e-01</stageThreshold>
      <weakClassifiers>
        <_>
          <internalNodes>
            0 -1 19 582055896 538339264 50309819 91352017 -151084026
            1238857207 -162030990 189762587</internalNodes>
          <leafValues>
            -1.9278252124786377e-01 6.1787366867065430e-01</leafValues></_>
        <_>
          <internalNodes>
            0 -1 52 1359065728 -803960812 285279325 68452484 402718849
            814972960 -1442766320 4697102</internalNodes>
          <leafValues>
            -4.6447718143463135e-01 3.5806640982627869e-01</leafValues></_>
        <_>
          <internalNodes>
            0 -1 70 -415777197 -603992467 -1091633171 -613303707
            -336473951 -1342603279 1580443659 -1420844045</internalNodes>
          <leafValues>
            -2.1345202624797821e-01 6.7812097072601318e-01</leafValues></_>
        <_>
          <internalNodes>
            0 -1 230 -1333605 1506786468 -4247793 -1854686036
            -1105273271 -1502806018 -1896137697 -1844374412</internalNodes>
          <leafValues>
            -2.4368008971214294e-01 5.0806540250778198e-01</leafValues></_>
        <_>
          <internalNodes>
            0 -1 164 -2113825878 -251490296 268505111 135332113
            -2038167405 -526843768 470080587 -2012876132</internalNodes>
          <leafValues>
            -4.0443438291549683e-01 3.0018791556358337e-01</leafValues></_>
        <_>
          <internalNodes>
            0 -1 99 67215962 32912 268535032 1613791258 1073741824
            411049984 8587320 -2008307164</internalNodes>
          <leafValues>
            -5.4807806015014648e-01 2.1629916131496429e-01</leafValues></_>
        <_>
          <internalNodes>
            0 -1 217 -21460846 -134693068 1828649695 423573873
            -939616847 -587210890 218027178 434872162</internalNodes>
          <leafValues>
            -2.3008251190185547e-01 5.2690845727920532e-01</leafValues></_>
        <_>
          <internalNodes>
            0 -1 233 -15817838 867905323 -286350797 -1678037329
            -1225838673 225443711 791576379 -1921841802</internalNodes>
          <leafValues>
            -2.3371410369873047e-01 4.7132888436317444e-01</leafValues></_>
        <_>
          <internalNodes>
            0 -1 43 1094759242 637632530 65857 -1039596900 1384878310
            -2128575576 553691648 526330627</internalNodes>
          <leafValues>
            -3.5710650682449341e-01 3.2787549495697021e-01</leafValues></_>
        <_>
          <internalNodes>
            0 -1 151 -800787680 957513732 402938392 1427345473
            -771620788 949747723 526434 710191632</internalNodes>
          <leafValues>
            -4.2434754967689514e-01 3.0378407239913940e-01</leafValues></_>
        <_>
          <internalNodes>
            0 -1 185 -151015705 1004924607 1056943775 -1817231387
            1610600295 -1098948769 -822091842 717186430</internalNodes>
          <leafValues>
            -2.7206557989120483e-01 4.5649138092994690e-01</leafValues></_>
        <_>
          <internalNodes>
            0 -1 154 1035932217 -131408710 -1078677641 -1334019585
            -67467366 1048535004 1322904866 -832046194</internalNodes>
          <leafValues>
            -2.6650509238243103e-01 4.3219524621963501e-01</leafValues></_>
        <_>
          <internalNodes>
            0 -1 134 1359008618 -1809940452 268435673 1343815832
            -2147397484 -1451089920 -1073608309 -265542816</internalNodes>
          <leafValues>
            -3.6547747254371643e-01 3.3778902888298035e-01</leafValues></_>
        <_>
          <internalNodes>
            0 -1 22 2132858680 1530912537 1065234299 -1854079176
            519507134 -1761708164 1827861704 -619190709</internalNodes>
          <leafValues>
            -2.2167776525020599e-01 5.3422963619232178e-01</leafValues></_></weakClassifiers></_>
    <!-- stage 13 -->
    <_>
      <maxWeakCount>15</maxWeakCount>
      <stageThreshold>-6.5267086029052734e-01</stageThreshold>
      <weakClassifiers>
        <_>
          <internalNodes>
            0 -1 80 -1107626002 2105016253 -1091569178 1651502972
            -168003226 1433790292 -906009476 1079897676</internalNodes>
          <leafValues>
            -1.1336405575275421e-01 5.8642297983169556e-01</leafValues></_>
        <_>
          <internalNodes>
            0 -1 155 831169030 -671101203 1878926207 -252595495
            586599352 334618296 1801420093 -145775231</internalNodes>
          <leafValues>
            -2.5933367013931274e-01 4.6169021725654602e-01</leafValues></_>
        <_>
          <internalNodes>
            0 -1 106 -541327701 -180680 -37798337 2138697311 -570837796
            1610063676 1039909964 -411708050</internalNodes>
          <leafValues>
            -1.9646462798118591e-01 5.9518390893936157e-01</leafValues></_>
        <_>
          <internalNodes>
            0 -1 207 -1320095197 -1827565054 1610744730 -784817279
            -1063681882 -1878949759 -1174174008 -1066077170</internalNodes>
          <leafValues>
            -3.3996352553367615e-01 3.4545153379440308e-01</leafValues></_>
        <_>
          <internalNodes>
            0 -1 5 -1663435865 537964753 289406985 1682290948
            -2147450459 1666449411 -2086108273 53715628</internalNodes>
          <leafValues>
            -3.9907309412956238e-01 2.9252412915229797e-01</leafValues></_>
        <_>
          <internalNodes>
            0 -1 105 -1694322084 -746376813 16880147 889618447 562080537
            1255229441 689111782 490133912</internalNodes>
          <leafValues>
            -3.8548865914344788e-01 3.0453979969024658e-01</leafValues></_>
        <_>
          <internalNodes>
            0 -1 16 -2106343565 1660087412 1056947925 -143034532
            -807186513 1341093599 1717774454 -134909341</internalNodes>
          <leafValues>
            -2.9386338591575623e-01 4.0477159619331360e-01</leafValues></_>
        <_>
          <internalNodes>
            0 -1 145 860931619 -1240415825 536942836 -1878523826
            1208246658 948043784 50956443 -1265820788</internalNodes>
          <leafValues>
            -3.4359958767890930e-01 3.3509582281112671e-01</leafValues></_>
        <_>
          <internalNodes>
            0 -1 26 -788284669 1552957452 -2137996991 1627488280
            268435459 301989888 268582921 -732902264</internalNodes>
          <leafValues>
            -3.4692564606666565e-01 3.2135978341102600e-01</leafValues></_>
        <_>
          <internalNodes>
            0 -1 212 -2105482364 1460716579 268517469 4282194
            -2147088384 1344373248 -2012698101 -68971372</internalNodes>
          <leafValues>
            -3.2732367515563965e-01 3.2586079835891724e-01</leafValues></_>
        <_>
          <internalNodes>
            0 -1 125 -1712791440 -1458192560 268501460 1696112857
            998713651 -475889646 59416674 33954139</internalNodes>
          <leafValues>
            -4.0083479881286621e-01 2.7653154730796814e-01</leafValues></_>
        <_>
          <internalNodes>
            0 -1 63 22810186 -233389551 1358979658 6045964 1260751367
            1370226688 176247426 -187696559</internalNodes>
          <leafValues>
            -3.8423296809196472e-01 2.7866339683532715e-01</leafValues></_>
        <_>
          <internalNodes>
            0 -1 221 2012216174 -5636293 -17187278 -38682767 -1527281711
            -598245410 -1350604806 -578970386</internalNodes>
          <leafValues>
            -1.8067279458045959e-01 6.1248004436492920e-01</leafValues></_>
        <_>
          <internalNodes>
            0 -1 235 -180301438 -1869578222 1342214216 335810962
            -1073738869 537395208 -2122236946 1101277184</internalNodes>
          <leafValues>
            -3.3604881167411804e-01 3.1389507651329041e-01</leafValues></_>
        <_>
          <internalNodes>
            0 -1 214 -1908043262 18127316 268435575 1342799872 570536571
            566780032 -746415592 -2096919700</internalNodes>
          <leafValues>
            -3.6591091752052307e-01 2.9623937606811523e-01</leafValues></_></weakClassifiers></_>
    <!-- stage 14 -->
    <_>
      <maxWeakCount>15</maxWeakCount>
      <stageThreshold>-8.6418533325195312e-01</stageThreshold>
      <weakClassifiers>
        <_>
          <internalNodes>
            0 -1 94 804797446 1794958063 670805776 -2140080710
            1157260274 401617520 1331918904 849490731</internalNodes>
          <leafValues>
            -2.5139665603637695e-01 5.8194774389266968e-01</leafValues></_>
        <_>
          <internalNodes>
            0 -1 47 1475862471 -805478745 -2064530 -772817142 2146563758
            1322582005 1121187838 1432482174</internalNodes>
          <leafValues>
            -2.3676823079586029e-01 5.4324907064437866e-01</leafValues></_>
        <_>
          <internalNodes>
            0 -1 84 1951774863 1682702338 -1056959848 1085675794
            -742102744 1075454080 1510344788 1899039496</internalNodes>
          <leafValues>
            -4.5524224638938904e-01 2.7561318874359131e-01</leafValues></_>
        <_>
          <internalNodes>
            0 -1 4 -2063347204 285737361 134287694 746918426 -1040019152
            1502707748 -1039648052 883688168</internalNodes>
          <leafValues>
            -4.5374256372451782e-01 2.6256549358367920e-01</leafValues></_>
        <_>
          <internalNodes>
            0 -1 205 -337124702 -146852212 988565041 1500178508
            859825792 1156871542 2021090047 -683589778</internalNodes>
          <leafValues>
            -2.3333029448986053e-01 4.8631662130355835e-01</leafValues></_>
        <_>
          <internalNodes>
            0 -1 71 -1518505956 554025219 1097864 -670760806 -1387526808
            1276313675 1354826950 1727967716</internalNodes>
          <leafValues>
            -4.8927387595176697e-01 2.3645187914371490e-01</leafValues></_>
        <_>
          <internalNodes>
            0 -1 89 289568992 1481660308 83984384 -644595453 -1471405041
            1296075267 32606772 -1527552103</internalNodes>
          <leafValues>
            -4.2340835928916931e-01 2.7255094051361084e-01</leafValues></_>
        <_>
          <internalNodes>
            0 -1 60 -1068049 -1070719978 1073721142 1249901431
            2088193620 1668792318 -1753839948 -1749953014</internalNodes>
          <leafValues>
            -2.9164418578147888e-01 4.2854994535446167e-01</leafValues></_>
        <_>
          <internalNodes>
            0 -1 28 643953265 -84619885 -524426 -1963192352 2146883956
            779712447 1332874431 -1612188612</internalNodes>
          <leafValues>
            -3.1098490953445435e-01 3.4053087234497070e-01</leafValues></_>
        <_>
          <internalNodes>
            0 -1 50 2130152892 -488394949 -285213071 -718012689
            1341814514 1056276285 -596323895 -176677318</internalNodes>
          <leafValues>
            -2.8317901492118835e-01 4.2946669459342957e-01</leafValues></_>
        <_>
          <internalNodes>
            0 -1 161 2146302455 -168001819 1056909994 1106329486
            -159580962 1979539278 -61014129 -1582314018</internalNodes>
          <leafValues>
            -1.8905408680438995e-01 5.7067030668258667e-01</leafValues></_>
        <_>
          <internalNodes>
            0 -1 163 -1320718093 844304513 1880118721 310579201 131139
            16777216 70339 388055563</internalNodes>
          <leafValues>
            -3.7903285026550293e-01 3.0212604999542236e-01</leafValues></_>
        <_>
          <internalNodes>
            0 -1 234 -261101074 -554369546 2008956552 553189302
            -814809368 -1217003792 1417606974 -2123895262</internalNodes>
          <leafValues>
            -2.5053682923316956e-01 4.4709122180938721e-01</leafValues></_>
        <_>
          <internalNodes>
            0 -1 223 -2126075374 -784121726 16843027 429687558
            1611498411 2 167783113 1564511088</internalNodes>
          <leafValues>
            -4.5128083229064941e-01 2.6169002056121826e-01</leafValues></_>
        <_>
          <internalNodes>
            0 -1 59 -800730709 1352204289 286327057 1377173564
            -1862258533 587202712 -2130572766 1082688086</internalNodes>
          <leafValues>
            -3.8384518027305603e-01 3.0033206939697266e-01</leafValues></_></weakClassifiers></_>
    <!-- stage 15 -->
    <_>
      <maxWeakCount>15</maxWeakCount>
      <stageThreshold>-8.0292600393295288e-01</stageThreshold>
      <weakClassifiers>
        <_>
          <internalNodes>
            0 -1 55 1342131423 1723858535 -1073741834 775716846
            -805888448 402120685 -548930222 -1483933698</internalNodes>
          <leafValues>
            -1.5500944852828979e-01 5.9938210248947144e-01</leafValues></_>
        <_>
          <internalNodes>
            0 -1 12 -1387056005 1690308738 16912787 -1201880248
            346364474 -2035810246 1640231392 1073410210</internalNodes>
          <leafValues>
            -3.8482552766799927e-01 3.7741962075233459e-01</leafValues></_>
        <_>
          <internalNodes>
            0 -1 198 -62441 1776152303 -92545025 1570810975 -436552230
            -1914790275 -2051230215 -1161773422</internalNodes>
          <leafValues>
            -2.7695357799530029e-01 4.4004777073860168e-01</leafValues></_>
        <_>
          <internalNodes>
            0 -1 150 -654389125 -849266286 -939590797 1764457194 -222426
            1332211671 -52431672 1715240450</internalNodes>
          <leafValues>
            -3.4276896715164185e-01 3.7049031257629395e-01</leafValues></_>
        <_>
          <internalNodes>
            0 -1 203 -782256328 -488533213 -805205667 1476679257
            -364795723 -1753218944 -29334560 -981210200</internalNodes>
          <leafValues>
            -3.7425255775451660e-01 3.2851031422615051e-01</leafValues></_>
        <_>
          <internalNodes>
            0 -1 78 1481904332 1289490767 285350740 1140869918
            -1715432623 1083768832 1075059268 -1861737686</internalNodes>
          <leafValues>
            -4.6787378191947937e-01 2.6827007532119751e-01</leafValues></_>
        <_>
          <internalNodes>
            0 -1 17 -1202407937 222691718 16777482 -1186987832 4792755
            25174034 -381246556 -485969782</internalNodes>
          <leafValues>
            -3.6832323670387268e-01 3.4656378626823425e-01</leafValues></_>
        <_>
          <internalNodes>
            0 -1 200 -1713594965 -795795453 102814 152580370 -2100255575
            58834968 -486532493 669800480</internalNodes>
          <leafValues>
            -3.8745903968811035e-01 3.0129685997962952e-01</leafValues></_>
        <_>
          <internalNodes>
            0 -1 74 -1049269432 -818511738 -1795096495 -586153981
            -452955592 314638351 1661583761 1463915203</internalNodes>
          <leafValues>
            -3.1584760546684265e-01 3.7198132276535034e-01</leafValues></_>
        <_>
          <internalNodes>
            0 -1 194 -1074807041 2130440174 -83890561 1635774254
            -824213521 -524341 -16842897 125099996</internalNodes>
          <leafValues>
            -2.5137886404991150e-01 4.7846776247024536e-01</leafValues></_>
        <_>
          <internalNodes>
            0 -1 124 1954222574 1043996458 -1212679433 -860619974
            -36920426 938926067 520091634 -152249665</internalNodes>
          <leafValues>
            -2.3042957484722137e-01 4.7155088186264038e-01</leafValues></_>
        <_>
          <internalNodes>
            0 -1 109 -1681090469 -748256913 1279623490 1779009695
            827483417 -662535904 1304793898 -2089043080</internalNodes>
          <leafValues>
            -3.2842093706130981e-01 3.5529506206512451e-01</leafValues></_>
        <_>
          <internalNodes>
            0 -1 171 -800030577 1235026065 -1744764709 33620048
            1786798090 276826129 1946729263 153233931</internalNodes>
          <leafValues>
            -4.2537939548492432e-01 2.6348462700843811e-01</leafValues></_>
        <_>
          <internalNodes>
            0 -1 218 -227626805 -667369716 -89211219 -798082882
            -16846897 1844969471 -1159299945 1333706294</internalNodes>
          <leafValues>
            -2.9913645982742310e-01 4.0480372309684753e-01</leafValues></_>
        <_>
          <internalNodes>
            0 -1 213 -2141875438 -2092695354 285298969 1034060579
            -1715412113 10485888 -257695700 -398410875</internalNodes>
          <leafValues>
            -4.6498453617095947e-01 2.8516453504562378e-01</leafValues></_></weakClassifiers></_>
    <!-- stage 16 -->
    <_>
      <maxWeakCount>14</maxWeakCount>
      <stageThreshold>-7.3418664932250977e-01</stageThreshold>
      <weakClassifiers>
        <_>
          <internalNodes>
            0 -1 31 -1344167371 799963403 -1905103006 1886781296
            -67608984 1142325108 737644112 811071220</internalNodes>
          <leafValues>
            -1.5098468959331512e-01 5.4554170370101929e-01</leafValues></_>
        <_>
          <internalNodes>
            0 -1 90 -341164329 -201589011 938717044 -1644300835
            -268728351 -1610726792 -873797461 -52721</internalNodes>
          <leafValues>
            -1.5185314416885376e-01 6.3436543941497803e-01</leafValues></_>
        <_>
          <internalNodes>
            0 -1 189 -208294350 1169813552 -905822118 -798698975
            33811076 855949312 176412875 -1058676726</internalNodes>
          <leafValues>
            -3.2730072736740112e-01 3.7474361062049866e-01</leafValues></_>
        <_>
          <internalNodes>
            0 -1 215 -921132403 -112197611 -805240327 -1874739176
            327285144 302055840 826902684 -661843840</internalNodes>
          <leafValues>
            -3.2645672559738159e-01 3.4381109476089478e-01</leafValues></_>
        <_>
          <internalNodes>
            0 -1 42 -1615941753 -1056965 2147133219 2120482674
            -151570681 1709604656 1576793465 -278530051</internalNodes>
          <leafValues>
            -2.6874095201492310e-01 3.8868349790573120e-01</leafValues></_>
        <_>
          <internalNodes>
            0 -1 155 126973196 -678116661 1074085981 24396457 146899042
            805405060 184893729 644098696</internalNodes>
          <leafValues>
            -4.4869878888130188e-01 2.3907150328159332e-01</leafValues></_>
        <_>
          <internalNodes>
            0 -1 176 -1378771357 -919036168 -288801087 145618416 -178817
            1736136693 -587403698 -505446806</internalNodes>
          <leafValues>
            -2.8858521580696106e-01 3.5813120007514954e-01</leafValues></_>
        <_>
          <internalNodes>
            0 -1 37 -750718117 -733228539 -1795112832 -247283064
            1342374022 8523811 4833304 1794023569</internalNodes>
          <leafValues>
            -3.2983654737472534e-01 3.2423382997512817e-01</leafValues></_>
        <_>
          <internalNodes>
            0 -1 126 434631581 -105785543 1857455729 1505622783
            999228266 1001971069 -276959374 -76678241</internalNodes>
          <leafValues>
            -1.8545000255107880e-01 5.5674427747726440e-01</leafValues></_>
        <_>
          <internalNodes>
            0 -1 75 -1807116716 -1000565624 -1056931583 -364197772
            1084428928 155845306 17541383 219570740</internalNodes>
          <leafValues>
            -5.0095099210739136e-01 2.2871987521648407e-01</leafValues></_>
        <_>
          <internalNodes>
            0 -1 193 -1209467421 -185409732 -16846916 1304330094
            1342104461 1457454973 -805308529 -704778402</internalNodes>
          <leafValues>
            -2.4480581283569336e-01 4.1018462181091309e-01</leafValues></_>
        <_>
          <internalNodes>
            0 -1 123 -1073639383 -1517215744 419463298 -846135039
            8425602 2055768080 -1988081141 600440832</internalNodes>
          <leafValues>
            -3.5745158791542053e-01 2.9433920979499817e-01</leafValues></_>
        <_>
          <internalNodes>
            0 -1 236 -1622973747 2097217606 36894 -803307518 1342425088
            1476395009 696326363 289270120</internalNodes>
          <leafValues>
            -3.4288257360458374e-01 3.0168661475181580e-01</leafValues></_>
        <_>
          <internalNodes>
            0 -1 18 -10103509 -168304711 -8508034 -499650953 519276142
            -940050571 242531786 1518071499</internalNodes>
          <leafValues>
            -1.9989149272441864e-01 5.3284072875976562e-01</leafValues></_></weakClassifiers></_>
    <!-- stage 17 -->
    <_>
      <maxWeakCount>15</maxWeakCount>
      <stageThreshold>-5.9203064441680908e-01</stageThreshold>
      <weakClassifiers>
        <_>
          <internalNodes>
            0 -1 199 250518744 1919319712 922642079 95157309 -1224803171
            1573908455 -990056854 -1729495180</internalNodes>
          <leafValues>
            -2.6905829086899757e-02 6.2334537506103516e-01</leafValues></_>
        <_>
          <internalNodes>
            0 -1 181 536259204 -1053233345 1877911534 1940127674
            960438164 285096630 738084602 -1385984465</internalNodes>
          <leafValues>
            -2.5156012177467346e-01 4.2692467570304871e-01</leafValues></_>
        <_>
          <internalNodes>
            0 -1 83 290503583 402948288 -1995946740 1834326345
            -1103046218 -1078288206 -1790932945 634520324</internalNodes>
          <leafValues>
            -3.2900142669677734e-01 3.0647045373916626e-01</leafValues></_>
        <_>
          <internalNodes>
            0 -1 34 -2130627490 950112472 1149863314 -1671919131
            -653192461 -1579548526 1678098994 2009836034</internalNodes>
          <leafValues>
            -3.6790359020233154e-01 2.8480127453804016e-01</leafValues></_>
        <_>
          <internalNodes>
            0 -1 130 -1321035511 1729430742 1090523915 1503593216
            -1040080760 596213897 1527776152 591931432</internalNodes>
          <leafValues>
            -4.0234503149986267e-01 2.6006808876991272e-01</leafValues></_>
        <_>
          <internalNodes>
            0 -1 69 1152468122 1099936932 18579782 4720640 -70997984
            1487569570 -902727390 -1379650931</internalNodes>
          <leafValues>
            -3.7619298696517944e-01 2.6633244752883911e-01</leafValues></_>
        <_>
          <internalNodes>
            0 -1 225 -89401960 -14091158 787439350 -96470151 -830472484
            1447886839 636286842 -1689547414</internalNodes>
          <leafValues>
            -1.9314455986022949e-01 5.3417128324508667e-01</leafValues></_>
        <_>
          <internalNodes>
            0 -1 41 498458096 -1901617233 2146893554 -1418119429
            2113830301 1593114422 1316621631 -1451495947</internalNodes>
          <leafValues>
            -2.9339185357093811e-01 3.4561538696289062e-01</leafValues></_>
        <_>
          <internalNodes>
            0 -1 156 626238484 269258840 68241465 2097538 1355364522
            195277072 -1643705855 742662689</internalNodes>
          <leafValues>
            -5.3291761875152588e-01 1.8198503553867340e-01</leafValues></_>
        <_>
          <internalNodes>
            0 -1 148 459389497 -1180060942 1068920823 -838993675
            -1090600177 2147352414 -1630108090 119053323</internalNodes>
          <leafValues>
            -3.0634066462516785e-01 3.5272514820098877e-01</leafValues></_>
        <_>
          <internalNodes>
            0 -1 142 -185494471 -1107461077 -1376780633 1773862838
            -1443037709 -1082278209 -1166296839 1007013631</internalNodes>
          <leafValues>
            -2.3476028442382812e-01 4.1933351755142212e-01</leafValues></_>
        <_>
          <internalNodes>
            0 -1 244 -1242813651 335429615 1056863856 2145419133
            -1611337957 -1008304258 1332213195 -415000592</internalNodes>
          <leafValues>
            -2.6899811625480652e-01 3.7959712743759155e-01</leafValues></_>
        <_>
          <internalNodes>
            0 -1 174 -511534856 -518815439 167788547 1692948556 4318038
            1359094024 1619374669 -1250776811</internalNodes>
          <leafValues>
            -3.9095526933670044e-01 2.5891783833503723e-01</leafValues></_>
        <_>
          <internalNodes>
            0 -1 187 256703675 -479481922 -285282425 1102664952 -9053194
            -671088771 2129982556 1306099674</internalNodes>
          <leafValues>
            -2.5195840001106262e-01 3.8182336091995239e-01</leafValues></_>
        <_>
          <internalNodes>
            0 -1 64 1030339773 983551999 1056680698 -986024323
            -134412641 1996064631 -1371664398 -743409383</internalNodes>
          <leafValues>
            -2.9124897718429565e-01 3.4428879618644714e-01</leafValues></_></weakClassifiers></_>
    <!-- stage 18 -->
    <_>
      <maxWeakCount>15</maxWeakCount>
      <stageThreshold>-5.7512891292572021e-01</stageThreshold>
      <weakClassifiers>
        <_>
          <internalNodes>
            0 -1 44 -50625010 1852755887 -1342320662 1945042738
            -59539922 215842806 1148254194 187923422</internalNodes>
          <leafValues>
            -8.9332178235054016e-02 5.9718459844589233e-01</leafValues></_>
        <_>
          <internalNodes>
            0 -1 166 -275915881 1507450681 -1073758210 682662703
            -538976392 1174306685 1574279166 1395909498</internalNodes>
          <leafValues>
            -1.9964554905891418e-01 4.9490234255790710e-01</leafValues></_>
        <_>
          <internalNodes>
            0 -1 177 -1074068596 -134220580 2080373470 1436677272
            -1255937 1465212735 -941824258 562885914</internalNodes>
          <leafValues>
            -2.5282424688339233e-01 3.8425394892692566e-01</leafValues></_>
        <_>
          <internalNodes>
            0 -1 157 -662731 -17285398 -22740 -1786839042 2013253054
            1417378512 -537790136 -1086835182</internalNodes>
          <leafValues>
            -2.3540826141834259e-01 4.0171876549720764e-01</leafValues></_>
        <_>
          <internalNodes>
            0 -1 88 -1870965093 -589885047 84650256 939598475 302923791
            243927691 -347890565 -1314131160</internalNodes>
          <leafValues>
            -3.4074005484580994e-01 3.1015944480895996e-01</leafValues></_>
        <_>
          <internalNodes>
            0 -1 128 -951914362 -1005205953 654542211 -536819643
            -125781856 1405692082 671187297 1096200672</internalNodes>
          <leafValues>
            -4.2818191647529602e-01 2.2286243736743927e-01</leafValues></_>
        <_>
          <internalNodes>
            0 -1 36 -969652 988641213 -1342509472 1471248370 -604074246
            -956925969 1179105525 -1172833393</internalNodes>
          <leafValues>
            -2.2321590781211853e-01 4.4796168804168701e-01</leafValues></_>
        <_>
          <internalNodes>
            0 -1 2 322965971 1490129169 16814351 -315834340 2021687392
            1133019269 -1307922182 1091103288</internalNodes>
          <leafValues>
            -3.1838095188140869e-01 3.0716624855995178e-01</leafValues></_>
        <_>
          <internalNodes>
            0 -1 119 -884881918 47452293 72073 -737975906 -1732202482
            319455372 1073875998 -65511219</internalNodes>
          <leafValues>
            -4.1883164644241333e-01 2.5773614645004272e-01</leafValues></_>
        <_>
          <internalNodes>
            0 -1 229 -85251382 871304876 -1363181903 426330683 402550198
            627855356 -1258346663 591096159</internalNodes>
          <leafValues>
            -3.0759969353675842e-01 3.3902087807655334e-01</leafValues></_>
        <_>
          <internalNodes>
            0 -1 202 -135416541 -80085001 -50344202 1358493615 519913207
            -16951305 1568463096 -583141653</internalNodes>
          <leafValues>
            -1.9564951956272125e-01 5.6329077482223511e-01</leafValues></_>
        <_>
          <internalNodes>
            0 -1 150 5403974 -951610432 268437218 -451936256 -930832004
            1356955931 -1718872006 545847328</internalNodes>
          <leafValues>
            -4.5854353904724121e-01 2.5557747483253479e-01</leafValues></_>
        <_>
          <internalNodes>
            0 -1 67 -2057553058 -1818845279 -2138183420 1514415257
            549778744 1073905676 557881416 1506777287</internalNodes>
          <leafValues>
            -3.4189036488533020e-01 3.0753988027572632e-01</leafValues></_>
        <_>
          <internalNodes>
            0 -1 27 -930874650 1094811650 130 16826948 1073946784 65537
            1912602639 -534521784</internalNodes>
          <leafValues>
            -2.9038932919502258e-01 3.7184935808181763e-01</leafValues></_>
        <_>
          <internalNodes>
            0 -1 152 356579013 1409735974 -1828621949 -459784182
            -780058399 869269760 1883408420 1256645738</internalNodes>
          <leafValues>
            -3.4110859036445618e-01 3.1150472164154053e-01</leafValues></_></weakClassifiers></_>
    <!-- stage 19 -->
    <_>
      <maxWeakCount>15</maxWeakCount>
      <stageThreshold>-7.2555458545684814e-01</stageThreshold>
      <weakClassifiers>
        <_>
          <internalNodes>
            0 -1 51 1587396236 1585299199 -1388380164 1407319794
            -696689981 788470527 1941337657 695563068</internalNodes>
          <leafValues>
            -4.2763158679008484e-02 5.8968609571456909e-01</leafValues></_>
        <_>
          <internalNodes>
            0 -1 23 -807014817 -600205 -1082196370 -873204609 -269420803
            780008822 -538793870 -134481997</internalNodes>
          <leafValues>
            -1.3660444319248199e-01 6.0624212026596069e-01</leafValues></_>
        <_>
          <internalNodes>
            0 -1 114 290662060 1611960471 1363170314 -464515056
            -624519136 1929545729 268543323 1113870848</internalNodes>
          <leafValues>
            -5.3801339864730835e-01 1.9391869008541107e-01</leafValues></_>
        <_>
          <internalNodes>
            0 -1 15 -1586989623 1079592403 872415722 1695831187
            -1697870164 -1950998127 -1688893872 1739663792</internalNodes>
          <leafValues>
            -3.6610469222068787e-01 2.6031315326690674e-01</leafValues></_>
        <_>
          <internalNodes>
            0 -1 153 970614054 -1315405047 -2147413464 1716862984
            -129908148 1229856785 -1591027473 -1970857177</internalNodes>
          <leafValues>
            -3.6230713129043579e-01 3.1108248233795166e-01</leafValues></_>
        <_>
          <internalNodes>
            0 -1 108 -84718081 -1934108797 532066157 427097081
            -1088443468 -604176388 629121636 -26552552</internalNodes>
          <leafValues>
            -2.7051180601119995e-01 3.9149633049964905e-01</leafValues></_>
        <_>
          <internalNodes>
            0 -1 208 -1957637620 -1340235625 16589 42308163 -268197606
            5244931 1347916464 -1073432048</internalNodes>
          <leafValues>
            -4.9340164661407471e-01 1.9244368374347687e-01</leafValues></_>
        <_>
          <internalNodes>
            0 -1 127 908724856 1341337293 654042096 981332859 -805645441
            670421117 -1904259469 1391309758</internalNodes>
          <leafValues>
            -3.0303916335105896e-01 3.3081617951393127e-01</leafValues></_>
        <_>
          <internalNodes>
            0 -1 40 605889068 290761739 1359840392 -229063296
            -1596247247 143687680 1262684324 224708161</internalNodes>
          <leafValues>
            -5.0835126638412476e-01 1.9554369151592255e-01</leafValues></_>
        <_>
          <internalNodes>
            0 -1 149 -284047596 -460810084 1358965316 1082170536
            -501210814 -69533132 -636419066 19187504</internalNodes>
          <leafValues>
            -6.0302335023880005e-01 1.6001045703887939e-01</leafValues></_>
        <_>
          <internalNodes>
            0 -1 82 -1332997912 -624799399 1346371654 273137864
            1754050895 1103200910 617027036 -937038167</internalNodes>
          <leafValues>
            -3.8452202081680298e-01 2.6477411389350891e-01</leafValues></_>
        <_>
          <internalNodes>
            0 -1 116 1876793873 -805306569 2147385207 -67815962
            603905496 2130476862 1567684351 -1082003717</internalNodes>
          <leafValues>
            -2.1090382337570190e-01 4.7585082054138184e-01</leafValues></_>
        <_>
          <internalNodes>
            0 -1 65 51507316 79712832 -989847778 1615991244 302010458
            839583760 -444453182 3178944</internalNodes>
          <leafValues>
            -7.0646327733993530e-01 1.3619117438793182e-01</leafValues></_>
        <_>
          <internalNodes>
            0 -1 172 -1208075013 -655364314 -268435462 838794998
            2139086415 -143298698 -159975842 -1041465868</internalNodes>
          <leafValues>
            -2.7988064289093018e-01 3.7145954370498657e-01</leafValues></_>
        <_>
          <internalNodes>
            0 -1 158 139870926 -1005584367 268538062 718178616
            1497651229 939556866 -2130661424 -2010775071</internalNodes>
          <leafValues>
            -5.2965193986892700e-01 2.0175516605377197e-01</leafValues></_></weakClassifiers></_></stages>
  <features>
    <_>
      <rect>
        0 0 1 1</rect></_>
    <_>
      <rect>
        0 0 3 6</rect></_>
    <_>
      <rect>
        0 0 4 2</rect></_>
    <_>
      <rect>
        0 0 4 7</rect></_>
    <_>
      <rect>
        0 0 5 2</rect></_>
    <_>
      <rect>
        0 0 5 3</rect></_>
    <_>
      <rect>
        0 0 5 4</rect></_>
    <_>
      <rect>
        0 0 5 6</rect></_>
    <_>
      <rect>
        0 0 5 7</rect></_>
    <_>
      <rect>
        0 0 5 8</rect></_>
    <_>
      <rect>
        0 0 6 3</rect></_>
    <_>
      <rect>
        0 0 7 7</rect></_>
    <_>
      <rect>
        0 0 7 8</rect></_>
    <_>
      <rect>
        0 0 8 3</rect></_>
    <_>
      <rect>
        0 0 8 6</rect></_>
    <_>
      <rect>
        0 0 8 7</rect></_>
    <_>
      <rect>
        0 0 8 8</rect></_>
    <_>
      <rect>
        0 1 3 4</rect></_>
    <_>
      <rect>
        0 1 4 5</rect></_>
    <_>
      <rect>
        0 1 8 5</rect></_>
    <_>
      <rect>
        0 2 1 2</rect></_>
    <_>
      <rect>
        0 2 3 4</rect></_>
    <_>
      <rect>
        0 2 5 5</rect></_>
    <_>
      <rect>
        0 2 5 7</rect></_>
    <_>
      <rect>
        0 2 6 7</rect></_>
    <_>
      <rect>
        0 2 8 4</rect></_>
    <_>
      <rect>
        0 3 2 4</rect></_>
    <_>
      <rect>
        0 3 2 7</rect></_>
    <_>
      <rect>
        0 3 3 7</rect></_>
    <_>
      <rect>
        0 3 4 7</rect></_>
    <_>
      <rect>
        0 3 5 4</rect></_>
    <_>
      <rect>
        0 3 6 6</rect></_>
    <_>
      <rect>
        0 3 6 7</rect></_>
    <_>
      <rect>
        0 3 8 4</rect></_>
    <_>
      <rect>
        0 3 8 7</rect></_>
    <_>
      <rect>
        0 4 3 4</rect></_>
    <_>
      <rect>
        0 4 7 6</rect></_>
    <_>
      <rect>
        0 5 3 3</rect></_>
    <_>
      <rect>
        0 5 8 6</rect></_>
    <_>
      <rect>
        0 6 5 5</rect></_>
    <_>
      <rect>
        0 6 6 6</rect></_>
    <_>
      <rect>
        0 7 3 5</rect></_>
    <_>
      <rect>
        0 7 4 4</rect></_>
    <_>
      <rect>
        0 7 8 4</rect></_>
    <_>
      <rect>
        0 9 5 4</rect></_>
    <_>
      <rect>
        0 9 5 5</rect></_>
    <_>
      <rect>
        0 11 2 3</rect></_>
    <_>
      <rect>
        0 11 4 3</rect></_>
    <_>
      <rect>
        0 11 4 4</rect></_>
    <_>
      <rect>
        0 12 1 1</rect></_>
    <_>
      <rect>
        0 12 2 2</rect></_>
    <_>
      <rect>
        0 12 5 4</rect></_>
    <_>
      <rect>
        0 12 8 4</rect></_>
    <_>
      <rect>
        0 14 1 1</rect></_>
    <_>
      <rect>
        0 15 1 1</rect></_>
    <_>
      <rect>
        0 18 3 2</rect></_>
    <_>
      <rect>
        0 20 1 1</rect></_>
    <_>
      <rect>
        1 0 1 1</rect></_>
    <_>
      <rect>
        1 0 1 2</rect></_>
    <_>
      <rect>
        1 0 2 1</rect></_>
    <_>
      <rect>
        1 0 4 5</rect></_>
    <_>
      <rect>
        1 0 5 5</rect></_>
    <_>
      <rect>
        1 0 6 5</rect></_>
    <_>
      <rect>
        1 1 5 7</rect></_>
    <_>
      <rect>
        1 1 6 6</rect></_>
    <_>
      <rect>
        1 2 6 3</rect></_>
    <_>
      <rect>
        1 2 6 5</rect></_>
    <_>
      <rect>
        1 2 6 7</rect></_>
    <_>
      <rect>
        1 3 3 4</rect></_>
    <_>
      <rect>
        1 3 6 7</rect></_>
    <_>
      <rect>
        1 6 5 6</rect></_>
    <_>
      <rect>
        1 6 6 5</rect></_>
    <_>
      <rect>
        1 7 2 4</rect></_>
    <_>
      <rect>
        1 9 5 5</rect></_>
    <_>
      <rect>
        1 10 3 3</rect></_>
    <_>
      <rect>
        1 12 4 4</rect></_>
    <_>
      <rect>
        1 13 1 1</rect></_>
    <_>
      <rect>
        1 14 1 1</rect></_>
    <_>
      <rect>
        1 15 6 3</rect></_>
    <_>
      <rect>
        1 19 1 1</rect></_>
    <_>
      <rect>
        2 0 3 2</rect></_>
    <_>
      <rect>
        2 0 5 4</rect></_>
    <_>
      <rect>
        2 0 5 7</rect></_>
    <_>
      <rect>
        2 0 6 4</rect></_>
    <_>
      <rect>
        2 0 6 5</rect></_>
    <_>
      <rect>
        2 0 7 5</rect></_>
    <_>
      <rect>
        2 1 5 4</rect></_>
    <_>
      <rect>
        2 1 6 4</rect></_>
    <_>
      <rect>
        2 1 7 7</rect></_>
    <_>
      <rect>
        2 2 7 6</rect></_>
    <_>
      <rect>
        2 3 7 7</rect></_>
    <_>
      <rect>
        2 6 1 1</rect></_>
    <_>
      <rect>
        2 6 1 2</rect></_>
    <_>
      <rect>
        2 6 2 4</rect></_>
    <_>
      <rect>
        2 6 7 6</rect></_>
    <_>
      <rect>
        2 7 4 3</rect></_>
    <_>
      <rect>
        2 11 3 2</rect></_>
    <_>
      <rect>
        2 11 7 4</rect></_>
    <_>
      <rect>
        2 18 1 1</rect></_>
    <_>
      <rect>
        2 18 4 2</rect></_>
    <_>
      <rect>
        2 19 1 1</rect></_>
    <_>
      <rect>
        2 21 1 1</rect></_>
    <_>
      <rect>
        3 0 6 8</rect></_>
    <_>
      <rect>
        3 0 7 3</rect></_>
    <_>
      <rect>
        3 1 1 1</rect></_>
    <_>
      <rect>
        3 1 5 7</rect></_>
    <_>
      <rect>
        3 2 3 5</rect></_>
    <_>
      <rect>
        3 2 7 5</rect></_>
    <_>
      <rect>
        3 2 7 6</rect></_>
    <_>
      <rect>
        3 2 7 7</rect></_>
    <_>
      <rect>
        3 3 5 7</rect></_>
    <_>
      <rect>
        3 3 7 6</rect></_>
    <_>
      <rect>
        3 4 7 5</rect></_>
    <_>
      <rect>
        3 5 7 6</rect></_>
    <_>
      <rect>
        3 6 4 3</rect></_>
    <_>
      <rect>
        3 7 1 1</rect></_>
    <_>
      <rect>
        3 7 3 5</rect></_>
    <_>
      <rect>
        3 9 4 3</rect></_>
    <_>
      <rect>
        3 10 7 4</rect></_>
    <_>
      <rect>
        3 12 3 2</rect></_>
    <_>
      <rect>
        3 16 2 2</rect></_>
    <_>
      <rect>
        3 17 1 1</rect></_>
    <_>
      <rect>
        3 21 1 1</rect></_>
    <_>
      <rect>
        3 21 6 1</rect></_>
    <_>
      <rect>
        4 1 5 6</rect></_>
    <_>
      <rect>
        4 2 6 5</rect></_>
    <_>
      <rect>
        4 2 6 6</rect></_>
    <_>
      <rect>
        4 3 6 7</rect></_>
    <_>
      <rect>
        4 5 4 3</rect></_>
    <_>
      <rect>
        4 7 3 4</rect></_>
    <_>
      <rect>
        4 9 3 3</rect></_>
    <_>
      <rect>
        4 9 4 3</rect></_>
    <_>
      <rect>
        4 10 4 4</rect></_>
    <_>
      <rect>
        4 16 1 1</rect></_>
    <_>
      <rect>
        4 17 3 2</rect></_>
    <_>
      <rect>
        4 21 1 1</rect></_>
    <_>
      <rect>
        4 21 3 1</rect></_>
    <_>
      <rect>
        5 0 1 1</rect></_>
    <_>
      <rect>
        5 3 6 3</rect></_>
    <_>
      <rect>
        5 3 6 7</rect></_>
    <_>
      <rect>
        5 7 6 5</rect></_>
    <_>
      <rect>
        5 8 2 3</rect></_>
    <_>
      <rect>
        5 9 4 5</rect></_>
    <_>
      <rect>
        5 10 6 4</rect></_>
    <_>
      <rect>
        5 15 2 2</rect></_>
    <_>
      <rect>
        5 17 3 2</rect></_>
    <_>
      <rect>
        5 19 1 1</rect></_>
    <_>
      <rect>
        6 0 4 5</rect></_>
    <_>
      <rect>
        6 0 5 6</rect></_>
    <_>
      <rect>
        6 3 6 3</rect></_>
    <_>
      <rect>
        6 3 6 4</rect></_>
    <_>
      <rect>
        6 4 4 4</rect></_>
    <_>
      <rect>
        6 4 5 4</rect></_>
    <_>
      <rect>
        6 4 5 5</rect></_>
    <_>
      <rect>
        6 4 6 6</rect></_>
    <_>
      <rect>
        6 6 6 6</rect></_>
    <_>
      <rect>
        6 9 6 5</rect></_>
    <_>
      <rect>
        6 13 5 3</rect></_>
    <_>
      <rect>
        6 17 3 2</rect></_>
    <_>
      <rect>
        6 18 1 1</rect></_>
    <_>
      <rect>
        6 21 6 1</rect></_>
    <_>
      <rect>
        7 0 4 2</rect></_>
    <_>
      <rect>
        7 0 5 3</rect></_>
    <_>
      <rect>
        7 21 1 1</rect></_>
    <_>
      <rect>
        8 0 4 4</rect></_>
    <_>
      <rect>
        8 0 5 5</rect></_>
    <_>
      <rect>
        8 1 2 3</rect></_>
    <_>
      <rect>
        8 2 5 5</rect></_>
    <_>
      <rect>
        8 4 5 4</rect></_>
    <_>
      <rect>
        8 12 1 1</rect></_>
    <_>
      <rect>
        8 19 3 1</rect></_>
    <_>
      <rect>
        8 21 3 1</rect></_>
    <_>
      <rect>
        9 0 3 1</rect></_>
    <_>
      <rect>
        9 0 5 6</rect></_>
    <_>
      <rect>
        9 0 5 7</rect></_>
    <_>
      <rect>
        9 0 5 8</rect></_>
    <_>
      <rect>
        9 1 4 4</rect></_>
    <_>
      <rect>
        9 3 5 3</rect></_>
    <_>
      <rect>
        9 3 5 7</rect></_>
    <_>
      <rect>
        9 6 5 5</rect></_>
    <_>
      <rect>
        9 6 5 6</rect></_>
    <_>
      <rect>
        9 7 3 2</rect></_>
    <_>
      <rect>
        9 7 5 5</rect></_>
    <_>
      <rect>
        9 11 4 4</rect></_>
    <_>
      <rect>
        9 18 2 1</rect></_>
    <_>
      <rect>
        9 21 2 1</rect></_>
    <_>
      <rect>
        10 0 1 1</rect></_>
    <_>
      <rect>
        10 2 4 3</rect></_>
    <_>
      <rect>
        10 3 1 1</rect></_>
    <_>
      <rect>
        10 4 4 4</rect></_>
    <_>
      <rect>
        10 11 4 4</rect></_>
    <_>
      <rect>
        10 14 2 1</rect></_>
    <_>
      <rect>
        10 18 1 1</rect></_>
    <_>
      <rect>
        11 0 3 2</rect></_>
    <_>
      <rect>
        11 0 4 1</rect></_>
    <_>
      <rect>
        11 1 1 1</rect></_>
    <_>
      <rect>
        11 2 4 1</rect></_>
    <_>
      <rect>
        11 4 3 4</rect></_>
    <_>
      <rect>
        11 14 4 3</rect></_>
    <_>
      <rect>
        12 0 4 2</rect></_>
    <_>
      <rect>
        12 0 4 4</rect></_>
    <_>
      <rect>
        12 1 1 1</rect></_>
    <_>
      <rect>
        12 1 3 5</rect></_>
    <_>
      <rect>
        12 2 4 4</rect></_>
    <_>
      <rect>
        12 5 4 5</rect></_>
    <_>
      <rect>
        12 9 2 1</rect></_>
    <_>
      <rect>
        13 4 1 2</rect></_>
    <_>
      <rect>
        13 4 3 4</rect></_>
    <_>
      <rect>
        13 8 3 3</rect></_>
    <_>
      <rect>
        13 14 1 1</rect></_>
    <_>
      <rect>
        13 15 1 1</rect></_>
    <_>
      <rect>
        14 0 1 1</rect></_>
    <_>
      <rect>
        14 0 3 3</rect></_>
    <_>
      <rect>
        14 10 3 4</rect></_>
    <_>
      <rect>
        14 13 3 2</rect></_>
    <_>
      <rect>
        14 16 3 2</rect></_>
    <_>
      <rect>
        14 21 3 1</rect></_>
    <_>
      <rect>
        15 0 2 3</rect></_>
    <_>
      <rect>
        15 0 3 2</rect></_>
    <_>
      <rect>
        15 0 3 4</rect></_>
    <_>
      <rect>
        15 2 3 4</rect></_>
    <_>
      <rect>
        15 5 3 4</rect></_>
    <_>
      <rect>
        15 7 2 3</rect></_>
    <_>
      <rect>
        15 11 3 4</rect></_>
    <_>
      <rect>
        15 16 2 1</rect></_>
    <_>
      <rect>
        16 4 1 1</rect></_>
    <_>
      <rect>
        16 6 1 1</rect></_>
    <_>
      <rect>
        16 7 1 1</rect></_>
    <_>
      <rect>
        16 16 1 1</rect></_>
    <_>
      <rect>
        16 21 1 1</rect></_>
    <_>
      <rect>
        17 14 2 2</rect></_>
    <_>
      <rect>
        17 15 1 1</rect></_>
    <_>
      <rect>
        17 20 1 1</rect></_>
    <_>
      <rect>
        17 21 2 1</rect></_>
    <_>
      <rect>
        18 0 2 2</rect></_>
    <_>
      <rect>
        18 3 2 1</rect></_>
    <_>
      <rect>
        18 6 2 2</rect></_>
    <_>
      <rect>
        18 11 1 1</rect></_>
    <_>
      <rect>
        18 15 1 1</rect></_>
    <_>
      <rect>
        19 5 1 1</rect></_>
    <_>
      <rect>
        20 3 1 1</rect></_>
    <_>
      <rect>
        20 6 1 1</rect></_>
    <_>
      <rect>
        20 11 1 1</rect></_>
    <_>
      <rect>
        20 14 1 1</rect></_>
    <_>
      <rect>
        20 19 1 1</rect></_>
    <_>
      <rect>
        20 21 1 1</rect></_>
    <_>
      <rect>
        21 0 1 1</rect></_>
    <_>
      <rect>
        21 1 1 1</rect></_>
    <_>
      <rect>
        21 11 1 1</rect></_>
    <_>
      <rect>
        21 15 1 1</rect></_>
    <_>
      <rect>
        21 20 1 1</rect></_>
    <_>
      <rect>
        21 21 1 1</rect></_></features></cascade>
</opencv_storage>
