<?xml version="1.0"?>
<opencv_storage>
<cascade>
  <stageType>BOOST</stageType>
  <featureType>LBP</featureType>
  <height>24</height>
  <width>24</width>
  <stageParams>
    <boostType>GAB</boostType>
    <minHitRate>9.9500000476837158e-01</minHitRate>
    <maxFalseAlarm>5.0000000000000000e-01</maxFalseAlarm>
    <weightTrimRate>9.4999999999999996e-01</weightTrimRate>
    <maxDepth>1</maxDepth>
    <maxWeakCount>100</maxWeakCount></stageParams>
  <featureParams>
    <maxCatCount>256</maxCatCount>
    <featSize>1</featSize></featureParams>
  <stageNum>20</stageNum>
  <stages>
    <!-- stage 0 -->
    <_>
      <maxWeakCount>5</maxWeakCount>
      <stageThreshold>-1.1275328397750854e+00</stageThreshold>
      <weakClassifiers>
        <_>
          <internalNodes>
            0 -1 17 1504707588 1601507124 -1166147266 1999976224
            -890204424 1056128806 -261203217 539100195</internalNodes>
          <leafValues>
            -6.5443789958953857e-01 7.2064965963363647e-01</leafValues></_>
        <_>
          <internalNodes>
            0 -1 120 -81735280 -34264008 783974074 2065239136
            -1356100098 -1124131341 178788346 -2094858197</internalNodes>
          <leafValues>
            -3.7672159075737000e-01 7.8837800025939941e-01</leafValues></_>
        <_>
          <internalNodes>
            0 -1 152 -41892696 2099649844 1056922788 2067207852
            1307901902 2139060086 452366059 -534573045</internalNodes>
          <leafValues>
            -4.0158993005752563e-01 7.3468464612960815e-01</leafValues></_>
        <_>
          <internalNodes>
            0 -1 136 -1330111360 -285557524 2080341905 -67723292
            -1745793252 578797037 -1397164050 -2103291328</internalNodes>
          <leafValues>
            -5.3578072786331177e-01 5.9698009490966797e-01</leafValues></_>
        <_>
          <internalNodes>
            0 -1 118 -777499496 897148482 -1129255325 2032331552
            1425665208 -696823937 242941579 52450731</internalNodes>
          <leafValues>
            -5.3409028053283691e-01 5.6311810016632080e-01</leafValues></_></weakClassifiers></_>
    <!-- stage 1 -->
    <_>
      <maxWeakCount>3</maxWeakCount>
      <stageThreshold>-7.1042233705520630e-01</stageThreshold>
      <weakClassifiers>
        <_>
          <internalNodes>
            0 -1 114 203424768 7225188 779861616 955924481 1025508352
            1845034999 925914260 -2078276320</internalNodes>
          <leafValues>
            -6.8986570835113525e-01 7.1756076812744141e-01</leafValues></_>
        <_>
          <internalNodes>
            0 -1 198 -2147483584 538050688 285229073 -16580608
            -1870135296 545259520 -1568634848 -1434320896</internalNodes>
          <leafValues>
            -6.1064201593399048e-01 6.4469152688980103e-01</leafValues></_>
        <_>
          <internalNodes>
            0 -1 181 -2139093888 -2013265920 16859292 1350565888
            -2130542584 1075838976 671121538 -2113797888</internalNodes>
          <leafValues>
            -6.0431033372879028e-01 5.9008538722991943e-01</leafValues></_></weakClassifiers></_>
    <!-- stage 2 -->
    <_>
      <maxWeakCount>5</maxWeakCount>
      <stageThreshold>-5.8120352029800415e-01</stageThreshold>
      <weakClassifiers>
        <_>
          <internalNodes>
            0 -1 45 -1935146496 683294700 -16897282 821841648
            -1494081696 376930175 -1376207180 -2141190860</internalNodes>
          <leafValues>
            -5.6144577264785767e-01 6.7557603120803833e-01</leafValues></_>
        <_>
          <internalNodes>
            0 -1 195 -2013003712 269107200 4301138 1372586128
            -1610604544 -1593835520 -1576902144 -1566438896</internalNodes>
          <leafValues>
            -6.3320076465606689e-01 5.4376298189163208e-01</leafValues></_>
        <_>
          <internalNodes>
            0 -1 121 -677323640 511680373 -10004 1068307456 -562897669
            528441206 2126499007 1629692043</internalNodes>
          <leafValues>
            -5.2789956331253052e-01 6.1519461870193481e-01</leafValues></_>
        <_>
          <internalNodes>
            0 -1 13 -753872720 -645316608 1476399556 1494302738
            -2147450134 -1450557430 201556106 715866125</internalNodes>
          <leafValues>
            -5.1995420455932617e-01 6.0910904407501221e-01</leafValues></_>
        <_>
          <internalNodes>
            0 -1 0 -1878915072 1048578 1073745920 -1341898624 1610883072
            0 -1039367976 -1602076672</internalNodes>
          <leafValues>
            -5.9782975912094116e-01 5.1820266246795654e-01</leafValues></_></weakClassifiers></_>
    <!-- stage 3 -->
    <_>
      <maxWeakCount>6</maxWeakCount>
      <stageThreshold>-5.5769431591033936e-01</stageThreshold>
      <weakClassifiers>
        <_>
          <internalNodes>
            0 -1 14 -1185839984 -105799920 1660571383 1494432305
            1316783794 1031692090 519851215 187383855</internalNodes>
          <leafValues>
            -2.6182430982589722e-01 7.2136563062667847e-01</leafValues></_>
        <_>
          <internalNodes>
            0 -1 164 -2105539440 -1369422121 -1090683210 -794087748
            -2072730224 -268541962 -1166885390 -1440082176</internalNodes>
          <leafValues>
            -4.6458658576011658e-01 5.6282842159271240e-01</leafValues></_>
        <_>
          <internalNodes>
            0 -1 100 -643282736 -1180078275 -1191547365 -1725814495
            -2064593254 -696291467 712682698 195218467</internalNodes>
          <leafValues>
            -4.2971026897430420e-01 5.0657552480697632e-01</leafValues></_>
        <_>
          <internalNodes>
            0 -1 6 -704854468 -1619394764 -21057541 2146135841
            -1372524817 -1376473225 -1406513170 1799089579</internalNodes>
          <leafValues>
            -4.0812847018241882e-01 5.4327201843261719e-01</leafValues></_>
        <_>
          <internalNodes>
            0 -1 174 -1935113035 -588349443 -269506584 -33874115
            -1484982788 1022852860 -1786851852 -1164290888</internalNodes>
          <leafValues>
            -4.0602231025695801e-01 5.4524004459381104e-01</leafValues></_>
        <_>
          <internalNodes>
            0 -1 184 -1640346592 -1071358252 -65868 -127587140
            -1921457060 1584783196 -1896452976 -1568009076</internalNodes>
          <leafValues>
            -4.4267567992210388e-01 4.7629180550575256e-01</leafValues></_></weakClassifiers></_>
    <!-- stage 4 -->
    <_>
      <maxWeakCount>8</maxWeakCount>
      <stageThreshold>-5.8098465204238892e-01</stageThreshold>
      <weakClassifiers>
        <_>
          <internalNodes>
            0 -1 10 -653209224 1000016953 729493222 957946420 264015027
            -21332033 1069042907 37433355</internalNodes>
          <leafValues>
            -2.2631579637527466e-01 6.7634409666061401e-01</leafValues></_>
        <_>
          <internalNodes>
            0 -1 144 -1439525704 -360024594 -1145275184 -767787154
            -1495617872 -964936072 -1226663996 -1146615672</internalNodes>
          <leafValues>
            -3.7260860204696655e-01 5.3043967485427856e-01</leafValues></_>
        <_>
          <internalNodes>
            0 -1 15 -921898660 1546733833 1342263441 1929580864
            -1040012645 -1416953726 51194383 992674319</internalNodes>
          <leafValues>
            -4.1723605990409851e-01 4.7509694099426270e-01</leafValues></_>
        <_>
          <internalNodes>
            0 -1 196 -1977038672 -1977058400 788422641 -152002891
            -1619356480 -1753251996 -1649764912 -1095102988</internalNodes>
          <leafValues>
            -3.9463117718696594e-01 5.0314289331436157e-01</leafValues></_>
        <_>
          <internalNodes>
            0 -1 112 -1534587760 -771686255 -1879048164 -656572288
            -1335721846 1351123080 478711962 -1422785648</internalNodes>
          <leafValues>
            -4.5295050740242004e-01 4.5784038305282593e-01</leafValues></_>
        <_>
          <internalNodes>
            0 -1 84 -2147347200 -1476395008 262289 -226197368
            -2147317744 131200 -2012739120 -1348581240</internalNodes>
          <leafValues>
            -4.7312542796134949e-01 4.1071188449859619e-01</leafValues></_>
        <_>
          <internalNodes>
            0 -1 127 -617833456 -670543831 -1048447997 486899724
            1233126074 -1165819773 671656347 37716158</internalNodes>
          <leafValues>
            -4.5965096354484558e-01 4.2813402414321899e-01</leafValues></_>
        <_>
          <internalNodes>
            0 -1 188 -263712668 -805289726 822084242 -557834174
            -2122133156 -1878998909 -1828585328 -1131541860</internalNodes>
          <leafValues>
            -4.3760603666305542e-01 4.4391155242919922e-01</leafValues></_></weakClassifiers></_>
    <!-- stage 5 -->
    <_>
      <maxWeakCount>8</maxWeakCount>
      <stageThreshold>-5.4311519861221313e-01</stageThreshold>
      <weakClassifiers>
        <_>
          <internalNodes>
            0 -1 145 -1732770304 -454267060 855523049 -1293541456
            -1501656040 -411271300 -1924861968 -1599584012</internalNodes>
          <leafValues>
            -2.7752292156219482e-01 5.8364659547805786e-01</leafValues></_>
        <_>
          <internalNodes>
            0 -1 74 -49767267 -82805640 1069473247 423168558 1046224634
            -1073774605 -1435332661 187245599</internalNodes>
          <leafValues>
            -3.2713562250137329e-01 5.6807667016983032e-01</leafValues></_>
        <_>
          <internalNodes>
            0 -1 163 -2147483596 -1328511935 1073795203 -1238212532
            -1878491086 -1072627584 -1987427644 -1212546928</internalNodes>
          <leafValues>
            -4.7419068217277527e-01 4.1488063335418701e-01</leafValues></_>
        <_>
          <internalNodes>
            0 -1 190 -1472588776 -932806788 1023311704 -115318811
            -1535658804 -1107525894 -1495619422 -1143334268</internalNodes>
          <leafValues>
            -3.8955426216125488e-01 4.6208584308624268e-01</leafValues></_>
        <_>
          <internalNodes>
            0 -1 47 -2029850076 -2147282814 -2147483500 343416896
            -2147314943 562069504 -2122284312 -1094844216</internalNodes>
          <leafValues>
            -4.5000600814819336e-01 4.0923932194709778e-01</leafValues></_>
        <_>
          <internalNodes>
            0 -1 7 1562678357 1601961785 -16814465 1404255779
            -1929869685 -1208188938 -84279154 1420552731</internalNodes>
          <leafValues>
            -3.4132963418960571e-01 4.9620240926742554e-01</leafValues></_>
        <_>
          <internalNodes>
            0 -1 61 44600484 -1901174860 -25395471 -739569682
            -1744904804 -176291980 670216080 -1078323784</internalNodes>
          <leafValues>
            -3.9076012372970581e-01 4.6450781822204590e-01</leafValues></_>
        <_>
          <internalNodes>
            0 -1 147 -1736421244 50728968 272716298 -1790771058
            -1610579782 98312 -1568636800 -2087582696</internalNodes>
          <leafValues>
            -4.3376964330673218e-01 4.1060671210289001e-01</leafValues></_></weakClassifiers></_>
    <!-- stage 6 -->
    <_>
      <maxWeakCount>10</maxWeakCount>
      <stageThreshold>-7.0634222030639648e-01</stageThreshold>
      <weakClassifiers>
        <_>
          <internalNodes>
            0 -1 198 -2078258112 -1090642436 -98500 -4268548 -8497836
            -136347777 -16876256 -1198893896</internalNodes>
          <leafValues>
            -2.0866142213344574e-01 6.1088711023330688e-01</leafValues></_>
        <_>
          <internalNodes>
            0 -1 106 -1525415932 -2071818239 1107329241 -803332004
            -1744788800 -2092957696 721468033 -1106767744</internalNodes>
          <leafValues>
            -4.5961430668830872e-01 3.8880875706672668e-01</leafValues></_>
        <_>
          <internalNodes>
            0 -1 30 269932216 -1807708144 134501201 320405768 537399482
            857874945 167776203 187201721</internalNodes>
          <leafValues>
            -4.1853377223014832e-01 4.0456959605216980e-01</leafValues></_>
        <_>
          <internalNodes>
            0 -1 2 -204098244 1125232641 1075904774 -1417608685
            -528424725 277053454 -369096485 704848110</internalNodes>
          <leafValues>
            -4.1297346353530884e-01 4.0159851312637329e-01</leafValues></_>
        <_>
          <internalNodes>
            0 -1 51 -587710360 -152801440 -1073856530 -637992982
            -1224983148 -1778419713 -78102 -1695607280</internalNodes>
          <leafValues>
            -3.1702786684036255e-01 5.0849735736846924e-01</leafValues></_>
        <_>
          <internalNodes>
            0 -1 165 -1669162352 -2011627384 1342210330 1914118164
            -1828585076 -1607925632 -1299535731 -1426449192</internalNodes>
          <leafValues>
            -3.9702922105789185e-01 4.1963577270507812e-01</leafValues></_>
        <_>
          <internalNodes>
            0 -1 137 1410350360 637763589 1090633738 -1450229245
            344687322 393346 -393559165 1644446215</internalNodes>
          <leafValues>
            -6.3625639677047729e-01 2.6680475473403931e-01</leafValues></_>
        <_>
          <internalNodes>
            0 -1 193 -2012610544 -1073676287 -268214056 -1114144696
            -1870560628 252412040 -123068236 -1600125424</internalNodes>
          <leafValues>
            -5.6157201528549194e-01 2.9633000493049622e-01</leafValues></_>
        <_>
          <internalNodes>
            0 -1 4 1592851792 1072392493 -1342620372 1265282093
            1341796346 -1243021381 936252396 354117675</internalNodes>
          <leafValues>
            -3.7864926457405090e-01 4.3969660997390747e-01</leafValues></_>
        <_>
          <internalNodes>
            0 -1 27 -545465143 -1072357981 -50336005 -273183326
            -990065161 -671236115 -1091621251 -441464357</internalNodes>
          <leafValues>
            -2.5358659029006958e-01 6.9614487886428833e-01</leafValues></_></weakClassifiers></_>
    <!-- stage 7 -->
    <_>
      <maxWeakCount>10</maxWeakCount>
      <stageThreshold>-6.1603921651840210e-01</stageThreshold>
      <weakClassifiers>
        <_>
          <internalNodes>
            0 -1 141 1873394305 -1280623099 1794960123 -349742051
            24924151 -1241901196 45374618 542327275</internalNodes>
          <leafValues>
            -5.4545454680919647e-02 6.6153848171234131e-01</leafValues></_>
        <_>
          <internalNodes>
            0 -1 194 -1239907368 -345100828 -1090528514 -1644216460
            -1505775118 -1074368772 -1476479747 -1294332692</internalNodes>
          <leafValues>
            -2.7865320444107056e-01 5.1558786630630493e-01</leafValues></_>
        <_>
          <internalNodes>
            0 -1 192 -1131003836 -2096988140 -721190847 -687013504
            -401987056 -2013233024 -2138382247 -1431688832</internalNodes>
          <leafValues>
            -4.1883626580238342e-01 3.7488260865211487e-01</leafValues></_>
        <_>
          <internalNodes>
            0 -1 11 1479604440 -110712079 -1157960769 1427347207
            -1367529764 -1360056489 -1711371649 453887567</internalNodes>
          <leafValues>
            -3.0771893262863159e-01 5.1067137718200684e-01</leafValues></_>
        <_>
          <internalNodes>
            0 -1 199 -1567188768 -2095939454 570458242 -1844510656
            -1584242472 -2012643167 -1472036720 -1343798943</internalNodes>
          <leafValues>
            -4.1264921426773071e-01 3.8877063989639282e-01</leafValues></_>
        <_>
          <internalNodes>
            0 -1 57 -29132760 -1819045869 -2147450807 -318635770
            2044795347 1905152267 -1457454965 212713866</internalNodes>
          <leafValues>
            -4.3808943033218384e-01 3.6251282691955566e-01</leafValues></_>
        <_>
          <internalNodes>
            0 -1 180 -1709534767 -1975386112 1367410006 -728408055
            -1274839012 -1459486077 -2146958943 -1305868224</internalNodes>
          <leafValues>
            -3.7247383594512939e-01 4.2988038063049316e-01</leafValues></_>
        <_>
          <internalNodes>
            0 -1 161 370163776 -1300099072 106760 -963461117 -2113396696
            -1325195255 -1962934080 -1384513488</internalNodes>
          <leafValues>
            -5.4820001125335693e-01 2.9836192727088928e-01</leafValues></_>
        <_>
          <internalNodes>
            0 -1 157 -1207697328 -2143289328 -2130702328 269041664
            -1744688576 -2147483648 -1853312080 -1093531432</internalNodes>
          <leafValues>
            -4.6003079414367676e-01 3.5876917839050293e-01</leafValues></_>
        <_>
          <internalNodes>
            0 -1 60 -1543355312 1343619201 1241628688 -233897980
            -889026422 1879146504 -2096528480 -1817427839</internalNodes>
          <leafValues>
            -4.5486474037170410e-01 3.6050236225128174e-01</leafValues></_></weakClassifiers></_>
    <!-- stage 8 -->
    <_>
      <maxWeakCount>11</maxWeakCount>
      <stageThreshold>-8.1334960460662842e-01</stageThreshold>
      <weakClassifiers>
        <_>
          <internalNodes>
            0 -1 1 2110823541 834342521 1073688187 -6091743 498601199
            1065234110 208375371 543362603</internalNodes>
          <leafValues>
            -1.8104906380176544e-01 6.6776674985885620e-01</leafValues></_>
        <_>
          <internalNodes>
            0 -1 166 -51588964 422346284 795819899 2112249384
            -1808530760 482047988 -310972965 539200514</internalNodes>
          <leafValues>
            -3.4324535727500916e-01 4.7268104553222656e-01</leafValues></_>
        <_>
          <internalNodes>
            0 -1 108 1929937651 1932135624 1258258423 1370414957
            -2033966098 922157042 901191386 725054831</internalNodes>
          <leafValues>
            -3.0150127410888672e-01 5.1255100965499878e-01</leafValues></_>
        <_>
          <internalNodes>
            0 -1 25 -206662408 -1690816775 1794965498 296086879
            -1351343912 -269531816 -1629610658 1032662080</internalNodes>
          <leafValues>
            -3.5248574614524841e-01 4.1461536288261414e-01</leafValues></_>
        <_>
          <internalNodes>
            0 -1 83 -1601276508 8519680 -1879029509 -1336540992
            -1826651608 436277376 -1953787152 -1198784316</internalNodes>
          <leafValues>
            -5.1304018497467041e-01 2.7728348970413208e-01</leafValues></_>
        <_>
          <internalNodes>
            0 -1 126 -1498901440 -1704235284 -1358989590 -67277411
            914270684 -805339530 -17522956 -1153819204</internalNodes>
          <leafValues>
            -3.7438121438026428e-01 4.0459367632865906e-01</leafValues></_>
        <_>
          <internalNodes>
            0 -1 16 422660428 -670186432 402854107 1696928010
            -1826061661 -1851117566 -859280734 1712046379</internalNodes>
          <leafValues>
            -4.6921378374099731e-01 3.3794197440147400e-01</leafValues></_>
        <_>
          <internalNodes>
            0 -1 143 -1225212739 -323190804 -285245710 -253154057
            -1082144843 2004320127 -2013596017 -21090822</internalNodes>
          <leafValues>
            -2.7105930447578430e-01 5.6600314378738403e-01</leafValues></_>
        <_>
          <internalNodes>
            0 -1 43 1948695314 219351390 -2138505188 152346693
            1502120198 1124139008 8652846 -2006203557</internalNodes>
          <leafValues>
            -3.9732936024665833e-01 3.9942941069602966e-01</leafValues></_>
        <_>
          <internalNodes>
            0 -1 62 -1839708284 -125828968 1073792310 -1835761280
            -1333685859 -1341652864 -1434262876 -2006843200</internalNodes>
          <leafValues>
            -4.0473869442939758e-01 3.8023182749748230e-01</leafValues></_>
        <_>
          <internalNodes>
            0 -1 18 -742389872 -973061824 -1862088308 -36191743
            -2147344336 8585355 830658690 -1276499612</internalNodes>
          <leafValues>
            -3.8006210327148438e-01 4.1127303242683411e-01</leafValues></_></weakClassifiers></_>
    <!-- stage 9 -->
    <_>
      <maxWeakCount>12</maxWeakCount>
      <stageThreshold>-5.5336672067642212e-01</stageThreshold>
      <weakClassifiers>
        <_>
          <internalNodes>
            0 -1 149 -1384118396 2142305416 -1153466468 1329228805
            -1493820930 1073739511 -890078209 46662690</internalNodes>
          <leafValues>
            -2.4782067537307739e-01 5.4574418067932129e-01</leafValues></_>
        <_>
          <internalNodes>
            0 -1 170 1133310502 -144400592 922320869 1743253940
            1567509679 1987540341 889076750 -483423521</internalNodes>
          <leafValues>
            -2.6844906806945801e-01 4.9076142907142639e-01</leafValues></_>
        <_>
          <internalNodes>
            0 -1 182 -1575219200 583008256 -805273316 -581695488
            -2088617968 589529088 958951472 -1281218288</internalNodes>
          <leafValues>
            -4.8127835988998413e-01 2.9612672328948975e-01</leafValues></_>
        <_>
          <internalNodes>
            0 -1 197 -2077567092 -1234486444 1073545080 -583062412
            -1762292536 -1099071489 -1628006729 -104196948</internalNodes>
          <leafValues>
            -3.0364000797271729e-01 4.7212406992912292e-01</leafValues></_>
        <_>
          <internalNodes>
            0 -1 87 1489820893 -1841811611 -385945861 1831042385
            -1133499702 1333260151 -1435255205 199952171</internalNodes>
          <leafValues>
            -3.3115592598915100e-01 4.3434250354766846e-01</leafValues></_>
        <_>
          <internalNodes>
            0 -1 105 1150362000 562663905 -1862268608 1103726596
            1085145134 -1174339550 -1954428903 1813464207</internalNodes>
          <leafValues>
            -3.8869169354438782e-01 3.6843574047088623e-01</leafValues></_>
        <_>
          <internalNodes>
            0 -1 67 -1598029791 -393215552 1344045964 -113639040
            -1844936337 -1342046198 -1316298093 -1157103480</internalNodes>
          <leafValues>
            -4.2456236481666565e-01 3.3017498254776001e-01</leafValues></_>
        <_>
          <internalNodes>
            0 -1 158 -1429733216 -962674686 1090601430 734332951
            -2146950624 671219712 -2122006368 -1884682080</internalNodes>
          <leafValues>
            -4.6324998140335083e-01 3.1408521533012390e-01</leafValues></_>
        <_>
          <internalNodes>
            0 -1 82 -1078975364 -2109583232 268550360 -229310436
            -519790208 -1523941368 -1433614206 -1584248648</internalNodes>
          <leafValues>
            -4.0462175011634827e-01 3.4854948520660400e-01</leafValues></_>
        <_>
          <internalNodes>
            0 -1 123 -612172346 -653549549 -1065067064 1291997258
            279794683 -2146951000 -1475401238 1084342451</internalNodes>
          <leafValues>
            -3.8204437494277954e-01 4.1929030418395996e-01</leafValues></_>
        <_>
          <internalNodes>
            0 -1 177 -104560915 -17893969 1073724305 -538006004
            -1637181977 1593669627 -1531248905 53543203</internalNodes>
          <leafValues>
            -3.2709413766860962e-01 4.3805029988288879e-01</leafValues></_>
        <_>
          <internalNodes>
            0 -1 70 -1086689196 -278597955 2147417845 -101872212
            -1141118345 -1350598788 -1116155943 -1648734616</internalNodes>
          <leafValues>
            -3.5747900605201721e-01 4.1438025236129761e-01</leafValues></_></weakClassifiers></_>
    <!-- stage 10 -->
    <_>
      <maxWeakCount>10</maxWeakCount>
      <stageThreshold>-1.1024583578109741e+00</stageThreshold>
      <weakClassifiers>
        <_>
          <internalNodes>
            0 -1 8 1890615516 943199841 -218190289 -2123742712
            -1637079420 -1905825932 -83984294 184573446</internalNodes>
          <leafValues>
            -2.3232322931289673e-01 6.5567767620086670e-01</leafValues></_>
        <_>
          <internalNodes>
            0 -1 5 -45047243 293733376 -2126458851 -1794703291
            1124195066 683706880 1610717322 35989010</internalNodes>
          <leafValues>
            -4.3244057893753052e-01 4.5075419545173645e-01</leafValues></_>
        <_>
          <internalNodes>
            0 -1 29 -800722356 -130958083 872220923 -140202699
            -1415737983 1006567156 -1363448177 940131507</internalNodes>
          <leafValues>
            -3.9384055137634277e-01 4.6908092498779297e-01</leafValues></_>
        <_>
          <internalNodes>
            0 -1 146 1120446718 823590570 251342417 66293011 309694904
            -1764659422 -1082803109 769069151</internalNodes>
          <leafValues>
            -3.3240446448326111e-01 5.3605705499649048e-01</leafValues></_>
        <_>
          <internalNodes>
            0 -1 173 -469447656 -1852292992 -2147417969 890179600
            -2013163100 -2013233002 965279888 679939214</internalNodes>
          <leafValues>
            -4.1472458839416504e-01 3.9934235811233521e-01</leafValues></_>
        <_>
          <internalNodes>
            0 -1 95 -1046174824 867352573 -335610575 -1507213776
            471636245 1048018933 -1224737218 512855243</internalNodes>
          <leafValues>
            -3.9281764626502991e-01 4.2383423447608948e-01</leafValues></_>
        <_>
          <internalNodes>
            0 -1 160 -945769328 -713225032 -84005060 -1703576335
            -468609343 -613517706 494698427 -1455699961</internalNodes>
          <leafValues>
            -2.7103126049041748e-01 5.8784711360931396e-01</leafValues></_>
        <_>
          <internalNodes>
            0 -1 41 1074066592 406945819 17399952 -822079226 -2139060080
            -1417641847 -2147417523 50803205</internalNodes>
          <leafValues>
            -4.2049506306648254e-01 3.8439562916755676e-01</leafValues></_>
        <_>
          <internalNodes>
            0 -1 117 -857166224 -1325735958 -148112141 1228273133
            -169009241 -1631487260 -973812433 224231544</internalNodes>
          <leafValues>
            -3.5931828618049622e-01 4.5524781942367554e-01</leafValues></_>
        <_>
          <internalNodes>
            0 -1 76 -923947958 -17256625 -344260745 -208486851
            1333765873 -25206977 1476336707 1308798561</internalNodes>
          <leafValues>
            -4.0406966209411621e-01 4.2539963126182556e-01</leafValues></_></weakClassifiers></_>
    <!-- stage 11 -->
    <_>
      <maxWeakCount>9</maxWeakCount>
      <stageThreshold>-9.7730278968811035e-01</stageThreshold>
      <weakClassifiers>
        <_>
          <internalNodes>
            0 -1 37 77636096 -98261199 -360846224 -2120024284 746521410
            2004828006 669992503 231294316</internalNodes>
          <leafValues>
            -4.2324247956275940e-01 5.6231003999710083e-01</leafValues></_>
        <_>
          <internalNodes>
            0 -1 104 269531856 538087568 65681 272894352 453197831
            301990024 772344507 897255562</internalNodes>
          <leafValues>
            -5.1885288953781128e-01 3.8615477085113525e-01</leafValues></_>
        <_>
          <internalNodes>
            0 -1 81 -1055790336 -1609334767 16864619 336625921
            -2113300200 -1416945503 38527519 2118240320</internalNodes>
          <leafValues>
            -4.3948459625244141e-01 3.9978033304214478e-01</leafValues></_>
        <_>
          <internalNodes>
            0 -1 132 28376465 325130801 -1090572481 2033334825
            -688274364 197021686 -1900290097 199327782</internalNodes>
          <leafValues>
            -3.5794019699096680e-01 4.7197800874710083e-01</leafValues></_>
        <_>
          <internalNodes>
            0 -1 99 463582195 -181078488 -412141579 1945092017 598992771
            -2022195239 1564153374 -4250162</internalNodes>
          <leafValues>
            -2.3148086667060852e-01 7.4874591827392578e-01</leafValues></_>
        <_>
          <internalNodes>
            0 -1 129 1409327616 2080473220 213 271953924 -1995865893
            -931037184 134427011 137069688</internalNodes>
          <leafValues>
            -4.1074812412261963e-01 4.0540704131126404e-01</leafValues></_>
        <_>
          <internalNodes>
            0 -1 150 16830384 1501621009 86805 453812248 -771718976
            -401571837 -1455060286 33914880</internalNodes>
          <leafValues>
            -5.1205062866210938e-01 3.3915325999259949e-01</leafValues></_>
        <_>
          <internalNodes>
            0 -1 191 -1873771780 -788529152 1073742161 1879048704
            -2000572380 -1878843376 -2104606568 -1299642215</internalNodes>
          <leafValues>
            -3.7629127502441406e-01 4.5556026697158813e-01</leafValues></_>
        <_>
          <internalNodes>
            0 -1 130 1827732406 1893907884 754838645 -1336717627 6286469
            1986951028 -1895844418 1332159933</internalNodes>
          <leafValues>
            -3.7388634681701660e-01 4.9223577976226807e-01</leafValues></_></weakClassifiers></_>
    <!-- stage 12 -->
    <_>
      <maxWeakCount>11</maxWeakCount>
      <stageThreshold>-7.1452224254608154e-01</stageThreshold>
      <weakClassifiers>
        <_>
          <internalNodes>
            0 -1 46 48399494 493071984 -1476455506 -708935681 131392117
            1467465586 217528084 346190940</internalNodes>
          <leafValues>
            -3.2808399200439453e-01 5.5853438377380371e-01</leafValues></_>
        <_>
          <internalNodes>
            0 -1 9 -1289420867 -100796551 -1359061585 1975322654
            -1095717387 -1275166792 791715279 2078805116</internalNodes>
          <leafValues>
            -2.8434434533119202e-01 5.4317903518676758e-01</leafValues></_>
        <_>
          <internalNodes>
            0 -1 176 -646656000 2141580202 -1343934657 492383778
            -855794212 930447351 -1103196513 1862992143</internalNodes>
          <leafValues>
            -2.6862448453903198e-01 5.0078535079956055e-01</leafValues></_>
        <_>
          <internalNodes>
            0 -1 53 1559602733 523739055 -25268677 2078424755 -587626969
            536444798 -92434873 1671905161</internalNodes>
          <leafValues>
            -3.4158673882484436e-01 4.1889324784278870e-01</leafValues></_>
        <_>
          <internalNodes>
            0 -1 156 1798422244 -1292255299 1803531379 2071490031
            -1352829313 -134801545 -1947119078 -1453390658</internalNodes>
          <leafValues>
            -3.3241549134254456e-01 4.3379491567611694e-01</leafValues></_>
        <_>
          <internalNodes>
            0 -1 113 -1661381992 -4766158 -1439636164 -14337173
            1048478940 -1099073665 -1090935078 -1685572343</internalNodes>
          <leafValues>
            -2.7930945158004761e-01 5.4021853208541870e-01</leafValues></_>
        <_>
          <internalNodes>
            0 -1 86 890290552 -1848536044 353378570 1711456406 534354417
            -1324703608 -775632562 644579623</internalNodes>
          <leafValues>
            -4.5577955245971680e-01 3.3562472462654114e-01</leafValues></_>
        <_>
          <internalNodes>
            0 -1 155 806018528 -686753088 1116220 -582712921 805404832
            -371130328 16843170 1066633355</internalNodes>
          <leafValues>
            -3.7468808889389038e-01 3.9431619644165039e-01</leafValues></_>
        <_>
          <internalNodes>
            0 -1 33 -1724350155 -215322649 -1082486805 -739299903
            -815018445 -1620578329 -566428456 -1143255859</internalNodes>
          <leafValues>
            -3.0147734284400940e-01 5.3214889764785767e-01</leafValues></_>
        <_>
          <internalNodes>
            0 -1 92 1525853093 -481058403 151094588 -1571745787
            287820769 409993379 -1870618445 108939467</internalNodes>
          <leafValues>
            -3.8918179273605347e-01 4.2053598165512085e-01</leafValues></_>
        <_>
          <internalNodes>
            0 -1 26 -363855588 1687334554 272707626 -1760083183
            -1827983487 1361051664 1518457393 724239489</internalNodes>
          <leafValues>
            -5.6176936626434326e-01 2.7936702966690063e-01</leafValues></_></weakClassifiers></_>
    <!-- stage 13 -->
    <_>
      <maxWeakCount>10</maxWeakCount>
      <stageThreshold>-8.3365654945373535e-01</stageThreshold>
      <weakClassifiers>
        <_>
          <internalNodes>
            0 -1 162 1491605580 1492400059 -1108591813 2108321571
            1954156744 1597766935 -92750950 572533770</internalNodes>
          <leafValues>
            -2.7700534462928772e-01 6.0968524217605591e-01</leafValues></_>
        <_>
          <internalNodes>
            0 -1 55 1254370564 1745889055 -2147467232 135766798
            -1848074032 -1693417469 1883298563 1912865326</internalNodes>
          <leafValues>
            -5.7976806163787842e-01 2.9793068766593933e-01</leafValues></_>
        <_>
          <internalNodes>
            0 -1 14 -447376940 -78532073 1371654406 1562579224
            -665533775 -586645469 -1681079377 1042447163</internalNodes>
          <leafValues>
            -4.0354919433593750e-01 3.8333857059478760e-01</leafValues></_>
        <_>
          <internalNodes>
            0 -1 54 268439696 -1156284287 352326685 1305743361
            -2004866044 -233832448 185313421 369101320</internalNodes>
          <leafValues>
            -4.2336452007293701e-01 3.6221262812614441e-01</leafValues></_>
        <_>
          <internalNodes>
            0 -1 167 -246405755 2026021026 -1860890288 387711386
            -993886044 -1300168575 -532547441 558773039</internalNodes>
          <leafValues>
            -3.7149795889854431e-01 3.6814278364181519e-01</leafValues></_>
        <_>
          <internalNodes>
            0 -1 179 -1005215600 -889192381 20500 -620231934 -766926350
            1233125515 1162109698 567161098</internalNodes>
          <leafValues>
            -4.5673784613609314e-01 3.1697735190391541e-01</leafValues></_>
        <_>
          <internalNodes>
            0 -1 58 404758988 -760250523 2062412372 2106879928 607216828
            -708878348 -197357585 348407037</internalNodes>
          <leafValues>
            -3.5855019092559814e-01 4.0414965152740479e-01</leafValues></_>
        <_>
          <internalNodes>
            0 -1 97 1719531957 -1661587985 -202391954 -1016333318
            -682829924 -1356529862 -440492305 502230267</internalNodes>
          <leafValues>
            -2.6995420455932617e-01 5.6044107675552368e-01</leafValues></_>
        <_>
          <internalNodes>
            0 -1 89 -316702891 1107519190 1078001809 763504930
            -163446628 -1341634392 -423624142 1736652035</internalNodes>
          <leafValues>
            -3.9570930600166321e-01 3.8468140363693237e-01</leafValues></_>
        <_>
          <internalNodes>
            0 -1 140 1241578144 42315786 1124171928 -1070853620
            1363477420 -1196703606 805338435 642042558</internalNodes>
          <leafValues>
            -4.7756314277648926e-01 2.9575806856155396e-01</leafValues></_></weakClassifiers></_>
    <!-- stage 14 -->
    <_>
      <maxWeakCount>13</maxWeakCount>
      <stageThreshold>-6.1617773771286011e-01</stageThreshold>
      <weakClassifiers>
        <_>
          <internalNodes>
            0 -1 118 -1867725796 -1118304315 1035530171 2104113699
            -705082152 1610043391 -1978474882 690022383</internalNodes>
          <leafValues>
            -1.3384321331977844e-01 5.8341860771179199e-01</leafValues></_>
        <_>
          <internalNodes>
            0 -1 20 1937620077 2074853295 921665087 -1634696 1530521054
            1001340859 319019262 57637807</internalNodes>
          <leafValues>
            -2.6740059256553650e-01 4.6801117062568665e-01</leafValues></_>
        <_>
          <internalNodes>
            0 -1 65 -1058686211 -176361473 -2080399636 -918032833
            -830638489 -58786050 -554571597 2052926346</internalNodes>
          <leafValues>
            -2.6510173082351685e-01 4.7291061282157898e-01</leafValues></_>
        <_>
          <internalNodes>
            0 -1 3 2096117240 -629345873 -1107379409 -601413622
            -2014143240 -2105541384 -474286898 1873486699</internalNodes>
          <leafValues>
            -2.8928619623184204e-01 3.9550119638442993e-01</leafValues></_>
        <_>
          <internalNodes>
            0 -1 59 1137973000 -1921543911 302620929 -1194903541
            -795522574 461967873 -876331111 -1200494474</internalNodes>
          <leafValues>
            -3.8784554600715637e-01 2.9055461287498474e-01</leafValues></_>
        <_>
          <internalNodes>
            0 -1 115 -867654588 429707529 344003038 1434452319
            -2012544127 -1853358039 176697759 855769832</internalNodes>
          <leafValues>
            -4.2779475450515747e-01 2.6401653885841370e-01</leafValues></_>
        <_>
          <internalNodes>
            0 -1 159 -587599448 1928232873 922500832 -780264450
            1739024355 -185597953 530807731 998150106</internalNodes>
          <leafValues>
            -2.9781261086463928e-01 3.9651405811309814e-01</leafValues></_>
        <_>
          <internalNodes>
            0 -1 52 298856600 1493172237 877003165 -1377853427
            -259444736 -1315438462 704653482 792985930</internalNodes>
          <leafValues>
            -3.1906339526176453e-01 3.6604145169258118e-01</leafValues></_>
        <_>
          <internalNodes>
            0 -1 101 -992937139 1297142671 -1870397206 -402218040
            -1068554921 109707402 -1429929805 581529071</internalNodes>
          <leafValues>
            -3.7963634729385376e-01 3.4619545936584473e-01</leafValues></_>
        <_>
          <internalNodes>
            0 -1 63 1852415935 -1207959689 -1140900227 1798876267
            1325262252 1308065661 -588841227 -733897939</internalNodes>
          <leafValues>
            -2.5455242395401001e-01 4.8196348547935486e-01</leafValues></_>
        <_>
          <internalNodes>
            0 -1 109 -1328538780 1553502492 2331610 1275609099 983579800
            965976507 -2095837062 583011148</internalNodes>
          <leafValues>
            -5.6611543893814087e-01 2.3457773029804230e-01</leafValues></_>
        <_>
          <internalNodes>
            0 -1 23 1837166489 -1548116178 -118786 2056985914 -834015655
            -1111589570 511168206 -410701130</internalNodes>
          <leafValues>
            -3.0296799540519714e-01 4.2275008559226990e-01</leafValues></_>
        <_>
          <internalNodes>
            0 -1 138 -509322874 -792941561 -1636968914 -1682486109
            1568454236 -1308721291 -774271317 -1141137670</internalNodes>
          <leafValues>
            -2.3604945838451385e-01 5.2463251352310181e-01</leafValues></_></weakClassifiers></_>
    <!-- stage 15 -->
    <_>
      <maxWeakCount>13</maxWeakCount>
      <stageThreshold>-7.1128708124160767e-01</stageThreshold>
      <weakClassifiers>
        <_>
          <internalNodes>
            0 -1 93 178712384 1625743164 1047490162 -543883300 511135009
            1874657279 519243895 388449341</internalNodes>
          <leafValues>
            -2.7556818723678589e-01 5.2003484964370728e-01</leafValues></_>
        <_>
          <internalNodes>
            0 -1 12 -1207255116 657256816 1091154821 1030242313
            160075760 984435286 13451330 551094024</internalNodes>
          <leafValues>
            -4.5005831122398376e-01 3.0702823400497437e-01</leafValues></_>
        <_>
          <internalNodes>
            0 -1 125 -1173619072 1063972764 -1627689224 -85544404
            -2013327541 2139027327 -1346957617 -733774659</internalNodes>
          <leafValues>
            -3.5861334204673767e-01 3.8178580999374390e-01</leafValues></_>
        <_>
          <internalNodes>
            0 -1 50 -2027369820 -1732986636 -352407833 -693979980
            -847315340 1180172151 -1485138180 -1692709680</internalNodes>
          <leafValues>
            -2.9904100298881531e-01 4.5608073472976685e-01</leafValues></_>
        <_>
          <internalNodes>
            0 -1 110 -2094947774 -758603322 2013321367 -1300006115
            -774561789 -1416754939 1206583880 711133240</internalNodes>
          <leafValues>
            -5.0824266672134399e-01 2.4367302656173706e-01</leafValues></_>
        <_>
          <internalNodes>
            0 -1 39 106030625 276890145 1342197962 -779975083 311008438
            -1954314807 1128899755 -2071887861</internalNodes>
          <leafValues>
            -3.2801082730293274e-01 4.0139096975326538e-01</leafValues></_>
        <_>
          <internalNodes>
            0 -1 103 447776904 1032896232 -68274957 -6064321 657497496
            -973603329 939335119 -1074061431</internalNodes>
          <leafValues>
            -2.5907525420188904e-01 5.2522701025009155e-01</leafValues></_>
        <_>
          <internalNodes>
            0 -1 79 1476502276 -1056660332 185684828 1352925700 47023232
            587215503 -2002044318 399048729</internalNodes>
          <leafValues>
            -4.4502872228622437e-01 3.2797944545745850e-01</leafValues></_>
        <_>
          <internalNodes>
            0 -1 96 424722579 -1529749039 -1929375724 269582352
            -2130345801 -1245075447 61186107 487278728</internalNodes>
          <leafValues>
            -3.6312931776046753e-01 3.7918478250503540e-01</leafValues></_>
        <_>
          <internalNodes>
            0 -1 171 -568728616 -634615624 -285237075 -795825419
            -1543658012 394256253 -2131136054 -613335815</internalNodes>
          <leafValues>
            -2.8757452964782715e-01 4.9028608202934265e-01</leafValues></_>
        <_>
          <internalNodes>
            0 -1 172 -671047532 -263880638 131079 500810052 356911287
            -1425940480 -1723498458 632144640</internalNodes>
          <leafValues>
            -3.3963847160339355e-01 4.1873151063919067e-01</leafValues></_>
        <_>
          <internalNodes>
            0 -1 48 -1711219983 -1832960648 653686519 -1867960323
            -1356540474 528482165 -1208156200 -2033109571</internalNodes>
          <leafValues>
            -3.2969877123832703e-01 4.4619417190551758e-01</leafValues></_>
        <_>
          <internalNodes>
            0 -1 52 1929051956 -1174929620 -196801 -1146359880
            -1476461340 754941815 -2025440003 -270194707</internalNodes>
          <leafValues>
            -2.2587326169013977e-01 5.9872204065322876e-01</leafValues></_></weakClassifiers></_>
    <!-- stage 16 -->
    <_>
      <maxWeakCount>16</maxWeakCount>
      <stageThreshold>-6.1784511804580688e-01</stageThreshold>
      <weakClassifiers>
        <_>
          <internalNodes>
            0 -1 56 957943088 -172709897 -1082163409 1902713909
            240668209 939482059 796454731 55412936</internalNodes>
          <leafValues>
            -1.7715618014335632e-01 5.3781515359878540e-01</leafValues></_>
        <_>
          <internalNodes>
            0 -1 122 -1878487376 -254730224 688538783 -1552252158
            686133980 -1290272522 72001418 994313824</internalNodes>
          <leafValues>
            -4.1183349490165710e-01 2.9109668731689453e-01</leafValues></_>
        <_>
          <internalNodes>
            0 -1 128 -1317012553 -1594527812 721366967 -473973763
            -1007270091 -139167756 -818782406 1012992877</internalNodes>
          <leafValues>
            -3.2941463589668274e-01 3.6685657501220703e-01</leafValues></_>
        <_>
          <internalNodes>
            0 -1 24 -597843651 1064328951 -92328157 870678309 -25566037
            737603582 -92576226 -2034661747</internalNodes>
          <leafValues>
            -2.8543588519096375e-01 4.0217977762222290e-01</leafValues></_>
        <_>
          <internalNodes>
            0 -1 31 1782590668 -907870065 17285388 524158871 -1819532809
            1046200491 1225319239 582681135</internalNodes>
          <leafValues>
            -5.0545102357864380e-01 2.1484246850013733e-01</leafValues></_>
        <_>
          <internalNodes>
            0 -1 183 -110112216 -1841299456 -1023410088 89128961
            -1820282678 1124090018 702056996 1730566280</internalNodes>
          <leafValues>
            -3.4765568375587463e-01 3.2894220948219299e-01</leafValues></_>
        <_>
          <internalNodes>
            0 -1 78 -1559178948 1031049224 -720300588 1346392412
            -1949120057 1860046954 -2012406968 1096814389</internalNodes>
          <leafValues>
            -5.4382026195526123e-01 2.0160964131355286e-01</leafValues></_>
        <_>
          <internalNodes>
            0 -1 49 460649823 -1170477506 -2093076550 2080058352
            -813711375 -1374781450 376946558 -1581632294</internalNodes>
          <leafValues>
            -2.4408231675624847e-01 4.8243695497512817e-01</leafValues></_>
        <_>
          <internalNodes>
            0 -1 139 -907752936 1345036028 787430073 1802462129
            -74554224 872415223 2138963583 2001217433</internalNodes>
          <leafValues>
            -3.2489272952079773e-01 3.6644434928894043e-01</leafValues></_>
        <_>
          <internalNodes>
            0 -1 40 -625607456 1585270137 1862263921 1232813045
            393518538 -1403715748 427334891 -721586701</internalNodes>
          <leafValues>
            -2.2706729173660278e-01 5.1856088638305664e-01</leafValues></_>
        <_>
          <internalNodes>
            0 -1 42 1913042609 -1288589265 -2130640496 -124280189
            144843697 3 22298634 608551080</internalNodes>
          <leafValues>
            -3.2907253503799438e-01 3.5653117299079895e-01</leafValues></_>
        <_>
          <internalNodes>
            0 -1 80 -799953624 -1912143770 -939360235 170134804
            2076290545 -1568767927 1770572034 1797951768</internalNodes>
          <leafValues>
            -4.2279809713363647e-01 2.9991433024406433e-01</leafValues></_>
        <_>
          <internalNodes>
            0 -1 28 -59655139 -1543602251 -1149288724 -79098599
            -1881481263 1060304379 783023691 -1781532446</internalNodes>
          <leafValues>
            -2.5137737393379211e-01 4.7242036461830139e-01</leafValues></_>
        <_>
          <internalNodes>
            0 -1 19 -84545064 1353500541 -493663 -14614931 863866305
            545202045 -1653686819 -1617869591</internalNodes>
          <leafValues>
            -2.2654545307159424e-01 5.2565795183181763e-01</leafValues></_>
        <_>
          <internalNodes>
            0 -1 119 219707324 311701522 75516177 -2073915320 -221730630
            932291288 1556889608 852020</internalNodes>
          <leafValues>
            -5.4721355438232422e-01 2.3440514504909515e-01</leafValues></_>
        <_>
          <internalNodes>
            0 -1 151 -1768829524 -110755681 1111588874 730505993
            -2111663237 553781282 -2008626509 1613161020</internalNodes>
          <leafValues>
            -4.1429746150970459e-01 3.0865165591239929e-01</leafValues></_></weakClassifiers></_>
    <!-- stage 17 -->
    <_>
      <maxWeakCount>15</maxWeakCount>
      <stageThreshold>-6.6140598058700562e-01</stageThreshold>
      <weakClassifiers>
        <_>
          <internalNodes>
            0 -1 77 -101386947 -1879580809 -209811 -559330 -67383681
            -276873289 -286585177 -470457817</internalNodes>
          <leafValues>
            2.6217227801680565e-02 6.8526464700698853e-01</leafValues></_>
        <_>
          <internalNodes>
            0 -1 148 11574108 -650678531 -1378877825 -1617166557
            -2072650660 -402718724 -285409698 -1092598296</internalNodes>
          <leafValues>
            -2.2959597408771515e-01 4.4001561403274536e-01</leafValues></_>
        <_>
          <internalNodes>
            0 -1 90 -186591295 858899569 1056813693 896084520 1601846568
            335249407 -1372537601 1072252399</internalNodes>
          <leafValues>
            -2.8800776600837708e-01 3.8144513964653015e-01</leafValues></_>
        <_>
          <internalNodes>
            0 -1 21 -597824943 1945222845 -285315350 -25813659
            -860229891 -1342316738 -25366563 -864964668</internalNodes>
          <leafValues>
            -3.1604403257369995e-01 4.0347245335578918e-01</leafValues></_>
        <_>
          <internalNodes>
            0 -1 38 537210660 1863582360 -1861932772 689770267 983834548
            999901733 -1195014104 -689356654</internalNodes>
          <leafValues>
            -4.2350324988365173e-01 2.8293055295944214e-01</leafValues></_>
        <_>
          <internalNodes>
            0 -1 124 122275408 1264028511 88367854 -1382099960
            1422744955 1008730180 306284871 1099080536</internalNodes>
          <leafValues>
            -4.4975513219833374e-01 2.5563219189643860e-01</leafValues></_>
        <_>
          <internalNodes>
            0 -1 142 -604453633 -1338523723 737090381 -106338051
            -1370980479 -1495171085 -1623335075 -68126343</internalNodes>
          <leafValues>
            -2.1901118755340576e-01 5.2940416336059570e-01</leafValues></_>
        <_>
          <internalNodes>
            0 -1 178 1611574212 -1861033646 -2079282420 -158047668
            -1072520305 -777781248 1215807536 1464205854</internalNodes>
          <leafValues>
            -3.6838173866271973e-01 3.0831605195999146e-01</leafValues></_>
        <_>
          <internalNodes>
            0 -1 73 -2130125208 34632709 1116999007 -1118266737
            -1723653540 1522270336 -528242642 160301802</internalNodes>
          <leafValues>
            -3.9317166805267334e-01 2.8095436096191406e-01</leafValues></_>
        <_>
          <internalNodes>
            0 -1 107 -2126714722 -1201696487 -1325331070 1570344988
            -1995943504 967835801 210622474 516579977</internalNodes>
          <leafValues>
            -3.3081671595573425e-01 3.4803137183189392e-01</leafValues></_>
        <_>
          <internalNodes>
            0 -1 121 -2098337352 -418135594 -997866929 491164459
            -1835711829 457589134 1107656767 614678567</internalNodes>
          <leafValues>
            -4.0914094448089600e-01 2.8181812167167664e-01</leafValues></_>
        <_>
          <internalNodes>
            0 -1 111 -589204241 1848835708 -1073774878 -339845523
            -1644194441 1073151991 1073618498 -1444345078</internalNodes>
          <leafValues>
            -2.8060936927795410e-01 4.2901054024696350e-01</leafValues></_>
        <_>
          <internalNodes>
            0 -1 187 -699216684 -100749572 -1140899994 -1113079875
            -950203312 -1778458886 -1078069266 -1481950149</internalNodes>
          <leafValues>
            -2.3822465538978577e-01 4.8572254180908203e-01</leafValues></_>
        <_>
          <internalNodes>
            0 -1 44 541073684 -565066699 1360007556 469979484 25174161
            -1568634740 453042856 -2004295508</internalNodes>
          <leafValues>
            -3.6989796161651611e-01 3.4427616000175476e-01</leafValues></_>
        <_>
          <internalNodes>
            0 -1 88 -2096583304 957189513 68207164 176513054 -1451030056
            -1700446207 -1081690046 1131028584</internalNodes>
          <leafValues>
            -4.8581483960151672e-01 2.6544633507728577e-01</leafValues></_></weakClassifiers></_>
    <!-- stage 18 -->
    <_>
      <maxWeakCount>16</maxWeakCount>
      <stageThreshold>-6.9727742671966553e-01</stageThreshold>
      <weakClassifiers>
        <_>
          <internalNodes>
            0 -1 22 -427809792 939442097 -1094959182 -1350795417
            1047580229 -25907457 -365334755 51580841</internalNodes>
          <leafValues>
            -2.8771930932998657e-01 4.7901234030723572e-01</leafValues></_>
        <_>
          <internalNodes>
            0 -1 71 -43914531 1455261087 1878933437 -349983959 -8823556
            -805957666 -1561222950 451875723</internalNodes>
          <leafValues>
            -2.1615129709243774e-01 4.8636117577552795e-01</leafValues></_>
        <_>
          <internalNodes>
            0 -1 68 -710353686 -1241981904 -776278187 -773457164
            -285731849 -325036044 708701167 865429754</internalNodes>
          <leafValues>
            -2.5490412116050720e-01 4.3342709541320801e-01</leafValues></_>
        <_>
          <internalNodes>
            0 -1 75 -138100516 -1714906625 1279265306 1511064170
            444743905 1034689152 515205132 583780645</internalNodes>
          <leafValues>
            -4.5141553878784180e-01 2.3831400275230408e-01</leafValues></_>
        <_>
          <internalNodes>
            0 -1 133 -432717220 1496323697 -1426165076 -240615775
            -1220558368 447709143 -1551925669 -1144380227</internalNodes>
          <leafValues>
            -2.5398293137550354e-01 4.3358322978019714e-01</leafValues></_>
        <_>
          <internalNodes>
            0 -1 91 -166676739 -507854880 930816813 -776474713
            1853443256 -1275119659 -272920853 -1648652582</internalNodes>
          <leafValues>
            -1.8851369619369507e-01 5.7176905870437622e-01</leafValues></_>
        <_>
          <internalNodes>
            0 -1 135 -681528124 -331456641 -50399318 -794133066
            -1627527458 -13176961 -1112352878 -2118934532</internalNodes>
          <leafValues>
            -2.7183559536933899e-01 4.0681317448616028e-01</leafValues></_>
        <_>
          <internalNodes>
            0 -1 72 -1466093004 1963999253 419434701 -1962735611
            1476503684 -1308393342 -1728048484 146870409</internalNodes>
          <leafValues>
            -3.0629199743270874e-01 3.6788606643676758e-01</leafValues></_>
        <_>
          <internalNodes>
            0 -1 66 -486802797 -1241714705 2057288310 -483283207
            1157481847 -1086881933 -673659245 -103867506</internalNodes>
          <leafValues>
            -2.2113019227981567e-01 5.1138597726821899e-01</leafValues></_>
        <_>
          <internalNodes>
            0 -1 171 -632769263 -784594896 -293625412 1343227508
            -1351489592 787980157 -1682327090 -1590874374</internalNodes>
          <leafValues>
            -3.0386164784431458e-01 4.1776192188262939e-01</leafValues></_>
        <_>
          <internalNodes>
            0 -1 175 1211928300 -1720828243 738111357 -1212563475
            -1124073648 -34316419 -1124074401 656875378</internalNodes>
          <leafValues>
            -2.8623911738395691e-01 3.7785753607749939e-01</leafValues></_>
        <_>
          <internalNodes>
            0 -1 189 1783620004 1360298012 268664968 -1659952951
            1627620001 411607168 -2097118544 1888104588</internalNodes>
          <leafValues>
            -3.6634218692779541e-01 3.1158170104026794e-01</leafValues></_>
        <_>
          <internalNodes>
            0 -1 94 752149445 -164462819 -721944917 -21283034 377228690
            -135301131 108027022 1808234479</internalNodes>
          <leafValues>
            -2.9862993955612183e-01 4.1154408454895020e-01</leafValues></_>
        <_>
          <internalNodes>
            0 -1 32 -501956212 -1815084671 105593 -795143975 25709208
            572006530 35293272 405299754</internalNodes>
          <leafValues>
            -3.4941318631172180e-01 3.1211680173873901e-01</leafValues></_>
        <_>
          <internalNodes>
            0 -1 153 -2079209428 1400930834 -2063523588 -436166527
            1078526782 1493811377 272780637 1995942817</internalNodes>
          <leafValues>
            -3.9865827560424805e-01 2.8448626399040222e-01</leafValues></_>
        <_>
          <internalNodes>
            0 -1 69 1091272750 2023317653 1477495856 336609352 16904206
            956989458 1795332202 1620396286</internalNodes>
          <leafValues>
            -3.7459874153137207e-01 3.1219774484634399e-01</leafValues></_></weakClassifiers></_>
    <!-- stage 19 -->
    <_>
      <maxWeakCount>16</maxWeakCount>
      <stageThreshold>-6.2593483924865723e-01</stageThreshold>
      <weakClassifiers>
        <_>
          <internalNodes>
            0 -1 98 1844764402 1634032744 1962501680 807231476
            -1614382106 341931131 1040052081 1733109072</internalNodes>
          <leafValues>
            -1.0270269960165024e-01 5.2771085500717163e-01</leafValues></_>
        <_>
          <internalNodes>
            0 -1 35 -117637349 -1212678229 -486543631 -778051663
            -1157954257 1744598892 355454407 -140513297</internalNodes>
          <leafValues>
            -1.8743161857128143e-01 4.9598383903503418e-01</leafValues></_>
        <_>
          <internalNodes>
            0 -1 168 1560660631 -146933896 922711983 2138175576
            -539257138 -302057477 1998579903 -4744565</internalNodes>
          <leafValues>
            -1.5030772984027863e-01 6.3678818941116333e-01</leafValues></_>
        <_>
          <internalNodes>
            0 -1 34 -643122964 -786010268 -364925977 -1313374233
            2012448186 697269480 423393519 -1162076468</internalNodes>
          <leafValues>
            -2.3528994619846344e-01 4.3022552132606506e-01</leafValues></_>
        <_>
          <internalNodes>
            0 -1 134 -161686575 -260329554 728612330 1474485032
            -2022149610 -1271169569 1056881011 1873487919</internalNodes>
          <leafValues>
            -2.7782398462295532e-01 3.6148422956466675e-01</leafValues></_>
        <_>
          <internalNodes>
            0 -1 102 -375325020 1570946212 -134332498 1406107044
            353738652 528363511 -1635786818 -1914763846</internalNodes>
          <leafValues>
            -2.2936543822288513e-01 4.4720423221588135e-01</leafValues></_>
        <_>
          <internalNodes>
            0 -1 186 -144026459 514830204 -103389 -285233266 -1082770090
            1333722999 929873871 -1212973290</internalNodes>
          <leafValues>
            -2.6135486364364624e-01 3.9286738634109497e-01</leafValues></_>
        <_>
          <internalNodes>
            0 -1 36 2116150557 -1376057542 -134236298 1987739576
            1266394289 -1224771586 1786765131 -1587330867</internalNodes>
          <leafValues>
            -2.5691148638725281e-01 3.7737846374511719e-01</leafValues></_>
        <_>
          <internalNodes>
            0 -1 85 -1840076275 372359877 1426063747 -593788662
            -268228920 -92061693 42082371 21168161</internalNodes>
          <leafValues>
            -3.9982810616493225e-01 2.5267535448074341e-01</leafValues></_>
        <_>
          <internalNodes>
            0 -1 169 4203264 788584464 17383629 272845360 554385648
            1783628299 952397840 672181022</internalNodes>
          <leafValues>
            -5.9208583831787109e-01 1.7287293076515198e-01</leafValues></_>
        <_>
          <internalNodes>
            0 -1 116 -1360987992 -595860298 922692785 -794446426
            930856393 -1672085665 -1208492914 -1716136456</internalNodes>
          <leafValues>
            -2.8165334463119507e-01 3.7574559450149536e-01</leafValues></_>
        <_>
          <internalNodes>
            0 -1 154 -656678204 1113580232 -2080014054 903123646
            -1333704520 -1417019128 1108019969 294331210</internalNodes>
          <leafValues>
            -3.5817801952362061e-01 3.1919792294502258e-01</leafValues></_>
        <_>
          <internalNodes>
            0 -1 14 2130572751 -356938969 -67481628 -267206854 -8460638
            -41951302 -537082110 2114168495</internalNodes>
          <leafValues>
            -2.6462095975875854e-01 4.2547738552093506e-01</leafValues></_>
        <_>
          <internalNodes>
            0 -1 64 1221770025 -230457205 -1056108508 1447395356
            411816577 1904246912 -1059857679 121768925</internalNodes>
          <leafValues>
            -3.6408331990242004e-01 2.9711189866065979e-01</leafValues></_>
        <_>
          <internalNodes>
            0 -1 185 -559745166 -1758158940 -16849291 -216748423
            -1913354323 1476341575 285140614 -885449523</internalNodes>
          <leafValues>
            -2.7137869596481323e-01 4.1337570548057556e-01</leafValues></_>
        <_>
          <internalNodes>
            0 -1 131 -1836042744 1442873352 -1744727717 113739019
            -425678824 1652656264 51101856 400951297</internalNodes>
          <leafValues>
            -4.4623970985412598e-01 2.6200148463249207e-01</leafValues></_></weakClassifiers></_></stages>
  <features>
    <_>
      <rect>
        0 0 1 1</rect></_>
    <_>
      <rect>
        0 0 4 4</rect></_>
    <_>
      <rect>
        0 0 4 8</rect></_>
    <_>
      <rect>
        0 0 5 2</rect></_>
    <_>
      <rect>
        0 0 5 3</rect></_>
    <_>
      <rect>
        0 0 5 4</rect></_>
    <_>
      <rect>
        0 0 5 8</rect></_>
    <_>
      <rect>
        0 0 6 6</rect></_>
    <_>
      <rect>
        0 0 7 2</rect></_>
    <_>
      <rect>
        0 0 7 3</rect></_>
    <_>
      <rect>
        0 0 7 4</rect></_>
    <_>
      <rect>
        0 0 8 2</rect></_>
    <_>
      <rect>
        0 0 8 3</rect></_>
    <_>
      <rect>
        0 0 8 4</rect></_>
    <_>
      <rect>
        0 0 8 5</rect></_>
    <_>
      <rect>
        0 0 8 6</rect></_>
    <_>
      <rect>
        0 0 8 7</rect></_>
    <_>
      <rect>
        0 0 8 8</rect></_>
    <_>
      <rect>
        0 1 1 1</rect></_>
    <_>
      <rect>
        0 1 4 1</rect></_>
    <_>
      <rect>
        0 1 4 3</rect></_>
    <_>
      <rect>
        0 1 4 5</rect></_>
    <_>
      <rect>
        0 1 5 7</rect></_>
    <_>
      <rect>
        0 1 6 4</rect></_>
    <_>
      <rect>
        0 1 6 6</rect></_>
    <_>
      <rect>
        0 1 8 2</rect></_>
    <_>
      <rect>
        0 1 8 7</rect></_>
    <_>
      <rect>
        0 2 4 4</rect></_>
    <_>
      <rect>
        0 2 6 3</rect></_>
    <_>
      <rect>
        0 3 7 5</rect></_>
    <_>
      <rect>
        0 3 8 2</rect></_>
    <_>
      <rect>
        0 3 8 7</rect></_>
    <_>
      <rect>
        0 4 3 1</rect></_>
    <_>
      <rect>
        0 4 5 2</rect></_>
    <_>
      <rect>
        0 5 4 1</rect></_>
    <_>
      <rect>
        0 5 5 3</rect></_>
    <_>
      <rect>
        0 5 7 2</rect></_>
    <_>
      <rect>
        0 5 7 3</rect></_>
    <_>
      <rect>
        0 5 8 6</rect></_>
    <_>
      <rect>
        0 6 7 4</rect></_>
    <_>
      <rect>
        0 8 2 1</rect></_>
    <_>
      <rect>
        0 8 6 2</rect></_>
    <_>
      <rect>
        0 9 4 5</rect></_>
    <_>
      <rect>
        0 9 5 5</rect></_>
    <_>
      <rect>
        0 11 3 1</rect></_>
    <_>
      <rect>
        0 15 1 1</rect></_>
    <_>
      <rect>
        0 15 8 3</rect></_>
    <_>
      <rect>
        0 16 1 1</rect></_>
    <_>
      <rect>
        0 18 1 1</rect></_>
    <_>
      <rect>
        0 18 5 2</rect></_>
    <_>
      <rect>
        0 20 1 1</rect></_>
    <_>
      <rect>
        1 0 1 1</rect></_>
    <_>
      <rect>
        1 0 4 1</rect></_>
    <_>
      <rect>
        1 0 5 6</rect></_>
    <_>
      <rect>
        1 0 6 1</rect></_>
    <_>
      <rect>
        1 2 7 7</rect></_>
    <_>
      <rect>
        1 3 6 3</rect></_>
    <_>
      <rect>
        1 4 6 4</rect></_>
    <_>
      <rect>
        1 6 3 1</rect></_>
    <_>
      <rect>
        1 6 7 6</rect></_>
    <_>
      <rect>
        1 7 1 1</rect></_>
    <_>
      <rect>
        1 8 1 1</rect></_>
    <_>
      <rect>
        1 9 1 1</rect></_>
    <_>
      <rect>
        1 9 5 5</rect></_>
    <_>
      <rect>
        1 11 6 3</rect></_>
    <_>
      <rect>
        1 12 6 4</rect></_>
    <_>
      <rect>
        1 12 7 4</rect></_>
    <_>
      <rect>
        1 14 1 1</rect></_>
    <_>
      <rect>
        1 14 7 2</rect></_>
    <_>
      <rect>
        1 15 5 3</rect></_>
    <_>
      <rect>
        1 21 1 1</rect></_>
    <_>
      <rect>
        2 0 5 2</rect></_>
    <_>
      <rect>
        2 0 6 1</rect></_>
    <_>
      <rect>
        2 0 6 2</rect></_>
    <_>
      <rect>
        2 0 7 3</rect></_>
    <_>
      <rect>
        2 0 7 4</rect></_>
    <_>
      <rect>
        2 0 7 5</rect></_>
    <_>
      <rect>
        2 0 7 8</rect></_>
    <_>
      <rect>
        2 1 7 4</rect></_>
    <_>
      <rect>
        2 4 6 3</rect></_>
    <_>
      <rect>
        2 4 7 6</rect></_>
    <_>
      <rect>
        2 7 5 4</rect></_>
    <_>
      <rect>
        2 11 1 1</rect></_>
    <_>
      <rect>
        2 15 1 1</rect></_>
    <_>
      <rect>
        2 21 1 1</rect></_>
    <_>
      <rect>
        3 0 4 2</rect></_>
    <_>
      <rect>
        3 0 6 4</rect></_>
    <_>
      <rect>
        3 0 7 2</rect></_>
    <_>
      <rect>
        3 0 7 4</rect></_>
    <_>
      <rect>
        3 1 7 6</rect></_>
    <_>
      <rect>
        3 3 3 2</rect></_>
    <_>
      <rect>
        3 4 7 2</rect></_>
    <_>
      <rect>
        3 7 7 5</rect></_>
    <_>
      <rect>
        3 8 5 2</rect></_>
    <_>
      <rect>
        3 8 7 4</rect></_>
    <_>
      <rect>
        3 9 5 4</rect></_>
    <_>
      <rect>
        3 12 7 2</rect></_>
    <_>
      <rect>
        3 13 7 3</rect></_>
    <_>
      <rect>
        3 15 5 2</rect></_>
    <_>
      <rect>
        3 18 6 2</rect></_>
    <_>
      <rect>
        4 0 6 2</rect></_>
    <_>
      <rect>
        4 0 6 6</rect></_>
    <_>
      <rect>
        4 2 2 1</rect></_>
    <_>
      <rect>
        4 2 3 1</rect></_>
    <_>
      <rect>
        4 4 5 2</rect></_>
    <_>
      <rect>
        4 9 6 5</rect></_>
    <_>
      <rect>
        4 11 1 1</rect></_>
    <_>
      <rect>
        4 11 5 2</rect></_>
    <_>
      <rect>
        4 15 6 3</rect></_>
    <_>
      <rect>
        5 0 6 3</rect></_>
    <_>
      <rect>
        5 0 6 5</rect></_>
    <_>
      <rect>
        5 1 6 5</rect></_>
    <_>
      <rect>
        5 3 1 1</rect></_>
    <_>
      <rect>
        5 4 4 1</rect></_>
    <_>
      <rect>
        5 7 1 1</rect></_>
    <_>
      <rect>
        5 7 6 2</rect></_>
    <_>
      <rect>
        5 11 2 1</rect></_>
    <_>
      <rect>
        5 14 6 2</rect></_>
    <_>
      <rect>
        6 0 6 2</rect></_>
    <_>
      <rect>
        6 0 6 3</rect></_>
    <_>
      <rect>
        6 0 6 4</rect></_>
    <_>
      <rect>
        6 0 6 8</rect></_>
    <_>
      <rect>
        6 1 6 3</rect></_>
    <_>
      <rect>
        6 1 6 5</rect></_>
    <_>
      <rect>
        6 2 6 4</rect></_>
    <_>
      <rect>
        6 2 6 5</rect></_>
    <_>
      <rect>
        6 4 1 1</rect></_>
    <_>
      <rect>
        6 5 6 6</rect></_>
    <_>
      <rect>
        6 12 5 4</rect></_>
    <_>
      <rect>
        6 13 4 2</rect></_>
    <_>
      <rect>
        6 15 5 2</rect></_>
    <_>
      <rect>
        7 0 3 1</rect></_>
    <_>
      <rect>
        7 0 5 2</rect></_>
    <_>
      <rect>
        7 3 4 1</rect></_>
    <_>
      <rect>
        7 4 5 2</rect></_>
    <_>
      <rect>
        7 9 1 1</rect></_>
    <_>
      <rect>
        8 0 1 1</rect></_>
    <_>
      <rect>
        8 0 5 8</rect></_>
    <_>
      <rect>
        8 1 2 1</rect></_>
    <_>
      <rect>
        8 3 4 1</rect></_>
    <_>
      <rect>
        8 6 5 5</rect></_>
    <_>
      <rect>
        8 8 5 5</rect></_>
    <_>
      <rect>
        8 9 4 1</rect></_>
    <_>
      <rect>
        8 11 1 1</rect></_>
    <_>
      <rect>
        8 13 1 1</rect></_>
    <_>
      <rect>
        8 14 1 1</rect></_>
    <_>
      <rect>
        8 15 5 3</rect></_>
    <_>
      <rect>
        9 0 1 1</rect></_>
    <_>
      <rect>
        9 0 5 1</rect></_>
    <_>
      <rect>
        9 0 5 3</rect></_>
    <_>
      <rect>
        9 0 5 4</rect></_>
    <_>
      <rect>
        9 0 5 8</rect></_>
    <_>
      <rect>
        9 2 5 6</rect></_>
    <_>
      <rect>
        9 3 5 3</rect></_>
    <_>
      <rect>
        9 8 4 2</rect></_>
    <_>
      <rect>
        9 9 5 2</rect></_>
    <_>
      <rect>
        9 9 5 5</rect></_>
    <_>
      <rect>
        9 21 1 1</rect></_>
    <_>
      <rect>
        10 2 1 1</rect></_>
    <_>
      <rect>
        10 15 4 2</rect></_>
    <_>
      <rect>
        10 18 3 2</rect></_>
    <_>
      <rect>
        11 0 1 1</rect></_>
    <_>
      <rect>
        11 0 4 2</rect></_>
    <_>
      <rect>
        11 2 1 1</rect></_>
    <_>
      <rect>
        11 6 1 1</rect></_>
    <_>
      <rect>
        11 11 1 1</rect></_>
    <_>
      <rect>
        12 0 4 2</rect></_>
    <_>
      <rect>
        12 1 4 3</rect></_>
    <_>
      <rect>
        12 7 4 4</rect></_>
    <_>
      <rect>
        12 7 4 5</rect></_>
    <_>
      <rect>
        12 8 4 4</rect></_>
    <_>
      <rect>
        13 17 3 2</rect></_>
    <_>
      <rect>
        14 0 3 2</rect></_>
    <_>
      <rect>
        14 4 3 2</rect></_>
    <_>
      <rect>
        14 6 1 1</rect></_>
    <_>
      <rect>
        15 0 3 1</rect></_>
    <_>
      <rect>
        15 1 3 2</rect></_>
    <_>
      <rect>
        15 1 3 3</rect></_>
    <_>
      <rect>
        15 6 3 4</rect></_>
    <_>
      <rect>
        15 9 3 5</rect></_>
    <_>
      <rect>
        15 11 1 1</rect></_>
    <_>
      <rect>
        15 18 1 1</rect></_>
    <_>
      <rect>
        17 0 1 1</rect></_>
    <_>
      <rect>
        17 11 2 2</rect></_>
    <_>
      <rect>
        17 19 1 1</rect></_>
    <_>
      <rect>
        17 19 2 1</rect></_>
    <_>
      <rect>
        18 0 1 1</rect></_>
    <_>
      <rect>
        18 0 2 1</rect></_>
    <_>
      <rect>
        18 1 1 1</rect></_>
    <_>
      <rect>
        18 9 2 2</rect></_>
    <_>
      <rect>
        18 12 1 1</rect></_>
    <_>
      <rect>
        18 20 1 1</rect></_>
    <_>
      <rect>
        19 0 1 1</rect></_>
    <_>
      <rect>
        19 6 1 1</rect></_>
    <_>
      <rect>
        19 21 1 1</rect></_>
    <_>
      <rect>
        20 0 1 1</rect></_>
    <_>
      <rect>
        20 18 1 1</rect></_>
    <_>
      <rect>
        20 19 1 1</rect></_>
    <_>
      <rect>
        21 0 1 1</rect></_>
    <_>
      <rect>
        21 5 1 2</rect></_></features></cascade>
</opencv_storage>
