<?xml version="1.0"?>
<opencv_storage>
<cascade>
  <stageType>BOOST</stageType>
  <featureType>LBP</featureType>
  <height>24</height>
  <width>24</width>
  <stageParams>
    <boostType>GAB</boostType>
    <minHitRate>9.9500000476837158e-01</minHitRate>
    <maxFalseAlarm>5.0000000000000000e-01</maxFalseAlarm>
    <weightTrimRate>9.4999999999999996e-01</weightTrimRate>
    <maxDepth>1</maxDepth>
    <maxWeakCount>100</maxWeakCount></stageParams>
  <featureParams>
    <maxCatCount>256</maxCatCount>
    <featSize>1</featSize></featureParams>
  <stageNum>20</stageNum>
  <stages>
    <!-- stage 0 -->
    <_>
      <maxWeakCount>4</maxWeakCount>
      <stageThreshold>-9.3497580289840698e-01</stageThreshold>
      <weakClassifiers>
        <_>
          <internalNodes>
            0 -1 34 -1191083563 -258932735 -2004319924 -548993022
            -267845632 25165832 -1543340032 -232777728</internalNodes>
          <leafValues>
            -5.7528090476989746e-01 7.1658766269683838e-01</leafValues></_>
        <_>
          <internalNodes>
            0 -1 10 -180240903 -754106112 1073758212 1393624384
            -888630616 2013331464 -2012573142 1395354186</internalNodes>
          <leafValues>
            -4.8728653788566589e-01 7.5279515981674194e-01</leafValues></_>
        <_>
          <internalNodes>
            0 -1 84 -5243930 -71303363 -14 -1078460425 1073151482
            -1111523843 1685912985 -1339418818</internalNodes>
          <leafValues>
            -4.3760010600090027e-01 7.3790723085403442e-01</leafValues></_>
        <_>
          <internalNodes>
            0 -1 22 -1081486608 -2063433727 -805252478 -801062912
            -2104844254 1612742688 -1736398752 -184549088</internalNodes>
          <leafValues>
            -6.7488998174667358e-01 4.9703127145767212e-01</leafValues></_></weakClassifiers></_>
    <!-- stage 1 -->
    <_>
      <maxWeakCount>2</maxWeakCount>
      <stageThreshold>-1.4102984964847565e-01</stageThreshold>
      <weakClassifiers>
        <_>
          <internalNodes>
            0 -1 72 -1870527839 1130497 -1811413857 807026688
            -2147409867 134742033 -2139028992 -1607200512</internalNodes>
          <leafValues>
            -7.4644243717193604e-01 7.0812749862670898e-01</leafValues></_>
        <_>
          <internalNodes>
            0 -1 5 -1702734636 -1862205432 71687 -204405246 -662667128
            -2139095040 -2101329752 -1297471232</internalNodes>
          <leafValues>
            -6.1717563867568970e-01 6.0541260242462158e-01</leafValues></_></weakClassifiers></_>
    <!-- stage 2 -->
    <_>
      <maxWeakCount>5</maxWeakCount>
      <stageThreshold>-5.7615405321121216e-01</stageThreshold>
      <weakClassifiers>
        <_>
          <internalNodes>
            0 -1 50 -2138692592 -217055231 -1878896443 336265217
            -2146775416 -2147352448 -536837504 -1970667520</internalNodes>
          <leafValues>
            -6.9318181276321411e-01 6.4808362722396851e-01</leafValues></_>
        <_>
          <internalNodes>
            0 -1 38 2135285753 -17 -526571 -1082982402 -8388945
            1064239085 1206379656 1346983390</internalNodes>
          <leafValues>
            -5.3226143121719360e-01 6.9832688570022583e-01</leafValues></_>
        <_>
          <internalNodes>
            0 -1 117 -307090040 -420479106 -17301509 -152437004 -98952
            1610530679 400881072 -163381354</internalNodes>
          <leafValues>
            -5.1475185155868530e-01 6.8505734205245972e-01</leafValues></_>
        <_>
          <internalNodes>
            0 -1 36 361968259 -503119856 -1073724397 1402044418
            304611368 -1064157182 696910507 -1701896176</internalNodes>
          <leafValues>
            -5.7164245843887329e-01 5.9157818555831909e-01</leafValues></_>
        <_>
          <internalNodes>
            0 -1 103 -1319759404 -1992228735 16724 -1207885824
            -1606383584 -2147483648 1744914624 -754843376</internalNodes>
          <leafValues>
            -6.5340632200241089e-01 5.3587430715560913e-01</leafValues></_></weakClassifiers></_>
    <!-- stage 3 -->
    <_>
      <maxWeakCount>5</maxWeakCount>
      <stageThreshold>-3.1736248731613159e-01</stageThreshold>
      <weakClassifiers>
        <_>
          <internalNodes>
            0 -1 31 -26214484 2142142438 -33097 1945272299 -16781874
            104725572 536834447 326850043</internalNodes>
          <leafValues>
            -2.6045489311218262e-01 8.2773363590240479e-01</leafValues></_>
        <_>
          <internalNodes>
            0 -1 85 -4194310 -71336003 -6 -4194305 1069022647 -33653443
            -1124467489 1666404059</internalNodes>
          <leafValues>
            -2.5771686434745789e-01 7.7865922451019287e-01</leafValues></_>
        <_>
          <internalNodes>
            0 -1 24 -1282191041 -783056496 -653164512 1560740099
            -922083237 -2137489270 -209690069 -50454240</internalNodes>
          <leafValues>
            -5.8551049232482910e-01 4.7523432970046997e-01</leafValues></_>
        <_>
          <internalNodes>
            0 -1 101 -1723608702 -2121777151 -989822958 1948106768
            545427651 -1878982656 -2105104192 -197653840</internalNodes>
          <leafValues>
            -6.5607142448425293e-01 3.7777411937713623e-01</leafValues></_>
        <_>
          <internalNodes>
            0 -1 87 -1819084364 -121438197 -2147397374 -372555775
            -1031556494 -2145320695 1250468032 -486071680</internalNodes>
          <leafValues>
            -5.8373409509658813e-01 4.0854561328887939e-01</leafValues></_></weakClassifiers></_>
    <!-- stage 4 -->
    <_>
      <maxWeakCount>7</maxWeakCount>
      <stageThreshold>-4.5475140213966370e-01</stageThreshold>
      <weakClassifiers>
        <_>
          <internalNodes>
            0 -1 1 1876918257 2138980212 -32780 -573444 -4229194
            2147450878 -32905 1383300471</internalNodes>
          <leafValues>
            -3.9723318815231323e-01 7.0523136854171753e-01</leafValues></_>
        <_>
          <internalNodes>
            0 -1 81 -380989246 -607645628 268439684 -1726771183
            -2138396427 269090824 545855628 691538347</internalNodes>
          <leafValues>
            -4.9460914731025696e-01 5.3980630636215210e-01</leafValues></_>
        <_>
          <internalNodes>
            0 -1 33 -679748651 -627900415 -1073643310 -267255672
            -2013134780 -2138898303 704760484 -606414648</internalNodes>
          <leafValues>
            -5.4229772090911865e-01 4.5963981747627258e-01</leafValues></_>
        <_>
          <internalNodes>
            0 -1 86 -5112013 -4489415 -16388 2130608125 -1077952579
            -4297475 -50451009 808780947</internalNodes>
          <leafValues>
            -4.9107822775840759e-01 5.0583863258361816e-01</leafValues></_>
        <_>
          <internalNodes>
            0 -1 119 -16893226 -832413698 -285278482 -731316244
            268431331 -1889042563 -948064540 -201362501</internalNodes>
          <leafValues>
            -3.7098252773284912e-01 6.3545423746109009e-01</leafValues></_>
        <_>
          <internalNodes>
            0 -1 120 -1551882272 -1039073070 268452032 -532643756
            -2142762615 8421378 -2147047261 -310341488</internalNodes>
          <leafValues>
            -5.7184445858001709e-01 4.3266668915748596e-01</leafValues></_>
        <_>
          <internalNodes>
            0 -1 79 -1476325166 -1589575664 16777409 -859111102
            -2113798130 -2112878464 -1434214385 -1420877304</internalNodes>
          <leafValues>
            -5.7145893573760986e-01 4.1443946957588196e-01</leafValues></_></weakClassifiers></_>
    <!-- stage 5 -->
    <_>
      <maxWeakCount>6</maxWeakCount>
      <stageThreshold>-9.1652202606201172e-01</stageThreshold>
      <weakClassifiers>
        <_>
          <internalNodes>
            0 -1 11 2142469885 -8945803 -32772 -210665484 -84254724
            -76021769 2130542463 293298175</internalNodes>
          <leafValues>
            -2.5836908817291260e-01 7.0899182558059692e-01</leafValues></_>
        <_>
          <internalNodes>
            0 -1 82 -754534272 1566130179 285328720 437453003 546408591
            -1164246902 537493729 -1059667764</internalNodes>
          <leafValues>
            -5.5759805440902710e-01 4.4272631406784058e-01</leafValues></_>
        <_>
          <internalNodes>
            0 -1 14 -1877995361 -1810825211 1358954896 -719257590
            411568311 780697640 -1467317321 -2025731942</internalNodes>
          <leafValues>
            -5.3060722351074219e-01 4.1526389122009277e-01</leafValues></_>
        <_>
          <internalNodes>
            0 -1 59 -1078997057 -272662599 -134219791 1069514749 -470
            -4292802 -1208032022 -2050257762</internalNodes>
          <leafValues>
            -4.0148147940635681e-01 5.9339171648025513e-01</leafValues></_>
        <_>
          <internalNodes>
            0 -1 67 -1819855995 -120913723 269504793 -1965113255
            -2012657613 -1207172981 -1937045377 -188088091</internalNodes>
          <leafValues>
            -6.6599702835083008e-01 3.3136659860610962e-01</leafValues></_>
        <_>
          <internalNodes>
            0 -1 69 -12956239 -1090560002 2063466427 -1296039938
            -1074847967 -8388737 -537002040 -1273568133</internalNodes>
          <leafValues>
            -4.6470323204994202e-01 4.9547588825225830e-01</leafValues></_></weakClassifiers></_>
    <!-- stage 6 -->
    <_>
      <maxWeakCount>6</maxWeakCount>
      <stageThreshold>-8.0500972270965576e-01</stageThreshold>
      <weakClassifiers>
        <_>
          <internalNodes>
            0 -1 35 -1848635209 -1056964416 -939457201 -1475297021
            -2105425872 163840 -1862260720 -1487897600</internalNodes>
          <leafValues>
            -6.9539076089859009e-01 5.3858458995819092e-01</leafValues></_>
        <_>
          <internalNodes>
            0 -1 29 1813244098 -653064190 137 1598113009 -2003614591
            268566684 -1970388694 1133469834</internalNodes>
          <leafValues>
            -4.9138903617858887e-01 5.2904635667800903e-01</leafValues></_>
        <_>
          <internalNodes>
            0 -1 113 -1073743957 -282069185 -12 -1312817156 -143130690
            -1384120449 -8917065 -155451400</internalNodes>
          <leafValues>
            -3.5358729958534241e-01 6.3379067182540894e-01</leafValues></_>
        <_>
          <internalNodes>
            0 -1 20 1175368668 -762157935 81992 1941045443 -1920751414
            462047400 1401113799 1905109227</internalNodes>
          <leafValues>
            -5.0771057605743408e-01 4.4285023212432861e-01</leafValues></_>
        <_>
          <internalNodes>
            0 -1 114 -1383834437 631083153 -2129866473 -143187817
            -2000052040 134742017 -1509235723 -1483161527</internalNodes>
          <leafValues>
            -5.2947777509689331e-01 4.2290765047073364e-01</leafValues></_>
        <_>
          <internalNodes>
            0 -1 23 -1073860617 -285249537 -53441 -1091584001 -8437894
            2139094911 2139041566 -1292421194</internalNodes>
          <leafValues>
            -4.4880756735801697e-01 4.9407076835632324e-01</leafValues></_></weakClassifiers></_>
    <!-- stage 7 -->
    <_>
      <maxWeakCount>7</maxWeakCount>
      <stageThreshold>-5.5574047565460205e-01</stageThreshold>
      <weakClassifiers>
        <_>
          <internalNodes>
            0 -1 13 1090638192 2135429125 1224737024 756039751 545262641
            999489672 545327236 793971362</internalNodes>
          <leafValues>
            -5.6790125370025635e-01 5.8163267374038696e-01</leafValues></_>
        <_>
          <internalNodes>
            0 -1 26 1896579544 -170565608 285278595 1594097689
            -368396118 -1425539038 -903959825 1661692172</internalNodes>
          <leafValues>
            -4.9847099184989929e-01 5.0374114513397217e-01</leafValues></_>
        <_>
          <internalNodes>
            0 -1 85 -753699138 -787939327 16846915 1460125705 268550274
            -117243903 412672156 1461166810</internalNodes>
          <leafValues>
            -4.2493444681167603e-01 4.9452379345893860e-01</leafValues></_>
        <_>
          <internalNodes>
            0 -1 46 -2004631367 -2113863615 1090588692 -636223419
            -2138996391 571113481 9142792 -575008303</internalNodes>
          <leafValues>
            -4.7561672329902649e-01 4.4266867637634277e-01</leafValues></_>
        <_>
          <internalNodes>
            0 -1 107 -2117950008 -918462425 16891968 -787017727
            -1610405880 -2000551421 -201285461 -1759899384</internalNodes>
          <leafValues>
            -5.2118927240371704e-01 3.9036190509796143e-01</leafValues></_>
        <_>
          <internalNodes>
            0 -1 89 -712286237 -653196800 134342731 471705631
            -1610579887 -1870659454 816390270 -50157249</internalNodes>
          <leafValues>
            -4.3398091197013855e-01 4.8700866103172302e-01</leafValues></_>
        <_>
          <internalNodes>
            0 -1 37 155566483 -553545639 16842769 1531511105 -1065351003
            -125075440 143204370 -1023336054</internalNodes>
          <leafValues>
            -5.1341974735260010e-01 4.4468271732330322e-01</leafValues></_></weakClassifiers></_>
    <!-- stage 8 -->
    <_>
      <maxWeakCount>7</maxWeakCount>
      <stageThreshold>-6.6528499126434326e-01</stageThreshold>
      <weakClassifiers>
        <_>
          <internalNodes>
            0 -1 53 -25198945 -1896939612 -173 2147385319 2147482798
            -2095055716 2130691519 -1648700021</internalNodes>
          <leafValues>
            -7.8833021223545074e-02 8.1137508153915405e-01</leafValues></_>
        <_>
          <internalNodes>
            0 -1 83 -598896621 1934693125 285315201 -587137022
            -1978650565 965182088 243300471 -1698354666</internalNodes>
          <leafValues>
            -4.8984560370445251e-01 4.5523223280906677e-01</leafValues></_>
        <_>
          <internalNodes>
            0 -1 57 -440418383 -262281 -205 -4817098 -1209009155
            -671121409 -1484783624 -973138497</internalNodes>
          <leafValues>
            -3.7790971994400024e-01 5.9126675128936768e-01</leafValues></_>
        <_>
          <internalNodes>
            0 -1 56 319014967 -779057001 -2147447407 1334415490
            -1475860462 -1834450886 59613415 9578716</internalNodes>
          <leafValues>
            -6.9292032718658447e-01 2.9977682232856750e-01</leafValues></_>
        <_>
          <internalNodes>
            0 -1 111 -1299581967 -1877266431 16777600 -762961907
            -482232292 -1056833534 -1450370676 -1819635560</internalNodes>
          <leafValues>
            -6.4261645078659058e-01 2.9121345281600952e-01</leafValues></_>
        <_>
          <internalNodes>
            0 -1 106 -251436104 -732954351 285315117 -869596917
            -1601691475 -217907173 1099235595 488704323</internalNodes>
          <leafValues>
            -5.6054478883743286e-01 3.9276143908500671e-01</leafValues></_>
        <_>
          <internalNodes>
            0 -1 22 -1728982700 -1575858046 1494258828 -115965742
            -1341749134 -2147483482 -1610512336 -905969660</internalNodes>
          <leafValues>
            -7.7208644151687622e-01 2.9024875164031982e-01</leafValues></_></weakClassifiers></_>
    <!-- stage 9 -->
    <_>
      <maxWeakCount>8</maxWeakCount>
      <stageThreshold>-6.6659671068191528e-01</stageThreshold>
      <weakClassifiers>
        <_>
          <internalNodes>
            0 -1 2 -8390958 -13 2147483506 2012968319 -16810104
            998211452 -32840 1079483796</internalNodes>
          <leafValues>
            -3.5589742660522461e-01 6.6518521308898926e-01</leafValues></_>
        <_>
          <internalNodes>
            0 -1 10 2130690045 2139062133 2147483644 2138406909 -198668
            2138537851 -25231489 2071707518</internalNodes>
          <leafValues>
            -3.7263992428779602e-01 5.7389098405838013e-01</leafValues></_>
        <_>
          <internalNodes>
            0 -1 64 2133573425 -12583122 -268439571 788525055
            -1073758426 -1074298882 -1442841394 -1652769321</internalNodes>
          <leafValues>
            -4.1561865806579590e-01 5.4588907957077026e-01</leafValues></_>
        <_>
          <internalNodes>
            0 -1 40 2126507756 -838894087 -134 -1690337411 -4492
            -302514307 1879046130 -1568679170</internalNodes>
          <leafValues>
            -4.3732693791389465e-01 4.7857150435447693e-01</leafValues></_>
        <_>
          <internalNodes>
            0 -1 54 -389426105 1431736321 285245651 -1253896175
            -1065283318 -1270874112 -1240844133 -1422061556</internalNodes>
          <leafValues>
            -4.7438272833824158e-01 4.6447646617889404e-01</leafValues></_>
        <_>
          <internalNodes>
            0 -1 16 -1056865547 -787349092 -1862172669 1549598924
            536977557 -1861810166 -2121695028 272302185</internalNodes>
          <leafValues>
            -4.4387009739875793e-01 4.8915123939514160e-01</leafValues></_>
        <_>
          <internalNodes>
            0 -1 70 -553652560 -1 -14 -1082392603 -148 -268566657
            -671654520 -8683652</internalNodes>
          <leafValues>
            -3.6614361405372620e-01 5.7687407732009888e-01</leafValues></_>
        <_>
          <internalNodes>
            0 -1 91 -251424734 319389986 -1006631856 305725659 419529137
            -1290239872 -2139060154 498206456</internalNodes>
          <leafValues>
            -7.0050823688507080e-01 3.4452506899833679e-01</leafValues></_></weakClassifiers></_>
    <!-- stage 10 -->
    <_>
      <maxWeakCount>6</maxWeakCount>
      <stageThreshold>-9.8822152614593506e-01</stageThreshold>
      <weakClassifiers>
        <_>
          <internalNodes>
            0 -1 12 -137 -268435589 -65540 -218136578 2147254128
            2137522037 -196752 1433731062</internalNodes>
          <leafValues>
            -4.6268656849861145e-01 6.2477231025695801e-01</leafValues></_>
        <_>
          <internalNodes>
            0 -1 39 1649799744 -784170649 268439643 1913065742
            -1056337740 -1575976951 1074231960 1319060043</internalNodes>
          <leafValues>
            -4.4267001748085022e-01 5.1786249876022339e-01</leafValues></_>
        <_>
          <internalNodes>
            0 -1 74 13628329 1398112463 -1878982013 1832783879
            -346834011 -1157562360 -2002283800 1572341562</internalNodes>
          <leafValues>
            -4.4536867737770081e-01 4.6462923288345337e-01</leafValues></_>
        <_>
          <internalNodes>
            0 -1 99 -784129791 1157857283 285446401 -208453558
            -1333591691 453149824 713689891 732898114</internalNodes>
          <leafValues>
            -6.7559760808944702e-01 3.0848667025566101e-01</leafValues></_>
        <_>
          <internalNodes>
            0 -1 63 2130689967 -1091043489 -65673 -588091565 -1344274435
            226459645 -1879064835 -571621889</internalNodes>
          <leafValues>
            -3.1436991691589355e-01 6.9767892360687256e-01</leafValues></_>
        <_>
          <internalNodes>
            0 -1 48 -213195945 -805109629 16842905 -796901371 1539332882
            319307776 -1064845307 936227740</internalNodes>
          <leafValues>
            -7.1907192468643188e-01 2.9277446866035461e-01</leafValues></_></weakClassifiers></_>
    <!-- stage 11 -->
    <_>
      <maxWeakCount>7</maxWeakCount>
      <stageThreshold>-7.0059412717819214e-01</stageThreshold>
      <weakClassifiers>
        <_>
          <internalNodes>
            0 -1 44 603979597 -134479881 -217 2138242870 1744830328
            -134250633 -805314824 1438601662</internalNodes>
          <leafValues>
            -2.7608495950698853e-01 6.7762130498886108e-01</leafValues></_>
        <_>
          <internalNodes>
            0 -1 7 -8683532 2147442686 -4194314 -12583041 -1074806788
            -8388612 -1207959688 557292854</internalNodes>
          <leafValues>
            -4.2417618632316589e-01 4.8438289761543274e-01</leafValues></_>
        <_>
          <internalNodes>
            0 -1 49 -1692443853 -1047287650 43778625 622056159
            -267874766 -1191149560 718111429 91376012</internalNodes>
          <leafValues>
            -7.5598239898681641e-01 2.6879104971885681e-01</leafValues></_>
        <_>
          <internalNodes>
            0 -1 94 -888668383 -104030178 -1879013304 403014171
            -788299538 -905805824 1644470408 -1211227550</internalNodes>
          <leafValues>
            -4.5238181948661804e-01 4.4868469238281250e-01</leafValues></_>
        <_>
          <internalNodes>
            0 -1 102 1079127424 -728399856 -1862270848 52300360
            -1878390747 947916820 -1820181981 -1614142928</internalNodes>
          <leafValues>
            -7.2682595252990723e-01 2.6353865861892700e-01</leafValues></_>
        <_>
          <internalNodes>
            0 -1 25 831635861 -988737515 151588307 -1792802659
            -1047163675 -108396415 311032328 -851803768</internalNodes>
          <leafValues>
            -4.1848731040954590e-01 4.7727862000465393e-01</leafValues></_>
        <_>
          <internalNodes>
            0 -1 27 -799231648 -787148769 -2130635767 -1115320295
            -1040080462 -1576959840 453060768 423692427</internalNodes>
          <leafValues>
            -4.8105451464653015e-01 4.3992999196052551e-01</leafValues></_></weakClassifiers></_>
    <!-- stage 12 -->
    <_>
      <maxWeakCount>7</maxWeakCount>
      <stageThreshold>-4.7269737720489502e-01</stageThreshold>
      <weakClassifiers>
        <_>
          <internalNodes>
            0 -1 28 1853861844 -352387723 2147186426 1920958462
            -285474888 -343933059 -402656296 -903097093</internalNodes>
          <leafValues>
            -1.5350876748561859e-01 7.4142158031463623e-01</leafValues></_>
        <_>
          <internalNodes>
            0 -1 18 2147385068 2129559547 -268468229 -13406214
            2130640353 385875823 -813695622 1052341178</internalNodes>
          <leafValues>
            -3.6155900359153748e-01 5.2029025554656982e-01</leafValues></_>
        <_>
          <internalNodes>
            0 -1 104 1364669896 -1071915001 65704 -2096988137
            -1043692915 -1844952959 -247420727 353450254</internalNodes>
          <leafValues>
            -4.9006503820419312e-01 3.9610257744789124e-01</leafValues></_>
        <_>
          <internalNodes>
            0 -1 65 1377028836 -791969782 1140883586 -1337982973
            -921722872 -1291845632 176671235 -1084338048</internalNodes>
          <leafValues>
            -6.1921101808547974e-01 2.9185068607330322e-01</leafValues></_>
        <_>
          <internalNodes>
            0 -1 77 93621187 -183417899 25182228 -1114062653 276939339
            -1065336640 -536016753 -1549097726</internalNodes>
          <leafValues>
            -4.1499552130699158e-01 4.1749167442321777e-01</leafValues></_>
        <_>
          <internalNodes>
            0 -1 105 264343937 -1794015207 1610621062 -767475572
            1376461009 2030567432 -2147382862 -68483028</internalNodes>
          <leafValues>
            -5.1292198896408081e-01 3.5411658883094788e-01</leafValues></_>
        <_>
          <internalNodes>
            0 -1 8 277214202 -1073397309 68625 1551958408 -1073395576
            -2138931195 1250533281 1177467019</internalNodes>
          <leafValues>
            -5.0181108713150024e-01 3.6450213193893433e-01</leafValues></_></weakClassifiers></_>
    <!-- stage 13 -->
    <_>
      <maxWeakCount>7</maxWeakCount>
      <stageThreshold>-4.9349278211593628e-01</stageThreshold>
      <weakClassifiers>
        <_>
          <internalNodes>
            0 -1 32 1481078775 -804740989 16810011 268566721 -654237631
            -938868704 -515667840 354306280</internalNodes>
          <leafValues>
            -5.9252971410751343e-01 5.5951887369155884e-01</leafValues></_>
        <_>
          <internalNodes>
            0 -1 47 -293619805 -353440257 -268435586 -377524225
            -285216843 -1342181505 -1946289172 -2080910113</internalNodes>
          <leafValues>
            -3.2080188393592834e-01 6.6354191303253174e-01</leafValues></_>
        <_>
          <internalNodes>
            0 -1 52 -1363153153 -1104216146 -4235 2147385343 -16777689
            -1455489730 2130706426 -1877222195</internalNodes>
          <leafValues>
            -3.8883817195892334e-01 5.0626212358474731e-01</leafValues></_>
        <_>
          <internalNodes>
            0 -1 19 -286328833 -92897414 -17 1937506303 2122317788
            -144703619 486391786 -1044644394</internalNodes>
          <leafValues>
            -2.8755226731300354e-01 7.0802116394042969e-01</leafValues></_>
        <_>
          <internalNodes>
            0 -1 97 -779382194 -1860726589 -2130624491 1141309637
            553691410 8421516 256192 -876426507</internalNodes>
          <leafValues>
            -5.8468389511108398e-01 3.6326870322227478e-01</leafValues></_>
        <_>
          <internalNodes>
            0 -1 95 1225602786 -1325293549 -2147446630 -1673150446
            -1878957109 -1819705335 231853 -694760984</internalNodes>
          <leafValues>
            -5.2417963743209839e-01 4.0792486071586609e-01</leafValues></_>
        <_>
          <internalNodes>
            0 -1 73 -1861152272 -702480367 285213144 -1659301809 8394768
            -1878392831 663233024 -803552768</internalNodes>
          <leafValues>
            -7.7416056394577026e-01 2.5056874752044678e-01</leafValues></_></weakClassifiers></_>
    <!-- stage 14 -->
    <_>
      <maxWeakCount>7</maxWeakCount>
      <stageThreshold>-4.8861306905746460e-01</stageThreshold>
      <weakClassifiers>
        <_>
          <internalNodes>
            0 -1 42 1072676404 1060044667 -268440352 1735421927
            1068474286 -8388609 1526594814 921534430</internalNodes>
          <leafValues>
            -2.0726671814918518e-01 6.9927334785461426e-01</leafValues></_>
        <_>
          <internalNodes>
            0 -1 30 -286267426 -335904769 -268435726 -101482506
            1870659350 -293609857 -134220326 -847252261</internalNodes>
          <leafValues>
            -3.1444552540779114e-01 6.3738310337066650e-01</leafValues></_>
        <_>
          <internalNodes>
            0 -1 6 1343423698 1897480259 200 -775585775 -2147442490
            -2146959351 1745554065 1083007828</internalNodes>
          <leafValues>
            -6.5893447399139404e-01 3.5410371422767639e-01</leafValues></_>
        <_>
          <internalNodes>
            0 -1 93 -486313291 1897201797 -2055175805 -1727426549
            -1860513787 -798326720 -2139023165 -1772299646</internalNodes>
          <leafValues>
            -4.7161158919334412e-01 4.1471835970878601e-01</leafValues></_>
        <_>
          <internalNodes>
            0 -1 110 2051797175 -805240831 -2126411772 -889159419
            -2130673621 1343979585 277459374 2071183496</internalNodes>
          <leafValues>
            -4.2324855923652649e-01 5.1774823665618896e-01</leafValues></_>
        <_>
          <internalNodes>
            0 -1 118 -247234404 1354825752 -2130706407 273809473
            -2138963812 -1744797568 268437664 1377173613</internalNodes>
          <leafValues>
            -5.6924188137054443e-01 3.7996456027030945e-01</leafValues></_>
        <_>
          <internalNodes>
            0 -1 98 911132825 -150368111 562069530 202064017 134256936
            -104628223 -670512955 -1559257084</internalNodes>
          <leafValues>
            -6.5093505382537842e-01 3.0859884619712830e-01</leafValues></_></weakClassifiers></_>
    <!-- stage 15 -->
    <_>
      <maxWeakCount>8</maxWeakCount>
      <stageThreshold>-1.6163618862628937e-01</stageThreshold>
      <weakClassifiers>
        <_>
          <internalNodes>
            0 -1 4 1878753206 2147450741 2147450869 -884739 2147417936
            -163843 -296965 49358705</internalNodes>
          <leafValues>
            -4.8108106851577759e-01 6.0000002384185791e-01</leafValues></_>
        <_>
          <internalNodes>
            0 -1 51 406892852 -938360702 268435481 168001667 -2046648320
            -528351231 -2108124486 -1353760627</internalNodes>
          <leafValues>
            -4.5795956254005432e-01 4.9351903796195984e-01</leafValues></_>
        <_>
          <internalNodes>
            0 -1 88 21445587 -1056439295 1073742080 -1718025920
            -2134685553 579895432 2025947289 727505057</internalNodes>
          <leafValues>
            -4.9875214695930481e-01 4.4975855946540833e-01</leafValues></_>
        <_>
          <internalNodes>
            0 -1 108 290002067 -905740286 134234178 -2105441193 241933
            -2136997878 1076428864 -585125633</internalNodes>
          <leafValues>
            -4.1565620899200439e-01 5.4777652025222778e-01</leafValues></_>
        <_>
          <internalNodes>
            0 -1 78 890087739 -1827568448 1360003137 -2041655095
            -1727755853 -1558179686 229524 -707395324</internalNodes>
          <leafValues>
            -5.8409333229064941e-01 3.7965869903564453e-01</leafValues></_>
        <_>
          <internalNodes>
            0 -1 21 1090617620 858277979 285806945 -1927003967
            1157759001 143130697 -1975287793 -1618586712</internalNodes>
          <leafValues>
            -5.4434245824813843e-01 4.0943479537963867e-01</leafValues></_>
        <_>
          <internalNodes>
            0 -1 41 -1056389092 8421393 33873 -1644019711 106528
            42532994 142712976 -628096885</internalNodes>
          <leafValues>
            -6.5838956832885742e-01 3.3731955289840698e-01</leafValues></_>
        <_>
          <internalNodes>
            0 -1 96 -12750857 -1086849164 -1073745997 -268435460
            2147479543 1870643004 2097135226 -1795835906</internalNodes>
          <leafValues>
            -3.5083451867103577e-01 6.1944252252578735e-01</leafValues></_></weakClassifiers></_>
    <!-- stage 16 -->
    <_>
      <maxWeakCount>6</maxWeakCount>
      <stageThreshold>-9.6814662218093872e-01</stageThreshold>
      <weakClassifiers>
        <_>
          <internalNodes>
            0 -1 55 -2147443767 273746057 268443651 -586285030
            -1308489728 -1013931646 1619480712 410092</internalNodes>
          <leafValues>
            -6.0000002384185791e-01 5.4754096269607544e-01</leafValues></_>
        <_>
          <internalNodes>
            0 -1 109 -134746197 -1355878837 2147401586 2138410996 -81957
            805273465 -721423118 502632831</internalNodes>
          <leafValues>
            -4.1660597920417786e-01 5.6391584873199463e-01</leafValues></_>
        <_>
          <internalNodes>
            0 -1 43 1358991381 -1858006896 1358956693 1308622848
            176160779 824705041 4 110299200</internalNodes>
          <leafValues>
            -9.0532612800598145e-01 2.5777235627174377e-01</leafValues></_>
        <_>
          <internalNodes>
            0 -1 90 -644807947 -2143129468 268435465 286359555
            -1876911943 -1869479802 33659016 -815513574</internalNodes>
          <leafValues>
            -4.9357056617736816e-01 4.7111958265304565e-01</leafValues></_>
        <_>
          <internalNodes>
            0 -1 116 787070621 -98481 -16957670 580059103 2139095028
            -813727745 1207889552 -2016282994</internalNodes>
          <leafValues>
            -4.6459436416625977e-01 5.0812304019927979e-01</leafValues></_>
        <_>
          <internalNodes>
            0 -1 68 1073712853 -262149 -223 2075656187 -16777600
            -277348355 2147483528 -1082130457</internalNodes>
          <leafValues>
            -3.9868906140327454e-01 6.5122503042221069e-01</leafValues></_></weakClassifiers></_>
    <!-- stage 17 -->
    <_>
      <maxWeakCount>8</maxWeakCount>
      <stageThreshold>-7.5346589088439941e-01</stageThreshold>
      <weakClassifiers>
        <_>
          <internalNodes>
            0 -1 60 848175172 -1878620042 -2147465194 1142034692
            -660887448 -1283405659 1258990416 1312555394</internalNodes>
          <leafValues>
            -5.8047014474868774e-01 5.3984469175338745e-01</leafValues></_>
        <_>
          <internalNodes>
            0 -1 80 1213641715 809599235 1207962701 -2145517565
            -100146883 -123076591 152796608 -923122948</internalNodes>
          <leafValues>
            -6.1391675472259521e-01 3.7063637375831604e-01</leafValues></_>
        <_>
          <internalNodes>
            0 -1 45 1112138560 -803635181 -2147385076 1342243843
            1208003340 -1450606584 185043176 126858175</internalNodes>
          <leafValues>
            -4.6137353777885437e-01 4.7307339310646057e-01</leafValues></_>
        <_>
          <internalNodes>
            0 -1 17 -1006192195 -1873600367 285288591 1258432649
            1342344408 138969226 1221163782 -1546962418</internalNodes>
          <leafValues>
            -4.9712753295898438e-01 4.2002871632575989e-01</leafValues></_>
        <_>
          <internalNodes>
            0 -1 15 -833945512 1346371663 218123449 -1857879348
            1222133768 -107544565 1224968403 1074701781</internalNodes>
          <leafValues>
            -6.4976447820663452e-01 3.0350178480148315e-01</leafValues></_>
        <_>
          <internalNodes>
            0 -1 71 1074059993 -587136851 67109191 -846643062 168954032
            -1467875176 1115872168 -46233259</internalNodes>
          <leafValues>
            -4.3886980414390564e-01 4.6137711405754089e-01</leafValues></_>
        <_>
          <internalNodes>
            0 -1 61 879433044 -267251537 1090519101 -1001438968
            -106348531 -1288011733 134416898 -1025242391</internalNodes>
          <leafValues>
            -6.2591153383255005e-01 3.1820419430732727e-01</leafValues></_>
        <_>
          <internalNodes>
            0 -1 58 13619754 546373656 -1995882095 -1803058935
            -726882202 808919353 813795715 -2079271724</internalNodes>
          <leafValues>
            -6.7856073379516602e-01 2.8213903307914734e-01</leafValues></_></weakClassifiers></_>
    <!-- stage 18 -->
    <_>
      <maxWeakCount>5</maxWeakCount>
      <stageThreshold>-1.7897717654705048e-01</stageThreshold>
      <weakClassifiers>
        <_>
          <internalNodes>
            0 -1 9 -12716652 -163841 -1 -268599298 -237572 -9 -229514
            -948740281</internalNodes>
          <leafValues>
            -1.6562500596046448e-01 7.0465117692947388e-01</leafValues></_>
        <_>
          <internalNodes>
            0 -1 75 71771115 -922745621 151586899 -2079768549 1212337129
            -888831861 1260503280 1569657530</internalNodes>
          <leafValues>
            -4.4954282045364380e-01 4.9937981367111206e-01</leafValues></_>
        <_>
          <internalNodes>
            0 -1 62 -339759457 -268435706 -69773 -17404041 1879048116
            -89128961 -536880933 -641934466</internalNodes>
          <leafValues>
            -3.7120005488395691e-01 6.0192275047302246e-01</leafValues></_>
        <_>
          <internalNodes>
            0 -1 3 1115778834 -1069479542 207161482 -918339453
            1082663040 -2136997438 -1060541869 -2120538674</internalNodes>
          <leafValues>
            -4.9517112970352173e-01 4.3149277567863464e-01</leafValues></_>
        <_>
          <internalNodes>
            0 -1 0 -620506674 1360625809 -2130111728 1968328979
            -1593272264 -1165492213 -1073702718 -937606231</internalNodes>
          <leafValues>
            -4.8279577493667603e-01 4.3228566646575928e-01</leafValues></_></weakClassifiers></_>
    <!-- stage 19 -->
    <_>
      <maxWeakCount>6</maxWeakCount>
      <stageThreshold>-2.7297371625900269e-01</stageThreshold>
      <weakClassifiers>
        <_>
          <internalNodes>
            0 -1 66 -268452044 -1079050449 -268435476 -402735106 -49161
            -1078067203 -33728 213655038</internalNodes>
          <leafValues>
            -3.6794582009315491e-01 6.2724691629409790e-01</leafValues></_>
        <_>
          <internalNodes>
            0 -1 92 803968356 -278180547 2147450864 -1283789596
            -268484625 -536879818 1560245357 -21205260</internalNodes>
          <leafValues>
            -4.4349485635757446e-01 5.0038838386535645e-01</leafValues></_>
        <_>
          <internalNodes>
            0 -1 76 1879047978 -4194835 -15 -1094715913 -16798914
            -55247066 -1224747433 -157991573</internalNodes>
          <leafValues>
            -4.0817555785179138e-01 5.7891350984573364e-01</leafValues></_>
        <_>
          <internalNodes>
            0 -1 115 -787442805 -2122285054 268435459 -976680960 8929362
            310476936 -1988034045 -1962929904</internalNodes>
          <leafValues>
            -6.9901239871978760e-01 3.3885008096694946e-01</leafValues></_>
        <_>
          <internalNodes>
            0 -1 112 152244449 -788398061 513 1342242817 49620
            -2080243712 -1832902520 1880105417</internalNodes>
          <leafValues>
            -7.0082360506057739e-01 3.0064252018928528e-01</leafValues></_>
        <_>
          <internalNodes>
            0 -1 100 -1593685858 1364754561 16843025 1258750080
            1082163202 -1870659584 17465856 -217874429</internalNodes>
          <leafValues>
            -5.8595991134643555e-01 4.5072260499000549e-01</leafValues></_></weakClassifiers></_></stages>
  <features>
    <_>
      <rect>
        0 0 3 1</rect></_>
    <_>
      <rect>
        0 0 3 8</rect></_>
    <_>
      <rect>
        0 0 4 5</rect></_>
    <_>
      <rect>
        0 0 5 7</rect></_>
    <_>
      <rect>
        0 0 6 8</rect></_>
    <_>
      <rect>
        0 1 1 3</rect></_>
    <_>
      <rect>
        0 1 4 3</rect></_>
    <_>
      <rect>
        0 3 2 4</rect></_>
    <_>
      <rect>
        0 4 4 4</rect></_>
    <_>
      <rect>
        0 5 1 6</rect></_>
    <_>
      <rect>
        0 6 3 6</rect></_>
    <_>
      <rect>
        0 6 4 6</rect></_>
    <_>
      <rect>
        0 11 3 3</rect></_>
    <_>
      <rect>
        0 12 8 4</rect></_>
    <_>
      <rect>
        0 18 6 1</rect></_>
    <_>
      <rect>
        1 2 3 5</rect></_>
    <_>
      <rect>
        1 4 2 2</rect></_>
    <_>
      <rect>
        1 4 4 6</rect></_>
    <_>
      <rect>
        1 5 5 4</rect></_>
    <_>
      <rect>
        1 6 2 2</rect></_>
    <_>
      <rect>
        1 7 6 5</rect></_>
    <_>
      <rect>
        1 9 7 5</rect></_>
    <_>
      <rect>
        1 17 1 1</rect></_>
    <_>
      <rect>
        1 21 1 1</rect></_>
    <_>
      <rect>
        1 21 2 1</rect></_>
    <_>
      <rect>
        2 0 7 3</rect></_>
    <_>
      <rect>
        2 0 7 7</rect></_>
    <_>
      <rect>
        2 1 3 2</rect></_>
    <_>
      <rect>
        2 3 3 3</rect></_>
    <_>
      <rect>
        2 4 4 5</rect></_>
    <_>
      <rect>
        2 5 3 2</rect></_>
    <_>
      <rect>
        2 5 7 4</rect></_>
    <_>
      <rect>
        2 11 3 4</rect></_>
    <_>
      <rect>
        2 15 1 2</rect></_>
    <_>
      <rect>
        2 18 1 1</rect></_>
    <_>
      <rect>
        2 19 1 1</rect></_>
    <_>
      <rect>
        2 21 1 1</rect></_>
    <_>
      <rect>
        3 0 7 4</rect></_>
    <_>
      <rect>
        3 0 7 5</rect></_>
    <_>
      <rect>
        3 3 3 3</rect></_>
    <_>
      <rect>
        3 3 3 4</rect></_>
    <_>
      <rect>
        3 9 5 2</rect></_>
    <_>
      <rect>
        3 9 7 4</rect></_>
    <_>
      <rect>
        3 21 3 1</rect></_>
    <_>
      <rect>
        4 2 5 3</rect></_>
    <_>
      <rect>
        4 4 3 3</rect></_>
    <_>
      <rect>
        4 5 1 1</rect></_>
    <_>
      <rect>
        4 5 2 2</rect></_>
    <_>
      <rect>
        4 17 2 2</rect></_>
    <_>
      <rect>
        5 0 6 7</rect></_>
    <_>
      <rect>
        5 2 1 4</rect></_>
    <_>
      <rect>
        5 2 2 2</rect></_>
    <_>
      <rect>
        5 4 6 5</rect></_>
    <_>
      <rect>
        5 5 6 4</rect></_>
    <_>
      <rect>
        5 21 1 1</rect></_>
    <_>
      <rect>
        6 0 6 5</rect></_>
    <_>
      <rect>
        6 1 6 7</rect></_>
    <_>
      <rect>
        6 2 4 3</rect></_>
    <_>
      <rect>
        6 2 6 5</rect></_>
    <_>
      <rect>
        6 2 6 6</rect></_>
    <_>
      <rect>
        6 6 3 5</rect></_>
    <_>
      <rect>
        6 6 4 6</rect></_>
    <_>
      <rect>
        6 6 5 3</rect></_>
    <_>
      <rect>
        6 8 4 3</rect></_>
    <_>
      <rect>
        6 8 6 5</rect></_>
    <_>
      <rect>
        6 11 2 4</rect></_>
    <_>
      <rect>
        6 12 6 4</rect></_>
    <_>
      <rect>
        6 18 2 2</rect></_>
    <_>
      <rect>
        7 0 3 1</rect></_>
    <_>
      <rect>
        7 1 1 1</rect></_>
    <_>
      <rect>
        7 1 3 1</rect></_>
    <_>
      <rect>
        7 1 4 2</rect></_>
    <_>
      <rect>
        7 19 1 1</rect></_>
    <_>
      <rect>
        8 0 4 1</rect></_>
    <_>
      <rect>
        8 1 5 3</rect></_>
    <_>
      <rect>
        9 2 4 3</rect></_>
    <_>
      <rect>
        9 3 5 4</rect></_>
    <_>
      <rect>
        9 3 5 7</rect></_>
    <_>
      <rect>
        9 9 5 3</rect></_>
    <_>
      <rect>
        9 21 1 1</rect></_>
    <_>
      <rect>
        10 3 3 3</rect></_>
    <_>
      <rect>
        11 2 4 3</rect></_>
    <_>
      <rect>
        11 10 4 3</rect></_>
    <_>
      <rect>
        11 21 3 1</rect></_>
    <_>
      <rect>
        12 0 4 5</rect></_>
    <_>
      <rect>
        12 0 4 6</rect></_>
    <_>
      <rect>
        12 0 4 8</rect></_>
    <_>
      <rect>
        12 1 1 2</rect></_>
    <_>
      <rect>
        12 2 3 4</rect></_>
    <_>
      <rect>
        12 5 4 5</rect></_>
    <_>
      <rect>
        12 6 3 3</rect></_>
    <_>
      <rect>
        12 6 4 3</rect></_>
    <_>
      <rect>
        12 6 4 4</rect></_>
    <_>
      <rect>
        12 8 4 5</rect></_>
    <_>
      <rect>
        12 9 3 5</rect></_>
    <_>
      <rect>
        12 9 4 3</rect></_>
    <_>
      <rect>
        12 9 4 5</rect></_>
    <_>
      <rect>
        12 17 2 2</rect></_>
    <_>
      <rect>
        12 17 4 2</rect></_>
    <_>
      <rect>
        12 21 2 1</rect></_>
    <_>
      <rect>
        13 0 1 1</rect></_>
    <_>
      <rect>
        13 14 2 1</rect></_>
    <_>
      <rect>
        13 18 3 2</rect></_>
    <_>
      <rect>
        14 1 1 1</rect></_>
    <_>
      <rect>
        14 1 3 5</rect></_>
    <_>
      <rect>
        14 17 3 2</rect></_>
    <_>
      <rect>
        15 0 3 8</rect></_>
    <_>
      <rect>
        15 2 1 2</rect></_>
    <_>
      <rect>
        15 3 3 6</rect></_>
    <_>
      <rect>
        15 4 3 4</rect></_>
    <_>
      <rect>
        15 6 3 3</rect></_>
    <_>
      <rect>
        15 12 1 3</rect></_>
    <_>
      <rect>
        16 0 1 2</rect></_>
    <_>
      <rect>
        17 9 2 1</rect></_>
    <_>
      <rect>
        17 20 2 1</rect></_>
    <_>
      <rect>
        18 21 2 1</rect></_>
    <_>
      <rect>
        20 1 1 1</rect></_>
    <_>
      <rect>
        20 5 1 1</rect></_>
    <_>
      <rect>
        21 0 1 1</rect></_>
    <_>
      <rect>
        21 2 1 1</rect></_>
    <_>
      <rect>
        21 18 1 1</rect></_></features></cascade>
</opencv_storage>
