<?xml version="1.0"?>
<opencv_storage>
<cascade>
  <stageType>BOOST</stageType>
  <featureType>LBP</featureType>
  <height>24</height>
  <width>24</width>
  <stageParams>
    <boostType>GAB</boostType>
    <minHitRate>9.9500000476837158e-01</minHitRate>
    <maxFalseAlarm>5.0000000000000000e-01</maxFalseAlarm>
    <weightTrimRate>9.4999999999999996e-01</weightTrimRate>
    <maxDepth>1</maxDepth>
    <maxWeakCount>100</maxWeakCount></stageParams>
  <featureParams>
    <maxCatCount>256</maxCatCount>
    <featSize>1</featSize></featureParams>
  <stageNum>20</stageNum>
  <stages>
    <!-- stage 0 -->
    <_>
      <maxWeakCount>5</maxWeakCount>
      <stageThreshold>-1.3700789213180542e+00</stageThreshold>
      <weakClassifiers>
        <_>
          <internalNodes>
            0 -1 45 6291616 1031597950 -377218 -1074003971 805305791
            -1073741825 -16863233 -1815849473</internalNodes>
          <leafValues>
            -5.8490568399429321e-01 7.6148581504821777e-01</leafValues></_>
        <_>
          <internalNodes>
            0 -1 204 9961984 -1442807678 268456136 -1300234176 688062732
            -1438613375 9068962 -1566422328</internalNodes>
          <leafValues>
            -5.8011084794998169e-01 4.8277786374092102e-01</leafValues></_>
        <_>
          <internalNodes>
            0 -1 134 -805142470 -654241792 1090715648 16879744
            -2147442548 805306377 142608587 40419458</internalNodes>
          <leafValues>
            -4.8485416173934937e-01 5.0739639997482300e-01</leafValues></_>
        <_>
          <internalNodes>
            0 -1 169 -1205842428 -1535869018 -1366380824 -252300050
            888942449 16547701 -1091063828 -1296109772</internalNodes>
          <leafValues>
            -4.3307450413703918e-01 5.5754375457763672e-01</leafValues></_>
        <_>
          <internalNodes>
            0 -1 82 620759197 -677834751 16925568 1929576836 1610657962
            524296 -2130526008 990515278</internalNodes>
          <leafValues>
            -6.3352519273757935e-01 3.6811020970344543e-01</leafValues></_></weakClassifiers></_>
    <!-- stage 1 -->
    <_>
      <maxWeakCount>5</maxWeakCount>
      <stageThreshold>-1.4305996894836426e+00</stageThreshold>
      <weakClassifiers>
        <_>
          <internalNodes>
            0 -1 193 70255616 50118623 -1392591122 1124048574 41704805
            2130690047 -826794124 -1868428928</internalNodes>
          <leafValues>
            -6.6838043928146362e-01 6.8406838178634644e-01</leafValues></_>
        <_>
          <internalNodes>
            0 -1 181 8912898 16777616 269554328 1351614610 1073741829
            268435584 -1566406213 -1595373414</internalNodes>
          <leafValues>
            -6.4422541856765747e-01 5.0738197565078735e-01</leafValues></_>
        <_>
          <internalNodes>
            0 -1 38 -2004940747 -1402847582 754859955 -685151387
            -1082612907 192352127 -1296107593 -223721499</internalNodes>
          <leafValues>
            -4.5160090923309326e-01 6.9510167837142944e-01</leafValues></_>
        <_>
          <internalNodes>
            0 -1 90 -1230074878 -2145243160 49717986 411467692
            -931209659 1423867732 2125363180 -1600123671</internalNodes>
          <leafValues>
            -5.0846540927886963e-01 5.6663763523101807e-01</leafValues></_>
        <_>
          <internalNodes>
            0 -1 208 -1652162492 -1826570238 -1878917119 -1735785983
            -1879039862 1879064576 148170 -1567921525</internalNodes>
          <leafValues>
            -5.1037639379501343e-01 5.1871019601821899e-01</leafValues></_></weakClassifiers></_>
    <!-- stage 2 -->
    <_>
      <maxWeakCount>5</maxWeakCount>
      <stageThreshold>-6.2684834003448486e-01</stageThreshold>
      <weakClassifiers>
        <_>
          <internalNodes>
            0 -1 19 -2069623288 778317822 788445812 917012270 1073045332
            70546813 -1745472732 -1866332428</internalNodes>
          <leafValues>
            -4.7705441713333130e-01 7.0140570402145386e-01</leafValues></_>
        <_>
          <internalNodes>
            0 -1 202 -1400230572 -1853685760 -2147466359 -771096576
            -1073610080 -2097119104 -2097086296 -1565588469</internalNodes>
          <leafValues>
            -4.9560457468032837e-01 5.3303492069244385e-01</leafValues></_>
        <_>
          <internalNodes>
            0 -1 41 -2112880055 1124106448 1073763344 402673809
            -2147348448 128 -2138922878 -796356480</internalNodes>
          <leafValues>
            -5.5983686447143555e-01 4.8591965436935425e-01</leafValues></_>
        <_>
          <internalNodes>
            0 -1 83 -1597856700 128 -2113797888 -1488191488 -2113224184
            0 -536668022 -1843773303</internalNodes>
          <leafValues>
            -5.4017084836959839e-01 4.7401347756385803e-01</leafValues></_>
        <_>
          <internalNodes>
            0 -1 210 -2147483648 -1048444910 -1039974320 -1249902592
            -1341648671 536870912 -2122305513 -1432214966</internalNodes>
          <leafValues>
            -5.2812689542770386e-01 4.3163403868675232e-01</leafValues></_></weakClassifiers></_>
    <!-- stage 3 -->
    <_>
      <maxWeakCount>8</maxWeakCount>
      <stageThreshold>-1.1379797458648682e+00</stageThreshold>
      <weakClassifiers>
        <_>
          <internalNodes>
            0 -1 36 780837930 1072967222 871742331 737259508 1853879550
            880705405 83852799 150273397</internalNodes>
          <leafValues>
            -4.7959184646606445e-01 6.2093859910964966e-01</leafValues></_>
        <_>
          <internalNodes>
            0 -1 50 -1064007542 -1766277161 2013143021 -1275478019
            -272697345 360644605 -268763156 2069871598</internalNodes>
          <leafValues>
            -3.8432949781417847e-01 6.1567664146423340e-01</leafValues></_>
        <_>
          <internalNodes>
            0 -1 81 1573168 -587120637 -1073741694 387006465 -1996459078
            -1878310902 411617995 1359118758</internalNodes>
          <leafValues>
            -6.7199754714965820e-01 3.1004211306571960e-01</leafValues></_>
        <_>
          <internalNodes>
            0 -1 186 -1870200790 -2121232382 -1073708863 -1877999488
            1342709760 42008576 153138099 -1878883968</internalNodes>
          <leafValues>
            -5.5389577150344849e-01 3.4000658988952637e-01</leafValues></_>
        <_>
          <internalNodes>
            0 -1 0 -927552855 1049530284 -1091682309 1945052152
            -1514145794 369033079 805238270 -550248494</internalNodes>
          <leafValues>
            -3.5496136546134949e-01 5.4520565271377563e-01</leafValues></_>
        <_>
          <internalNodes>
            0 -1 61 -1536897656 272805969 285380611 352948355 25167083
            817889408 131465 1263305356</internalNodes>
          <leafValues>
            -5.6644493341445923e-01 2.7999284863471985e-01</leafValues></_>
        <_>
          <internalNodes>
            0 -1 184 538182656 68163969 -805203966 -1736310783
            -1476327423 302162048 -763031231 -1180562880</internalNodes>
          <leafValues>
            -6.2604933977127075e-01 3.0068501830101013e-01</leafValues></_>
        <_>
          <internalNodes>
            0 -1 168 -123950394 -1174652162 -50360339 -1141002564
            -1749656081 486531071 -33574514 -973630902</internalNodes>
          <leafValues>
            -3.4158012270927429e-01 5.8866262435913086e-01</leafValues></_></weakClassifiers></_>
    <!-- stage 4 -->
    <_>
      <maxWeakCount>9</maxWeakCount>
      <stageThreshold>-1.2374885082244873e+00</stageThreshold>
      <weakClassifiers>
        <_>
          <internalNodes>
            0 -1 148 -803946490 -16973890 -268521473 -1392771157
            -671286018 -545398787 -856779042 -429154525</internalNodes>
          <leafValues>
            -1.0397767275571823e-01 7.3324823379516602e-01</leafValues></_>
        <_>
          <internalNodes>
            0 -1 207 786512 -230588287 -1073690416 -800452597 1621229586
            16514 671657987 -1296154453</internalNodes>
          <leafValues>
            -4.9463787674903870e-01 4.0264388918876648e-01</leafValues></_>
        <_>
          <internalNodes>
            0 -1 183 -2105278304 134512664 4484 -1815019440 -2138431486
            268632064 -2113855359 -1148694504</internalNodes>
          <leafValues>
            -4.9794611334800720e-01 3.8077789545059204e-01</leafValues></_>
        <_>
          <internalNodes>
            0 -1 19 -2137864184 -532676536 -2147413872 -268402624
            -1845329919 128 -2088599390 -1228537688</internalNodes>
          <leafValues>
            -4.0167239308357239e-01 4.3193173408508301e-01</leafValues></_>
        <_>
          <internalNodes>
            0 -1 4 576225563 -447688155 1092616217 -988987375
            -1039097109 2013855754 -402519859 1800349994</internalNodes>
          <leafValues>
            -5.3465914726257324e-01 3.2903632521629333e-01</leafValues></_>
        <_>
          <internalNodes>
            0 -1 74 -179691112 -528465872 -2130669484 -176029566
            -1610612736 33619970 -2139094319 -2063073112</internalNodes>
          <leafValues>
            -4.5269292593002319e-01 4.2627835273742676e-01</leafValues></_>
        <_>
          <internalNodes>
            0 -1 108 1153441920 -1810591402 -788522659 -2096807919
            134223954 1217003521 -2013106147 -176666997</internalNodes>
          <leafValues>
            -5.3700542449951172e-01 3.2722133398056030e-01</leafValues></_>
        <_>
          <internalNodes>
            0 -1 171 -1195245568 -1035861888 -2013231672 -268173312
            -2147254264 163840 -494886400 -1330085708</internalNodes>
          <leafValues>
            -4.7859537601470947e-01 3.8746201992034912e-01</leafValues></_>
        <_>
          <internalNodes>
            0 -1 96 -224222150 -1073758537 2063019903 -1250051084
            2097084159 788529084 754843646 1786773495</internalNodes>
          <leafValues>
            -3.5822361707687378e-01 4.7700449824333191e-01</leafValues></_></weakClassifiers></_>
    <!-- stage 5 -->
    <_>
      <maxWeakCount>13</maxWeakCount>
      <stageThreshold>-9.3645447492599487e-01</stageThreshold>
      <weakClassifiers>
        <_>
          <internalNodes>
            0 -1 44 614998186 586956799 267300847 2037907451 1442725823
            -536870914 -16826913 -176816137</internalNodes>
          <leafValues>
            -3.8987687230110168e-01 5.6632876396179199e-01</leafValues></_>
        <_>
          <internalNodes>
            0 -1 29 -159715409 -549733453 -1212255041 -1347436681
            -134277889 -1392541697 1610538279 1604153094</internalNodes>
          <leafValues>
            -3.0658012628555298e-01 5.9079807996749878e-01</leafValues></_>
        <_>
          <internalNodes>
            0 -1 150 -1512515580 -522715008 442562 -221740846
            -1333088255 1048704 541696048 -1333222768</internalNodes>
          <leafValues>
            -4.0528532862663269e-01 4.0075284242630005e-01</leafValues></_>
        <_>
          <internalNodes>
            0 -1 175 -793868016 -738410753 -1073811799 -1376932182
            -1216905489 -1107370497 -1073769473 -1611147537</internalNodes>
          <leafValues>
            -2.7029740810394287e-01 5.2223122119903564e-01</leafValues></_>
        <_>
          <internalNodes>
            0 -1 40 -21060955 849277749 2013216639 -1346453643
            1853349882 -1619525635 1576826331 -805372429</internalNodes>
          <leafValues>
            -3.2931882143020630e-01 4.3153515458106995e-01</leafValues></_>
        <_>
          <internalNodes>
            0 -1 198 393230 58720384 16796848 -233570157 -796393454
            142639104 -1836576192 -704223872</internalNodes>
          <leafValues>
            -5.4322373867034912e-01 2.6033982634544373e-01</leafValues></_>
        <_>
          <internalNodes>
            0 -1 156 -257915230 -1749825556 -1359069378 -1611841603
            -1342798034 1308590078 1342078902 -1798939445</internalNodes>
          <leafValues>
            -3.3518624305725098e-01 4.4711101055145264e-01</leafValues></_>
        <_>
          <internalNodes>
            0 -1 97 -965767289 -1457519323 -357043696 2034779937
            1308600269 821968756 -1661043011 -763312712</internalNodes>
          <leafValues>
            -3.4971767663955688e-01 4.0884763002395630e-01</leafValues></_>
        <_>
          <internalNodes>
            0 -1 59 -319943644 2147434477 -1442873474 -641889292
            -680048790 628948983 1337359822 -1826029745</internalNodes>
          <leafValues>
            -3.4984296560287476e-01 4.1030970215797424e-01</leafValues></_>
        <_>
          <internalNodes>
            0 -1 149 -1001078502 -1828802844 1065332333 464486383
            922564095 -1744928777 805293279 2137972279</internalNodes>
          <leafValues>
            -3.2677656412124634e-01 4.3492120504379272e-01</leafValues></_>
        <_>
          <internalNodes>
            0 -1 53 448924645 1410334912 1073860881 -791658367
            -1342045949 1660981377 -2146926511 -1262588511</internalNodes>
          <leafValues>
            -4.3006029725074768e-01 3.1873658299446106e-01</leafValues></_>
        <_>
          <internalNodes>
            0 -1 18 -602759028 -1644097455 -1811935203 -2063003581
            1887603131 58917019 34646238 870929024</internalNodes>
          <leafValues>
            -3.6360991001129150e-01 3.9264833927154541e-01</leafValues></_>
        <_>
          <internalNodes>
            0 -1 78 -1006326782 -1072594752 -1861140335 -104316927
            537921625 1518370817 -2003203905 -1851588581</internalNodes>
          <leafValues>
            -4.0341800451278687e-01 3.4790813922882080e-01</leafValues></_></weakClassifiers></_>
    <!-- stage 6 -->
    <_>
      <maxWeakCount>11</maxWeakCount>
      <stageThreshold>-1.1955209970474243e+00</stageThreshold>
      <weakClassifiers>
        <_>
          <internalNodes>
            0 -1 93 795789072 1055764026 1879025855 762913209 -989864193
            192765791 1610053023 1268340092</internalNodes>
          <leafValues>
            -2.4818275868892670e-01 6.0824739933013916e-01</leafValues></_>
        <_>
          <internalNodes>
            0 -1 25 -360325911 -1308902149 1056725991 -1409549578
            -1887504899 939522046 1072675507 1297335866</internalNodes>
          <leafValues>
            -2.9389205574989319e-01 5.6863325834274292e-01</leafValues></_>
        <_>
          <internalNodes>
            0 -1 12 1179970948 -1224884227 -1208570451 -1677869121
            -1107410945 -1241579651 -268435459 -805505030</internalNodes>
          <leafValues>
            -3.6562800407409668e-01 4.1844302415847778e-01</leafValues></_>
        <_>
          <internalNodes>
            0 -1 192 -1937765850 -2013134828 1627406610 507641858
            -1333778432 -2147475328 9111698 -288047104</internalNodes>
          <leafValues>
            -5.0125151872634888e-01 2.9871988296508789e-01</leafValues></_>
        <_>
          <internalNodes>
            0 -1 206 675938832 -1070858238 -2113924990 -390070262
            1644300645 8388737 -234643456 -1299576679</internalNodes>
          <leafValues>
            -5.6483870744705200e-01 2.5413605570793152e-01</leafValues></_>
        <_>
          <internalNodes>
            0 -1 151 -771587782 -1728052923 -1726934895 -2077769719
            -394100583 566755464 -352124200 1138516102</internalNodes>
          <leafValues>
            -4.5690679550170898e-01 3.1029608845710754e-01</leafValues></_>
        <_>
          <internalNodes>
            0 -1 4 -1916486479 -816578300 16973919 -951369600 553964203
            -2130182144 -534590832 2118846830</internalNodes>
          <leafValues>
            -4.8269382119178772e-01 3.2364600896835327e-01</leafValues></_>
        <_>
          <internalNodes>
            0 -1 101 -1040162804 1343754264 -1877802416 2035568674
            1124073523 277381259 -2013253110 -1496563648</internalNodes>
          <leafValues>
            -4.8941209912300110e-01 2.9785558581352234e-01</leafValues></_>
        <_>
          <internalNodes>
            0 -1 49 1521389290 -1133637841 2063562682 -50874504
            1199488893 335412727 2147483647 -219474138</internalNodes>
          <leafValues>
            -3.4979754686355591e-01 4.1664531826972961e-01</leafValues></_>
        <_>
          <internalNodes>
            0 -1 72 -1072983957 -2105527792 98708 1363279877 -1308589111
            1342242944 -1188527999 -2109595648</internalNodes>
          <leafValues>
            -3.9640843868255615e-01 3.9567336440086365e-01</leafValues></_>
        <_>
          <internalNodes>
            0 -1 121 -1094779607 2079112727 -151077195 -1478508815
            343763679 660406236 -1149288517 -1910518625</internalNodes>
          <leafValues>
            -3.0915328860282898e-01 4.7565922141075134e-01</leafValues></_></weakClassifiers></_>
    <!-- stage 7 -->
    <_>
      <maxWeakCount>13</maxWeakCount>
      <stageThreshold>-1.2663060426712036e+00</stageThreshold>
      <weakClassifiers>
        <_>
          <internalNodes>
            0 -1 80 74842422 905232191 -16793667 -1246236737 1308590079
            -16842882 -1073741901 -235537161</internalNodes>
          <leafValues>
            -3.7096774578094482e-01 5.6560283899307251e-01</leafValues></_>
        <_>
          <internalNodes>
            0 -1 55 -277638201 1006092215 -1074389012 805269311
            -1073852937 134194420 -1610985986 649822874</internalNodes>
          <leafValues>
            -2.7826067805290222e-01 5.5117052793502808e-01</leafValues></_>
        <_>
          <internalNodes>
            0 -1 22 -1630362741 626234581 822280513 -1980526112
            -1450616149 908279936 707267019 1579450372</internalNodes>
          <leafValues>
            -5.2885675430297852e-01 2.8864175081253052e-01</leafValues></_>
        <_>
          <internalNodes>
            0 -1 189 -2102775536 -1866461180 810078364 -1308339888
            -1073666048 16809984 -2004770750 -1260215930</internalNodes>
          <leafValues>
            -4.2738923430442810e-01 3.6001837253570557e-01</leafValues></_>
        <_>
          <internalNodes>
            0 -1 131 -17968434 -1062892193 662464552 -172216451
            134096725 1679130239 -1342818398 -1604596297</internalNodes>
          <leafValues>
            -2.6146706938743591e-01 5.5382829904556274e-01</leafValues></_>
        <_>
          <internalNodes>
            0 -1 31 -2138504826 -2041569042 -1862266790 -774926272
            134250516 13107200 -1190618706 -804765384</internalNodes>
          <leafValues>
            -4.6617701649665833e-01 2.9179647564888000e-01</leafValues></_>
        <_>
          <internalNodes>
            0 -1 163 -29870438 -769380678 1607391072 1429110701
            1979127286 -1569130497 -436539682 -1576096263</internalNodes>
          <leafValues>
            -2.9422149062156677e-01 4.7985410690307617e-01</leafValues></_>
        <_>
          <internalNodes>
            0 -1 164 -1058501453 -655986690 -21041154 1073360894
            1052718071 -136839300 717211511 -1963309473</internalNodes>
          <leafValues>
            -2.9192742705345154e-01 4.7392743825912476e-01</leafValues></_>
        <_>
          <internalNodes>
            0 -1 42 587870496 -1396700863 268570896 -1064042365
            1879065357 176783360 -1425374431 -1449164287</internalNodes>
          <leafValues>
            -4.9860280752182007e-01 3.0362793803215027e-01</leafValues></_>
        <_>
          <internalNodes>
            0 -1 117 -803195726 -1927790022 -872333295 -654163965
            -805121729 1503723520 -1962288477 -202620926</internalNodes>
          <leafValues>
            -4.1124120354652405e-01 3.2585585117340088e-01</leafValues></_>
        <_>
          <internalNodes>
            0 -1 116 -660413784 -701845628 -1358970947 -671731976
            -1208517648 2013265783 -562239634 -1426428279</internalNodes>
          <leafValues>
            -2.2534400224685669e-01 5.8761686086654663e-01</leafValues></_>
        <_>
          <internalNodes>
            0 -1 32 -234559036 -4702301 938966766 598318296 133093098
            -1208485921 -1074335870 -2095853382</internalNodes>
          <leafValues>
            -2.8002092242240906e-01 4.8228651285171509e-01</leafValues></_>
        <_>
          <internalNodes>
            0 -1 144 -85019369 -168379015 805224445 -576602157 -42140540
            -453181572 -285278466 -2100298009</internalNodes>
          <leafValues>
            -2.1040345728397369e-01 6.3796705007553101e-01</leafValues></_></weakClassifiers></_>
    <!-- stage 8 -->
    <_>
      <maxWeakCount>10</maxWeakCount>
      <stageThreshold>-9.2045527696609497e-01</stageThreshold>
      <weakClassifiers>
        <_>
          <internalNodes>
            0 -1 114 753544622 -8334657 -268435457 -419430401 -758321153
            -132862 -237572 1949244668</internalNodes>
          <leafValues>
            -4.6624803543090820e-01 5.4887855052947998e-01</leafValues></_>
        <_>
          <internalNodes>
            0 -1 77 -655429714 -219238402 787460078 -1421922433
            -1895825729 931135359 -1082245954 2080366584</internalNodes>
          <leafValues>
            -2.8459230065345764e-01 5.7234388589859009e-01</leafValues></_>
        <_>
          <internalNodes>
            0 -1 37 -1206230365 -2147286653 268517517 -1257402352
            -2138941951 8388616 1090724432 -1753186256</internalNodes>
          <leafValues>
            -4.2398118972778320e-01 3.5666304826736450e-01</leafValues></_>
        <_>
          <internalNodes>
            0 -1 205 677650484 -2130673503 -796884784 -1068040160
            -1333655536 -803209080 -1006460224 -425066365</internalNodes>
          <leafValues>
            -5.1746648550033569e-01 3.0392792820930481e-01</leafValues></_>
        <_>
          <internalNodes>
            0 -1 191 -531435170 -1244086013 -251588158 84984065
            -1878941681 -2096066432 -1065285445 -1505622386</internalNodes>
          <leafValues>
            -3.5684633255004883e-01 4.3784788250923157e-01</leafValues></_>
        <_>
          <internalNodes>
            0 -1 70 -1542413774 -1516728064 33587353 -1928637439
            554180781 422183049 -2147481565 1797640340</internalNodes>
          <leafValues>
            -6.0544466972351074e-01 2.2018735110759735e-01</leafValues></_>
        <_>
          <internalNodes>
            0 -1 187 -2137385422 -2138926838 1073910096 -1202269816
            111284292 100482 -998203325 -2135121887</internalNodes>
          <leafValues>
            -5.9762799739837646e-01 2.5730842351913452e-01</leafValues></_>
        <_>
          <internalNodes>
            0 -1 9 408194702 407896321 -1606407887 1171259653 268540051
            -1207893600 1610619128 -1708406669</internalNodes>
          <leafValues>
            -3.9860966801643372e-01 3.5093396902084351e-01</leafValues></_>
        <_>
          <internalNodes>
            0 -1 203 -1790312446 88772880 -2129541111 -1206710144
            -2004739931 41943232 -1845452320 -1411645296</internalNodes>
          <leafValues>
            -4.3546316027641296e-01 3.2712137699127197e-01</leafValues></_>
        <_>
          <internalNodes>
            0 -1 174 -601715305 -1208123395 2147483643 -1216462854
            931102719 134086652 -168347652 -1427984385</internalNodes>
          <leafValues>
            -2.7697268128395081e-01 5.0655049085617065e-01</leafValues></_></weakClassifiers></_>
    <!-- stage 9 -->
    <_>
      <maxWeakCount>13</maxWeakCount>
      <stageThreshold>-7.0648759603500366e-01</stageThreshold>
      <weakClassifiers>
        <_>
          <internalNodes>
            0 -1 86 -193314246 -588464449 788507391 15450045 -1208084481
            -1241677825 1610599879 460615463</internalNodes>
          <leafValues>
            -2.1682243049144745e-01 6.3834196329116821e-01</leafValues></_>
        <_>
          <internalNodes>
            0 -1 11 1678437764 945131665 1094762520 293802073 423731337
            8913025 -2090597704 1092740610</internalNodes>
          <leafValues>
            -4.2612072825431824e-01 4.2364075779914856e-01</leafValues></_>
        <_>
          <internalNodes>
            0 -1 105 1992226769 957922842 671035263 527908853 1031765178
            -1233895705 754757306 -1342314785</internalNodes>
          <leafValues>
            -2.5307139754295349e-01 5.5815321207046509e-01</leafValues></_>
        <_>
          <internalNodes>
            0 -1 67 1624506628 -536346606 1358991603 -737673085
            285737507 69271552 1652622242 -1280440149</internalNodes>
          <leafValues>
            -3.7879899144172668e-01 3.4810668230056763e-01</leafValues></_>
        <_>
          <internalNodes>
            0 -1 17 1477357918 -1778282479 285212815 83955987
            -2012721046 713033866 -2146793445 -509247062</internalNodes>
          <leafValues>
            -3.3947420120239258e-01 4.0013000369071960e-01</leafValues></_>
        <_>
          <internalNodes>
            0 -1 35 -2029354048 92278835 -1862270965 -2088370032
            -2138537820 -1660911488 1369624713 1918632192</internalNodes>
          <leafValues>
            -5.6016248464584351e-01 2.5369551777839661e-01</leafValues></_>
        <_>
          <internalNodes>
            0 -1 113 -491993434 -130093059 -1342276872 -4231169
            2063504311 334854135 -1224820738 -1125253837</internalNodes>
          <leafValues>
            -2.9102817177772522e-01 5.0101143121719360e-01</leafValues></_>
        <_>
          <internalNodes>
            0 -1 94 -665392467 -176407117 1065303677 -202624651
            -1510031430 -1644285956 -1216397841 1327221999</internalNodes>
          <leafValues>
            -1.8402194976806641e-01 6.6336464881896973e-01</leafValues></_>
        <_>
          <internalNodes>
            0 -1 140 -261750342 -738066092 -1316974540 -1522433911
            -1610577173 -1274540032 -1979055861 845202305</internalNodes>
          <leafValues>
            -3.8577461242675781e-01 3.4908151626586914e-01</leafValues></_>
        <_>
          <internalNodes>
            0 -1 172 521322500 -1031798776 -2147385039 -1576894207
            -1836974079 1073905664 1115914379 -1760788432</internalNodes>
          <leafValues>
            -4.3223959207534790e-01 3.1544631719589233e-01</leafValues></_>
        <_>
          <internalNodes>
            0 -1 173 966176370 865075219 268568856 -1249701754 539000985
            947945602 -2004643827 1812841345</internalNodes>
          <leafValues>
            -4.5616772770881653e-01 2.9533421993255615e-01</leafValues></_>
        <_>
          <internalNodes>
            0 -1 197 -1872863790 -645865344 1359024146 1342193684
            1888489521 -1476394864 -788395837 -494181678</internalNodes>
          <leafValues>
            -3.4586301445960999e-01 4.0221002697944641e-01</leafValues></_>
        <_>
          <internalNodes>
            0 -1 194 -83964835 -135860251 -17055746 -1677967630
            -134236673 930971583 -553852929 -1225277505</internalNodes>
          <leafValues>
            -2.1174997091293335e-01 6.6964036226272583e-01</leafValues></_></weakClassifiers></_>
    <!-- stage 10 -->
    <_>
      <maxWeakCount>15</maxWeakCount>
      <stageThreshold>-8.8323277235031128e-01</stageThreshold>
      <weakClassifiers>
        <_>
          <internalNodes>
            0 -1 16 -492590889 -1632067782 536717219 -1342204941
            -1879132194 -1644881921 1073692548 1683603526</internalNodes>
          <leafValues>
            -1.2346688657999039e-01 6.4772087335586548e-01</leafValues></_>
        <_>
          <internalNodes>
            0 -1 1 -894448898 314453999 653176491 805040127 1996281791
            1064828927 -1359040578 737654128</internalNodes>
          <leafValues>
            -3.1669864058494568e-01 4.3735605478286743e-01</leafValues></_>
        <_>
          <internalNodes>
            0 -1 209 -1061158300 -1039728496 -1878949864 885489674
            -1458950074 268468225 -394055296 -1311825205</internalNodes>
          <leafValues>
            -3.9361724257469177e-01 3.5048028826713562e-01</leafValues></_>
        <_>
          <internalNodes>
            0 -1 170 -521615346 -136382474 -16973912 -18039041 401985517
            770342911 -147905 -1183325109</internalNodes>
          <leafValues>
            -2.5861454010009766e-01 5.2361792325973511e-01</leafValues></_>
        <_>
          <internalNodes>
            0 -1 8 43264052 -2012594096 -2130509560 -121372654
            -1568636158 8388768 -796335441 -515767902</internalNodes>
          <leafValues>
            -5.4156941175460815e-01 2.1805851161479950e-01</leafValues></_>
        <_>
          <internalNodes>
            0 -1 14 -2078238658 -1626259327 83968267 978424083
            1612763226 -1468006272 -1475491182 2051817728</internalNodes>
          <leafValues>
            -5.4864197969436646e-01 2.3136176168918610e-01</leafValues></_>
        <_>
          <internalNodes>
            0 -1 5 -1568128751 1704509569 1409306657 -377188256
            1075978296 1879212040 -662519757 -1860140536</internalNodes>
          <leafValues>
            -4.2260524630546570e-01 2.8212308883666992e-01</leafValues></_>
        <_>
          <internalNodes>
            0 -1 23 -124030245 -147457 1073163519 -1443135529 -134221955
            -1207976449 -805321217 -1828862641</internalNodes>
          <leafValues>
            -1.9171056151390076e-01 6.4276731014251709e-01</leafValues></_>
        <_>
          <internalNodes>
            0 -1 56 134883872 -2028142432 419791195 620810497 134697433
            838893736 538968590 1294242048</internalNodes>
          <leafValues>
            -8.1762129068374634e-01 1.6914084553718567e-01</leafValues></_>
        <_>
          <internalNodes>
            0 -1 109 -345111424 1218985575 -1665187932 -257410578
            1333739093 2002222967 -704731700 -1243894339</internalNodes>
          <leafValues>
            -3.0814117193222046e-01 3.8751721382141113e-01</leafValues></_>
        <_>
          <internalNodes>
            0 -1 76 -994389814 -233553920 -2130624252 -802160601
            -1870622198 -1602224120 1208001184 -1532362600</internalNodes>
          <leafValues>
            -3.3200621604919434e-01 3.6543241143226624e-01</leafValues></_>
        <_>
          <internalNodes>
            0 -1 135 908571440 -1138298894 -1090685072 -1644253784
            -687869567 -973799426 2004694634 1217348987</internalNodes>
          <leafValues>
            -3.3565300703048706e-01 3.8207703828811646e-01</leafValues></_>
        <_>
          <internalNodes>
            0 -1 21 -770773594 -577765355 -2096988092 -1657561018
            -2147385099 1401094272 2013266094 17467725</internalNodes>
          <leafValues>
            -3.3790874481201172e-01 3.6772742867469788e-01</leafValues></_>
        <_>
          <internalNodes>
            0 -1 130 -999411154 -705421379 805207676 -12670977
            -810156210 -1854636035 -1376231620 -1790967825</internalNodes>
          <leafValues>
            -2.6931405067443848e-01 4.5565035939216614e-01</leafValues></_>
        <_>
          <internalNodes>
            0 -1 122 -156043270 -1107452105 2146942845 -295948425
            754859101 -1770070017 1023213044 381541750</internalNodes>
          <leafValues>
            -3.0521747469902039e-01 4.3583899736404419e-01</leafValues></_></weakClassifiers></_>
    <!-- stage 11 -->
    <_>
      <maxWeakCount>13</maxWeakCount>
      <stageThreshold>-9.6283179521560669e-01</stageThreshold>
      <weakClassifiers>
        <_>
          <internalNodes>
            0 -1 27 -630789134 -1427193990 989799463 -1415071041
            1022800893 -1342394378 536848422 65883216</internalNodes>
          <leafValues>
            -2.5919118523597717e-01 6.7050206661224365e-01</leafValues></_>
        <_>
          <internalNodes>
            0 -1 152 -1464955302 -1178960073 1056640703 624492351
            1014927103 -50397729 -1359200769 -1984086030</internalNodes>
          <leafValues>
            -3.9333257079124451e-01 4.3846747279167175e-01</leafValues></_>
        <_>
          <internalNodes>
            0 -1 119 -789908142 -721437010 2130638137 -2098254273
            -155707 -1241583617 -1476432513 996118022</internalNodes>
          <leafValues>
            -3.1129476428031921e-01 4.9917936325073242e-01</leafValues></_>
        <_>
          <internalNodes>
            0 -1 167 -1068450924 443088622 -1107407381 720289772
            -813719900 -35329 -1208173444 -1212058282</internalNodes>
          <leafValues>
            -3.6403402686119080e-01 3.9552533626556396e-01</leafValues></_>
        <_>
          <internalNodes>
            0 -1 143 -30581007 -622707157 2058300795 1102425781
            -1627486675 -1124171906 1744650175 -1982868240</internalNodes>
          <leafValues>
            -3.2716941833496094e-01 4.9576482176780701e-01</leafValues></_>
        <_>
          <internalNodes>
            0 -1 3 71599123 289718545 1107395029 -334970813 2030598187
            -1700626286 537860749 142934787</internalNodes>
          <leafValues>
            -4.7087281942367554e-01 2.9602694511413574e-01</leafValues></_>
        <_>
          <internalNodes>
            0 -1 62 549454930 1008762901 -805204705 1610678291
            -1879043645 -2137522048 1225493514 562876584</internalNodes>
          <leafValues>
            -4.1840565204620361e-01 3.2967022061347961e-01</leafValues></_>
        <_>
          <internalNodes>
            0 -1 92 -399851496 -545517578 805285822 -1355498011
            -1485689089 503271422 2080311211 372448252</internalNodes>
          <leafValues>
            -3.5545572638511658e-01 3.8661539554595947e-01</leafValues></_>
        <_>
          <internalNodes>
            0 -1 153 -2137651169 -129892269 1476460823 -645300223
            536985905 -930611063 -1065287480 12232846</internalNodes>
          <leafValues>
            -3.7131437659263611e-01 3.5419827699661255e-01</leafValues></_>
        <_>
          <internalNodes>
            0 -1 103 -265395666 2078998316 -1346443532 -1922711570
            2129569668 -285310978 -1619130962 -2081301222</internalNodes>
          <leafValues>
            -3.2919654250144958e-01 4.2999204993247986e-01</leafValues></_>
        <_>
          <internalNodes>
            0 -1 7 -1035949226 357568513 -2146435061 558104843
            -217602037 114817 -2147022456 139599936</internalNodes>
          <leafValues>
            -4.0673065185546875e-01 3.2972303032875061e-01</leafValues></_>
        <_>
          <internalNodes>
            0 -1 75 -1664846791 1074004240 1245592 764182545 134808307
            -1433894911 134742303 -1467774520</internalNodes>
          <leafValues>
            -3.8492867350578308e-01 3.3762016892433167e-01</leafValues></_>
        <_>
          <internalNodes>
            0 -1 155 -1494445212 989080374 1862238207 -620769537
            -1377948299 -1241548929 -1074354501 -2031149866</internalNodes>
          <leafValues>
            -3.2914271950721741e-01 3.7464067339897156e-01</leafValues></_></weakClassifiers></_>
    <!-- stage 12 -->
    <_>
      <maxWeakCount>9</maxWeakCount>
      <stageThreshold>-8.7194544076919556e-01</stageThreshold>
      <weakClassifiers>
        <_>
          <internalNodes>
            0 -1 89 750463803 -1342390730 1056292861 -1476411403
            787430845 775765821 2063203447 -515</internalNodes>
          <leafValues>
            -3.0824372172355652e-01 7.1337580680847168e-01</leafValues></_>
        <_>
          <internalNodes>
            0 -1 136 41730 369135696 1098989783 294682761 33784250
            1602257027 176406671 953666065</internalNodes>
          <leafValues>
            -4.9061053991317749e-01 4.7928175330162048e-01</leafValues></_>
        <_>
          <internalNodes>
            0 -1 39 1538827052 1031710499 1073643263 -1078067652
            1073205243 -939534355 1064665008 2147459065</internalNodes>
          <leafValues>
            -3.5538846254348755e-01 4.6609076857566833e-01</leafValues></_>
        <_>
          <internalNodes>
            0 -1 159 -2144890865 1073610751 -1073743362 -9568273
            -402690108 1073610743 -1610696965 1286288569</internalNodes>
          <leafValues>
            -3.3470225334167480e-01 4.6786606311798096e-01</leafValues></_>
        <_>
          <internalNodes>
            0 -1 13 909159338 1593208814 805125119 -1410334739
            -453009409 -185238027 1610610685 -1252393090</internalNodes>
          <leafValues>
            -3.6492568254470825e-01 4.4131162762641907e-01</leafValues></_>
        <_>
          <internalNodes>
            0 -1 158 -961509227 -1241731108 -1073791045 678760447
            -1073791050 -1384677387 1073626462 573030287</internalNodes>
          <leafValues>
            -2.8672784566879272e-01 4.9050307273864746e-01</leafValues></_>
        <_>
          <internalNodes>
            0 -1 196 306297600 -209715184 1107317073 1574539409
            1208004618 25300992 4227732 -1863121740</internalNodes>
          <leafValues>
            -3.9122432470321655e-01 3.6433491110801697e-01</leafValues></_>
        <_>
          <internalNodes>
            0 -1 133 -167185998 1979366988 738175211 320569308 905297757
            -310390791 2147162057 1986343798</internalNodes>
          <leafValues>
            -2.9509913921356201e-01 4.7560560703277588e-01</leafValues></_>
        <_>
          <internalNodes>
            0 -1 188 44206608 -746274159 268468316 297910675 -2142797783
            8423432 134775435 -1831911267</internalNodes>
          <leafValues>
            -3.8164061307907104e-01 3.8170349597930908e-01</leafValues></_></weakClassifiers></_>
    <!-- stage 13 -->
    <_>
      <maxWeakCount>12</maxWeakCount>
      <stageThreshold>-8.1122666597366333e-01</stageThreshold>
      <weakClassifiers>
        <_>
          <internalNodes>
            0 -1 84 748489771 -1409351681 -1912727817 -9 -1073889281
            -1484947457 1608335191 2067541334</internalNodes>
          <leafValues>
            -4.2404228448867798e-01 5.8894336223602295e-01</leafValues></_>
        <_>
          <internalNodes>
            0 -1 124 1287394367 -1313620041 805289835 -1712341262
            2097143423 -16842755 -184746118 -1210291082</internalNodes>
          <leafValues>
            -3.6785909533500671e-01 4.7841972112655640e-01</leafValues></_>
        <_>
          <internalNodes>
            0 -1 46 1315941964 314163199 1878863806 -201326594 -149505
            503168701 -1073758212 -503351300</internalNodes>
          <leafValues>
            -3.7639361619949341e-01 4.1441833972930908e-01</leafValues></_>
        <_>
          <internalNodes>
            0 -1 64 1241493503 1933082399 872377151 128166898 1862270456
            1828028405 2095904234 -1245194</internalNodes>
          <leafValues>
            -2.7897611260414124e-01 5.0120347738265991e-01</leafValues></_>
        <_>
          <internalNodes>
            0 -1 147 -1764410828 -153841442 306225213 -1114439261
            -1341549895 2031223297 -1870022085 655010778</internalNodes>
          <leafValues>
            -3.5732784867286682e-01 3.9905923604965210e-01</leafValues></_>
        <_>
          <internalNodes>
            0 -1 141 1943958860 1462680811 1040175868 -1547981593
            -704657443 -403718153 2147318650 -114587694</internalNodes>
          <leafValues>
            -2.2132429480552673e-01 5.5452895164489746e-01</leafValues></_>
        <_>
          <internalNodes>
            0 -1 119 1078206776 -1119382801 -1811873384 -1601298425
            1988182519 -1325266943 -976737946 1447305124</internalNodes>
          <leafValues>
            -5.8833289146423340e-01 2.1370306611061096e-01</leafValues></_>
        <_>
          <internalNodes>
            0 -1 99 616658779 -1051750137 1090560000 -251375354
            -922713216 -805306368 -268402048 2032740988</internalNodes>
          <leafValues>
            -4.6219435334205627e-01 3.0120515823364258e-01</leafValues></_>
        <_>
          <internalNodes>
            0 -1 180 30671872 -749649723 -2130689697 2002452995
            -1736267646 -1845493760 -1837061126 -712990078</internalNodes>
          <leafValues>
            -3.4958308935165405e-01 3.8291871547698975e-01</leafValues></_>
        <_>
          <internalNodes>
            0 -1 128 1113006370 319398784 1073742376 806068226 33915052
            16875521 587432136 114088151</internalNodes>
          <leafValues>
            -4.2503517866134644e-01 3.0966714024543762e-01</leafValues></_>
        <_>
          <internalNodes>
            0 -1 98 1900232960 1427575236 -1342160652 -586874877
            -1728007192 33587336 -1576414588 1342710532</internalNodes>
          <leafValues>
            -3.6446776986122131e-01 3.4478333592414856e-01</leafValues></_>
        <_>
          <internalNodes>
            0 -1 33 -1844123399 -1828633709 402673675 -1915498299
            1088788616 -2146955232 20982280 -117415505</internalNodes>
          <leafValues>
            -3.7171930074691772e-01 3.6514043807983398e-01</leafValues></_></weakClassifiers></_>
    <!-- stage 14 -->
    <_>
      <maxWeakCount>12</maxWeakCount>
      <stageThreshold>-8.8841527700424194e-01</stageThreshold>
      <weakClassifiers>
        <_>
          <internalNodes>
            0 -1 115 117312789 -1107296321 -134234177 -286261329
            -33587841 -524289 -134807684 -453183492</internalNodes>
          <leafValues>
            -4.0168538689613342e-01 5.6206291913986206e-01</leafValues></_>
        <_>
          <internalNodes>
            0 -1 24 -362436001 1332948723 1073613806 -1409314821
            -1744833051 134199294 -1644305174 1732608354</internalNodes>
          <leafValues>
            -3.5912370681762695e-01 4.8877823352813721e-01</leafValues></_>
        <_>
          <internalNodes>
            0 -1 47 1142333475 604012961 -788516406 957358210 -770583695
            98496 563060906 844067074</internalNodes>
          <leafValues>
            -4.1048422455787659e-01 3.2621937990188599e-01</leafValues></_>
        <_>
          <internalNodes>
            0 -1 182 1385345798 -1324171249 805306381 -1580670770
            -2126423539 352391202 537788586 2036716365</internalNodes>
          <leafValues>
            -3.9271670579910278e-01 3.3179640769958496e-01</leafValues></_>
        <_>
          <internalNodes>
            0 -1 15 -2133188578 659918973 -2079259257 -845753539
            1883650373 4522122 1258541993 288884740</internalNodes>
          <leafValues>
            -7.2995132207870483e-01 1.8203772604465485e-01</leafValues></_>
        <_>
          <internalNodes>
            0 -1 34 -1066358 -92523976 788405324 -942800978 1341935118
            1979055982 -671826550 -217860722</internalNodes>
          <leafValues>
            -2.9020449519157410e-01 4.5781719684600830e-01</leafValues></_>
        <_>
          <internalNodes>
            0 -1 154 1178874510 -2046017216 4231426 956338242 -796358148
            -788430720 -1312224392 -1278682478</internalNodes>
          <leafValues>
            -3.9303281903266907e-01 3.2447445392608643e-01</leafValues></_>
        <_>
          <internalNodes>
            0 -1 68 -1863566497 -67944473 -1342275794 192905191
            -536936457 -595722252 2138980087 1744748159</internalNodes>
          <leafValues>
            -3.0437159538269043e-01 4.0994188189506531e-01</leafValues></_>
        <_>
          <internalNodes>
            0 -1 69 -160003257 1374367461 2080370286 2078912476
            -146909204 549814246 -134971667 -961480898</internalNodes>
          <leafValues>
            -2.8181350231170654e-01 4.5114502310752869e-01</leafValues></_>
        <_>
          <internalNodes>
            0 -1 179 551422526 -577453473 32795 826364103 2025967746
            168853515 1090585228 -1889128446</internalNodes>
          <leafValues>
            -4.3398642539978027e-01 2.8166052699089050e-01</leafValues></_>
        <_>
          <internalNodes>
            0 -1 132 1341961670 -4588227 -1358954756 -1826420866
            129593158 1171586943 -1392529941 -678991873</internalNodes>
          <leafValues>
            -2.6029109954833984e-01 4.8752501606941223e-01</leafValues></_>
        <_>
          <internalNodes>
            0 -1 60 -576545119 1022046199 1073679290 -1745961217
            1342023573 402652906 268086715 2131360807</internalNodes>
          <leafValues>
            -2.7294102311134338e-01 4.6287107467651367e-01</leafValues></_></weakClassifiers></_>
    <!-- stage 15 -->
    <_>
      <maxWeakCount>12</maxWeakCount>
      <stageThreshold>-1.1824175119400024e+00</stageThreshold>
      <weakClassifiers>
        <_>
          <internalNodes>
            0 -1 88 742075195 805108470 1861664763 -1342705801
            2063578303 936803645 452689397 2138953173</internalNodes>
          <leafValues>
            -4.1828253865242004e-01 5.7155400514602661e-01</leafValues></_>
        <_>
          <internalNodes>
            0 -1 2 672828170 553428233 16876049 -740384740 -1828201829
            1073774729 -1014767232 -579009871</internalNodes>
          <leafValues>
            -5.7848477363586426e-01 3.1064432859420776e-01</leafValues></_>
        <_>
          <internalNodes>
            0 -1 100 -85203245 -181506135 2067477251 -586241 -402669610
            358072279 -151528449 1306524994</internalNodes>
          <leafValues>
            -2.0387564599514008e-01 6.6047465801239014e-01</leafValues></_>
        <_>
          <internalNodes>
            0 -1 145 571974156 446267523 -2147249773 319463560
            1224812915 2064319123 -1190999223 -1197724980</internalNodes>
          <leafValues>
            -6.0523527860641479e-01 2.2077146172523499e-01</leafValues></_>
        <_>
          <internalNodes>
            0 -1 185 -1818929974 -788430772 -2122211311 1481998538
            272662691 1140850688 -1069498231 1943781515</internalNodes>
          <leafValues>
            -3.5793063044548035e-01 3.7211745977401733e-01</leafValues></_>
        <_>
          <internalNodes>
            0 -1 137 -521602411 -83988482 -352387329 -1086460161
            603955859 1047887870 -1090584833 -159984554</internalNodes>
          <leafValues>
            -2.8476801514625549e-01 4.9118071794509888e-01</leafValues></_>
        <_>
          <internalNodes>
            0 -1 120 -34935840 -202457220 936328836 -177356946
            -1342181427 -1216888844 1946156543 -228045603</internalNodes>
          <leafValues>
            -2.5710028409957886e-01 5.3055381774902344e-01</leafValues></_>
        <_>
          <internalNodes>
            0 -1 52 67142362 621334608 -788426534 -510495599 697524302
            738494593 1073858976 1964142724</internalNodes>
          <leafValues>
            -5.9408122301101685e-01 2.5776937603950500e-01</leafValues></_>
        <_>
          <internalNodes>
            0 -1 48 -139977893 2030026237 -1073827923 -135397393
            1040185207 -578879492 2013247487 1686077303</internalNodes>
          <leafValues>
            -2.7344211935997009e-01 4.7226113080978394e-01</leafValues></_>
        <_>
          <internalNodes>
            0 -1 28 -1736420556 1041371160 218158217 626299013 268757728
            -2105439232 -938915414 1186539689</internalNodes>
          <leafValues>
            -3.9970836043357849e-01 3.2291671633720398e-01</leafValues></_>
        <_>
          <internalNodes>
            0 -1 26 -1534744412 -1960476285 33587649 529645697
            1229685195 864157714 -1560140917 1265152087</internalNodes>
          <leafValues>
            -4.3706852197647095e-01 2.8022208809852600e-01</leafValues></_>
        <_>
          <internalNodes>
            0 -1 162 -257429082 -1723216004 1073659628 1450549208
            -1778403497 486502263 955772509 -136480973</internalNodes>
          <leafValues>
            -2.2778809070587158e-01 5.8114880323410034e-01</leafValues></_></weakClassifiers></_>
    <!-- stage 16 -->
    <_>
      <maxWeakCount>13</maxWeakCount>
      <stageThreshold>-7.8654646873474121e-01</stageThreshold>
      <weakClassifiers>
        <_>
          <internalNodes>
            0 -1 51 552775522 989839359 -1241595969 -1811955777
            402112509 -1778581515 -1358954636 -269156368</internalNodes>
          <leafValues>
            -3.7463125586509705e-01 5.4005169868469238e-01</leafValues></_>
        <_>
          <internalNodes>
            0 -1 0 -638598733 1255116719 1861189631 1928274938
            -272629900 1442709375 2147417982 -8912942</internalNodes>
          <leafValues>
            -2.6298835873603821e-01 5.7798129320144653e-01</leafValues></_>
        <_>
          <internalNodes>
            0 -1 63 -456760229 -515489782 268503042 1565590403
            -1031659031 285802496 -1744389488 -1282441012</internalNodes>
          <leafValues>
            -3.4987545013427734e-01 4.1030973196029663e-01</leafValues></_>
        <_>
          <internalNodes>
            0 -1 199 1311525 -707723259 -2147450560 -539394042
            1099047014 293601672 279574698 -1545994066</internalNodes>
          <leafValues>
            -4.3257334828376770e-01 3.0136033892631531e-01</leafValues></_>
        <_>
          <internalNodes>
            0 -1 118 378845164 -1261854588 1090620570 744458249
            1090613484 927500809 1120102860 1405894688</internalNodes>
          <leafValues>
            -5.3740829229354858e-01 1.9845217466354370e-01</leafValues></_>
        <_>
          <internalNodes>
            0 -1 160 -771823666 1945726639 1073708970 -240314841
            -1912670225 1445756287 -1746948133 -1280632977</internalNodes>
          <leafValues>
            -1.8126434087753296e-01 6.4701950550079346e-01</leafValues></_>
        <_>
          <internalNodes>
            0 -1 96 102150959 -1201826539 1393661855 -1520926380
            -1597979527 -159086416 -368538936 1037884296</internalNodes>
          <leafValues>
            -4.0127250552177429e-01 3.0859231948852539e-01</leafValues></_>
        <_>
          <internalNodes>
            0 -1 125 -562389422 -738427015 -1091080204 -688095427
            -1275165601 -2032371841 1073166198 -716286497</internalNodes>
          <leafValues>
            -2.6862859725952148e-01 4.4919356703758240e-01</leafValues></_>
        <_>
          <internalNodes>
            0 -1 79 -1567914002 1879901001 319115390 1430968457
            -1988066575 813736068 -1434022966 935694600</internalNodes>
          <leafValues>
            -3.3607161045074463e-01 3.3906325697898865e-01</leafValues></_>
        <_>
          <internalNodes>
            0 -1 190 -1067953313 -715370039 1358958735 -1144979446
            -2105445926 608403600 -1072725807 2073640974</internalNodes>
          <leafValues>
            -3.3934929966926575e-01 3.6036932468414307e-01</leafValues></_>
        <_>
          <internalNodes>
            0 -1 57 -779093777 1438629061 721234671 2146695282
            1610547182 -134236674 536842186 2069093002</internalNodes>
          <leafValues>
            -1.7983396351337433e-01 6.2397658824920654e-01</leafValues></_>
        <_>
          <internalNodes>
            0 -1 195 -522819000 -1848311222 16793600 881131521
            -2113914334 1073758336 -788528887 823042719</internalNodes>
          <leafValues>
            -4.2283672094345093e-01 2.9355436563491821e-01</leafValues></_>
        <_>
          <internalNodes>
            0 -1 123 -264318546 2011807402 2146307848 -101966092
            -1241557540 125042678 -1073750548 -1812707883</internalNodes>
          <leafValues>
            -2.9484087228775024e-01 4.2217555642127991e-01</leafValues></_></weakClassifiers></_>
    <!-- stage 17 -->
    <_>
      <maxWeakCount>15</maxWeakCount>
      <stageThreshold>-6.8869817256927490e-01</stageThreshold>
      <weakClassifiers>
        <_>
          <internalNodes>
            0 -1 30 -208148829 1912118567 787462888 -1364213971 -7735498
            267370366 -1090538244 1901709294</internalNodes>
          <leafValues>
            1.2195121496915817e-02 7.2058820724487305e-01</leafValues></_>
        <_>
          <internalNodes>
            0 -1 138 587903151 1426702343 151044761 -788139957
            -1987984373 688390144 -2130448376 1965794626</internalNodes>
          <leafValues>
            -3.5750424861907959e-01 3.7200084328651428e-01</leafValues></_>
        <_>
          <internalNodes>
            0 -1 110 -77088790 -150606776 -421528758 1533378500
            2113831247 1945106294 -167830485 -1309288520</internalNodes>
          <leafValues>
            -2.8380572795867920e-01 4.4555377960205078e-01</leafValues></_>
        <_>
          <internalNodes>
            0 -1 10 -220207365 -630747204 1014984511 1941352190
            -724130220 81624957 -143222978 -1277170434</internalNodes>
          <leafValues>
            -1.9063271582126617e-01 5.8113008737564087e-01</leafValues></_>
        <_>
          <internalNodes>
            0 -1 58 -1329418426 877957711 285279429 -1592118116
            969222362 1342734722 -2004219764 1304545337</internalNodes>
          <leafValues>
            -4.3843460083007812e-01 2.4658970534801483e-01</leafValues></_>
        <_>
          <internalNodes>
            0 -1 176 -260571426 1590214367 -1090601041 -1544884274
            -1208148405 -33599491 -160002067 1463418659</internalNodes>
          <leafValues>
            -2.7353528141975403e-01 4.1708609461784363e-01</leafValues></_>
        <_>
          <internalNodes>
            0 -1 178 -2005909426 -707780399 134240666 1913753681
            269651981 306709120 -938982720 1183690784</internalNodes>
          <leafValues>
            -4.4733440876007080e-01 2.6461815834045410e-01</leafValues></_>
        <_>
          <internalNodes>
            0 -1 161 1096024650 -1728012208 -1803534196 314605706
            1912715786 -788526976 -2004244311 -1822545698</internalNodes>
          <leafValues>
            -4.0889903903007507e-01 2.5169163942337036e-01</leafValues></_>
        <_>
          <internalNodes>
            0 -1 157 -1869421398 -1020542968 -1073618478 1342251673
            -1040023364 1644199936 -787953494 870067842</internalNodes>
          <leafValues>
            -3.3177652955055237e-01 3.2389801740646362e-01</leafValues></_>
        <_>
          <internalNodes>
            0 -1 95 -1542558922 156869329 1342243521 -1920688048
            1208041542 -1574369150 679491728 55640932</internalNodes>
          <leafValues>
            -5.6820273399353027e-01 2.1211409568786621e-01</leafValues></_>
        <_>
          <internalNodes>
            0 -1 104 -212753558 -105238612 -152602982 1888251886
            -174206074 -463798281 930804285 -747975205</internalNodes>
          <leafValues>
            -2.1643716096878052e-01 5.4030144214630127e-01</leafValues></_>
        <_>
          <internalNodes>
            0 -1 20 -2146237946 1439711234 536871316 -1757117944
            -1610532316 16810112 -2105424904 841118374</internalNodes>
          <leafValues>
            -4.7590154409408569e-01 2.4077908694744110e-01</leafValues></_>
        <_>
          <internalNodes>
            0 -1 200 -1841240052 -804204158 -1879029414 960610701
            -2004860550 8421504 -1585395305 -2100559223</internalNodes>
          <leafValues>
            -3.5314959287643433e-01 3.3916887640953064e-01</leafValues></_>
        <_>
          <internalNodes>
            0 -1 142 -12075 -554237953 2138043057 333802871 -1074404151
            1971122047 -1677818674 -673997473</internalNodes>
          <leafValues>
            -1.5789178013801575e-01 7.3194819688796997e-01</leafValues></_>
        <_>
          <internalNodes>
            0 -1 139 -482344664 1879314816 -1862187696 295375120
            268477225 1343324288 -2008968544 -1551597015</internalNodes>
          <leafValues>
            -3.7133002281188965e-01 3.1863850355148315e-01</leafValues></_></weakClassifiers></_>
    <!-- stage 18 -->
    <_>
      <maxWeakCount>13</maxWeakCount>
      <stageThreshold>-1.0038247108459473e+00</stageThreshold>
      <weakClassifiers>
        <_>
          <internalNodes>
            0 -1 177 911129208 405520315 2130571261 -1229718543
            1606410031 243267199 1333628671 2011557878</internalNodes>
          <leafValues>
            -1.6086547076702118e-01 6.0454308986663818e-01</leafValues></_>
        <_>
          <internalNodes>
            0 -1 65 -84938817 988721087 -1360052355 1672478711
            -1082134786 936902647 -268451905 -67125520</internalNodes>
          <leafValues>
            -2.0266561210155487e-01 5.8144271373748779e-01</leafValues></_>
        <_>
          <internalNodes>
            0 -1 107 147991731 146809037 350361 667277829 1074401511
            -871888759 -2076046669 609217027</internalNodes>
          <leafValues>
            -5.2349257469177246e-01 2.4975380301475525e-01</leafValues></_>
        <_>
          <internalNodes>
            0 -1 87 -209069365 -779116570 -1359073538 -1275117764
            2146864586 894875594 -1158249158 -823143046</internalNodes>
          <leafValues>
            -2.0358030498027802e-01 5.8319550752639771e-01</leafValues></_>
        <_>
          <internalNodes>
            0 -1 73 -268253568 1178730632 1610646033 1393672195
            -1576500705 8552593 1073947283 -1861369691</internalNodes>
          <leafValues>
            -3.3498626947402954e-01 3.5235059261322021e-01</leafValues></_>
        <_>
          <internalNodes>
            0 -1 6 -726734801 -54743131 -1157824769 -201601050
            1465842965 1710684014 -142610948 -1223418627</internalNodes>
          <leafValues>
            -2.5105705857276917e-01 4.4564434885978699e-01</leafValues></_>
        <_>
          <internalNodes>
            0 -1 23 2056928194 -1090650113 -1074332417 -1401176105
            -134283393 -1073922561 267896678 -1816197761</internalNodes>
          <leafValues>
            -2.4181875586509705e-01 4.3030324578285217e-01</leafValues></_>
        <_>
          <internalNodes>
            0 -1 201 1161832166 -738164734 -1073692580 -1173684079
            -1584920544 -2138931062 -2122266436 -1847850326</internalNodes>
          <leafValues>
            -3.7791588902473450e-01 2.9735124111175537e-01</leafValues></_>
        <_>
          <internalNodes>
            0 -1 36 1990197247 -1157632449 1660268387 -1443581954
            -8389380 -176259203 -1778384908 -1946681356</internalNodes>
          <leafValues>
            -2.6946520805358887e-01 4.4060134887695312e-01</leafValues></_>
        <_>
          <internalNodes>
            0 -1 129 1924132480 -1192974687 -285340660 1941819375
            1962409943 1979008885 268106970 -672410370</internalNodes>
          <leafValues>
            -2.4982064962387085e-01 4.6202623844146729e-01</leafValues></_>
        <_>
          <internalNodes>
            0 -1 165 -495925317 1375182823 -1078284289 -1310363650
            -1225263722 1945599991 -1217052753 -461119811</internalNodes>
          <leafValues>
            -2.2145287692546844e-01 5.0178557634353638e-01</leafValues></_>
        <_>
          <internalNodes>
            0 -1 71 1079190466 1074974728 1427312075 1812529217
            -1877999364 -2096988031 1309224970 1401856086</internalNodes>
          <leafValues>
            -4.1649225354194641e-01 2.7202209830284119e-01</leafValues></_>
        <_>
          <internalNodes>
            0 -1 85 -1504636815 1615302656 1090553865 336252938
            822282893 1745028096 1099040813 1807251594</internalNodes>
          <leafValues>
            -4.7401550412178040e-01 2.6002398133277893e-01</leafValues></_></weakClassifiers></_>
    <!-- stage 19 -->
    <_>
      <maxWeakCount>13</maxWeakCount>
      <stageThreshold>-1.0572613477706909e+00</stageThreshold>
      <weakClassifiers>
        <_>
          <internalNodes>
            0 -1 102 -260107718 -295059714 -1476515842 620211967
            1979594724 -1610661892 -671207977 1324162435</internalNodes>
          <leafValues>
            -1.5384615957736969e-01 6.2274175882339478e-01</leafValues></_>
        <_>
          <internalNodes>
            0 -1 106 -893649505 -1140953090 -1275102593 938999805
            805191607 -1091076097 2097149951 -1132594052</internalNodes>
          <leafValues>
            -2.3286625742912292e-01 5.7187646627426147e-01</leafValues></_>
        <_>
          <internalNodes>
            0 -1 166 -2082524962 -1849655293 16860996 1619034633
            1073793164 -2130706432 134473984 1267454216</internalNodes>
          <leafValues>
            -4.3676790595054626e-01 3.3033308386802673e-01</leafValues></_>
        <_>
          <internalNodes>
            0 -1 54 -1016336490 -612507812 -21008457 -1732460673
            -301998891 25165822 2113197532 1278504358</internalNodes>
          <leafValues>
            -3.5539892315864563e-01 4.5045587420463562e-01</leafValues></_>
        <_>
          <internalNodes>
            0 -1 112 -289610753 -1250758760 -1493221505 -1905541121
            478052029 -1092288780 1845410810 1675408338</internalNodes>
          <leafValues>
            -3.7538236379623413e-01 3.9439666271209717e-01</leafValues></_>
        <_>
          <internalNodes>
            0 -1 127 -255073278 -652169439 1878814393 -1797132650
            -1208046091 276658039 -1376260194 -1430309382</internalNodes>
          <leafValues>
            -1.8294467031955719e-01 7.1477562189102173e-01</leafValues></_>
        <_>
          <internalNodes>
            0 -1 111 340124958 -1837101051 -666856677 739745811
            1879672992 1040711680 1208549793 -2016769912</internalNodes>
          <leafValues>
            -4.2435991764068604e-01 3.5585811734199524e-01</leafValues></_>
        <_>
          <internalNodes>
            0 -1 169 -32772350 1300135843 2089746296 -101423890
            1845260155 -2097907843 2138552310 -1325424705</internalNodes>
          <leafValues>
            -2.5847920775413513e-01 5.5696296691894531e-01</leafValues></_>
        <_>
          <internalNodes>
            0 -1 43 -1610546326 1073840129 17088833 232096137
            -1979162567 285247488 545521832 1042317376</internalNodes>
          <leafValues>
            -6.3369089365005493e-01 2.2831718623638153e-01</leafValues></_>
        <_>
          <internalNodes>
            0 -1 146 -789647142 -1293312150 -98630 1471956785 939507436
            -1007337499 -142615297 -1727113478</internalNodes>
          <leafValues>
            -2.4455454945564270e-01 6.2436932325363159e-01</leafValues></_>
        <_>
          <internalNodes>
            0 -1 91 -809963738 -723062792 1827600303 812249014 528342790
            1081998685 -135510075 -51696426</internalNodes>
          <leafValues>
            -2.4308460950851440e-01 5.2376836538314819e-01</leafValues></_>
        <_>
          <internalNodes>
            0 -1 126 -1543303152 -201064424 16875858 977797131
            -1073700652 142606466 -2147319246 -2010250616</internalNodes>
          <leafValues>
            -3.9783751964569092e-01 3.3646565675735474e-01</leafValues></_>
        <_>
          <internalNodes>
            0 -1 66 -655702225 -1830064529 -989884181 -168067345
            1451097461 754841589 -427864149 308280600</internalNodes>
          <leafValues>
            -3.2631057500839233e-01 4.1365835070610046e-01</leafValues></_></weakClassifiers></_></stages>
  <features>
    <_>
      <rect>
        0 0 3 3</rect></_>
    <_>
      <rect>
        0 0 4 2</rect></_>
    <_>
      <rect>
        0 0 5 4</rect></_>
    <_>
      <rect>
        0 0 6 4</rect></_>
    <_>
      <rect>
        0 0 8 8</rect></_>
    <_>
      <rect>
        0 1 1 1</rect></_>
    <_>
      <rect>
        0 1 2 1</rect></_>
    <_>
      <rect>
        0 1 4 4</rect></_>
    <_>
      <rect>
        0 2 1 2</rect></_>
    <_>
      <rect>
        0 3 6 2</rect></_>
    <_>
      <rect>
        0 4 1 1</rect></_>
    <_>
      <rect>
        0 4 4 3</rect></_>
    <_>
      <rect>
        0 4 5 3</rect></_>
    <_>
      <rect>
        0 5 6 2</rect></_>
    <_>
      <rect>
        0 5 6 4</rect></_>
    <_>
      <rect>
        0 5 7 5</rect></_>
    <_>
      <rect>
        0 6 4 4</rect></_>
    <_>
      <rect>
        0 6 7 3</rect></_>
    <_>
      <rect>
        0 6 8 3</rect></_>
    <_>
      <rect>
        0 7 1 1</rect></_>
    <_>
      <rect>
        0 7 2 2</rect></_>
    <_>
      <rect>
        0 7 3 3</rect></_>
    <_>
      <rect>
        0 7 7 5</rect></_>
    <_>
      <rect>
        0 7 8 4</rect></_>
    <_>
      <rect>
        0 8 3 4</rect></_>
    <_>
      <rect>
        0 8 4 4</rect></_>
    <_>
      <rect>
        0 8 4 5</rect></_>
    <_>
      <rect>
        0 8 5 3</rect></_>
    <_>
      <rect>
        0 9 6 3</rect></_>
    <_>
      <rect>
        0 9 7 3</rect></_>
    <_>
      <rect>
        0 10 2 3</rect></_>
    <_>
      <rect>
        0 10 3 1</rect></_>
    <_>
      <rect>
        0 10 4 3</rect></_>
    <_>
      <rect>
        0 10 4 4</rect></_>
    <_>
      <rect>
        0 11 2 1</rect></_>
    <_>
      <rect>
        0 11 3 3</rect></_>
    <_>
      <rect>
        0 12 8 4</rect></_>
    <_>
      <rect>
        0 14 1 1</rect></_>
    <_>
      <rect>
        0 15 1 1</rect></_>
    <_>
      <rect>
        0 15 5 3</rect></_>
    <_>
      <rect>
        0 15 6 3</rect></_>
    <_>
      <rect>
        0 17 1 1</rect></_>
    <_>
      <rect>
        1 0 1 1</rect></_>
    <_>
      <rect>
        1 0 4 2</rect></_>
    <_>
      <rect>
        1 0 6 3</rect></_>
    <_>
      <rect>
        1 0 7 5</rect></_>
    <_>
      <rect>
        1 1 4 4</rect></_>
    <_>
      <rect>
        1 2 2 2</rect></_>
    <_>
      <rect>
        1 2 5 3</rect></_>
    <_>
      <rect>
        1 3 3 1</rect></_>
    <_>
      <rect>
        1 3 4 4</rect></_>
    <_>
      <rect>
        1 4 5 3</rect></_>
    <_>
      <rect>
        1 4 6 5</rect></_>
    <_>
      <rect>
        1 5 2 1</rect></_>
    <_>
      <rect>
        1 5 2 3</rect></_>
    <_>
      <rect>
        1 7 2 5</rect></_>
    <_>
      <rect>
        1 7 7 5</rect></_>
    <_>
      <rect>
        1 8 3 4</rect></_>
    <_>
      <rect>
        1 8 4 3</rect></_>
    <_>
      <rect>
        1 9 3 1</rect></_>
    <_>
      <rect>
        1 9 3 4</rect></_>
    <_>
      <rect>
        1 10 5 4</rect></_>
    <_>
      <rect>
        1 10 7 2</rect></_>
    <_>
      <rect>
        1 15 2 3</rect></_>
    <_>
      <rect>
        1 15 6 2</rect></_>
    <_>
      <rect>
        2 0 3 2</rect></_>
    <_>
      <rect>
        2 0 5 1</rect></_>
    <_>
      <rect>
        2 3 1 1</rect></_>
    <_>
      <rect>
        2 3 6 2</rect></_>
    <_>
      <rect>
        2 9 3 1</rect></_>
    <_>
      <rect>
        2 9 6 5</rect></_>
    <_>
      <rect>
        2 15 5 2</rect></_>
    <_>
      <rect>
        2 16 2 1</rect></_>
    <_>
      <rect>
        2 17 1 1</rect></_>
    <_>
      <rect>
        2 18 1 1</rect></_>
    <_>
      <rect>
        2 18 6 2</rect></_>
    <_>
      <rect>
        2 21 2 1</rect></_>
    <_>
      <rect>
        3 0 3 2</rect></_>
    <_>
      <rect>
        3 0 4 1</rect></_>
    <_>
      <rect>
        3 0 4 2</rect></_>
    <_>
      <rect>
        3 0 6 4</rect></_>
    <_>
      <rect>
        3 0 7 6</rect></_>
    <_>
      <rect>
        3 0 7 8</rect></_>
    <_>
      <rect>
        3 4 1 2</rect></_>
    <_>
      <rect>
        3 5 7 6</rect></_>
    <_>
      <rect>
        3 6 5 5</rect></_>
    <_>
      <rect>
        3 8 7 3</rect></_>
    <_>
      <rect>
        3 9 2 3</rect></_>
    <_>
      <rect>
        3 9 6 5</rect></_>
    <_>
      <rect>
        3 9 7 5</rect></_>
    <_>
      <rect>
        3 10 1 1</rect></_>
    <_>
      <rect>
        3 11 1 1</rect></_>
    <_>
      <rect>
        3 11 2 4</rect></_>
    <_>
      <rect>
        3 11 7 3</rect></_>
    <_>
      <rect>
        3 12 3 4</rect></_>
    <_>
      <rect>
        3 12 6 4</rect></_>
    <_>
      <rect>
        3 12 7 4</rect></_>
    <_>
      <rect>
        3 15 2 1</rect></_>
    <_>
      <rect>
        3 17 2 1</rect></_>
    <_>
      <rect>
        4 0 6 8</rect></_>
    <_>
      <rect>
        4 1 3 2</rect></_>
    <_>
      <rect>
        4 8 3 2</rect></_>
    <_>
      <rect>
        4 9 5 3</rect></_>
    <_>
      <rect>
        4 10 2 2</rect></_>
    <_>
      <rect>
        4 12 2 2</rect></_>
    <_>
      <rect>
        4 14 5 3</rect></_>
    <_>
      <rect>
        5 0 6 2</rect></_>
    <_>
      <rect>
        5 1 5 2</rect></_>
    <_>
      <rect>
        5 2 6 4</rect></_>
    <_>
      <rect>
        5 4 1 1</rect></_>
    <_>
      <rect>
        5 11 2 1</rect></_>
    <_>
      <rect>
        5 11 6 3</rect></_>
    <_>
      <rect>
        5 14 5 3</rect></_>
    <_>
      <rect>
        6 0 4 2</rect></_>
    <_>
      <rect>
        6 0 5 8</rect></_>
    <_>
      <rect>
        6 1 6 4</rect></_>
    <_>
      <rect>
        6 2 1 1</rect></_>
    <_>
      <rect>
        6 4 6 4</rect></_>
    <_>
      <rect>
        6 7 5 3</rect></_>
    <_>
      <rect>
        6 8 6 3</rect></_>
    <_>
      <rect>
        6 12 2 1</rect></_>
    <_>
      <rect>
        6 12 5 3</rect></_>
    <_>
      <rect>
        6 12 6 4</rect></_>
    <_>
      <rect>
        6 13 2 1</rect></_>
    <_>
      <rect>
        6 15 6 3</rect></_>
    <_>
      <rect>
        6 17 2 2</rect></_>
    <_>
      <rect>
        6 21 3 1</rect></_>
    <_>
      <rect>
        7 2 1 1</rect></_>
    <_>
      <rect>
        7 4 2 3</rect></_>
    <_>
      <rect>
        7 6 2 1</rect></_>
    <_>
      <rect>
        7 6 2 2</rect></_>
    <_>
      <rect>
        7 7 1 1</rect></_>
    <_>
      <rect>
        7 7 2 1</rect></_>
    <_>
      <rect>
        7 8 3 4</rect></_>
    <_>
      <rect>
        7 9 5 3</rect></_>
    <_>
      <rect>
        7 18 4 2</rect></_>
    <_>
      <rect>
        8 0 4 2</rect></_>
    <_>
      <rect>
        8 0 5 2</rect></_>
    <_>
      <rect>
        8 1 4 6</rect></_>
    <_>
      <rect>
        8 8 2 1</rect></_>
    <_>
      <rect>
        8 8 5 2</rect></_>
    <_>
      <rect>
        8 10 5 3</rect></_>
    <_>
      <rect>
        8 13 4 2</rect></_>
    <_>
      <rect>
        8 15 4 2</rect></_>
    <_>
      <rect>
        8 16 5 2</rect></_>
    <_>
      <rect>
        9 2 4 4</rect></_>
    <_>
      <rect>
        9 5 2 1</rect></_>
    <_>
      <rect>
        9 5 5 2</rect></_>
    <_>
      <rect>
        9 6 5 3</rect></_>
    <_>
      <rect>
        9 7 5 4</rect></_>
    <_>
      <rect>
        9 8 1 1</rect></_>
    <_>
      <rect>
        9 8 5 4</rect></_>
    <_>
      <rect>
        9 11 5 4</rect></_>
    <_>
      <rect>
        9 14 5 3</rect></_>
    <_>
      <rect>
        9 17 3 2</rect></_>
    <_>
      <rect>
        10 0 2 1</rect></_>
    <_>
      <rect>
        10 2 2 2</rect></_>
    <_>
      <rect>
        10 4 2 1</rect></_>
    <_>
      <rect>
        10 4 3 2</rect></_>
    <_>
      <rect>
        10 4 4 5</rect></_>
    <_>
      <rect>
        10 5 2 1</rect></_>
    <_>
      <rect>
        10 5 2 2</rect></_>
    <_>
      <rect>
        10 9 2 3</rect></_>
    <_>
      <rect>
        10 20 2 1</rect></_>
    <_>
      <rect>
        11 1 4 2</rect></_>
    <_>
      <rect>
        11 2 3 2</rect></_>
    <_>
      <rect>
        11 3 4 7</rect></_>
    <_>
      <rect>
        11 5 4 3</rect></_>
    <_>
      <rect>
        11 6 3 3</rect></_>
    <_>
      <rect>
        11 7 1 1</rect></_>
    <_>
      <rect>
        11 7 2 2</rect></_>
    <_>
      <rect>
        11 10 1 1</rect></_>
    <_>
      <rect>
        11 11 1 1</rect></_>
    <_>
      <rect>
        11 11 4 4</rect></_>
    <_>
      <rect>
        12 2 3 3</rect></_>
    <_>
      <rect>
        12 6 3 3</rect></_>
    <_>
      <rect>
        12 6 4 3</rect></_>
    <_>
      <rect>
        12 10 4 4</rect></_>
    <_>
      <rect>
        12 15 4 2</rect></_>
    <_>
      <rect>
        12 15 4 3</rect></_>
    <_>
      <rect>
        13 0 3 1</rect></_>
    <_>
      <rect>
        13 2 2 1</rect></_>
    <_>
      <rect>
        13 6 3 3</rect></_>
    <_>
      <rect>
        13 14 1 1</rect></_>
    <_>
      <rect>
        14 0 1 1</rect></_>
    <_>
      <rect>
        14 1 3 7</rect></_>
    <_>
      <rect>
        14 18 2 1</rect></_>
    <_>
      <rect>
        14 20 2 1</rect></_>
    <_>
      <rect>
        15 3 3 2</rect></_>
    <_>
      <rect>
        15 4 1 1</rect></_>
    <_>
      <rect>
        15 7 3 3</rect></_>
    <_>
      <rect>
        15 8 3 3</rect></_>
    <_>
      <rect>
        15 14 1 1</rect></_>
    <_>
      <rect>
        16 0 1 1</rect></_>
    <_>
      <rect>
        16 3 2 2</rect></_>
    <_>
      <rect>
        16 5 2 2</rect></_>
    <_>
      <rect>
        17 18 2 1</rect></_>
    <_>
      <rect>
        17 21 2 1</rect></_>
    <_>
      <rect>
        18 0 1 1</rect></_>
    <_>
      <rect>
        18 0 2 1</rect></_>
    <_>
      <rect>
        18 3 2 1</rect></_>
    <_>
      <rect>
        18 7 2 1</rect></_>
    <_>
      <rect>
        19 0 1 3</rect></_>
    <_>
      <rect>
        19 13 1 1</rect></_>
    <_>
      <rect>
        20 0 1 1</rect></_>
    <_>
      <rect>
        20 1 1 1</rect></_>
    <_>
      <rect>
        20 4 1 1</rect></_>
    <_>
      <rect>
        21 0 1 1</rect></_>
    <_>
      <rect>
        21 0 1 4</rect></_>
    <_>
      <rect>
        21 2 1 2</rect></_>
    <_>
      <rect>
        21 7 1 2</rect></_></features></cascade>
</opencv_storage>
